{"learner":{"attributes":{"best_iteration":"124","best_score":"0.05154572079402292"},"feature_names":[],"feature_types":[],"gradient_booster":{"model":{"gbtree_model_param":{"num_parallel_tree":"1","num_trees":"175"},"iteration_indptr":[0,1,2,3,4,5,6,7,8,9,10,11,12,13,14,15,16,17,18,19,20,21,22,23,24,25,26,27,28,29,30,31,32,33,34,35,36,37,38,39,40,41,42,43,44,45,46,47,48,49,50,51,52,53,54,55,56,57,58,59,60,61,62,63,64,65,66,67,68,69,70,71,72,73,74,75,76,77,78,79,80,81,82,83,84,85,86,87,88,89,90,91,92,93,94,95,96,97,98,99,100,101,102,103,104,105,106,107,108,109,110,111,112,113,114,115,116,117,118,119,120,121,122,123,124,125,126,127,128,129,130,131,132,133,134,135,136,137,138,139,140,141,142,143,144,145,146,147,148,149,150,151,152,153,154,155,156,157,158,159,160,161,162,163,164,165,166,167,168,169,170,171,172,173,174,175],"tree_info":[0,0,0,0,0,0,0,0,0,0,0,0,0,0,0,0,0,0,0,0,0,0,0,0,0,0,0,0,0,0,0,0,0,0,0,0,0,0,0,0,0,0,0,0,0,0,0,0,0,0,0,0,0,0,0,0,0,0,0,0,0,0,0,0,0,0,0,0,0,0,0,0,0,0,0,0,0,0,0,0,0,0,0,0,0,0,0,0,0,0,0,0,0,0,0,0,0,0,0,0,0,0,0,0,0,0,0,0,0,0,0,0,0,0,0,0,0,0,0,0,0,0,0,0,0,0,0,0,0,0,0,0,0,0,0,0,0,0,0,0,0,0,0,0,0,0,0,0,0,0,0,0,0,0,0,0,0,0,0,0,0,0,0,0,0,0,0,0,0,0,0,0,0,0,0],"trees":[{"base_weights":[1.9944251E-4,-1.00576766E-1,3.1799713E-1,-1.4145793E-1,1.592794E-2,2.1282642E-1,4.688021E-1,-1.524213E-1,-8.8937655E-2,-1.9276915E-2,6.2493492E-2,1.5967327E-1,2.6744658E-1,4.0058637E-1,5.444745E-1,-1.5540437E-1,-1.3279164E-1,-9.992572E-2,-5.3011816E-2,-3.8829386E-2,2.5866983E-2,3.602188E-2,1.265762E-1,1.05635226E-1,1.8005902E-1,2.0970917E-1,2.9426244E-1,4.300924E-1,3.0723715E-1,5.7779473E-1,4.6669507E-1,-7.7979746E-3,-7.372727E-3,-1.3708319E-1,-1.24347426E-1,-1.0383142E-1,-8.122197E-2,-4.880528E-2,-9.561541E-2,-4.6858028E-2,1.9081502E-3,-4.2327098E-3,5.5905525E-2,2.0955008E-2,8.547962E-2,7.638702E-2,1.6515236E-1,6.0200207E-2,1.3022925E-1,1.5802358E-1,2.2547857E-1,1.1657452E-1,2.2820473E-1,3.0010986E-1,1.3198651E-1,3.9051804E-1,4.57963E-1,3.2891703E-1,2.0550193E-1,5.3860694E-1,6.349141E-1,4.8657793E-1,2.3574096E-1,-6.9416612E-3,-5.86247E-3,-6.2916228E-3,-4.3167435E-3,-5.6888605E-3,-4.718616E-3,-4.835287E-3,-3.1420921E-3,-2.7514433E-3,-7.483515E-4,-5.3566103E-3,-3.0800374E-3,-2.6999419E-3,-8.566654E-4,-1.2613956E-3,1.4432463E-3,-9.991968E-4,8.367241E-4,4.4543054E-3,1.1387017E-3,-2.4345426E-3,1.4377778E-3,-2.444012E-3,4.541177E-3,5.4902704E-3,1.8946916E-3,3.941762E-3,9.234964E-3,3.778532E-3,-8.304608E-4,7.0815072E-3,9.871284E-4,6.193054E-3,9.45406E-3,1.002839E-2,1.4551098E-2,2.5637017E-3,7.5530224E-3,1.177208E-2,3.6382624E-3,1.2429727E-2,1.5940709E-2,8.378004E-3,6.63353E-4,2.028834E-2,1.5819337E-2,1.3309374E-2,2.3115266E-2,1.4777811E-2,2.0245923E-2,7.4816803E-3,1.5615179E-2,2.7425906E-2,2.1583218E-2,2.4714133E-2,3.22009E-2,2.766825E-2,2.1271938E-2,8.285735E-3,1.4735979E-2],"categories":[],"categories_nodes":[],"categories_segments":[],"categories_sizes":[],"default_left":[0,0,0,0,0,0,0,0,0,0,0,0,0,0,0,0,0,0,0,0,0,0,0,0,0,0,0,0,0,0,0,0,0,0,0,0,0,0,0,0,0,0,0,0,0,0,0,0,0,0,0,0,0,0,0,0,0,0,0,0,0,0,0,0,0,0,0,0,0,0,0,0,0,0,0,0,0,0,0,0,0,0,0,0,0,0,0,0,0,0,0,0,0,0,0,0,0,0,0,0,0,0,0,0,0,0,0,0,0,0,0,0,0,0,0,0,0,0,0,0,0,0,0],"id":0,"left_children":[1,3,5,7,9,11,13,15,17,19,21,23,25,27,29,31,33,35,37,39,41,43,45,47,49,51,53,55,57,59,61,-1,-1,63,65,67,69,71,73,75,77,79,81,83,85,87,89,91,93,95,97,99,101,103,105,107,109,111,113,115,117,119,121,-1,-1,-1,-1,-1,-1,-1,-1,-1,-1,-1,-1,-1,-1,-1,-1,-1,-1,-1,-1,-1,-1,-1,-1,-1,-1,-1,-1,-1,-1,-1,-1,-1,-1,-1,-1,-1,-1,-1,-1,-1,-1,-1,-1,-1,-1,-1,-1,-1,-1,-1,-1,-1,-1,-1,-1,-1,-1,-1,-1],"loss_changes":[7.964016E2,8.9924805E1,9.485565E1,8.033783E0,8.042135E0,1.0202805E1,1.2475342E1,6.5634155E-1,9.484329E-1,2.467198E0,3.5781784E0,1.9539566E0,2.630745E0,3.4402924E0,2.7444153E0,2.1270752E-2,3.8471222E-2,1.2663841E-1,9.712684E-2,6.378701E-1,7.642441E-1,1.1129884E0,1.181961E0,5.4305315E-1,1.2644577E0,9.294281E-1,1.0848236E0,9.0534973E-1,6.2717247E-1,1.4711304E0,1.5108719E0,0E0,0E0,1.863861E-2,1.8885612E-2,1.3282585E-1,8.6131334E-2,1.0847521E-1,1.2987554E-2,3.4484386E-1,2.3627143E-1,1.4003396E-1,4.6298456E-1,6.2508065E-1,2.5502467E-1,3.4316182E-1,5.7259655E-1,2.078591E-1,3.9903164E-1,9.08144E-1,6.3064575E-1,2.0393777E-1,5.025692E-1,1.0221024E0,1.7937768E-1,3.384781E-1,3.5243988E-1,5.344753E-1,2.9934502E-1,2.7941895E-1,9.6466064E-2,1.0916519E0,7.5062156E-2,0E0,0E0,0E0,0E0,0E0,0E0,0E0,0E0,0E0,0E0,0E0,0E0,0E0,0E0,0E0,0E0,0E0,0E0,0E0,0E0,0E0,0E0,0E0,0E0,0E0,0E0,0E0,0E0,0E0,0E0,0E0,0E0,0E0,0E0,0E0,0E0,0E0,0E0,0E0,0E0,0E0,0E0,0E0,0E0,0E0,0E0,0E0,0E0,0E0,0E0,0E0,0E0,0E0,0E0,0E0,0E0,0E0,0E0,0E0,0E0],"parents":[2147483647,0,0,1,1,2,2,3,3,4,4,5,5,6,6,7,7,8,8,9,9,10,10,11,11,12,12,13,13,14,14,15,15,16,16,17,17,18,18,19,19,20,20,21,21,22,22,23,23,24,24,25,25,26,26,27,27,28,28,29,29,30,30,33,33,34,34,35,35,36,36,37,37,38,38,39,39,40,40,41,41,42,42,43,43,44,44,45,45,46,46,47,47,48,48,49,49,50,50,51,51,52,52,53,53,54,54,55,55,56,56,57,57,58,58,59,59,60,60,61,61,62,62],"right_children":[2,4,6,8,10,12,14,16,18,20,22,24,26,28,30,32,34,36,38,40,42,44,46,48,50,52,54,56,58,60,62,-1,-1,64,66,68,70,72,74,76,78,80,82,84,86,88,90,92,94,96,98,100,102,104,106,108,110,112,114,116,118,120,122,-1,-1,-1,-1,-1,-1,-1,-1,-1,-1,-1,-1,-1,-1,-1,-1,-1,-1,-1,-1,-1,-1,-1,-1,-1,-1,-1,-1,-1,-1,-1,-1,-1,-1,-1,-1,-1,-1,-1,-1,-1,-1,-1,-1,-1,-1,-1,-1,-1,-1,-1,-1,-1,-1,-1,-1,-1,-1,-1,-1],"split_conditions":[6.3652797E4,7.12E1,4.1140002E2,6.1016997E3,1.469E2,3.3975E2,5.182E2,1.2525E1,1.0407097E3,3.755E2,3.0056E1,2.20275E2,8.102473E4,3.1773403E1,4.75E1,1.16E1,3.8444597E3,5.0584156E4,9.7500004E-2,2.355E2,1.24975006E2,7.603776E4,1.903E2,1.5634089E6,1.9318778E6,5.599713E4,5E-3,4.562E2,3.5000002E-1,1.8792711E5,1E-2,-7.7979746E-3,-7.372727E-3,3.9110402E4,1.8248E1,6.419065E5,8.28155E1,5E-1,8.208E2,3.564E2,9.5382E1,3.374117E4,9.985E1,2.738E2,-2E0,8.725E0,1.598E2,7.79E1,7.5E-3,3.025E2,1.9652E3,4.81824E4,3E-2,1.528309E2,9.25E1,2E0,4.981E2,1.03642914E5,1.011E3,1.6E0,4.5590002E2,-1.8370484E0,1.886175E3,-6.9416612E-3,-5.86247E-3,-6.2916228E-3,-4.3167435E-3,-5.6888605E-3,-4.718616E-3,-4.835287E-3,-3.1420921E-3,-2.7514433E-3,-7.483515E-4,-5.3566103E-3,-3.0800374E-3,-2.6999419E-3,-8.566654E-4,-1.2613956E-3,1.4432463E-3,-9.991968E-4,8.367241E-4,4.4543054E-3,1.1387017E-3,-2.4345426E-3,1.4377778E-3,-2.444012E-3,4.541177E-3,5.4902704E-3,1.8946916E-3,3.941762E-3,9.234964E-3,3.778532E-3,-8.304608E-4,7.0815072E-3,9.871284E-4,6.193054E-3,9.45406E-3,1.002839E-2,1.4551098E-2,2.5637017E-3,7.5530224E-3,1.177208E-2,3.6382624E-3,1.2429727E-2,1.5940709E-2,8.378004E-3,6.63353E-4,2.028834E-2,1.5819337E-2,1.3309374E-2,2.3115266E-2,1.4777811E-2,2.0245923E-2,7.4816803E-3,1.5615179E-2,2.7425906E-2,2.1583218E-2,2.4714133E-2,3.22009E-2,2.766825E-2,2.1271938E-2,8.285735E-3,1.4735979E-2],"split_indices":[41,39,39,41,39,147,39,147,151,9,84,159,53,209,55,67,41,107,129,159,147,53,159,62,8,53,129,39,145,107,75,0,0,107,84,62,137,85,57,63,137,95,163,32,37,113,106,55,129,147,111,53,75,49,55,36,63,53,20,36,52,40,166,0,0,0,0,0,0,0,0,0,0,0,0,0,0,0,0,0,0,0,0,0,0,0,0,0,0,0,0,0,0,0,0,0,0,0,0,0,0,0,0,0,0,0,0,0,0,0,0,0,0,0,0,0,0,0,0,0,0,0,0],"split_type":[0,0,0,0,0,0,0,0,0,0,0,0,0,0,0,0,0,0,0,0,0,0,0,0,0,0,0,0,0,0,0,0,0,0,0,0,0,0,0,0,0,0,0,0,0,0,0,0,0,0,0,0,0,0,0,0,0,0,0,0,0,0,0,0,0,0,0,0,0,0,0,0,0,0,0,0,0,0,0,0,0,0,0,0,0,0,0,0,0,0,0,0,0,0,0,0,0,0,0,0,0,0,0,0,0,0,0,0,0,0,0,0,0,0,0,0,0,0,0,0,0,0,0],"sum_hessian":[2.4865E4,1.8879E4,5.986E3,1.3975E4,4.904E3,3.528E3,2.458E3,1.156E4,2.415E3,2.793E3,2.111E3,1.79E3,1.738E3,1.296E3,1.162E3,1.0029E4,1.531E3,1.848E3,5.67E2,1.949E3,8.44E2,1.495E3,6.16E2,4.92E2,1.298E3,5.54E2,1.184E3,9.82E2,3.14E2,8.09E2,3.53E2,9.357E3,6.72E2,1.005E3,5.26E2,1.525E3,3.23E2,5.18E2,4.9E1,1.628E3,3.21E2,4.22E2,4.22E2,1.147E3,3.48E2,2.69E2,3.47E2,1.74E2,3.18E2,8.77E2,4.21E2,9.3E1,4.61E2,1.142E3,4.2E1,4.12E2,5.7E2,2.57E2,5.7E1,4.86E2,3.23E2,3.24E2,2.9E1,9.18E2,8.7E1,5.04E2,2.2E1,7.38E2,7.87E2,1.73E2,1.5E2,4.37E2,8.1E1,3.5E1,1.4E1,1.312E3,3.16E2,1.6E2,1.61E2,2.41E2,1.81E2,2.1E2,2.12E2,1.15E2,1.032E3,1.3E1,3.35E2,1.43E2,1.26E2,6.5E1,2.82E2,1.45E2,2.9E1,2.88E2,3E1,4.2E2,4.57E2,3.08E2,1.13E2,3.3E1,6E1,4.4E2,2.1E1,3.08E2,8.34E2,3.2E1,1E1,3.38E2,7.4E1,1.4E1,5.56E2,1.82E2,7.5E1,3.9E1,1.8E1,4.41E2,4.5E1,2.3E1,3E2,1.51E2,1.73E2,1.5E1,1.4E1],"tree_param":{"num_deleted":"0","num_feature":"217","num_nodes":"123","size_leaf_vector":"1"}},{"base_weights":[-1.0298082E-3,-1.00348845E-1,2.8271705E-1,-1.3720177E-1,1.2115541E-4,1.799234E-1,4.3618235E-1,-1.4587939E-1,-9.480924E-2,-1.7220875E-2,9.0849966E-2,1.3103017E-1,2.3778048E-1,3.5071075E-1,5.024388E-1,-1.4783075E-1,-1.2997088E-1,-1.0535941E-1,-5.471888E-2,-4.4448677E-2,1.6911808E-2,1.2323342E-2,1.12384036E-1,1.0712531E-1,1.8504022E-1,2.0300998E-1,2.8120643E-1,2.8398228E-1,3.8673723E-1,4.7142205E-1,5.862239E-1,-7.412044E-3,-7.114326E-3,-1.3085859E-1,-7.7657185E-2,-1.1190977E-1,-9.476576E-2,-4.140268E-2,-7.208082E-2,-6.2476706E-2,-4.685496E-3,-3.51636E-2,2.7910737E-2,2.760698E-3,4.6991855E-3,7.5668424E-2,1.6335365E-1,1.4575653E-1,7.748436E-2,2.0015107E-1,7.156251E-2,1.16786316E-1,2.1773726E-1,3.248375E-1,2.4581783E-1,1.6609658E-1,2.9804635E-1,2.991008E-1,4.0710485E-1,3.9184898E-1,4.9127558E-1,5.510516E-1,3.1681813E-2,-6.673983E-3,-6.1161546E-3,-1.495655E-3,-5.60412E-3,-5.7326783E-3,-4.441325E-3,-4.0251366E-3,-5.147996E-3,-3.0979484E-3,-7.831589E-4,-4.018528E-3,-2.1855226E-3,-3.938134E-3,-2.4887223E-3,1.7671863E-3,-9.321087E-4,-1.9501208E-3,3.845794E-3,1.2244886E-3,6.2106824E-3,-3.5287545E-3,6.762537E-4,5.3591435E-3,1.6241629E-3,1.4643656E-2,7.0615276E-3,5.848344E-3,1.02080805E-2,-1.0652326E-3,4.4274344E-3,9.334824E-3,1.6763425E-2,-1.1223223E-3,5.9964387E-3,9.457151E-3,4.740826E-3,1.2816212E-2,9.268709E-3,2.026011E-2,1.4324521E-2,1.0928352E-2,1.5680393E-2,1.43024465E-2,5.69047E-3,9.744956E-3,1.5652806E-2,1.6793465E-2,1.14502E-2,2.0800253E-2,1.36941E-2,1.8629942E-2,2.627782E-2,2.4914281E-2,1.3384241E-2,2.8226508E-2,2.1153303E-2],"categories":[],"categories_nodes":[],"categories_segments":[],"categories_sizes":[],"default_left":[0,0,0,0,0,0,0,0,0,0,0,0,0,0,0,0,0,0,0,0,0,0,0,0,0,0,0,0,0,0,0,0,0,0,0,0,0,0,0,0,0,0,0,0,0,0,0,0,0,0,0,0,0,0,0,0,0,0,0,0,0,0,0,0,0,0,0,0,0,0,0,0,0,0,0,0,0,0,0,0,0,0,0,0,0,0,0,0,0,0,0,0,0,0,0,0,0,0,0,0,0,0,0,0,0,0,0,0,0,0,0,0,0,0,0,0,0,0,0],"id":1,"left_children":[1,3,5,7,9,11,13,15,17,19,21,23,25,27,29,31,33,35,37,39,41,43,45,47,49,51,53,55,57,59,61,-1,-1,63,65,67,69,71,73,75,77,79,81,83,-1,85,87,89,91,93,95,97,99,101,103,105,107,109,111,113,115,117,-1,-1,-1,-1,-1,-1,-1,-1,-1,-1,-1,-1,-1,-1,-1,-1,-1,-1,-1,-1,-1,-1,-1,-1,-1,-1,-1,-1,-1,-1,-1,-1,-1,-1,-1,-1,-1,-1,-1,-1,-1,-1,-1,-1,-1,-1,-1,-1,-1,-1,-1,-1,-1,-1,-1,-1,-1],"loss_changes":[7.011832E2,6.823918E1,1.0168768E2,4.946472E0,7.7852817E0,1.0902222E1,1.4474121E1,3.2821655E-1,9.6450615E-1,3.8613043E0,1.3412681E0,2.687622E0,2.6139984E0,2.6138916E0,3.5047913E0,1.5411377E-3,4.70047E-2,1.1534119E-1,1.0798931E-1,1.6563516E0,1.0571762E0,1.3405345E-1,1.1535087E0,1.6559219E0,1.0865421E0,1.2266312E0,1.1306763E0,6.1533356E-1,1.1866074E0,1.4931488E0,2.9953003E-1,0E0,0E0,1.0719299E-2,3.445007E-2,6.0497284E-2,7.352352E-2,1.440053E-1,4.516983E-2,3.2500076E-1,4.040222E-1,1.4154124E-1,4.9870884E-1,1.233137E-1,0E0,4.9190664E-1,7.0363426E-1,1.0371227E0,9.047327E-1,9.663658E-1,3.5280034E-1,2.1415687E-1,1.0027161E0,9.563637E-1,7.38739E-1,2.4968362E-1,4.916973E-1,2.8906822E-1,5.8800507E-1,3.6528778E-1,1.198883E0,1.5966034E-1,0E0,0E0,0E0,0E0,0E0,0E0,0E0,0E0,0E0,0E0,0E0,0E0,0E0,0E0,0E0,0E0,0E0,0E0,0E0,0E0,0E0,0E0,0E0,0E0,0E0,0E0,0E0,0E0,0E0,0E0,0E0,0E0,0E0,0E0,0E0,0E0,0E0,0E0,0E0,0E0,0E0,0E0,0E0,0E0,0E0,0E0,0E0,0E0,0E0,0E0,0E0,0E0,0E0,0E0,0E0,0E0,0E0],"parents":[2147483647,0,0,1,1,2,2,3,3,4,4,5,5,6,6,7,7,8,8,9,9,10,10,11,11,12,12,13,13,14,14,15,15,16,16,17,17,18,18,19,19,20,20,21,21,22,22,23,23,24,24,25,25,26,26,27,27,28,28,29,29,30,30,33,33,34,34,35,35,36,36,37,37,38,38,39,39,40,40,41,41,42,42,43,43,45,45,46,46,47,47,48,48,49,49,50,50,51,51,52,52,53,53,54,54,55,55,56,56,57,57,58,58,59,59,60,60,61,61],"right_children":[2,4,6,8,10,12,14,16,18,20,22,24,26,28,30,32,34,36,38,40,42,44,46,48,50,52,54,56,58,60,62,-1,-1,64,66,68,70,72,74,76,78,80,82,84,-1,86,88,90,92,94,96,98,100,102,104,106,108,110,112,114,116,118,-1,-1,-1,-1,-1,-1,-1,-1,-1,-1,-1,-1,-1,-1,-1,-1,-1,-1,-1,-1,-1,-1,-1,-1,-1,-1,-1,-1,-1,-1,-1,-1,-1,-1,-1,-1,-1,-1,-1,-1,-1,-1,-1,-1,-1,-1,-1,-1,-1,-1,-1,-1,-1,-1,-1,-1,-1],"split_conditions":[6.67552E4,2.2092254E4,4.3290002E2,2.924046E2,3.8281006E3,3.30125E2,1.4638881E5,8.795159E1,7.1532117E2,1.46125E2,6.622604E1,1.8639882E6,1.0732325E5,3.711E2,5.11325E2,3.8249998E0,9.92E1,6.514635E2,9.3E0,3.656E2,2.8069129E4,1.0245E3,1.855E2,1E0,1E0,2.0520001E2,1E0,9.158863E4,4.185E2,4.9459998E2,5.65625E2,-7.412044E-3,-7.114326E-3,9.25E0,1E0,8.391956E3,9.49E1,1.9708E3,1.6202341E3,2.9121682E4,9.65E1,4.302E2,2.976E2,5.2E0,4.6991855E-3,2.829E2,-6.3059276E-1,3.182E2,2.748E2,1.1579547E5,5.8059684E4,3.4645E1,1E0,3.06E1,2.2920745E6,-4.133304E-1,1.72735E2,3.8E0,1.278E0,1.56335E2,1E0,9.752163E3,3.1681813E-2,-6.673983E-3,-6.1161546E-3,-1.495655E-3,-5.60412E-3,-5.7326783E-3,-4.441325E-3,-4.0251366E-3,-5.147996E-3,-3.0979484E-3,-7.831589E-4,-4.018528E-3,-2.1855226E-3,-3.938134E-3,-2.4887223E-3,1.7671863E-3,-9.321087E-4,-1.9501208E-3,3.845794E-3,1.2244886E-3,6.2106824E-3,-3.5287545E-3,6.762537E-4,5.3591435E-3,1.6241629E-3,1.4643656E-2,7.0615276E-3,5.848344E-3,1.02080805E-2,-1.0652326E-3,4.4274344E-3,9.334824E-3,1.6763425E-2,-1.1223223E-3,5.9964387E-3,9.457151E-3,4.740826E-3,1.2816212E-2,9.268709E-3,2.026011E-2,1.4324521E-2,1.0928352E-2,1.5680393E-2,1.43024465E-2,5.69047E-3,9.744956E-3,1.5652806E-2,1.6793465E-2,1.14502E-2,2.0800253E-2,1.36941E-2,1.8629942E-2,2.627782E-2,2.4914281E-2,1.3384241E-2,2.8226508E-2,2.1153303E-2],"split_indices":[149,149,147,97,43,147,161,97,43,147,48,116,161,51,123,147,51,97,5,63,161,20,51,0,76,51,0,161,160,147,123,0,0,123,0,211,55,16,43,149,55,9,51,5,0,12,99,51,32,161,161,104,0,55,62,94,29,143,6,29,76,211,0,0,0,0,0,0,0,0,0,0,0,0,0,0,0,0,0,0,0,0,0,0,0,0,0,0,0,0,0,0,0,0,0,0,0,0,0,0,0,0,0,0,0,0,0,0,0,0,0,0,0,0,0,0,0,0,0],"split_type":[0,0,0,0,0,0,0,0,0,0,0,0,0,0,0,0,0,0,0,0,0,0,0,0,0,0,0,0,0,0,0,0,0,0,0,0,0,0,0,0,0,0,0,0,0,0,0,0,0,0,0,0,0,0,0,0,0,0,0,0,0,0,0,0,0,0,0,0,0,0,0,0,0,0,0,0,0,0,0,0,0,0,0,0,0,0,0,0,0,0,0,0,0,0,0,0,0,0,0,0,0,0,0,0,0,0,0,0,0,0,0,0,0,0,0,0,0,0,0],"sum_hessian":[2.4879E4,1.8429E4,6.45E3,1.3483E4,4.946E3,3.864E3,2.586E3,1.119E4,2.293E3,4.153E3,7.93E2,2.096E3,1.768E3,1.132E3,1.454E3,9.96E3,1.23E3,1.814E3,4.79E2,2.31E3,1.843E3,1.71E2,6.22E2,1.455E3,6.41E2,9.85E2,7.83E2,4E2,7.32E2,1.066E3,3.88E2,9.25E3,7.1E2,1.208E3,2.2E1,1.115E3,6.99E2,2.73E2,2.06E2,1.589E3,7.21E2,3.21E2,1.522E3,1.54E2,1.7E1,3.63E2,2.59E2,6.3E2,8.25E2,5.65E2,7.6E1,1.45E2,8.4E2,3.47E2,4.36E2,4.4E1,3.56E2,1.41E2,5.91E2,2.17E2,8.49E2,2.3E2,1.58E2,9.13E2,2.95E2,1E1,1.2E1,9.93E2,1.22E2,2.59E2,4.4E2,1.51E2,1.22E2,1.58E2,4.8E1,6.94E2,8.95E2,1.86E2,5.35E2,3.11E2,1E1,1.471E3,5.1E1,1.9E1,1.35E2,2.09E2,1.54E2,3.6E1,2.23E2,4.24E2,2.06E2,8.3E1,7.42E2,5.16E2,4.9E1,2.6E1,5E1,3.2E1,1.13E2,3.8E2,4.6E2,1.09E2,2.38E2,3.14E2,1.22E2,1.2E1,3.2E1,4.7E1,3.09E2,9E1,5.1E1,5.52E2,3.9E1,1.93E2,2.4E1,8.22E2,2.7E1,2.05E2,2.5E1],"tree_param":{"num_deleted":"0","num_feature":"217","num_nodes":"119","size_leaf_vector":"1"}},{"base_weights":[3.9669536E-5,-9.021203E-2,2.8952998E-1,-1.283981E-1,1.326837E-2,1.8898839E-1,4.2392048E-1,-1.3830785E-1,-8.4259056E-2,-2.7808355E-2,4.650179E-2,1.529668E-1,2.5429815E-1,3.6575335E-1,5.0142545E-1,-1.4040974E-1,-1.2336203E-1,-9.279443E-2,-4.254616E-2,-4.8740126E-2,3.571405E-4,2.4941308E-2,9.699204E-2,1.1262918E-1,1.7551355E-1,1.6355059E-1,2.68036E-1,2.8143585E-1,3.9296132E-1,4.442842E-1,5.470454E-1,-7.042361E-3,-6.762846E-3,-6.235813E-3,-1.0556419E-1,-9.75095E-2,-7.213266E-2,-3.6233116E-2,-8.216432E-2,-5.5222485E-2,-6.159582E-3,-6.010597E-3,8.99898E-2,1.52063025E-2,9.784726E-2,5.3634256E-2,1.3803372E-1,1.1964296E-1,2.0581588E-2,2.1087526E-1,1.4675254E-1,1.4765373E-1,1.5421822E-2,2.7349773E-1,1.3109323E-1,2.9010656E-1,1.4506439E-3,3.3379367E-1,4.123734E-1,3.216024E-1,4.582103E-1,5.6172633E-1,4.433011E-1,-3.6188737E-3,-5.451541E-3,-5.1844358E-3,-4.227936E-3,-4.425124E-3,-2.76166E-3,-1.9588917E-3,3.2653683E-3,-5.0778086E-3,-3.190421E-3,-4.2982046E-3,-2.6175515E-3,-1.0866564E-3,3.3441556E-3,-1.2338096E-3,5.404327E-4,1.3764732E-3,7.1370336E-3,-2.0026488E-3,1.0579218E-3,7.5391144E-3,2.679588E-3,3.2608283E-3,-2.1394962E-3,2.390932E-3,7.834785E-3,3.9294106E-3,6.994184E-3,5.8732876E-3,-2.5699832E-4,1.3503215E-2,8.795206E-3,5.619941E-3,1.0155852E-2,8.079267E-3,1.5806459E-3,1.2164228E-2,1.484134E-2,9.182851E-3,6.4236793E-4,8.400004E-3,1.5253562E-2,1.722587E-2,4.517142E-3,2.2657834E-2,1.9078061E-2,7.6645515E-3,1.7858986E-2,2.3192562E-2,1.1970795E-2,2.7334696E-2,3.0707473E-2,2.479485E-2,1.3167423E-2],"categories":[],"categories_nodes":[],"categories_segments":[],"categories_sizes":[],"default_left":[0,0,0,0,0,0,0,0,0,0,0,0,0,0,0,0,0,0,0,0,0,0,0,0,0,0,0,0,0,0,0,0,0,0,0,0,0,0,0,0,0,0,0,0,0,0,0,0,0,0,0,0,0,0,0,0,0,0,0,0,0,0,0,0,0,0,0,0,0,0,0,0,0,0,0,0,0,0,0,0,0,0,0,0,0,0,0,0,0,0,0,0,0,0,0,0,0,0,0,0,0,0,0,0,0,0,0,0,0,0,0,0,0,0,0,0,0],"id":2,"left_children":[1,3,5,7,9,11,13,15,17,19,21,23,25,27,29,31,33,35,37,39,41,43,45,47,49,51,53,55,57,59,61,-1,-1,-1,63,65,67,69,71,73,75,77,79,81,83,85,87,89,91,93,95,97,-1,99,101,103,-1,105,107,109,111,113,115,-1,-1,-1,-1,-1,-1,-1,-1,-1,-1,-1,-1,-1,-1,-1,-1,-1,-1,-1,-1,-1,-1,-1,-1,-1,-1,-1,-1,-1,-1,-1,-1,-1,-1,-1,-1,-1,-1,-1,-1,-1,-1,-1,-1,-1,-1,-1,-1,-1,-1,-1,-1,-1,-1],"loss_changes":[6.518946E2,7.516339E1,8.0045044E1,6.065689E0,7.0016284E0,7.9456863E0,1.1254059E1,3.3906555E-1,9.039402E-1,1.3524536E0,3.083745E0,1.9719963E0,1.4584122E0,3.2227478E0,2.5853271E0,3.3569336E-3,2.0746231E-2,1.9911194E-1,1.0582131E-1,3.6290526E-1,5.593122E-1,1.4094751E0,1.5015931E0,5.0627136E-1,1.395958E0,3.2527828E-1,7.457428E-1,7.751312E-1,1.12117E0,6.846695E-1,6.6329956E-1,0E0,0E0,0E0,4.3034554E-3,1.2887573E-1,1.0493827E-1,1.1528471E-1,1.4521211E-2,9.6307755E-2,2.0052193E-1,2.87523E-1,2.1023482E-1,5.780854E-1,5.401032E-1,4.651519E-1,7.248688E-1,5.9728336E-1,1.4264838E-1,1.2503262E0,1.481699E0,2.3253703E-1,0E0,6.3544464E-1,2.5868934E-1,5.8098793E-1,0E0,6.894264E-1,8.587799E-1,2.6261473E-1,4.2582703E-1,7.481384E-2,6.1712265E-1,0E0,0E0,0E0,0E0,0E0,0E0,0E0,0E0,0E0,0E0,0E0,0E0,0E0,0E0,0E0,0E0,0E0,0E0,0E0,0E0,0E0,0E0,0E0,0E0,0E0,0E0,0E0,0E0,0E0,0E0,0E0,0E0,0E0,0E0,0E0,0E0,0E0,0E0,0E0,0E0,0E0,0E0,0E0,0E0,0E0,0E0,0E0,0E0,0E0,0E0,0E0,0E0,0E0,0E0],"parents":[2147483647,0,0,1,1,2,2,3,3,4,4,5,5,6,6,7,7,8,8,9,9,10,10,11,11,12,12,13,13,14,14,15,15,16,16,17,17,18,18,19,19,20,20,21,21,22,22,23,23,24,24,25,25,26,26,27,27,28,28,29,29,30,30,34,34,35,35,36,36,37,37,38,38,39,39,40,40,41,41,42,42,43,43,44,44,45,45,46,46,47,47,48,48,49,49,50,50,51,51,53,53,54,54,55,55,57,57,58,58,59,59,60,60,61,61,62,62],"right_children":[2,4,6,8,10,12,14,16,18,20,22,24,26,28,30,32,34,36,38,40,42,44,46,48,50,52,54,56,58,60,62,-1,-1,-1,64,66,68,70,72,74,76,78,80,82,84,86,88,90,92,94,96,98,-1,100,102,104,-1,106,108,110,112,114,116,-1,-1,-1,-1,-1,-1,-1,-1,-1,-1,-1,-1,-1,-1,-1,-1,-1,-1,-1,-1,-1,-1,-1,-1,-1,-1,-1,-1,-1,-1,-1,-1,-1,-1,-1,-1,-1,-1,-1,-1,-1,-1,-1,-1,-1,-1,-1,-1,-1,-1,-1,-1,-1,-1],"split_conditions":[6.434802E4,1.9158723E4,4.1140002E2,5.0478003E3,1.268E2,3.63825E2,1.5179169E5,8.795159E1,8.570201E2,2.1894E1,4.909E2,2.23E2,7.058674E4,3.711E2,5.697E2,8.6E0,3.6575E1,3.8948535E4,1E-1,7.5815695E4,2.9692872E0,8.102473E4,5.8790793E4,7.5E-3,1E0,4.881E2,5E-3,4.0311288E-2,1.623345E2,4.562E2,-1.3216378E-1,-7.042361E-3,-6.762846E-3,-6.235813E-3,-9.8313004E-1,3.6706818E2,5E0,3.2863872E3,6E-2,2.73175E2,9E0,9.6E1,6.4390664E3,2.737E2,1E0,4.75E-2,8.627E2,1.6344626E6,-7.9616225E-1,5.48E1,1.982147E6,2.865E2,1.5421822E-2,3.9865002E2,7.35E1,7.231E2,1.4506439E-3,1.39491E4,1E0,5.0048828E-2,1E-2,6.7619995E2,5.34E1,-3.6188737E-3,-5.451541E-3,-5.1844358E-3,-4.227936E-3,-4.425124E-3,-2.76166E-3,-1.9588917E-3,3.2653683E-3,-5.0778086E-3,-3.190421E-3,-4.2982046E-3,-2.6175515E-3,-1.0866564E-3,3.3441556E-3,-1.2338096E-3,5.404327E-4,1.3764732E-3,7.1370336E-3,-2.0026488E-3,1.0579218E-3,7.5391144E-3,2.679588E-3,3.2608283E-3,-2.1394962E-3,2.390932E-3,7.834785E-3,3.9294106E-3,6.994184E-3,5.8732876E-3,-2.5699832E-4,1.3503215E-2,8.795206E-3,5.619941E-3,1.0155852E-2,8.079267E-3,1.5806459E-3,1.2164228E-2,1.484134E-2,9.182851E-3,6.4236793E-4,8.400004E-3,1.5253562E-2,1.722587E-2,4.517142E-3,2.2657834E-2,1.9078061E-2,7.6645515E-3,1.7858986E-2,2.3192562E-2,1.1970795E-2,2.7334696E-2,3.0707473E-2,2.479485E-2,1.3167423E-2],"split_indices":[41,41,39,41,39,147,53,97,43,84,63,51,53,51,39,67,147,161,75,107,195,53,107,129,0,52,129,183,137,39,45,0,0,0,44,43,4,97,183,140,3,51,211,140,0,129,61,62,45,55,62,66,0,147,27,112,0,211,0,185,75,51,55,0,0,0,0,0,0,0,0,0,0,0,0,0,0,0,0,0,0,0,0,0,0,0,0,0,0,0,0,0,0,0,0,0,0,0,0,0,0,0,0,0,0,0,0,0,0,0,0,0,0,0,0,0,0],"split_type":[0,0,0,0,0,0,0,0,0,0,0,0,0,0,0,0,0,0,0,0,0,0,0,0,0,0,0,0,0,0,0,0,0,0,0,0,0,0,0,0,0,0,0,0,0,0,0,0,0,0,0,0,0,0,0,0,0,0,0,0,0,0,0,0,0,0,0,0,0,0,0,0,0,0,0,0,0,0,0,0,0,0,0,0,0,0,0,0,0,0,0,0,0,0,0,0,0,0,0,0,0,0,0,0,0,0,0,0,0,0,0,0,0,0,0,0,0],"sum_hessian":[2.4949E4,1.902E4,5.929E3,1.3893E4,5.127E3,3.393E3,2.536E3,1.1344E4,2.549E3,2.293E3,2.834E3,2.189E3,1.204E3,1.452E3,1.084E3,9.938E3,1.406E3,2.115E3,4.34E2,1.315E3,9.78E2,1.987E3,8.47E2,7.87E2,1.402E3,1.6E2,1.044E3,3.57E2,1.095E3,4.86E2,5.98E2,9.136E3,8.02E2,1.301E3,1.05E2,1.719E3,3.96E2,3.76E2,5.8E1,1.141E3,1.74E2,9.14E2,6.4E1,1.754E3,2.33E2,4.13E2,4.34E2,7.31E2,5.6E1,6.26E2,7.76E2,1.46E2,1.4E1,1.003E3,4.1E1,3.45E2,1.2E1,2.75E2,8.2E2,5.2E1,4.34E2,5.2E2,7.8E1,1.2E1,9.3E1,1.159E3,5.6E2,1.99E2,1.97E2,3.66E2,1E1,2.6E1,3.2E1,9.5E1,1.046E3,1.44E2,3E1,4.33E2,4.81E2,3E1,3.4E1,1.7E2,1.584E3,1.05E2,1.28E2,3.69E2,4.4E1,7.5E1,3.59E2,2.43E2,4.88E2,1.1E1,4.5E1,2.3E2,3.96E2,4.84E2,2.92E2,1.3E2,1.6E1,4.42E2,5.61E2,2.8E1,1.3E1,3.9E1,3.06E2,2.63E2,1.2E1,3.47E2,4.73E2,1E1,4.2E1,4.22E2,1.2E1,4.13E2,1.07E2,5.9E1,1.9E1],"tree_param":{"num_deleted":"0","num_feature":"217","num_nodes":"117","size_leaf_vector":"1"}},{"base_weights":[3.2450343E-4,-8.837187E-2,2.6380026E-1,-1.2506777E-1,1.4881176E-3,1.6320227E-1,3.9142585E-1,-1.3167535E-1,-8.782894E-2,-1.9875396E-2,6.559344E-2,1.2964164E-1,2.1757801E-1,3.3015916E-1,4.6797717E-1,-6.677735E-3,-1.1865752E-1,-9.772714E-2,-6.137539E-2,-4.022866E-2,1.8813012E-2,2.5016183E-2,9.0899505E-2,1.0665986E-1,1.7642486E-1,1.3899258E-1,2.3274755E-1,2.501072E-1,3.6239114E-1,4.0598723E-1,5.07722E-1,-6.035797E-3,-1.028121E-1,-1.00075744E-1,-7.823949E-2,-7.421409E-2,-2.9255688E-2,-5.477629E-2,-1.10877985E-2,1.0263188E-2,7.524183E-2,-2.195433E-2,3.630567E-2,4.3263037E-2,1.1663312E-1,1.4518428E-1,7.789272E-2,1.883902E-1,1.0926124E-2,1.473993E-1,-2.4566692E-4,2.3975457E-1,7.199243E-2,1.456801E-1,2.6735693E-1,4.0185133E-1,3.332677E-1,4.1517583E-1,1.845052E-1,5.152096E-1,2.2682658E-1,-4.218184E-3,-5.479287E-3,-5.334188E-3,-4.719574E-3,-2.8880269E-3,-4.6963827E-3,-3.9746277E-3,-2.537104E-3,1.3008016E-3,-3.4814382E-3,-2.9848078E-3,-7.556393E-4,1.614693E-3,-1.1887416E-3,-1.7383551E-3,9.3164586E-4,6.463203E-3,1.693997E-3,-2.637212E-3,-1.664892E-4,4.0400946E-3,8.95276E-4,-2.1138783E-3,3.0770209E-3,8.823328E-3,3.6459204E-3,7.977903E-3,2.1629636E-3,2.899603E-3,6.2612207E-3,8.035594E-3,1.179386E-2,-1.8610944E-3,6.6977427E-3,6.1678044E-3,1.1095913E-2,1.39726E-2,1.0428055E-2,5.4179067E-3,-3.477554E-5,2.5275624E-3,9.49668E-3,8.977637E-3,1.3788427E-2,2.1523168E-2,1.34667475E-2,8.758137E-3,1.716767E-2,1.3783391E-2,2.1263232E-2,1.2137503E-2,5.4743565E-3,2.3574641E-2,2.7319161E-2,7.171817E-3,1.447981E-2],"categories":[],"categories_nodes":[],"categories_segments":[],"categories_sizes":[],"default_left":[0,0,0,0,0,0,0,0,0,0,0,0,0,0,0,0,0,0,0,0,0,0,0,0,0,0,0,0,0,0,0,0,0,0,0,0,0,0,0,0,0,0,0,0,0,0,0,0,0,0,0,0,0,0,0,0,0,0,0,0,0,0,0,0,0,0,0,0,0,0,0,0,0,0,0,0,0,0,0,0,0,0,0,0,0,0,0,0,0,0,0,0,0,0,0,0,0,0,0,0,0,0,0,0,0,0,0,0,0,0,0,0,0,0,0,0,0],"id":3,"left_children":[1,3,5,7,9,11,13,15,17,19,21,23,25,27,29,-1,31,33,35,37,39,41,43,45,47,49,51,53,55,57,59,-1,61,63,65,67,69,71,73,75,77,79,81,83,85,87,89,91,93,95,-1,97,99,101,103,105,107,109,111,113,115,-1,-1,-1,-1,-1,-1,-1,-1,-1,-1,-1,-1,-1,-1,-1,-1,-1,-1,-1,-1,-1,-1,-1,-1,-1,-1,-1,-1,-1,-1,-1,-1,-1,-1,-1,-1,-1,-1,-1,-1,-1,-1,-1,-1,-1,-1,-1,-1,-1,-1,-1,-1,-1,-1,-1,-1],"loss_changes":[5.7946625E2,6.117198E1,8.011493E1,3.2295227E0,7.369294E0,6.347931E0,1.2752472E1,2.5779724E-1,5.145445E-1,3.1788464E0,1.37884E0,2.306755E0,1.5555344E0,3.8622742E0,2.8021545E0,0E0,3.3903122E-2,5.830574E-2,2.2216105E-1,1.1206884E0,6.7080724E-1,2.7547848E-1,1.009965E0,1.5989609E0,1.4058971E0,2.644558E-1,1.2386932E0,7.5904655E-1,1.1187286E0,9.0431976E-1,1.4395447E0,0E0,1.1998415E-2,3.823471E-2,4.5979023E-2,4.4038057E-2,3.5215524E-1,3.4332275E-1,4.8620692E-1,4.5668626E-1,4.0452695E-1,5.774263E-2,3.4078532E-1,4.591316E-1,1.3917098E0,9.014282E-1,7.7830935E-1,8.3351326E-1,2.9524192E-1,3.417101E-1,0E0,1.2642174E0,1.2695606E-1,2.6403487E-1,2.304039E-1,1.6205902E0,9.4924164E-1,5.3302E-1,6.5179765E-2,7.236023E-1,6.8383336E-2,0E0,0E0,0E0,0E0,0E0,0E0,0E0,0E0,0E0,0E0,0E0,0E0,0E0,0E0,0E0,0E0,0E0,0E0,0E0,0E0,0E0,0E0,0E0,0E0,0E0,0E0,0E0,0E0,0E0,0E0,0E0,0E0,0E0,0E0,0E0,0E0,0E0,0E0,0E0,0E0,0E0,0E0,0E0,0E0,0E0,0E0,0E0,0E0,0E0,0E0,0E0,0E0,0E0,0E0,0E0,0E0],"parents":[2147483647,0,0,1,1,2,2,3,3,4,4,5,5,6,6,7,7,8,8,9,9,10,10,11,11,12,12,13,13,14,14,16,16,17,17,18,18,19,19,20,20,21,21,22,22,23,23,24,24,25,25,26,26,27,27,28,28,29,29,30,30,32,32,33,33,34,34,35,35,36,36,37,37,38,38,39,39,40,40,41,41,42,42,43,43,44,44,45,45,46,46,47,47,48,48,49,49,51,51,52,52,53,53,54,54,55,55,56,56,57,57,58,58,59,59,60,60],"right_children":[2,4,6,8,10,12,14,16,18,20,22,24,26,28,30,-1,32,34,36,38,40,42,44,46,48,50,52,54,56,58,60,-1,62,64,66,68,70,72,74,76,78,80,82,84,86,88,90,92,94,96,-1,98,100,102,104,106,108,110,112,114,116,-1,-1,-1,-1,-1,-1,-1,-1,-1,-1,-1,-1,-1,-1,-1,-1,-1,-1,-1,-1,-1,-1,-1,-1,-1,-1,-1,-1,-1,-1,-1,-1,-1,-1,-1,-1,-1,-1,-1,-1,-1,-1,-1,-1,-1,-1,-1,-1,-1,-1,-1,-1,-1,-1,-1,-1],"split_conditions":[6.889346E4,4.029772E2,1.207211E5,8.268471E3,3.4267021E3,9.731768E4,1.5546973E5,2.9499668E1,3.172175E4,4.460543E4,1.705E2,1.982147E6,2.275E2,3.756E2,5.412E2,-6.677735E-3,1.2342E1,1.793E2,9.659258E-1,1.4219395E3,8.798691E4,-2.75E-1,1.9028671E6,1E0,1.4999999E-2,9.61E1,5E-3,1.8081425E2,1E0,1E-2,1E-2,-6.035797E-3,8.2629504E2,1.14487495E2,1E0,1.119E2,1E0,2.07825E2,9.425E1,2.7444717E4,1E0,5.163968E-1,7.55E0,2.759E2,8.375E0,9.57E1,9.3950445E4,8.3345445E4,2.551E2,5.035945E3,-2.4566692E-4,1E0,1.253E0,3.99927E4,1.176E0,7.565E1,2.749E2,1.66824E2,4.7251E1,2.6116972E6,8.4E0,-4.218184E-3,-5.479287E-3,-5.334188E-3,-4.719574E-3,-2.8880269E-3,-4.6963827E-3,-3.9746277E-3,-2.537104E-3,1.3008016E-3,-3.4814382E-3,-2.9848078E-3,-7.556393E-4,1.614693E-3,-1.1887416E-3,-1.7383551E-3,9.3164586E-4,6.463203E-3,1.693997E-3,-2.637212E-3,-1.664892E-4,4.0400946E-3,8.95276E-4,-2.1138783E-3,3.0770209E-3,8.823328E-3,3.6459204E-3,7.977903E-3,2.1629636E-3,2.899603E-3,6.2612207E-3,8.035594E-3,1.179386E-2,-1.8610944E-3,6.6977427E-3,6.1678044E-3,1.1095913E-2,1.39726E-2,1.0428055E-2,5.4179067E-3,-3.477554E-5,2.5275624E-3,9.49668E-3,8.977637E-3,1.3788427E-2,2.1523168E-2,1.34667475E-2,8.758137E-3,1.716767E-2,1.3783391E-2,2.1263232E-2,1.2137503E-2,5.4743565E-3,2.3574641E-2,2.7319161E-2,7.171817E-3,1.447981E-2],"split_indices":[149,43,149,149,151,149,149,205,95,149,105,62,51,51,51,0,84,105,46,43,161,144,62,0,129,17,129,137,0,75,75,0,212,43,0,69,0,159,163,161,0,189,113,86,113,109,53,53,51,151,0,0,6,34,6,163,86,83,30,62,5,0,0,0,0,0,0,0,0,0,0,0,0,0,0,0,0,0,0,0,0,0,0,0,0,0,0,0,0,0,0,0,0,0,0,0,0,0,0,0,0,0,0,0,0,0,0,0,0,0,0,0,0,0,0,0,0],"split_type":[0,0,0,0,0,0,0,0,0,0,0,0,0,0,0,0,0,0,0,0,0,0,0,0,0,0,0,0,0,0,0,0,0,0,0,0,0,0,0,0,0,0,0,0,0,0,0,0,0,0,0,0,0,0,0,0,0,0,0,0,0,0,0,0,0,0,0,0,0,0,0,0,0,0,0,0,0,0,0,0,0,0,0,0,0,0,0,0,0,0,0,0,0,0,0,0,0,0,0,0,0,0,0,0,0,0,0,0,0,0,0,0,0,0,0,0,0],"sum_hessian":[2.4794E4,1.855E4,6.244E3,1.3171E4,5.379E3,3.493E3,2.751E3,1.1184E4,1.987E3,4.035E3,1.344E3,2.162E3,1.331E3,1.531E3,1.22E3,9.765E3,1.419E3,1.444E3,5.43E2,2.644E3,1.391E3,5.17E2,8.27E2,1.452E3,7.1E2,2.17E2,1.114E3,4.42E2,1.089E3,4.81E2,7.39E2,1.25E3,1.69E2,1.285E3,1.59E2,3.87E2,1.56E2,1.763E3,8.81E2,1.209E3,1.82E2,1E2,4.17E2,2.91E2,5.36E2,6.19E2,8.33E2,6.62E2,4.8E1,2.05E2,1.2E1,1.067E3,4.7E1,6.4E1,3.78E2,4.57E2,6.32E2,4.61E2,2E1,7.19E2,2E1,4.9E1,1.2E2,5.86E2,6.99E2,7.1E1,8.8E1,3.14E2,7.3E1,6.6E1,9E1,1.568E3,1.95E2,1.99E2,6.82E2,1.89E2,1.02E3,7.8E1,1.04E2,3.7E1,6.3E1,1.21E2,2.96E2,5.1E1,2.4E2,2.25E2,3.11E2,5.42E2,7.7E1,5.88E2,2.45E2,4.21E2,2.41E2,3.5E1,1.3E1,1.57E2,4.8E1,4.66E2,6.01E2,3.1E1,1.6E1,2.1E1,4.3E1,3.5E1,3.43E2,3.74E2,8.3E1,3.9E1,5.93E2,3.3E1,4.28E2,1E1,1E1,3.06E2,4.13E2,1E1,1E1],"tree_param":{"num_deleted":"0","num_feature":"217","num_nodes":"117","size_leaf_vector":"1"}},{"base_weights":[8.3265983E-4,-8.433842E-2,2.5137237E-1,-1.1824563E-1,2.1219656E-3,1.6894014E-1,3.8848975E-1,-1.2535648E-1,-8.4280245E-2,-3.6125045E-2,3.1262446E-2,1.233573E-1,2.242487E-1,3.4090838E-1,4.7118026E-1,-6.3439677E-3,-1.1344522E-1,-9.100106E-2,-5.9370328E-2,-5.5299036E-2,-4.9447897E-3,1.1751889E-2,8.675964E-2,7.2529025E-2,1.4421365E-1,1.6409348E-1,2.4921827E-1,2.5461745E-1,3.6342895E-1,4.3205622E-1,5.186763E-1,-1.1500907E-1,-9.292323E-2,-9.726821E-2,-7.736027E-2,-7.072628E-2,-2.8503483E-2,-8.346694E-2,-5.1504526E-2,-2.6498236E-2,1.7230323E-2,-9.390375E-4,4.0900387E-2,5.1964134E-2,1.2698038E-1,3.571315E-2,8.973528E-2,1.2538847E-1,1.9658412E-1,1.2740469E-1,1.909408E-1,2.2179213E-1,2.742357E-1,2.617312E-1,1.7435843E-3,3.7082765E-1,1.9121084E-1,4.477055E-1,3.3626312E-1,3.1216604E-1,5.3597647E-1,-5.7628024E-3,-3.935542E-3,-4.8320866E-3,-3.2385855E-3,-4.9696956E-3,-3.958996E-3,-3.986061E-3,-2.0438079E-3,-3.6935986E-3,-1.8136401E-3,4.1171612E-4,-2.5588262E-3,-3.7306393E-4,-4.4441316E-3,-2.65801E-3,2.4886342E-4,-4.404253E-3,-1.0783345E-3,-4.7375797E-3,1.1070253E-3,-1.3069215E-3,5.2199536E-4,2.463196E-3,-2.0550683E-3,1.9102324E-3,5.7333554E-3,8.883498E-3,4.1378825E-3,-2.5779775E-3,2.2528E-3,3.8083047E-3,8.665462E-3,1.5912304E-3,6.5874867E-3,8.499002E-3,1.447904E-2,7.2367312E-3,3.704592E-3,9.9825775E-3,3.5896827E-3,3.2648114E-3,1.1366812E-2,1.5971387E-2,1.2903797E-2,1.3446189E-2,6.2242327E-3,1.5216638E-2,1.924695E-2,1.1445212E-2,2.4815951E-3,1.6987974E-2,2.3059601E-2,4.8896237E-3,1.8687677E-2,9.600642E-3,2.1776943E-2,2.7094737E-2,1.6998066E-2],"categories":[],"categories_nodes":[],"categories_segments":[],"categories_sizes":[],"default_left":[0,0,0,0,0,0,0,0,0,0,0,0,0,0,0,0,0,0,0,0,0,0,0,0,0,0,0,0,0,0,0,0,0,0,0,0,0,0,0,0,0,0,0,0,0,0,0,0,0,0,0,0,0,0,0,0,0,0,0,0,0,0,0,0,0,0,0,0,0,0,0,0,0,0,0,0,0,0,0,0,0,0,0,0,0,0,0,0,0,0,0,0,0,0,0,0,0,0,0,0,0,0,0,0,0,0,0,0,0,0,0,0,0,0,0,0,0,0,0],"id":4,"left_children":[1,3,5,7,9,11,13,15,17,19,21,23,25,27,29,-1,31,33,35,37,39,41,43,45,47,49,51,53,55,57,59,61,63,65,67,69,71,73,75,77,79,81,83,85,87,89,91,93,95,97,99,101,103,105,-1,107,109,111,113,115,117,-1,-1,-1,-1,-1,-1,-1,-1,-1,-1,-1,-1,-1,-1,-1,-1,-1,-1,-1,-1,-1,-1,-1,-1,-1,-1,-1,-1,-1,-1,-1,-1,-1,-1,-1,-1,-1,-1,-1,-1,-1,-1,-1,-1,-1,-1,-1,-1,-1,-1,-1,-1,-1,-1,-1,-1,-1,-1],"loss_changes":[5.286244E2,5.420024E1,7.097302E1,3.1968384E0,5.8067484E0,9.872772E0,9.120911E0,1.8475342E-1,3.799858E-1,1.3466823E0,3.2007647E0,2.274044E0,2.6222382E0,2.8243866E0,1.3721313E0,0E0,2.9558182E-2,1.4729595E-1,1.7044103E-1,1.4480352E-1,4.110157E-1,8.097964E-1,1.0696177E0,3.9524364E-1,1.480793E0,4.9082565E-1,7.975311E-1,4.8172188E-1,1.4428253E0,5.645218E-1,1.2010193E0,1.3360977E-3,3.580451E-3,3.969288E-2,4.627037E-2,3.6228776E-2,1.1203774E-1,6.684303E-2,1.15475416E-1,1.3052148E-1,2.3523498E-1,4.378419E-1,4.5741212E-1,3.5280204E-1,7.833171E-1,1.670289E-1,4.7216487E-1,6.659851E-1,9.4536304E-1,1.962316E-1,2.9702473E-1,5.0746727E-1,3.9225388E-1,2.6662064E-1,0E0,9.5066833E-1,2.60805E-1,4.3582153E-1,5.982151E-1,3.9072728E-1,2.241211E-1,0E0,0E0,0E0,0E0,0E0,0E0,0E0,0E0,0E0,0E0,0E0,0E0,0E0,0E0,0E0,0E0,0E0,0E0,0E0,0E0,0E0,0E0,0E0,0E0,0E0,0E0,0E0,0E0,0E0,0E0,0E0,0E0,0E0,0E0,0E0,0E0,0E0,0E0,0E0,0E0,0E0,0E0,0E0,0E0,0E0,0E0,0E0,0E0,0E0,0E0,0E0,0E0,0E0,0E0,0E0,0E0,0E0,0E0],"parents":[2147483647,0,0,1,1,2,2,3,3,4,4,5,5,6,6,7,7,8,8,9,9,10,10,11,11,12,12,13,13,14,14,16,16,17,17,18,18,19,19,20,20,21,21,22,22,23,23,24,24,25,25,26,26,27,27,28,28,29,29,30,30,31,31,32,32,33,33,34,34,35,35,36,36,37,37,38,38,39,39,40,40,41,41,42,42,43,43,44,44,45,45,46,46,47,47,48,48,49,49,50,50,51,51,52,52,53,53,55,55,56,56,57,57,58,58,59,59,60,60],"right_children":[2,4,6,8,10,12,14,16,18,20,22,24,26,28,30,-1,32,34,36,38,40,42,44,46,48,50,52,54,56,58,60,62,64,66,68,70,72,74,76,78,80,82,84,86,88,90,92,94,96,98,100,102,104,106,-1,108,110,112,114,116,118,-1,-1,-1,-1,-1,-1,-1,-1,-1,-1,-1,-1,-1,-1,-1,-1,-1,-1,-1,-1,-1,-1,-1,-1,-1,-1,-1,-1,-1,-1,-1,-1,-1,-1,-1,-1,-1,-1,-1,-1,-1,-1,-1,-1,-1,-1,-1,-1,-1,-1,-1,-1,-1,-1,-1,-1,-1,-1],"split_conditions":[6.889346E4,4.22E1,1.2841009E5,1.21E1,3.786353E4,9.731768E4,4.271E2,2.5044802E3,3.1154102E4,1.5108131E3,4.80875E2,6.2467273E4,8.102473E4,3.756E2,7.084E2,-6.3439677E-3,3.0177639E4,4.5361664E2,9.659258E-1,2.746E2,3.374117E4,5.8056844E4,1.777E2,1.29E2,5.4445133E0,2.23E2,1.1340671E5,1E-1,5.0000027E-3,8.761186E3,2.3399965E2,1.033E2,2.1325E1,3.951822E4,4.5000002E-1,3.884267E5,3.9035E1,3.935E1,4.75E-1,4.8E0,2.74E2,4.385747E0,2.3989445E1,3E-1,2.81725E2,2.757E2,4.9999982E-2,9.893E2,1.7378E3,1.290243E4,1E0,7.3216E3,1.3363392E1,5.0000027E-3,1.7435843E-3,1.9356696E2,6.9475E1,1.0061E3,1.7384857E1,8.164965E-2,4.8E0,-5.7628024E-3,-3.935542E-3,-4.8320866E-3,-3.2385855E-3,-4.9696956E-3,-3.958996E-3,-3.986061E-3,-2.0438079E-3,-3.6935986E-3,-1.8136401E-3,4.1171612E-4,-2.5588262E-3,-3.7306393E-4,-4.4441316E-3,-2.65801E-3,2.4886342E-4,-4.404253E-3,-1.0783345E-3,-4.7375797E-3,1.1070253E-3,-1.3069215E-3,5.2199536E-4,2.463196E-3,-2.0550683E-3,1.9102324E-3,5.7333554E-3,8.883498E-3,4.1378825E-3,-2.5779775E-3,2.2528E-3,3.8083047E-3,8.665462E-3,1.5912304E-3,6.5874867E-3,8.499002E-3,1.447904E-2,7.2367312E-3,3.704592E-3,9.9825775E-3,3.5896827E-3,3.2648114E-3,1.1366812E-2,1.5971387E-2,1.2903797E-2,1.3446189E-2,6.2242327E-3,1.5216638E-2,1.924695E-2,1.1445212E-2,2.4815951E-3,1.6987974E-2,2.3059601E-2,4.8896237E-3,1.8687677E-2,9.600642E-3,2.1776943E-2,2.7094737E-2,1.6998066E-2],"split_indices":[149,13,149,13,149,149,15,149,95,43,117,161,53,51,9,0,161,151,46,140,95,149,51,51,191,51,149,80,183,211,103,9,123,161,139,16,158,163,139,59,32,191,2,139,120,32,193,24,112,211,1,34,171,183,0,103,164,82,177,198,89,0,0,0,0,0,0,0,0,0,0,0,0,0,0,0,0,0,0,0,0,0,0,0,0,0,0,0,0,0,0,0,0,0,0,0,0,0,0,0,0,0,0,0,0,0,0,0,0,0,0,0,0,0,0,0,0,0,0],"split_type":[0,0,0,0,0,0,0,0,0,0,0,0,0,0,0,0,0,0,0,0,0,0,0,0,0,0,0,0,0,0,0,0,0,0,0,0,0,0,0,0,0,0,0,0,0,0,0,0,0,0,0,0,0,0,0,0,0,0,0,0,0,0,0,0,0,0,0,0,0,0,0,0,0,0,0,0,0,0,0,0,0,0,0,0,0,0,0,0,0,0,0,0,0,0,0,0,0,0,0,0,0,0,0,0,0,0,0,0,0,0,0,0,0,0,0,0,0,0,0],"sum_hessian":[2.4771E4,1.8487E4,6.284E3,1.3279E4,5.208E3,3.926E3,2.358E3,1.0978E4,2.301E3,2.252E3,2.956E3,2.154E3,1.772E3,1.5E3,8.58E2,9.725E3,1.253E3,1.81E3,4.91E2,1.394E3,8.58E2,2.188E3,7.68E2,6.28E2,1.526E3,5.22E2,1.25E3,3.13E2,1.187E3,4.76E2,3.82E2,1.16E3,9.3E1,1.236E3,5.74E2,3.58E2,1.33E2,1.63E2,1.231E3,4.35E2,4.23E2,1.525E3,6.63E2,4.13E2,3.55E2,2.01E2,4.27E2,1.125E3,4.01E2,2.23E2,2.99E2,6.01E2,6.49E2,3.03E2,1E1,1.137E3,5E1,4.06E2,7E1,3.1E1,3.51E2,1.15E3,1E1,8E1,1.3E1,1.102E3,1.34E2,5.38E2,3.6E1,3.27E2,3.1E1,5.1E1,8.2E1,1.1E1,1.52E2,1.196E3,3.5E1,3.1E1,4.04E2,1.7E1,4.06E2,4.74E2,1.051E3,6.02E2,6.1E1,3.4E2,7.3E1,1.64E2,1.91E2,1.9E1,1.82E2,3.69E2,5.8E1,7.2E1,1.053E3,3.14E2,8.7E1,1.67E2,5.6E1,2.78E2,2.1E1,2.1E1,5.8E2,1.66E2,4.83E2,2.87E2,1.6E1,2.03E2,9.34E2,3.9E1,1.1E1,4.8E1,3.58E2,1E1,6E1,1.7E1,1.4E1,3.39E2,1.2E1],"tree_param":{"num_deleted":"0","num_feature":"217","num_nodes":"119","size_leaf_vector":"1"}},{"base_weights":[2.2486817E-4,-7.730349E-2,2.459838E-1,-1.1211545E-1,5.85208E-3,1.6590801E-1,3.6409065E-1,-1.18612126E-1,-7.837229E-2,-3.1548474E-2,3.7150323E-2,1.19180314E-1,2.0487502E-1,3.1072277E-1,4.3170244E-1,-1.2027264E-1,-1.0422086E-1,-8.312044E-2,-4.986002E-2,-4.890937E-2,5.882422E-4,1.5262046E-2,9.226415E-2,1.0000665E-1,1.7413169E-1,1.5605342E-1,2.296639E-1,2.3509255E-1,3.3229214E-1,3.7256023E-1,4.6863863E-1,-6.0347887E-3,-5.7138666E-3,-1.0604605E-1,-8.985955E-2,-8.640132E-2,-5.946407E-2,-2.2535104E-2,-6.736784E-2,-9.353263E-2,-4.5584787E-2,3.1726677E-2,-1.8482989E-2,4.2256257E-3,5.1324967E-2,5.3891957E-2,1.274037E-1,1.4267379E-1,6.664299E-2,2.278794E-1,1.3730475E-1,7.3360376E-2,1.6628043E-1,2.692931E-1,1.9874781E-1,9.6525826E-2,2.542927E-1,2.8786144E-1,3.5180187E-1,3.2614326E-1,4.034998E-1,2.604827E-1,4.7632572E-1,-5.341199E-3,-4.5954743E-3,-3.7157566E-3,-4.7671623E-3,-4.689735E-3,-3.8528137E-3,-3.210508E-3,1.5064969E-3,-2.3427645E-3,1.8094545E-3,-3.972405E-3,-2.943035E-3,6.8479676E-5,-5.355203E-3,-3.5473593E-3,-2.040677E-3,6.187148E-3,1.0800196E-3,-2.4382754E-3,-2.2316833E-4,-6.2333996E-4,1.4206709E-3,4.933637E-3,1.4777696E-3,4.4819606E-3,1.706439E-3,3.1457548E-3,7.541144E-3,8.939304E-3,4.447082E-3,3.8117932E-3,-8.198319E-4,1.3281471E-2,6.0235476E-3,9.477185E-3,3.5796338E-3,6.633355E-3,7.622263E-4,9.313556E-3,5.7304543E-3,1.7594155E-2,1.2111869E-2,7.829612E-3,1.2113133E-2,1.3793655E-3,8.579577E-3,3.5597328E-3,1.3101664E-2,1.5110324E-2,4.887477E-3,1.9304736E-2,1.624931E-2,1.1972666E-2,1.73578E-2,2.0869553E-2,1.271456E-2,1.5867071E-2,7.963392E-3,2.2160439E-2,2.554295E-2],"categories":[],"categories_nodes":[],"categories_segments":[],"categories_sizes":[],"default_left":[0,0,0,0,0,0,0,0,0,0,0,0,0,0,0,0,0,0,0,0,0,0,0,0,0,0,0,0,0,0,0,0,0,0,0,0,0,0,0,0,0,0,0,0,0,0,0,0,0,0,0,0,0,0,0,0,0,0,0,0,0,0,0,0,0,0,0,0,0,0,0,0,0,0,0,0,0,0,0,0,0,0,0,0,0,0,0,0,0,0,0,0,0,0,0,0,0,0,0,0,0,0,0,0,0,0,0,0,0,0,0,0,0,0,0,0,0,0,0,0,0,0,0],"id":5,"left_children":[1,3,5,7,9,11,13,15,17,19,21,23,25,27,29,31,33,35,37,39,41,43,45,47,49,51,53,55,57,59,61,-1,-1,63,65,67,69,71,73,75,77,79,81,83,85,87,89,91,93,95,97,99,101,103,105,107,109,111,113,115,117,119,121,-1,-1,-1,-1,-1,-1,-1,-1,-1,-1,-1,-1,-1,-1,-1,-1,-1,-1,-1,-1,-1,-1,-1,-1,-1,-1,-1,-1,-1,-1,-1,-1,-1,-1,-1,-1,-1,-1,-1,-1,-1,-1,-1,-1,-1,-1,-1,-1,-1,-1,-1,-1,-1,-1,-1,-1,-1,-1,-1,-1],"loss_changes":[4.675676E2,5.4003304E1,5.5596954E1,2.8734283E0,6.44634E0,6.3649063E0,8.44281E0,2.509308E-1,2.8367424E-1,1.3998554E0,3.6152196E0,1.6662693E0,2.278122E0,2.094757E0,2.110382E0,1.1276245E-2,2.0562172E-2,1.3619614E-1,1.4487225E-1,2.3740435E-1,5.237667E-1,8.5430104E-1,1.1419549E0,1.6802244E0,7.842102E-1,5.3497314E-1,1.497551E0,7.709465E-1,7.950363E-1,4.5289993E-1,8.999939E-1,0E0,0E0,1.3217926E-3,4.5073032E-3,1.0311222E-1,9.760952E-2,1.7450581E-1,1.4438629E-2,1.4439815E-1,1.8079805E-1,3.0947432E-1,2.3201089E-1,6.6452765E-1,5.1554644E-1,2.8589094E-1,6.610713E-1,9.931021E-1,5.333712E-1,6.410742E-1,8.3431387E-1,2.4958378E-1,5.725956E-1,1.1482239E0,1.2736549E0,1.9191325E-1,3.5267067E-1,8.458767E-1,5.311127E-1,2.2289848E-1,3.9130783E-1,9.3331456E-2,4.7805786E-1,0E0,0E0,0E0,0E0,0E0,0E0,0E0,0E0,0E0,0E0,0E0,0E0,0E0,0E0,0E0,0E0,0E0,0E0,0E0,0E0,0E0,0E0,0E0,0E0,0E0,0E0,0E0,0E0,0E0,0E0,0E0,0E0,0E0,0E0,0E0,0E0,0E0,0E0,0E0,0E0,0E0,0E0,0E0,0E0,0E0,0E0,0E0,0E0,0E0,0E0,0E0,0E0,0E0,0E0,0E0,0E0,0E0,0E0,0E0,0E0],"parents":[2147483647,0,0,1,1,2,2,3,3,4,4,5,5,6,6,7,7,8,8,9,9,10,10,11,11,12,12,13,13,14,14,15,15,16,16,17,17,18,18,19,19,20,20,21,21,22,22,23,23,24,24,25,25,26,26,27,27,28,28,29,29,30,30,33,33,34,34,35,35,36,36,37,37,38,38,39,39,40,40,41,41,42,42,43,43,44,44,45,45,46,46,47,47,48,48,49,49,50,50,51,51,52,52,53,53,54,54,55,55,56,56,57,57,58,58,59,59,60,60,61,61,62,62],"right_children":[2,4,6,8,10,12,14,16,18,20,22,24,26,28,30,32,34,36,38,40,42,44,46,48,50,52,54,56,58,60,62,-1,-1,64,66,68,70,72,74,76,78,80,82,84,86,88,90,92,94,96,98,100,102,104,106,108,110,112,114,116,118,120,122,-1,-1,-1,-1,-1,-1,-1,-1,-1,-1,-1,-1,-1,-1,-1,-1,-1,-1,-1,-1,-1,-1,-1,-1,-1,-1,-1,-1,-1,-1,-1,-1,-1,-1,-1,-1,-1,-1,-1,-1,-1,-1,-1,-1,-1,-1,-1,-1,-1,-1,-1,-1,-1,-1,-1,-1,-1,-1,-1,-1],"split_conditions":[2.57E2,4.22E1,4.461E2,3.0225E1,1.44325E2,3.30125E2,1.5179169E5,1.2525E1,1.249E2,2.4757224E3,3.0056E1,1.9318778E6,8.3345445E4,4.068E2,5.119E2,5.5E0,1.097E2,1.804E2,1E0,2.734E2,1E2,2.439E2,1.95625E2,1E0,7.4E0,1.0477396E2,1E0,1.72735E2,1.56628E2,4.3290002E2,-3.3E0,-6.0347887E-3,-5.7138666E-3,2.700611E4,8.2629504E2,5.3825E1,4.625E0,9.659258E-1,1.1273E1,6.845E1,5.38E1,7.6556845E0,3.09166E3,1.4053112E6,1.927513E0,2.839E2,4.174833E4,2.018568E0,1E0,9.89E1,7.8935224E-1,3.139E2,3.7635742E1,1.8893266E2,1.9717335E6,1.2909944E-1,6.502975E4,3.1141055E3,-2.1112158E0,1.10545E3,2.1E0,5.14E1,2.4868117E2,-5.341199E-3,-4.5954743E-3,-3.7157566E-3,-4.7671623E-3,-4.689735E-3,-3.8528137E-3,-3.210508E-3,1.5064969E-3,-2.3427645E-3,1.8094545E-3,-3.972405E-3,-2.943035E-3,6.8479676E-5,-5.355203E-3,-3.5473593E-3,-2.040677E-3,6.187148E-3,1.0800196E-3,-2.4382754E-3,-2.2316833E-4,-6.2333996E-4,1.4206709E-3,4.933637E-3,1.4777696E-3,4.4819606E-3,1.706439E-3,3.1457548E-3,7.541144E-3,8.939304E-3,4.447082E-3,3.8117932E-3,-8.198319E-4,1.3281471E-2,6.0235476E-3,9.477185E-3,3.5796338E-3,6.633355E-3,7.622263E-4,9.313556E-3,5.7304543E-3,1.7594155E-2,1.2111869E-2,7.829612E-3,1.2113133E-2,1.3793655E-3,8.579577E-3,3.5597328E-3,1.3101664E-2,1.5110324E-2,4.887477E-3,1.9304736E-2,1.624931E-2,1.1972666E-2,1.73578E-2,2.0869553E-2,1.271456E-2,1.5867071E-2,7.963392E-3,2.2160439E-2,2.554295E-2],"split_indices":[147,13,147,147,147,147,53,147,93,97,84,8,53,159,160,147,9,9,0,86,33,51,159,0,113,48,0,29,29,160,90,0,0,161,212,147,123,46,84,164,105,169,97,62,192,86,162,192,1,55,44,105,209,205,62,182,53,196,40,165,36,110,49,0,0,0,0,0,0,0,0,0,0,0,0,0,0,0,0,0,0,0,0,0,0,0,0,0,0,0,0,0,0,0,0,0,0,0,0,0,0,0,0,0,0,0,0,0,0,0,0,0,0,0,0,0,0,0,0,0,0,0,0],"split_type":[0,0,0,0,0,0,0,0,0,0,0,0,0,0,0,0,0,0,0,0,0,0,0,0,0,0,0,0,0,0,0,0,0,0,0,0,0,0,0,0,0,0,0,0,0,0,0,0,0,0,0,0,0,0,0,0,0,0,0,0,0,0,0,0,0,0,0,0,0,0,0,0,0,0,0,0,0,0,0,0,0,0,0,0,0,0,0,0,0,0,0,0,0,0,0,0,0,0,0,0,0,0,0,0,0,0,0,0,0,0,0,0,0,0,0,0,0,0,0,0,0,0,0],"sum_hessian":[2.4538E4,1.8654E4,5.884E3,1.3149E4,5.505E3,3.508E3,2.376E3,1.1024E4,2.125E3,2.508E3,2.997E3,1.597E3,1.911E3,1.331E3,1.045E3,9.877E3,1.147E3,1.82E3,3.05E2,1.628E3,8.8E2,2.146E3,8.51E2,1.186E3,4.11E2,6.46E2,1.265E3,2.98E2,1.033E3,4.06E2,6.39E2,9.208E3,6.69E2,1.012E3,1.35E2,1.596E3,2.24E2,1.2E2,1.85E2,1.11E2,1.517E3,3.34E2,5.46E2,1.644E3,5.02E2,4.08E2,4.43E2,5.19E2,6.67E2,1.65E2,2.46E2,7.2E1,5.74E2,5.51E2,7.14E2,3.7E1,2.61E2,3.2E2,7.13E2,1.67E2,2.39E2,2.4E1,6.15E2,9.53E2,5.9E1,3.9E1,9.6E1,8.86E2,7.1E2,2.13E2,1.1E1,8.5E1,3.5E1,7.3E1,1.12E2,1.4E1,9.7E1,2.38E2,1.279E3,3.2E1,3.02E2,1.72E2,3.74E2,9.73E2,6.71E2,1.57E2,3.45E2,1.44E2,2.64E2,1.19E2,3.24E2,3.09E2,2.1E2,5.98E2,6.9E1,1.21E2,4.4E1,1.36E2,1.1E2,3.5E1,3.7E1,4.12E2,1.62E2,1.33E2,4.18E2,3.65E2,3.49E2,2E1,1.7E1,1.1E1,2.5E2,2.97E2,2.3E1,3.07E2,4.06E2,3.5E1,1.32E2,2.17E2,2.2E1,1.4E1,1E1,3.21E2,2.94E2],"tree_param":{"num_deleted":"0","num_feature":"217","num_nodes":"123","size_leaf_vector":"1"}},{"base_weights":[-3.1363178E-4,-7.512974E-2,2.2491923E-1,-1.0685356E-1,3.372945E-3,1.4413498E-1,3.3870843E-1,-1.1302382E-1,-7.5370505E-2,-1.1107555E-2,7.300093E-2,1.083126E-1,1.8854712E-1,2.991923E-1,4.2622963E-1,-5.7254117E-3,-1.0241215E-1,-7.841305E-2,-2.0028733E-2,-3.105012E-2,1.5118238E-2,-2.2851154E-3,8.9955784E-2,8.30226E-2,1.5341076E-1,1.466425E-1,2.228306E-1,2.3826584E-1,3.2771665E-1,3.6089852E-1,4.4850144E-1,-1.027748E-1,-2.6358762E-3,-8.6707264E-2,-6.843489E-2,-3.3232834E-2,4.8037935E-3,-5.0565407E-2,-1.2178397E-2,-3.149015E-2,2.5624452E-2,3.9374225E-2,-2.3460174E-2,1.0599944E-1,2.5079159E-2,1.23999536E-1,5.419158E-2,9.7131014E-2,1.860993E-1,1.0810633E-1,1.6793968E-1,2.603176E-1,1.9362023E-1,2.4613863E-1,8.835106E-2,3.4334344E-1,2.7779776E-1,1.8781072E-1,3.8140234E-1,4.6998996E-1,4.0697697E-1,-5.1543773E-3,-3.1195567E-3,-4.465601E-3,-3.3130608E-3,-3.4692995E-3,5.568598E-4,-1.3439561E-4,-2.8242124E-3,-1.5317547E-3,-2.9493473E-3,6.309402E-4,-1.2908562E-3,-1.7343102E-3,2.4302963E-3,6.921907E-4,3.0723426E-3,-9.830495E-4,2.9302498E-3,1.4728026E-3,-2.178948E-3,3.5250436E-3,7.3750685E-3,2.2968336E-4,5.377543E-3,7.854484E-3,3.2292109E-3,3.194217E-3,-1.0705491E-3,6.495216E-3,2.3455077E-3,8.111292E-3,1.2763554E-2,6.6430755E-3,3.703485E-3,9.433114E-3,5.8172136E-3,1.7797435E-2,1.1045705E-2,8.036519E-3,1.3321312E-2,1.0525561E-2,1.37028815E-2,-1.4524711E-3,8.991835E-3,1.7499281E-2,9.660759E-3,4.1490975E-3,1.5152583E-2,1.5842957E-2,3.6500234E-3,2.1080945E-2,1.7301293E-2,2.2222767E-2,2.63172E-2,2.1251E-2,1.4257639E-2],"categories":[],"categories_nodes":[],"categories_segments":[],"categories_sizes":[],"default_left":[0,0,0,0,0,0,0,0,0,0,0,0,0,0,0,0,0,0,0,0,0,0,0,0,0,0,0,0,0,0,0,0,0,0,0,0,0,0,0,0,0,0,0,0,0,0,0,0,0,0,0,0,0,0,0,0,0,0,0,0,0,0,0,0,0,0,0,0,0,0,0,0,0,0,0,0,0,0,0,0,0,0,0,0,0,0,0,0,0,0,0,0,0,0,0,0,0,0,0,0,0,0,0,0,0,0,0,0,0,0,0,0,0,0,0,0,0],"id":6,"left_children":[1,3,5,7,9,11,13,15,17,19,21,23,25,27,29,-1,31,33,35,37,39,41,43,45,47,49,51,53,55,57,59,61,-1,63,65,67,-1,69,71,73,75,77,79,81,83,85,87,89,91,93,95,97,99,101,103,105,107,109,111,113,115,-1,-1,-1,-1,-1,-1,-1,-1,-1,-1,-1,-1,-1,-1,-1,-1,-1,-1,-1,-1,-1,-1,-1,-1,-1,-1,-1,-1,-1,-1,-1,-1,-1,-1,-1,-1,-1,-1,-1,-1,-1,-1,-1,-1,-1,-1,-1,-1,-1,-1,-1,-1,-1,-1,-1,-1],"loss_changes":[4.1893393E2,4.6476303E1,5.6934692E1,2.5733643E0,5.4171195E0,5.7499466E0,8.77121E0,1.632843E-1,3.6566544E-1,2.3268158E0,1.1809349E0,2.2797318E0,2.2918015E0,3.0084076E0,9.992676E-1,0E0,1.9327164E-2,1.6513348E-1,1.7949441E-1,9.3004584E-1,9.419676E-1,1.5176947E-1,7.831893E-1,1.5172949E0,1.3083496E0,5.817833E-1,9.2196655E-1,6.5098953E-1,8.461609E-1,6.665497E-1,3.360672E-1,1.0769844E-2,0E0,5.3996086E-2,7.214022E-2,7.371028E-2,0E0,2.066555E-1,4.3525377E-1,9.230694E-2,6.612841E-1,6.6999204E-2,1.226492E-1,8.809223E-1,2.546164E-1,1.0358E0,5.5756116E-1,4.3336248E-1,7.0996094E-1,2.1175838E-1,4.7950077E-1,1.3758907E0,1.1616497E0,4.8043442E-1,3.2743794E-1,8.447952E-1,1.4163704E0,3.3245522E-1,1.17313385E-1,3.1719208E-1,3.3820343E-1,0E0,0E0,0E0,0E0,0E0,0E0,0E0,0E0,0E0,0E0,0E0,0E0,0E0,0E0,0E0,0E0,0E0,0E0,0E0,0E0,0E0,0E0,0E0,0E0,0E0,0E0,0E0,0E0,0E0,0E0,0E0,0E0,0E0,0E0,0E0,0E0,0E0,0E0,0E0,0E0,0E0,0E0,0E0,0E0,0E0,0E0,0E0,0E0,0E0,0E0,0E0,0E0,0E0,0E0,0E0,0E0],"parents":[2147483647,0,0,1,1,2,2,3,3,4,4,5,5,6,6,7,7,8,8,9,9,10,10,11,11,12,12,13,13,14,14,16,16,17,17,18,18,19,19,20,20,21,21,22,22,23,23,24,24,25,25,26,26,27,27,28,28,29,29,30,30,31,31,33,33,34,34,35,35,37,37,38,38,39,39,40,40,41,41,42,42,43,43,44,44,45,45,46,46,47,47,48,48,49,49,50,50,51,51,52,52,53,53,54,54,55,55,56,56,57,57,58,58,59,59,60,60],"right_children":[2,4,6,8,10,12,14,16,18,20,22,24,26,28,30,-1,32,34,36,38,40,42,44,46,48,50,52,54,56,58,60,62,-1,64,66,68,-1,70,72,74,76,78,80,82,84,86,88,90,92,94,96,98,100,102,104,106,108,110,112,114,116,-1,-1,-1,-1,-1,-1,-1,-1,-1,-1,-1,-1,-1,-1,-1,-1,-1,-1,-1,-1,-1,-1,-1,-1,-1,-1,-1,-1,-1,-1,-1,-1,-1,-1,-1,-1,-1,-1,-1,-1,-1,-1,-1,-1,-1,-1,-1,-1,-1,-1,-1,-1,-1,-1,-1,-1],"split_conditions":[2.758E2,4.22E1,4.6E2,2.2725E1,3.8281006E3,3.65E2,4.271E2,1.73E1,1.552E2,1.771E2,6.622604E1,1.6585778E6,3.348E2,4.08E2,5.286E2,-5.7254117E-3,9.3100006E1,2.8E1,1.984112E5,1.943025E1,2.851585E4,9.99E1,1E-1,1E0,2.306E2,7.501418E4,1E0,5.0000027E-3,2E0,1.71635E2,-9.5E-1,4.6129427E0,-2.6358762E-3,1.081E2,6.7E0,1E0,4.8037935E-3,6.66E1,9.9325E1,4.264618E1,1.2147485E6,4.9999952E-2,5.7235E3,5.5485663E0,1E0,6.7975E1,1E0,-2.0549023E-1,1.82805E3,1.9743531E4,9.2325E1,3.06E1,2.2920745E6,4.9769998E2,2.1E0,5.0000027E-3,2.9835E1,2.1E0,1E0,7.8575E2,4.82E1,-5.1543773E-3,-3.1195567E-3,-4.465601E-3,-3.3130608E-3,-3.4692995E-3,5.568598E-4,-1.3439561E-4,-2.8242124E-3,-1.5317547E-3,-2.9493473E-3,6.309402E-4,-1.2908562E-3,-1.7343102E-3,2.4302963E-3,6.921907E-4,3.0723426E-3,-9.830495E-4,2.9302498E-3,1.4728026E-3,-2.178948E-3,3.5250436E-3,7.3750685E-3,2.2968336E-4,5.377543E-3,7.854484E-3,3.2292109E-3,3.194217E-3,-1.0705491E-3,6.495216E-3,2.3455077E-3,8.111292E-3,1.2763554E-2,6.6430755E-3,3.703485E-3,9.433114E-3,5.8172136E-3,1.7797435E-2,1.1045705E-2,8.036519E-3,1.3321312E-2,1.0525561E-2,1.37028815E-2,-1.4524711E-3,8.991835E-3,1.7499281E-2,9.660759E-3,4.1490975E-3,1.5152583E-2,1.5842957E-2,3.6500234E-3,2.1080945E-2,1.7301293E-2,2.2222767E-2,2.63172E-2,2.1251E-2,1.4257639E-2],"split_indices":[93,13,93,121,43,93,15,93,51,93,48,8,51,51,51,0,51,13,124,138,161,33,26,0,51,161,0,183,0,29,145,191,0,51,36,0,0,55,163,210,8,167,16,191,91,163,1,153,165,176,104,55,62,93,35,183,138,89,0,117,55,0,0,0,0,0,0,0,0,0,0,0,0,0,0,0,0,0,0,0,0,0,0,0,0,0,0,0,0,0,0,0,0,0,0,0,0,0,0,0,0,0,0,0,0,0,0,0,0,0,0,0,0,0,0,0,0],"split_type":[0,0,0,0,0,0,0,0,0,0,0,0,0,0,0,0,0,0,0,0,0,0,0,0,0,0,0,0,0,0,0,0,0,0,0,0,0,0,0,0,0,0,0,0,0,0,0,0,0,0,0,0,0,0,0,0,0,0,0,0,0,0,0,0,0,0,0,0,0,0,0,0,0,0,0,0,0,0,0,0,0,0,0,0,0,0,0,0,0,0,0,0,0,0,0,0,0,0,0,0,0,0,0,0,0,0,0,0,0,0,0,0,0,0,0,0,0],"sum_hessian":[2.4859E4,1.8661E4,6.198E3,1.329E4,5.371E3,3.626E3,2.572E3,1.111E4,2.18E3,4.447E3,9.24E2,2.009E3,1.617E3,1.775E3,7.97E2,9.738E3,1.372E3,2.066E3,1.14E2,2.526E3,1.921E3,1.7E2,7.54E2,1.289E3,7.2E2,7.3E2,8.87E2,5.69E2,1.206E3,2.07E2,5.9E2,1.361E3,1.1E1,1.124E3,9.42E2,1.03E2,1.1E1,1.241E3,1.285E3,3.53E2,1.568E3,5.7E1,1.13E2,6.04E2,1.5E2,5.31E2,7.58E2,2.66E2,4.54E2,2.62E2,4.68E2,3.85E2,5.02E2,5.4E2,2.9E1,9.14E2,2.92E2,2.3E1,1.84E2,3.82E2,2.08E2,1.349E3,1.2E1,9.94E2,1.3E2,9.31E2,1.1E1,4.5E1,5.8E1,3.7E2,8.71E2,4.56E2,8.29E2,3.4E2,1.3E1,1.181E3,3.87E2,1.4E1,4.3E1,3.1E1,8.2E1,3.27E2,2.77E2,1.21E2,2.9E1,3.4E2,1.91E2,6.72E2,8.6E1,1.6E2,1.06E2,3.4E2,1.14E2,1.5E2,1.12E2,3.32E2,1.36E2,1.1E2,2.75E2,3.48E2,1.54E2,2.41E2,2.99E2,1.3E1,1.6E1,8.74E2,4E1,3.4E1,2.58E2,1E1,1.3E1,8.1E1,1.03E2,2.69E2,1.13E2,1.79E2,2.9E1],"tree_param":{"num_deleted":"0","num_feature":"217","num_nodes":"117","size_leaf_vector":"1"}},{"base_weights":[6.467693E-4,-7.017514E-2,2.2275208E-1,-1.0025644E-1,9.199224E-3,1.4911453E-1,3.3279082E-1,-1.0669303E-1,-6.585997E-2,-2.1255415E-2,3.8911533E-2,1.1385064E-1,1.901082E-1,2.897469E-1,4.0336508E-1,-1.0868564E-1,-9.4752476E-2,-7.295054E-2,-3.8904913E-2,-3.6809422E-2,3.694339E-3,2.2067158E-2,7.42423E-2,1.198015E-1,-1.7296403E-3,1.6182955E-1,2.2129355E-1,2.4411787E-1,3.240173E-1,3.4832263E-1,4.3657517E-1,-5.4525374E-3,-5.234677E-3,-9.743234E-2,-8.79057E-2,-7.6241225E-2,-5.369122E-2,-4.3477263E-2,6.2207803E-3,-4.2831216E-2,4.6202894E-3,3.921725E-2,-1.0266367E-2,1.199531E-2,7.594641E-2,8.532324E-2,-2.1167032E-2,9.706844E-2,1.5120374E-1,7.034452E-2,-2.9907506E-2,1.67147E-1,4.7579564E-2,8.8691875E-2,2.2814366E-1,1.2223145E-1,2.535563E-1,2.6445556E-1,3.4888256E-1,2.0211323E-1,3.6013824E-1,4.412706E-1,8.148494E-3,-4.942553E-3,-4.5913705E-3,-4.4467817E-3,-2.9361707E-3,-3.9604683E-3,-3.1416153E-3,-2.9250232E-3,-1.173897E-3,-1.7163536E-3,-3.0795578E-3,2.923221E-3,-1.2484406E-3,-2.4261503E-3,-1.4379943E-3,-1.0843958E-3,2.6177315E-3,1.5462759E-3,7.7943327E-3,-7.48725E-4,3.7251494E-3,1.7319669E-3,-2.5611673E-4,7.1489937E-3,2.3512375E-3,2.747162E-3,5.7340953E-3,1.1241043E-3,-2.1501367E-3,7.230331E-3,3.1928383E-3,7.300333E-3,1.6874714E-2,-8.391523E-4,8.273261E-3,-3.4768737E-4,-3.6328032E-3,9.855992E-3,7.163024E-3,2.1247526E-4,6.862294E-3,8.995778E-3,1.0189799E-3,1.2244037E-2,8.911457E-3,2.159598E-3,9.105346E-3,1.367745E-2,1.0480289E-2,1.38993785E-2,4.645401E-3,1.957815E-2,1.5742173E-2,1.8638374E-2,4.3298E-3,1.35982875E-2,1.8781567E-2,2.2722311E-2,1.9747626E-2],"categories":[],"categories_nodes":[],"categories_segments":[],"categories_sizes":[],"default_left":[0,0,0,0,0,0,0,0,0,0,0,0,0,0,0,0,0,0,0,0,0,0,0,0,0,0,0,0,0,0,0,0,0,0,0,0,0,0,0,0,0,0,0,0,0,0,0,0,0,0,0,0,0,0,0,0,0,0,0,0,0,0,0,0,0,0,0,0,0,0,0,0,0,0,0,0,0,0,0,0,0,0,0,0,0,0,0,0,0,0,0,0,0,0,0,0,0,0,0,0,0,0,0,0,0,0,0,0,0,0,0,0,0,0,0,0,0,0,0,0,0],"id":7,"left_children":[1,3,5,7,9,11,13,15,17,19,21,23,25,27,29,31,33,35,37,39,41,43,45,47,49,51,53,55,57,59,61,-1,-1,63,65,67,69,71,73,75,77,79,81,83,85,87,89,91,93,95,97,99,101,103,105,107,109,111,113,115,117,119,-1,-1,-1,-1,-1,-1,-1,-1,-1,-1,-1,-1,-1,-1,-1,-1,-1,-1,-1,-1,-1,-1,-1,-1,-1,-1,-1,-1,-1,-1,-1,-1,-1,-1,-1,-1,-1,-1,-1,-1,-1,-1,-1,-1,-1,-1,-1,-1,-1,-1,-1,-1,-1,-1,-1,-1,-1,-1,-1],"loss_changes":[3.8717624E2,4.456227E1,4.8171204E1,2.9893494E0,4.642849E0,5.134804E0,7.128296E0,2.609253E-1,4.054079E-1,9.835019E-1,1.5439005E0,1.3207893E0,1.4175262E0,2.2430344E0,1.4949188E0,2.8076172E-3,2.1490097E-2,1.0301304E-1,9.250015E-2,3.8963795E-1,4.8343349E-1,9.5417684E-1,8.8776016E-1,1.2888489E0,1.9503894E-1,5.1937294E-1,6.8917465E-1,7.064247E-1,1.1591873E0,5.214882E-1,6.4495087E-1,0E0,0E0,2.1076202E-4,8.933783E-3,5.237484E-2,3.4952223E-2,6.517851E-2,6.989702E-2,1.07768774E-1,2.5104064E-1,2.6121172E-1,2.804894E-1,5.753942E-1,5.303017E-1,6.6352797E-1,8.48404E-2,1.6674747E0,6.913681E-1,2.2654314E-1,6.720033E-2,5.652828E-1,1.5482664E-1,2.456013E-1,5.762367E-1,2.1929562E-1,4.6460342E-1,5.614815E-1,7.382355E-1,5.196979E-1,3.3088303E-1,1.5493774E-1,0E0,0E0,0E0,0E0,0E0,0E0,0E0,0E0,0E0,0E0,0E0,0E0,0E0,0E0,0E0,0E0,0E0,0E0,0E0,0E0,0E0,0E0,0E0,0E0,0E0,0E0,0E0,0E0,0E0,0E0,0E0,0E0,0E0,0E0,0E0,0E0,0E0,0E0,0E0,0E0,0E0,0E0,0E0,0E0,0E0,0E0,0E0,0E0,0E0,0E0,0E0,0E0,0E0,0E0,0E0,0E0,0E0,0E0,0E0],"parents":[2147483647,0,0,1,1,2,2,3,3,4,4,5,5,6,6,7,7,8,8,9,9,10,10,11,11,12,12,13,13,14,14,15,15,16,16,17,17,18,18,19,19,20,20,21,21,22,22,23,23,24,24,25,25,26,26,27,27,28,28,29,29,30,30,33,33,34,34,35,35,36,36,37,37,38,38,39,39,40,40,41,41,42,42,43,43,44,44,45,45,46,46,47,47,48,48,49,49,50,50,51,51,52,52,53,53,54,54,55,55,56,56,57,57,58,58,59,59,60,60,61,61],"right_children":[2,4,6,8,10,12,14,16,18,20,22,24,26,28,30,32,34,36,38,40,42,44,46,48,50,52,54,56,58,60,62,-1,-1,64,66,68,70,72,74,76,78,80,82,84,86,88,90,92,94,96,98,100,102,104,106,108,110,112,114,116,118,120,-1,-1,-1,-1,-1,-1,-1,-1,-1,-1,-1,-1,-1,-1,-1,-1,-1,-1,-1,-1,-1,-1,-1,-1,-1,-1,-1,-1,-1,-1,-1,-1,-1,-1,-1,-1,-1,-1,-1,-1,-1,-1,-1,-1,-1,-1,-1,-1,-1,-1,-1,-1,-1,-1,-1,-1,-1,-1,-1],"split_conditions":[6.3652797E4,1.804364E4,1.19658234E5,6.1016997E3,3.6910074E4,9.010312E4,1.574683E5,8.795159E1,7.1532117E2,2.0817001E1,4.491E2,1.4999999E-2,1.05158305E5,1.24771914E5,5.497E2,8.5E0,4.0966997E3,9E0,6E-1,6.606936E4,1E2,7.8419305E4,1.5000001E-2,4.642E2,2.779E2,7.5E-3,9.8384E3,1.0467425E5,1.62009E2,2.0916354E2,1E-2,-5.4525374E-3,-5.234677E-3,1.3206439E4,1.604175E1,1.081E2,4.175817E4,8.92E1,7.96E1,8E0,1.06559E2,5.018832E3,1.0245E3,1E0,1.9610599E0,5.515152E4,7.5E-1,1E0,1.0312E3,3.696846E-2,7.71E1,1E0,1.6878E3,3.311E2,2E0,1.1579547E5,6.6475E1,9.729396E-1,1E0,1.1745156E6,5.1577425E0,2E0,8.148494E-3,-4.942553E-3,-4.5913705E-3,-4.4467817E-3,-2.9361707E-3,-3.9604683E-3,-3.1416153E-3,-2.9250232E-3,-1.173897E-3,-1.7163536E-3,-3.0795578E-3,2.923221E-3,-1.2484406E-3,-2.4261503E-3,-1.4379943E-3,-1.0843958E-3,2.6177315E-3,1.5462759E-3,7.7943327E-3,-7.48725E-4,3.7251494E-3,1.7319669E-3,-2.5611673E-4,7.1489937E-3,2.3512375E-3,2.747162E-3,5.7340953E-3,1.1241043E-3,-2.1501367E-3,7.230331E-3,3.1928383E-3,7.300333E-3,1.6874714E-2,-8.391523E-4,8.273261E-3,-3.4768737E-4,-3.6328032E-3,9.855992E-3,7.163024E-3,2.1247526E-4,6.862294E-3,8.995778E-3,1.0189799E-3,1.2244037E-2,8.911457E-3,2.159598E-3,9.105346E-3,1.367745E-2,1.0480289E-2,1.38993785E-2,4.645401E-3,1.957815E-2,1.5742173E-2,1.8638374E-2,4.3298E-3,1.35982875E-2,1.8781567E-2,2.2722311E-2,1.9747626E-2],"split_indices":[41,41,41,41,41,41,53,97,43,138,117,129,161,53,106,93,41,3,85,161,87,53,129,117,66,129,34,54,137,103,75,0,0,95,138,51,161,27,27,3,83,97,20,0,192,161,130,0,20,183,135,0,57,58,0,161,125,152,0,70,191,0,0,0,0,0,0,0,0,0,0,0,0,0,0,0,0,0,0,0,0,0,0,0,0,0,0,0,0,0,0,0,0,0,0,0,0,0,0,0,0,0,0,0,0,0,0,0,0,0,0,0,0,0,0,0,0,0,0,0,0],"split_type":[0,0,0,0,0,0,0,0,0,0,0,0,0,0,0,0,0,0,0,0,0,0,0,0,0,0,0,0,0,0,0,0,0,0,0,0,0,0,0,0,0,0,0,0,0,0,0,0,0,0,0,0,0,0,0,0,0,0,0,0,0,0,0,0,0,0,0,0,0,0,0,0,0,0,0,0,0,0,0,0,0,0,0,0,0,0,0,0,0,0,0,0,0,0,0,0,0,0,0,0,0,0,0,0,0,0,0,0,0,0,0,0,0,0,0,0,0,0,0,0,0],"sum_hessian":[2.4612E4,1.8662E4,5.95E3,1.3533E4,5.129E3,3.566E3,2.384E3,1.1398E4,2.135E3,2.533E3,2.596E3,1.919E3,1.647E3,1.484E3,9E2,9.761E3,1.637E3,1.689E3,4.46E2,1.56E3,9.73E2,1.759E3,8.37E2,1.825E3,9.4E1,8.67E2,7.8E2,6.4E2,8.44E2,3.43E2,5.57E2,8.919E3,8.42E2,1.167E3,4.7E2,1.44E3,2.49E2,4.05E2,4.1E1,1.362E3,1.98E2,2.74E2,6.99E2,1.483E3,2.76E2,7.5E2,8.7E1,1.061E3,7.64E2,2.6E1,6.8E1,8.28E2,3.9E1,3.9E1,7.41E2,4.7E1,5.93E2,2.52E2,5.92E2,2.7E1,3.16E2,5.47E2,1E1,9.18E2,2.49E2,4.52E2,1.8E1,1.175E3,2.65E2,2.14E2,3.5E1,2.71E2,1.34E2,1.5E1,2.6E1,9.68E2,3.94E2,1.28E2,7E1,2.57E2,1.7E1,6.63E2,3.6E1,6.38E2,8.45E2,8.2E1,1.94E2,3.7E2,3.8E2,2.9E1,5.8E1,4.35E2,6.26E2,7.45E2,1.9E1,1.4E1,1.2E1,4.5E1,2.3E1,3.64E2,4.64E2,2.7E1,1.2E1,1.6E1,2.3E1,5.52E2,1.89E2,2.1E1,2.6E1,4.04E2,1.89E2,2.33E2,1.9E1,2.58E2,3.34E2,1E1,1.7E1,5E1,2.66E2,4.19E2,1.28E2],"tree_param":{"num_deleted":"0","num_feature":"217","num_nodes":"121","size_leaf_vector":"1"}},{"base_weights":[-8.105507E-4,-6.676619E-2,2.1022755E-1,-9.548465E-2,6.963073E-3,1.3822399E-1,3.1063208E-1,-1.01924695E-1,-6.535462E-2,-2.2708429E-2,3.3394046E-2,1.21944495E-1,2.1071967E-1,2.6743367E-1,3.700428E-1,-5.1645967E-3,-9.1854766E-2,-7.044655E-2,-3.0941792E-2,-3.7003875E-2,-1.5757012E-3,1.4765937E-2,7.939274E-2,5.8255184E-2,1.3337614E-1,2.2818738E-1,1.4795278E-1,2.0760895E-1,2.860859E-1,3.9948803E-1,3.0832353E-1,-9.372298E-2,-8.445369E-2,-7.750436E-2,-6.312874E-2,-2.1542437E-2,-6.1843228E-2,-4.5353595E-2,-1.1877894E-2,-8.5623525E-3,4.6151552E-2,9.669792E-3,8.0276266E-2,9.037117E-2,-2.4512751E-2,-4.1583437E-2,6.322678E-2,8.206434E-2,1.4427012E-1,2.4853116E-1,1.6322008E-1,2.3990823E-1,1.1006991E-1,1.0311866E-1,2.191107E-1,2.9225358E-1,1.3988677E-1,4.047102E-1,6.7362264E-3,1.491324E-1,3.2217634E-1,-4.699423E-3,-3.3511196E-3,-3.697666E-3,-4.536954E-3,-4.000899E-3,-2.9543578E-3,-3.2809486E-3,-1.9902382E-3,8.371168E-4,-1.3971279E-3,-3.8232028E-3,-2.162668E-3,-3.3886114E-3,-2.0755602E-3,1.0309393E-3,-1.8462836E-3,-5.395047E-4,4.653732E-3,7.2042583E-3,1.6000823E-3,-2.5804488E-3,7.96332E-4,7.6008188E-3,2.3595227E-3,4.0096813E-3,9.0505E-3,6.061085E-5,-2.891977E-3,-4.0368373E-3,6.7509034E-5,3.4348883E-3,3.518368E-5,7.405821E-3,1.8720931E-3,7.4814097E-3,1.9744092E-3,1.0691508E-2,1.41412215E-2,9.276654E-3,1.3236192E-3,7.073319E-3,1.6111908E-2,3.3433684E-3,7.5557106E-3,8.613381E-3,7.850568E-4,3.1142288E-3,1.126187E-2,1.6460774E-2,1.314583E-2,4.32476E-3,1.3438287E-2,1.7034795E-2,2.1117982E-2,1.1296832E-2,1.4565214E-4,1.8259848E-2,1.4399002E-2],"categories":[],"categories_nodes":[],"categories_segments":[],"categories_sizes":[],"default_left":[0,0,0,0,0,0,0,0,0,0,0,0,0,0,0,0,0,0,0,0,0,0,0,0,0,0,0,0,0,0,0,0,0,0,0,0,0,0,0,0,0,0,0,0,0,0,0,0,0,0,0,0,0,0,0,0,0,0,0,0,0,0,0,0,0,0,0,0,0,0,0,0,0,0,0,0,0,0,0,0,0,0,0,0,0,0,0,0,0,0,0,0,0,0,0,0,0,0,0,0,0,0,0,0,0,0,0,0,0,0,0,0,0,0,0,0,0,0,0],"id":8,"left_children":[1,3,5,7,9,11,13,15,17,19,21,23,25,27,29,-1,31,33,35,37,39,41,43,45,47,49,51,53,55,57,59,61,63,65,67,69,71,73,75,77,79,81,83,85,87,89,91,93,95,97,99,101,103,105,107,109,111,113,-1,115,117,-1,-1,-1,-1,-1,-1,-1,-1,-1,-1,-1,-1,-1,-1,-1,-1,-1,-1,-1,-1,-1,-1,-1,-1,-1,-1,-1,-1,-1,-1,-1,-1,-1,-1,-1,-1,-1,-1,-1,-1,-1,-1,-1,-1,-1,-1,-1,-1,-1,-1,-1,-1,-1,-1,-1,-1,-1,-1],"loss_changes":[3.4541782E2,4.0034172E1,4.2676086E1,2.6336288E0,4.15805E0,4.037712E0,6.2324524E0,1.4483643E-1,4.181919E-1,7.545918E-1,2.401487E0,2.041031E0,6.5696716E-1,1.5385284E0,1.7595978E0,0E0,1.0736465E-2,1.0299873E-1,8.8998795E-2,3.120556E-1,3.3684996E-1,6.659224E-1,9.239168E-1,2.160629E-1,1.3213501E0,6.083813E-1,4.6128845E-1,3.9083195E-1,9.410782E-1,9.10553E-1,6.9952774E-1,1.2712479E-3,1.190114E-2,4.429722E-2,5.7270527E-2,5.9274316E-2,1.6262233E-2,9.349275E-2,3.0437204E-1,2.0048109E-1,1.7415097E-1,7.1166784E-1,3.3462173E-1,6.598177E-1,6.69419E-2,3.5409864E-2,1.4019728E-1,1.2323651E0,1.0978584E0,3.8220596E-1,3.6123872E-1,2.786026E-1,1.689905E-1,2.149091E-1,2.8286648E-1,1.0455093E0,2.9328144E-1,6.288986E-1,0E0,3.2501948E-1,3.5235977E-1,0E0,0E0,0E0,0E0,0E0,0E0,0E0,0E0,0E0,0E0,0E0,0E0,0E0,0E0,0E0,0E0,0E0,0E0,0E0,0E0,0E0,0E0,0E0,0E0,0E0,0E0,0E0,0E0,0E0,0E0,0E0,0E0,0E0,0E0,0E0,0E0,0E0,0E0,0E0,0E0,0E0,0E0,0E0,0E0,0E0,0E0,0E0,0E0,0E0,0E0,0E0,0E0,0E0,0E0,0E0,0E0,0E0,0E0],"parents":[2147483647,0,0,1,1,2,2,3,3,4,4,5,5,6,6,7,7,8,8,9,9,10,10,11,11,12,12,13,13,14,14,16,16,17,17,18,18,19,19,20,20,21,21,22,22,23,23,24,24,25,25,26,26,27,27,28,28,29,29,30,30,31,31,32,32,33,33,34,34,35,35,36,36,37,37,38,38,39,39,40,40,41,41,42,42,43,43,44,44,45,45,46,46,47,47,48,48,49,49,50,50,51,51,52,52,53,53,54,54,55,55,56,56,57,57,59,59,60,60],"right_children":[2,4,6,8,10,12,14,16,18,20,22,24,26,28,30,-1,32,34,36,38,40,42,44,46,48,50,52,54,56,58,60,62,64,66,68,70,72,74,76,78,80,82,84,86,88,90,92,94,96,98,100,102,104,106,108,110,112,114,-1,116,118,-1,-1,-1,-1,-1,-1,-1,-1,-1,-1,-1,-1,-1,-1,-1,-1,-1,-1,-1,-1,-1,-1,-1,-1,-1,-1,-1,-1,-1,-1,-1,-1,-1,-1,-1,-1,-1,-1,-1,-1,-1,-1,-1,-1,-1,-1,-1,-1,-1,-1,-1,-1,-1,-1,-1,-1,-1,-1],"split_conditions":[6.3652797E4,6.25E1,4.1140002E2,1.61E1,1.268E2,1.1237933E5,1.5179169E5,1.035E1,8.570201E2,2.693E2,4.981E2,5.144832E4,2E0,1.076325E5,9.960977E4,-5.1645967E-3,5.1551E3,3.48E1,2E-1,4.7613582E4,1.12E1,8.5028875E4,2E-2,2.744E2,1.02796875E2,7.56E1,2.2968578E1,1.71635E2,5E-3,1E0,2.0860316E2,3.3990276E1,1E0,1.5696249E1,1E0,2.4365277E0,4.419E2,2.752E2,1E0,2.7204E3,8.575E1,2.737E2,3.909562E1,4.4798613E0,3E-2,8.707873E-3,7.5E-3,1E0,7.5E-3,1.22243E2,4.1700283E1,1.624138E1,3.581E2,1.8083161E0,1.036431E5,1E0,1.2382105E1,1.0093E3,6.7362264E-3,1.1073538E6,1E0,-4.699423E-3,-3.3511196E-3,-3.697666E-3,-4.536954E-3,-4.000899E-3,-2.9543578E-3,-3.2809486E-3,-1.9902382E-3,8.371168E-4,-1.3971279E-3,-3.8232028E-3,-2.162668E-3,-3.3886114E-3,-2.0755602E-3,1.0309393E-3,-1.8462836E-3,-5.395047E-4,4.653732E-3,7.2042583E-3,1.6000823E-3,-2.5804488E-3,7.96332E-4,7.6008188E-3,2.3595227E-3,4.0096813E-3,9.0505E-3,6.061085E-5,-2.891977E-3,-4.0368373E-3,6.7509034E-5,3.4348883E-3,3.518368E-5,7.405821E-3,1.8720931E-3,7.4814097E-3,1.9744092E-3,1.0691508E-2,1.41412215E-2,9.276654E-3,1.3236192E-3,7.073319E-3,1.6111908E-2,3.3433684E-3,7.5557106E-3,8.613381E-3,7.850568E-4,3.1142288E-3,1.126187E-2,1.6460774E-2,1.314583E-2,4.32476E-3,1.3438287E-2,1.7034795E-2,2.1117982E-2,1.1296832E-2,1.4565214E-4,1.8259848E-2,1.4399002E-2],"split_indices":[41,39,39,39,39,53,53,147,43,9,63,53,0,53,170,0,203,39,26,53,177,53,129,32,48,27,171,29,129,76,49,2,0,138,46,175,9,32,0,57,141,140,171,213,21,206,129,0,129,29,210,209,39,195,54,0,204,82,0,16,0,0,0,0,0,0,0,0,0,0,0,0,0,0,0,0,0,0,0,0,0,0,0,0,0,0,0,0,0,0,0,0,0,0,0,0,0,0,0,0,0,0,0,0,0,0,0,0,0,0,0,0,0,0,0,0,0,0,0],"split_type":[0,0,0,0,0,0,0,0,0,0,0,0,0,0,0,0,0,0,0,0,0,0,0,0,0,0,0,0,0,0,0,0,0,0,0,0,0,0,0,0,0,0,0,0,0,0,0,0,0,0,0,0,0,0,0,0,0,0,0,0,0,0,0,0,0,0,0,0,0,0,0,0,0,0,0,0,0,0,0,0,0,0,0,0,0,0,0,0,0,0,0,0,0,0,0,0,0,0,0,0,0,0,0,0,0,0,0,0,0,0,0,0,0,0,0,0,0,0,0],"sum_hessian":[2.4814E4,1.8906E4,5.908E3,1.3606E4,5.3E3,3.442E3,2.466E3,1.1208E4,2.398E3,2.497E3,2.803E3,2.813E3,6.29E2,1.431E3,1.035E3,9.86E3,1.348E3,2.088E3,3.1E2,1.489E3,1.008E3,1.996E3,8.07E2,4.29E2,2.384E3,4.9E2,1.39E2,3.43E2,1.088E3,6.97E2,3.38E2,1.067E3,2.81E2,1.058E3,1.03E3,2.39E2,7.1E1,1.117E3,3.72E2,8.8E2,1.28E2,1.853E3,1.43E2,7.3E2,7.7E1,2E1,4.09E2,4.19E2,1.965E3,3.71E2,1.19E2,3.9E1,1E2,3.5E1,3.08E2,1.043E3,4.5E1,6.83E2,1.4E1,2.8E1,3.1E2,1.054E3,1.3E1,1.1E2,1.71E2,9.28E2,1.3E2,9.29E2,1.01E2,3.4E1,2.05E2,3.8E1,3.3E1,1.61E2,9.56E2,1.62E2,2.1E2,8.62E2,1.8E1,1.5E1,1.13E2,1.71E2,1.682E3,4.4E1,9.9E1,6.58E2,7.2E1,4.4E1,3.3E1,1E1,1E1,3.76E2,3.3E1,1.68E2,2.51E2,1.869E3,9.6E1,1.88E2,1.83E2,1.02E2,1.7E1,1.9E1,2E1,5E1,5E1,1.9E1,1.6E1,1.2E1,2.96E2,4.57E2,5.86E2,3.3E1,1.2E1,1.52E2,5.31E2,1.8E1,1E1,1.33E2,1.77E2],"tree_param":{"num_deleted":"0","num_feature":"217","num_nodes":"119","size_leaf_vector":"1"}},{"base_weights":[-5.192464E-5,-6.330481E-2,2.0081328E-1,-9.01973E-2,9.149327E-3,1.4276484E-1,3.1745568E-1,-9.69E-2,-6.161489E-2,-1.9054232E-2,3.5081293E-2,1.0553352E-1,1.879614E-1,2.700644E-1,3.58103E-1,-9.810466E-2,-8.7049484E-2,-6.694152E-2,-3.2284573E-2,-3.273932E-2,2.806965E-3,2.0833487E-2,8.0413006E-2,8.82212E-2,1.5252547E-1,1.548888E-1,2.1252601E-1,2.0498155E-1,2.860551E-1,3.3143294E-1,4.0547055E-1,-4.921576E-3,-4.736178E-3,-8.8210985E-2,-7.424127E-2,-6.929584E-2,-4.792175E-2,-2.5324654E-2,-6.5131545E-2,-3.8229827E-2,2.5687335E-5,-6.0951095E-3,6.2203683E-2,1.4281848E-2,7.374076E-2,4.3079216E-2,1.2342231E-1,9.637334E-2,-1.2717342E-2,1.6685134E-1,4.297479E-2,1.8305437E-1,1.2495824E-1,1.6444802E-1,2.3091011E-1,1.366145E-1,2.5182673E-1,2.914008E-1,1.2969092E-1,3.4961367E-1,2.7623987E-1,8.5264705E-3,4.1140756E-1,-4.5592496E-3,-4.264252E-3,-3.1663456E-3,-4.1116206E-3,-3.613839E-3,-2.6686504E-3,-2.5413777E-3,2.0490414E-5,-1.5136288E-3,2.322341E-3,-4.0060845E-3,-2.5942947E-3,-1.9638855E-3,1.8972273E-3,-7.8669115E-4,3.8559407E-3,-4.5792595E-4,4.049606E-3,1.5966765E-3,6.0982555E-3,-1.5009822E-3,9.605299E-4,6.2164064E-3,2.4646593E-3,3.4349621E-3,3.034911E-4,7.6274546E-3,2.161862E-3,4.0015425E-3,6.9386023E-3,-6.288228E-3,2.8393927E-3,7.6582427E-3,1.3730829E-2,-8.834749E-5,8.49206E-3,1.2069176E-2,8.169389E-3,7.4371467E-3,3.8099473E-3,8.81229E-3,3.3084635E-4,1.1750412E-2,3.1621866E-3,1.2190205E-2,3.519385E-3,1.4785568E-2,7.380786E-3,1.6168682E-2,1.2715645E-2,1.0259713E-2,3.4838337E-3,1.5078134E-2,1.8801896E-2,9.098989E-3,1.5337172E-2,1.14741195E-2,2.0872008E-2],"categories":[],"categories_nodes":[],"categories_segments":[],"categories_sizes":[],"default_left":[0,0,0,0,0,0,0,0,0,0,0,0,0,0,0,0,0,0,0,0,0,0,0,0,0,0,0,0,0,0,0,0,0,0,0,0,0,0,0,0,0,0,0,0,0,0,0,0,0,0,0,0,0,0,0,0,0,0,0,0,0,0,0,0,0,0,0,0,0,0,0,0,0,0,0,0,0,0,0,0,0,0,0,0,0,0,0,0,0,0,0,0,0,0,0,0,0,0,0,0,0,0,0,0,0,0,0,0,0,0,0,0,0,0,0,0,0,0,0,0,0],"id":9,"left_children":[1,3,5,7,9,11,13,15,17,19,21,23,25,27,29,31,33,35,37,39,41,43,45,47,49,51,53,55,57,59,61,-1,-1,63,65,67,69,71,73,75,77,79,81,83,85,87,89,91,93,95,97,99,101,103,105,107,109,111,113,115,117,-1,119,-1,-1,-1,-1,-1,-1,-1,-1,-1,-1,-1,-1,-1,-1,-1,-1,-1,-1,-1,-1,-1,-1,-1,-1,-1,-1,-1,-1,-1,-1,-1,-1,-1,-1,-1,-1,-1,-1,-1,-1,-1,-1,-1,-1,-1,-1,-1,-1,-1,-1,-1,-1,-1,-1,-1,-1,-1,-1],"loss_changes":[3.151297E2,3.675486E1,4.017389E1,2.6295853E0,3.735794E0,6.657219E0,3.7039337E0,1.23672485E-1,4.0654087E-1,7.321666E-1,1.7170041E0,1.7584324E0,1.4221191E0,8.9362335E-1,1.2034454E0,1.6403198E-3,1.1645317E-2,9.57737E-2,9.0709925E-2,2.7074528E-1,4.9899417E-1,7.012178E-1,1.0159087E0,1.3128719E0,9.109335E-1,6.2371445E-1,8.679962E-1,5.548878E-1,5.7407E-1,5.8878326E-1,4.5569992E-1,0E0,0E0,1.9350052E-3,4.2120814E-3,8.950615E-2,3.470999E-2,1.2037118E-1,9.741604E-3,1.04380846E-1,2.648575E-1,2.197713E-1,2.186107E-1,3.9448184E-1,2.6966417E-1,3.2386118E-1,6.823864E-1,1.0109224E0,9.500262E-1,7.2047615E-1,3.9195958E-1,4.113865E-1,4.2356253E-1,5.3324366E-1,4.929161E-1,5.294486E-1,4.5026112E-1,7.561264E-1,1.0351589E-1,5.34153E-1,4.4447517E-1,0E0,3.0698395E-1,0E0,0E0,0E0,0E0,0E0,0E0,0E0,0E0,0E0,0E0,0E0,0E0,0E0,0E0,0E0,0E0,0E0,0E0,0E0,0E0,0E0,0E0,0E0,0E0,0E0,0E0,0E0,0E0,0E0,0E0,0E0,0E0,0E0,0E0,0E0,0E0,0E0,0E0,0E0,0E0,0E0,0E0,0E0,0E0,0E0,0E0,0E0,0E0,0E0,0E0,0E0,0E0,0E0,0E0,0E0,0E0,0E0,0E0],"parents":[2147483647,0,0,1,1,2,2,3,3,4,4,5,5,6,6,7,7,8,8,9,9,10,10,11,11,12,12,13,13,14,14,15,15,16,16,17,17,18,18,19,19,20,20,21,21,22,22,23,23,24,24,25,25,26,26,27,27,28,28,29,29,30,30,33,33,34,34,35,35,36,36,37,37,38,38,39,39,40,40,41,41,42,42,43,43,44,44,45,45,46,46,47,47,48,48,49,49,50,50,51,51,52,52,53,53,54,54,55,55,56,56,57,57,58,58,59,59,60,60,62,62],"right_children":[2,4,6,8,10,12,14,16,18,20,22,24,26,28,30,32,34,36,38,40,42,44,46,48,50,52,54,56,58,60,62,-1,-1,64,66,68,70,72,74,76,78,80,82,84,86,88,90,92,94,96,98,100,102,104,106,108,110,112,114,116,118,-1,120,-1,-1,-1,-1,-1,-1,-1,-1,-1,-1,-1,-1,-1,-1,-1,-1,-1,-1,-1,-1,-1,-1,-1,-1,-1,-1,-1,-1,-1,-1,-1,-1,-1,-1,-1,-1,-1,-1,-1,-1,-1,-1,-1,-1,-1,-1,-1,-1,-1,-1,-1,-1,-1,-1,-1,-1,-1,-1],"split_conditions":[6.3652797E4,1.874763E4,4.4640002E2,1.52E1,3.6910074E4,9.400893E4,5.6580005E2,8.795159E1,8.3694446E2,2.0817001E1,1.8400111E6,1.9748032E6,3.63825E2,1.0065E3,6.46E2,2.14016E3,8.49367E3,4.4035668E4,1.2909941E-2,2.676E2,1.1460221E1,3.68E2,2.051E2,2.4993889E1,1E0,7.3305E1,1.1340671E5,1.8578229E2,5E-3,3.5000002E-1,-3.7E0,-4.921576E-3,-4.736178E-3,7.212455E1,1.7100313E2,1.5372749E1,2.652E2,2.9E0,5.807E2,3E-1,9E0,2.7773E3,6.4024976E3,2.7425E2,3.9650253E1,2.829E2,8.42E1,3.546E2,9.896E2,4.4809998E2,1.238E0,7.6914717E3,-3E-1,2.5823042E-1,5.7735026E-1,5.811309E3,2.929E2,6.406541E4,6.5037E3,1.0005E3,1.5276185E-1,8.5264705E-3,2.2730415E2,-4.5592496E-3,-4.264252E-3,-3.1663456E-3,-4.1116206E-3,-3.613839E-3,-2.6686504E-3,-2.5413777E-3,2.0490414E-5,-1.5136288E-3,2.322341E-3,-4.0060845E-3,-2.5942947E-3,-1.9638855E-3,1.8972273E-3,-7.8669115E-4,3.8559407E-3,-4.5792595E-4,4.049606E-3,1.5966765E-3,6.0982555E-3,-1.5009822E-3,9.605299E-4,6.2164064E-3,2.4646593E-3,3.4349621E-3,3.034911E-4,7.6274546E-3,2.161862E-3,4.0015425E-3,6.9386023E-3,-6.288228E-3,2.8393927E-3,7.6582427E-3,1.3730829E-2,-8.834749E-5,8.49206E-3,1.2069176E-2,8.169389E-3,7.4371467E-3,3.8099473E-3,8.81229E-3,3.3084635E-4,1.1750412E-2,3.1621866E-3,1.2190205E-2,3.519385E-3,1.4785568E-2,7.380786E-3,1.6168682E-2,1.2715645E-2,1.0259713E-2,3.4838337E-3,1.5078134E-2,1.8801896E-2,9.098989E-3,1.5337172E-2,1.14741195E-2,2.0872008E-2],"split_indices":[41,41,39,39,41,41,105,97,43,138,116,8,159,82,93,95,211,161,183,105,177,105,105,2,76,50,149,102,129,144,36,0,0,151,102,138,105,37,10,85,3,57,211,140,171,12,27,51,23,105,60,211,37,182,184,97,140,170,61,77,194,0,102,0,0,0,0,0,0,0,0,0,0,0,0,0,0,0,0,0,0,0,0,0,0,0,0,0,0,0,0,0,0,0,0,0,0,0,0,0,0,0,0,0,0,0,0,0,0,0,0,0,0,0,0,0,0,0,0,0,0],"split_type":[0,0,0,0,0,0,0,0,0,0,0,0,0,0,0,0,0,0,0,0,0,0,0,0,0,0,0,0,0,0,0,0,0,0,0,0,0,0,0,0,0,0,0,0,0,0,0,0,0,0,0,0,0,0,0,0,0,0,0,0,0,0,0,0,0,0,0,0,0,0,0,0,0,0,0,0,0,0,0,0,0,0,0,0,0,0,0,0,0,0,0,0,0,0,0,0,0,0,0,0,0,0,0,0,0,0,0,0,0,0,0,0,0,0,0,0,0,0,0,0,0],"sum_hessian":[2.4801E4,1.8862E4,5.939E3,1.3756E4,5.106E3,3.967E3,1.972E3,1.1141E4,2.615E3,2.446E3,2.66E3,2.177E3,1.79E3,9.14E2,1.058E3,9.919E3,1.222E3,2.212E3,4.03E2,1.504E3,9.42E2,2.025E3,6.35E2,1.593E3,5.84E2,7.66E2,1.024E3,1.83E2,7.31E2,6.82E2,3.76E2,9.019E3,9E2,1.115E3,1.07E2,1.966E3,2.46E2,3.34E2,6.9E1,1.288E3,2.16E2,8.2E2,1.22E2,1.803E3,2.22E2,3.41E2,2.94E2,1.474E3,1.19E2,5.16E2,6.8E1,3.92E2,3.74E2,2.86E2,7.38E2,7.6E1,1.07E2,7.06E2,2.5E1,5.09E2,1.73E2,1E1,3.66E2,5.38E2,5.77E2,4.9E1,5.8E1,1.653E3,3.13E2,2.32E2,1.4E1,3.13E2,2.1E1,3E1,3.9E1,1.271E3,1.7E1,1.8E2,3.6E1,7.93E2,2.7E1,8.2E1,4E1,1.8E2,1.623E3,7.1E1,1.51E2,2.01E2,1.4E2,2.15E2,7.9E1,1.066E3,4.08E2,4.5E1,7.4E1,4.6E2,5.6E1,5.1E1,1.7E1,9.6E1,2.96E2,2.5E2,1.24E2,2.66E2,2E1,7.2E2,1.8E1,2.8E1,4.8E1,7.4E1,3.3E1,3.75E2,3.31E2,1E1,1.5E1,1.85E2,3.24E2,4.4E1,1.29E2,1.3E1,3.53E2],"tree_param":{"num_deleted":"0","num_feature":"217","num_nodes":"121","size_leaf_vector":"1"}},{"base_weights":[1.0327568E-4,-6.1921738E-2,1.8207821E-1,-8.566855E-2,4.292008E-3,1.2677792E-1,2.9298887E-1,-9.1658965E-2,-5.6124143E-2,-1.3754373E-2,4.0527202E-2,9.3726404E-2,1.7792663E-1,2.6477867E-1,3.618616E-1,-9.3110755E-2,-8.050169E-2,-6.6797264E-2,-3.4913283E-2,-2.9702188E-2,1.3800967E-2,1.9509584E-2,8.572007E-2,9.972485E-2,-1.17517095E-2,1.4291947E-1,2.0027097E-1,2.1623285E-1,2.9245165E-1,4.1191606E-3,3.6642793E-1,-4.675695E-3,-4.482494E-3,-4.160219E-3,-7.002842E-2,-7.2925754E-2,-6.0109437E-2,-3.8717028E-2,6.13133E-3,-3.4905303E-2,-2.0682632E-3,3.549513E-2,-3.8259076E-3,4.38154E-2,-1.3217527E-3,1.4365205E-1,6.0236525E-2,8.343332E-2,1.3942683E-1,5.939053E-4,-4.4552754E-3,1.5442756E-1,8.6877145E-2,1.6515207E-1,2.276322E-1,1.19406044E-1,2.307809E-1,3.00544E-1,1.4502187E-1,3.405185E-1,3.988506E-1,-2.8496648E-3,-3.921198E-3,-4.168629E-3,-3.5291575E-3,-3.1492596E-3,-2.326944E-3,-3.128454E-3,-1.6546745E-3,4.304773E-3,-9.537839E-4,-2.4644972E-3,-1.3457034E-3,-8.028578E-4,3.6110121E-3,-1.4358842E-4,3.2045809E-3,-2.2037437E-3,5.031843E-4,3.2131101E-3,6.415089E-4,-3.5939223E-4,4.5064115E-3,1.3702082E-2,5.649419E-3,1.3648317E-3,4.973784E-3,5.97665E-3,2.9081577E-3,7.6724663E-3,3.0994376E-3,-1.3204765E-3,2.2304168E-3,9.143908E-3,6.568901E-3,5.1956493E-3,-7.2178454E-4,4.105491E-3,9.122281E-3,7.249625E-3,1.2116E-2,1.3919893E-2,4.1782535E-3,1.2269491E-2,6.2303436E-3,1.6494434E-2,1.3320428E-2,9.47462E-3,-1.6957896E-3,1.7568817E-2,1.3391252E-2,2.0213738E-2,1.2015034E-2],"categories":[],"categories_nodes":[],"categories_segments":[],"categories_sizes":[],"default_left":[0,0,0,0,0,0,0,0,0,0,0,0,0,0,0,0,0,0,0,0,0,0,0,0,0,0,0,0,0,0,0,0,0,0,0,0,0,0,0,0,0,0,0,0,0,0,0,0,0,0,0,0,0,0,0,0,0,0,0,0,0,0,0,0,0,0,0,0,0,0,0,0,0,0,0,0,0,0,0,0,0,0,0,0,0,0,0,0,0,0,0,0,0,0,0,0,0,0,0,0,0,0,0,0,0,0,0,0,0,0,0,0,0],"id":10,"left_children":[1,3,5,7,9,11,13,15,17,19,21,23,25,27,29,31,33,35,37,39,41,43,45,47,49,51,53,55,57,-1,59,-1,-1,-1,61,63,65,67,69,71,73,75,77,79,81,83,85,87,89,91,-1,93,95,97,99,101,103,105,107,109,111,-1,-1,-1,-1,-1,-1,-1,-1,-1,-1,-1,-1,-1,-1,-1,-1,-1,-1,-1,-1,-1,-1,-1,-1,-1,-1,-1,-1,-1,-1,-1,-1,-1,-1,-1,-1,-1,-1,-1,-1,-1,-1,-1,-1,-1,-1,-1,-1,-1,-1,-1,-1],"loss_changes":[2.7875494E2,2.8961777E1,3.8468292E1,2.3942108E0,3.1805418E0,7.06839E0,3.9609833E0,1.7505646E-1,5.156388E-1,1.4272959E0,1.5342295E0,1.6133022E0,1.2573318E0,1.9317245E0,7.406235E-1,5.5236816E-3,3.111267E-2,5.795622E-2,1.20140016E-1,2.9568815E-1,4.555745E-1,5.5954444E-1,7.486954E-1,1.5478153E0,1.3184018E-1,4.0192604E-1,9.24263E-1,7.373333E-1,1.0814667E0,0E0,3.6318207E-1,0E0,0E0,0E0,2.5516033E-2,1.3424873E-2,2.5674343E-2,9.222472E-2,1.3467565E-1,1.9765377E-1,3.4098262E-1,5.8606666E-1,3.6829302E-1,3.2228547E-1,3.2037437E-1,5.9275913E-1,4.6001148E-1,1.5548115E0,7.506027E-1,1.4380299E-1,0E0,3.255005E-1,1.9480646E-1,6.1977386E-1,6.445904E-1,3.9272046E-1,6.999874E-1,8.0662537E-1,4.1225696E-1,1.7188263E-1,1.2472916E-1,0E0,0E0,0E0,0E0,0E0,0E0,0E0,0E0,0E0,0E0,0E0,0E0,0E0,0E0,0E0,0E0,0E0,0E0,0E0,0E0,0E0,0E0,0E0,0E0,0E0,0E0,0E0,0E0,0E0,0E0,0E0,0E0,0E0,0E0,0E0,0E0,0E0,0E0,0E0,0E0,0E0,0E0,0E0,0E0,0E0,0E0,0E0,0E0,0E0,0E0,0E0,0E0],"parents":[2147483647,0,0,1,1,2,2,3,3,4,4,5,5,6,6,7,7,8,8,9,9,10,10,11,11,12,12,13,13,14,14,15,15,16,16,17,17,18,18,19,19,20,20,21,21,22,22,23,23,24,24,25,25,26,26,27,27,28,28,30,30,34,34,35,35,36,36,37,37,38,38,39,39,40,40,41,41,42,42,43,43,44,44,45,45,46,46,47,47,48,48,49,49,51,51,52,52,53,53,54,54,55,55,56,56,57,57,58,58,59,59,60,60],"right_children":[2,4,6,8,10,12,14,16,18,20,22,24,26,28,30,32,34,36,38,40,42,44,46,48,50,52,54,56,58,-1,60,-1,-1,-1,62,64,66,68,70,72,74,76,78,80,82,84,86,88,90,92,-1,94,96,98,100,102,104,106,108,110,112,-1,-1,-1,-1,-1,-1,-1,-1,-1,-1,-1,-1,-1,-1,-1,-1,-1,-1,-1,-1,-1,-1,-1,-1,-1,-1,-1,-1,-1,-1,-1,-1,-1,-1,-1,-1,-1,-1,-1,-1,-1,-1,-1,-1,-1,-1,-1,-1,-1,-1,-1,-1],"split_conditions":[6.889346E4,8.4524994E1,4.687E2,3.455289E2,3.719E2,3.63825E2,4.8285E2,3.53441E3,2.26025E2,4.782674E4,1.977E2,1E-2,3.67475E2,9.986E2,2.1499646E2,2.14016E3,5.94E1,5.5050003E1,6E-1,9E0,1E0,1E2,2.2091117E4,5.455E2,2.0823965E0,9.425E1,3.68E2,1.8333011E2,4.3634975E1,4.1191606E-3,7.21E2,-4.675695E-3,-4.482494E-3,-4.160219E-3,1E0,1.216E0,9E0,4.15E1,8.42E1,3.1068855E4,7.196574E4,4.430497E0,4E0,2.846E2,1.0245E3,-7.6124334E-1,7.234E2,1E0,9.96E1,2.4864E2,-4.4552754E-3,1E0,5.2481125E4,1.3931874E2,2.7602125E4,1.125E0,5.80901E4,2.2676497E1,1.6235348E6,3.543003E2,6.1964434E-1,-2.8496648E-3,-3.921198E-3,-4.168629E-3,-3.5291575E-3,-3.1492596E-3,-2.326944E-3,-3.128454E-3,-1.6546745E-3,4.304773E-3,-9.537839E-4,-2.4644972E-3,-1.3457034E-3,-8.028578E-4,3.6110121E-3,-1.4358842E-4,3.2045809E-3,-2.2037437E-3,5.031843E-4,3.2131101E-3,6.415089E-4,-3.5939223E-4,4.5064115E-3,1.3702082E-2,5.649419E-3,1.3648317E-3,4.973784E-3,5.97665E-3,2.9081577E-3,7.6724663E-3,3.0994376E-3,-1.3204765E-3,2.2304168E-3,9.143908E-3,6.568901E-3,5.1956493E-3,-7.2178454E-4,4.105491E-3,9.122281E-3,7.249625E-3,1.2116E-2,1.3919893E-2,4.1782535E-3,1.2269491E-2,6.2303436E-3,1.6494434E-2,1.3320428E-2,9.47462E-3,-1.6957896E-3,1.7568817E-2,1.3391252E-2,2.0213738E-2,1.2015034E-2],"split_indices":[149,147,147,97,9,147,123,149,117,149,159,129,159,23,49,95,93,147,85,3,0,33,176,117,148,163,106,49,209,0,9,0,0,0,0,6,3,106,81,149,107,191,3,32,20,45,111,0,55,42,0,0,142,102,142,143,88,171,124,216,45,0,0,0,0,0,0,0,0,0,0,0,0,0,0,0,0,0,0,0,0,0,0,0,0,0,0,0,0,0,0,0,0,0,0,0,0,0,0,0,0,0,0,0,0,0,0,0,0,0,0,0,0],"split_type":[0,0,0,0,0,0,0,0,0,0,0,0,0,0,0,0,0,0,0,0,0,0,0,0,0,0,0,0,0,0,0,0,0,0,0,0,0,0,0,0,0,0,0,0,0,0,0,0,0,0,0,0,0,0,0,0,0,0,0,0,0,0,0,0,0,0,0,0,0,0,0,0,0,0,0,0,0,0,0,0,0,0,0,0,0,0,0,0,0,0,0,0,0,0,0,0,0,0,0,0,0,0,0,0,0,0,0,0,0,0,0,0,0],"sum_hessian":[2.4695E4,1.8418E4,6.277E3,1.3556E4,4.862E3,4.19E3,2.087E3,1.1269E4,2.287E3,3.246E3,1.616E3,2.547E3,1.643E3,1.484E3,6.03E2,9.965E3,1.304E3,1.52E3,7.67E2,2.056E3,1.19E3,1.104E3,5.12E2,2.41E3,1.37E2,6.43E2,1E3,5.42E2,9.42E2,1E1,5.93E2,8.902E3,1.063E3,1.031E3,2.73E2,7.88E2,7.32E2,7.02E2,6.5E1,1.73E3,3.26E2,5.33E2,6.57E2,5.09E2,5.95E2,1.55E2,3.57E2,1.711E3,6.99E2,1.19E2,1.8E1,5.32E2,1.11E2,4.41E2,5.59E2,7.2E1,4.7E2,8.92E2,5E1,3.36E2,2.57E2,1.1E2,1.63E2,1.38E2,6.5E2,6.01E2,1.31E2,1.32E2,5.7E2,1.5E1,5E1,6.16E2,1.114E3,2.75E2,5.1E1,2.28E2,3.05E2,1.68E2,4.89E2,3.06E2,2.03E2,5.6E2,3.5E1,2.8E1,1.27E2,1.95E2,1.62E2,7.03E2,1.008E3,5.91E2,1.08E2,7.4E1,4.5E1,2.35E2,2.97E2,9.5E1,1.6E1,7.7E1,3.64E2,8.6E1,4.73E2,1.2E1,6E1,4.12E2,5.8E1,4.75E2,4.17E2,4E1,1E1,2.89E2,4.7E1,2.47E2,1E1],"tree_param":{"num_deleted":"0","num_feature":"217","num_nodes":"113","size_leaf_vector":"1"}},{"base_weights":[-5.3315435E-4,-5.703667E-2,1.8049958E-1,-8.290624E-2,3.9421977E-3,1.2603405E-1,2.796815E-1,-8.754997E-2,-5.919907E-2,-1.1778558E-2,4.7465E-2,1.0818738E-1,1.9294089E-1,2.3752949E-1,3.1970865E-1,-4.434663E-3,-8.0145456E-2,-6.2987044E-2,-3.800896E-2,-2.4888974E-2,1.5927708E-2,3.3269975E-2,8.4797435E-2,7.0299655E-2,1.2717198E-1,1.7276178E-1,2.4852367E-1,2.645636E-1,1.9034371E-1,2.8370076E-1,3.608381E-1,-4.0962044E-3,-7.556802E-2,-6.633609E-2,-4.2246245E-2,-6.531867E-2,-2.961345E-2,-3.129539E-2,8.565126E-3,-2.9523459E-3,4.9091954E-2,2.156195E-2,8.430522E-2,4.973985E-2,1.1778181E-1,1.9707343E-2,8.150465E-2,8.8991344E-2,1.5178508E-1,1.9204348E-1,1.090961E-1,3.2999903E-1,2.1295322E-1,2.707069E-1,1.1415164E-1,6.597227E-2,2.0339517E-1,3.3640924E-1,2.4955553E-1,2.2386497E-1,3.692297E-1,-3.8112458E-3,-2.5325643E-3,-3.4999799E-3,-3.0239893E-3,-1.1869804E-3,-2.9465999E-3,-3.717197E-3,-1.4545779E-3,-2.2558502E-3,-6.939269E-4,-3.5454114E-3,-1.4064367E-3,-7.9860864E-4,1.8217128E-3,1.3390915E-4,-2.3686406E-3,8.023858E-4,3.7696492E-3,-1.6421648E-3,1.4938152E-3,6.845103E-3,2.229212E-3,3.1727757E-3,-2.2245094E-3,3.6161367E-3,8.353178E-3,-4.5485287E-3,1.7698035E-3,4.374135E-3,9.0921635E-4,4.8563345E-3,-7.25764E-4,9.212567E-3,6.260333E-3,1.0592066E-2,5.22685E-3,6.253931E-3,-2.771639E-3,1.2264243E-2,1.92184E-2,5.986124E-3,1.2803777E-2,1.5379391E-2,1.2107437E-2,1.62628E-3,8.012685E-3,5.077865E-3,-8.3131576E-4,1.6027343E-2,9.52607E-3,1.53536815E-2,2.1207865E-2,6.3942904E-3,1.346708E-2,1.4801137E-2,6.3580917E-3,1.301325E-2,1.8904142E-2],"categories":[],"categories_nodes":[],"categories_segments":[],"categories_sizes":[],"default_left":[0,0,0,0,0,0,0,0,0,0,0,0,0,0,0,0,0,0,0,0,0,0,0,0,0,0,0,0,0,0,0,0,0,0,0,0,0,0,0,0,0,0,0,0,0,0,0,0,0,0,0,0,0,0,0,0,0,0,0,0,0,0,0,0,0,0,0,0,0,0,0,0,0,0,0,0,0,0,0,0,0,0,0,0,0,0,0,0,0,0,0,0,0,0,0,0,0,0,0,0,0,0,0,0,0,0,0,0,0,0,0,0,0,0,0,0,0,0,0],"id":11,"left_children":[1,3,5,7,9,11,13,15,17,19,21,23,25,27,29,-1,31,33,35,37,39,41,43,45,47,49,51,53,55,57,59,-1,61,63,65,67,69,71,73,75,77,79,81,83,85,87,89,91,93,95,97,99,101,103,105,107,109,111,113,115,117,-1,-1,-1,-1,-1,-1,-1,-1,-1,-1,-1,-1,-1,-1,-1,-1,-1,-1,-1,-1,-1,-1,-1,-1,-1,-1,-1,-1,-1,-1,-1,-1,-1,-1,-1,-1,-1,-1,-1,-1,-1,-1,-1,-1,-1,-1,-1,-1,-1,-1,-1,-1,-1,-1,-1,-1,-1,-1],"loss_changes":[2.5242079E2,2.9668308E1,3.1674454E1,1.4485474E0,3.8341951E0,4.505825E0,3.433487E0,8.634949E-2,1.714654E-1,1.4958582E0,7.851918E-1,2.1453133E0,8.509903E-1,1.246952E0,1.4733963E0,0E0,5.915642E-3,1.2472916E-1,7.3957086E-2,5.99295E-1,8.2853186E-1,6.4290845E-1,4.6708965E-1,5.6641436E-1,1.8603401E0,7.008667E-1,5.383291E-1,5.6417084E-1,5.9366894E-1,9.454994E-1,4.840088E-1,0E0,3.160715E-3,2.9644012E-2,7.8270614E-2,2.3013145E-2,6.1580345E-2,2.9228854E-1,3.083068E-1,2.1122031E-1,4.1595697E-1,3.9859203E-1,4.1382504E-1,2.6130864E-1,4.5838118E-1,3.2098037E-1,3.08805E-1,6.6158676E-1,1.0219021E0,7.57452E-1,3.7244582E-1,1.9128132E-1,5.6837034E-1,5.7642746E-1,9.6392095E-2,1.10441625E-1,4.4869518E-1,4.412117E-1,8.1053734E-1,1.7867172E-1,3.482437E-1,0E0,0E0,0E0,0E0,0E0,0E0,0E0,0E0,0E0,0E0,0E0,0E0,0E0,0E0,0E0,0E0,0E0,0E0,0E0,0E0,0E0,0E0,0E0,0E0,0E0,0E0,0E0,0E0,0E0,0E0,0E0,0E0,0E0,0E0,0E0,0E0,0E0,0E0,0E0,0E0,0E0,0E0,0E0,0E0,0E0,0E0,0E0,0E0,0E0,0E0,0E0,0E0,0E0,0E0,0E0,0E0,0E0,0E0],"parents":[2147483647,0,0,1,1,2,2,3,3,4,4,5,5,6,6,7,7,8,8,9,9,10,10,11,11,12,12,13,13,14,14,16,16,17,17,18,18,19,19,20,20,21,21,22,22,23,23,24,24,25,25,26,26,27,27,28,28,29,29,30,30,32,32,33,33,34,34,35,35,36,36,37,37,38,38,39,39,40,40,41,41,42,42,43,43,44,44,45,45,46,46,47,47,48,48,49,49,50,50,51,51,52,52,53,53,54,54,55,55,56,56,57,57,58,58,59,59,60,60],"right_children":[2,4,6,8,10,12,14,16,18,20,22,24,26,28,30,-1,32,34,36,38,40,42,44,46,48,50,52,54,56,58,60,-1,62,64,66,68,70,72,74,76,78,80,82,84,86,88,90,92,94,96,98,100,102,104,106,108,110,112,114,116,118,-1,-1,-1,-1,-1,-1,-1,-1,-1,-1,-1,-1,-1,-1,-1,-1,-1,-1,-1,-1,-1,-1,-1,-1,-1,-1,-1,-1,-1,-1,-1,-1,-1,-1,-1,-1,-1,-1,-1,-1,-1,-1,-1,-1,-1,-1,-1,-1,-1,-1,-1,-1,-1,-1,-1,-1,-1,-1],"split_conditions":[6.3652797E4,1.558953E4,1.24754766E5,4.0966997E3,4.822275E4,3.987E2,5.23E2,7.475E0,8.47795E5,1.380566E6,1.6764414E6,2.306E2,1.52996E2,-8.660254E-1,2.6116972E6,-4.434663E-3,2.205E1,1.727E2,1.216E0,7.81201E4,1.27E2,3.628E2,2.109E2,1.380566E6,1.69345E2,2E0,-9E-1,1E-2,1.7727254E2,1E0,-9.119215E-1,-4.0962044E-3,1.0296427E4,9.51956E3,1E0,2.9104E1,1.2909944E-1,2.734E2,8.7999E1,1E-1,2E-1,2.756E2,1E0,2.2669909E1,7.635E2,2.744E2,2.5819102E-1,1E-2,1E0,7.64E1,1E0,4.14E1,1.6101372E2,1E0,1.3002E3,4.7770286E0,2.0908748E3,1.0259E3,2.1196306E2,2.646061E1,2.2179063E2,-3.8112458E-3,-2.5325643E-3,-3.4999799E-3,-3.0239893E-3,-1.1869804E-3,-2.9465999E-3,-3.717197E-3,-1.4545779E-3,-2.2558502E-3,-6.939269E-4,-3.5454114E-3,-1.4064367E-3,-7.9860864E-4,1.8217128E-3,1.3390915E-4,-2.3686406E-3,8.023858E-4,3.7696492E-3,-1.6421648E-3,1.4938152E-3,6.845103E-3,2.229212E-3,3.1727757E-3,-2.2245094E-3,3.6161367E-3,8.353178E-3,-4.5485287E-3,1.7698035E-3,4.374135E-3,9.0921635E-4,4.8563345E-3,-7.25764E-4,9.212567E-3,6.260333E-3,1.0592066E-2,5.22685E-3,6.253931E-3,-2.771639E-3,1.2264243E-2,1.92184E-2,5.986124E-3,1.2803777E-2,1.5379391E-2,1.2107437E-2,1.62628E-3,8.012685E-3,5.077865E-3,-8.3131576E-4,1.6027343E-2,9.52607E-3,1.53536815E-2,2.1207865E-2,6.3942904E-3,1.346708E-2,1.4801137E-2,6.3580917E-3,1.301325E-2,1.8904142E-2],"split_indices":[41,41,41,41,41,51,51,147,8,116,8,51,83,47,62,0,147,105,6,107,51,105,105,116,83,0,36,75,49,0,98,0,211,41,0,84,177,86,29,75,85,86,0,204,111,32,190,75,0,27,1,56,49,0,111,213,211,74,49,177,48,0,0,0,0,0,0,0,0,0,0,0,0,0,0,0,0,0,0,0,0,0,0,0,0,0,0,0,0,0,0,0,0,0,0,0,0,0,0,0,0,0,0,0,0,0,0,0,0,0,0,0,0,0,0,0,0,0,0],"split_type":[0,0,0,0,0,0,0,0,0,0,0,0,0,0,0,0,0,0,0,0,0,0,0,0,0,0,0,0,0,0,0,0,0,0,0,0,0,0,0,0,0,0,0,0,0,0,0,0,0,0,0,0,0,0,0,0,0,0,0,0,0,0,0,0,0,0,0,0,0,0,0,0,0,0,0,0,0,0,0,0,0,0,0,0,0,0,0,0,0,0,0,0,0,0,0,0,0,0,0,0,0,0,0,0,0,0,0,0,0,0,0,0,0,0,0,0,0,0,0],"sum_hessian":[2.4675E4,1.8806E4,5.869E3,1.3204E4,5.602E3,3.79E3,2.079E3,1.1039E4,2.165E3,4.116E3,1.486E3,2.994E3,7.96E2,1.016E3,1.063E3,9.553E3,1.486E3,1.835E3,3.3E2,2.794E3,1.322E3,1.078E3,4.08E2,1.001E3,1.993E3,5.87E2,2.09E2,6.43E2,3.73E2,5.71E2,4.92E2,1.058E3,4.28E2,1.578E3,2.57E2,7.6E1,2.54E2,2.345E3,4.49E2,8.43E2,4.79E2,8.78E2,2E2,1.99E2,2.09E2,1.82E2,8.19E2,7.83E2,1.21E3,4.49E2,1.38E2,6.1E1,1.48E2,6.17E2,2.6E1,3.6E1,3.37E2,2.21E2,3.5E2,3E1,4.62E2,4.15E2,1.3E1,9.64E2,6.14E2,1.23E2,1.34E2,6E1,1.6E1,1.27E2,1.27E2,1.72E2,2.173E3,2.39E2,2.1E2,7.49E2,9.4E1,2.13E2,2.66E2,1.16E2,7.62E2,8.5E1,1.15E2,1.74E2,2.5E1,1.1E2,9.9E1,2.2E1,1.6E2,7.48E2,7.1E1,7.26E2,5.7E1,5.42E2,6.68E2,3.65E2,8.4E1,1.26E2,1.2E1,2.6E1,3.5E1,4.8E1,1E2,2.65E2,3.52E2,1E1,1.6E1,2.5E1,1.1E1,3.1E1,3.06E2,1.69E2,5.2E1,5E1,3E2,1.6E1,1.4E1,3.7E1,4.25E2],"tree_param":{"num_deleted":"0","num_feature":"217","num_nodes":"119","size_leaf_vector":"1"}},{"base_weights":[-1.4712844E-5,-5.498474E-2,1.7306072E-1,-7.697601E-2,7.3998924E-3,1.1630739E-1,2.6035175E-1,-8.2283325E-2,-4.832018E-2,-7.618312E-3,4.2154483E-2,9.418608E-2,1.6795957E-1,2.086302E-1,3.0535266E-1,-8.39692E-2,-7.13113E-2,-5.378537E-2,-2.3763627E-2,-2.0677049E-2,1.5174752E-2,8.706694E-3,5.7783715E-2,4.4301905E-2,1.0587163E-1,1.8328755E-1,1.20062076E-1,2.2647122E-1,1.4682274E-1,3.108992E-1,9.188601E-2,-4.2167506E-3,-3.980171E-3,-7.223786E-2,-5.4612182E-2,-5.47574E-2,-8.142507E-3,1.806597E-2,-2.8924815E-2,-2.7872358E-2,1.128375E-2,1.8775733E-3,4.1099783E-2,1.6073942E-2,-3.9026283E-2,1.4874098E-2,5.4819915E-2,-8.805322E-3,5.608087E-2,5.8810614E-2,1.1653324E-1,1.212834E-1,1.9554608E-1,1.5695731E-1,4.6987306E-2,2.3957619E-1,1.368473E-1,8.105209E-2,2.2800027E-1,2.9098135E-1,3.6343354E-1,9.200137E-4,7.253248E-3,-3.6268265E-3,-1.796533E-3,-1.7246535E-3,-3.2947932E-3,-2.9352768E-3,-2.191753E-3,-1.6799973E-3,1.2640693E-3,-1.3591893E-3,1.8959286E-3,-1.710391E-3,5.9915206E-4,-1.7013977E-3,-6.7900977E-4,-5.986565E-4,2.244353E-3,-5.364637E-4,1.0267303E-3,-2.3332846E-4,2.7245998E-3,-2.2029025E-3,1.0836631E-3,-3.2627552E-3,-1.9548538E-4,3.1283915E-3,-8.170201E-4,4.312488E-3,-1.3215767E-3,2.6019646E-3,9.585149E-3,3.973044E-3,-2.6152146E-3,7.2478326E-3,4.6849637E-3,6.9573685E-3,-2.2801734E-3,4.3771492E-4,9.930674E-3,7.0178807E-3,1.5149027E-2,6.744839E-3,1.4914322E-4,1.3179841E-2,9.1440845E-3,3.1475096E-3,9.548884E-3,-6.421372E-3,5.193269E-3,9.020722E-3,1.6040204E-2,1.5741652E-2,1.27545465E-2,1.8414726E-2,9.449175E-3],"categories":[],"categories_nodes":[],"categories_segments":[],"categories_sizes":[],"default_left":[0,0,0,0,0,0,0,0,0,0,0,0,0,0,0,0,0,0,0,0,0,0,0,0,0,0,0,0,0,0,0,0,0,0,0,0,0,0,0,0,0,0,0,0,0,0,0,0,0,0,0,0,0,0,0,0,0,0,0,0,0,0,0,0,0,0,0,0,0,0,0,0,0,0,0,0,0,0,0,0,0,0,0,0,0,0,0,0,0,0,0,0,0,0,0,0,0,0,0,0,0,0,0,0,0,0,0,0,0,0,0,0,0,0,0,0,0],"id":12,"left_children":[1,3,5,7,9,11,13,15,17,19,21,23,25,27,29,31,33,35,37,39,41,43,45,47,49,51,53,55,57,59,61,-1,-1,63,65,67,69,71,73,75,77,79,81,83,85,-1,87,89,91,93,95,97,99,101,103,105,107,109,111,113,115,-1,-1,-1,-1,-1,-1,-1,-1,-1,-1,-1,-1,-1,-1,-1,-1,-1,-1,-1,-1,-1,-1,-1,-1,-1,-1,-1,-1,-1,-1,-1,-1,-1,-1,-1,-1,-1,-1,-1,-1,-1,-1,-1,-1,-1,-1,-1,-1,-1,-1,-1,-1,-1,-1,-1,-1],"loss_changes":[2.3409103E2,2.5619747E1,2.9352234E1,2.0958633E0,2.5411813E0,4.0930176E0,5.3733673E0,2.0946503E-1,2.8860712E-1,1.0123191E0,7.67436E-1,1.4642792E0,7.6869965E-1,1.1686974E0,1.4478683E0,9.407043E-3,2.0160675E-2,7.7905655E-2,8.579931E-2,4.975049E-1,4.27043E-1,1.6555619E-1,6.948204E-1,3.00757E-1,1.01721E0,5.9498596E-1,7.043984E-1,9.5851135E-1,1.3002777E0,1.1656036E0,1.262913E-1,0E0,0E0,1.3366699E-2,1.7250568E-2,7.19862E-2,3.318315E-2,4.0557086E-2,7.648286E-2,1.5481699E-1,3.1157768E-1,1.9308951E-1,2.576776E-1,1.3799104E-1,5.777207E-2,0E0,5.468533E-1,1.4972024E-1,2.054379E-1,8.737911E-1,1.0657387E0,4.1477847E-1,3.867321E-1,3.8166428E-1,3.4775418E-1,9.5274353E-1,4.2798638E-1,6.7282957E-1,4.2789793E-1,6.7813873E-1,2.1023941E-1,0E0,0E0,0E0,0E0,0E0,0E0,0E0,0E0,0E0,0E0,0E0,0E0,0E0,0E0,0E0,0E0,0E0,0E0,0E0,0E0,0E0,0E0,0E0,0E0,0E0,0E0,0E0,0E0,0E0,0E0,0E0,0E0,0E0,0E0,0E0,0E0,0E0,0E0,0E0,0E0,0E0,0E0,0E0,0E0,0E0,0E0,0E0,0E0,0E0,0E0,0E0,0E0,0E0,0E0,0E0,0E0],"parents":[2147483647,0,0,1,1,2,2,3,3,4,4,5,5,6,6,7,7,8,8,9,9,10,10,11,11,12,12,13,13,14,14,15,15,16,16,17,17,18,18,19,19,20,20,21,21,22,22,23,23,24,24,25,25,26,26,27,27,28,28,29,29,30,30,33,33,34,34,35,35,36,36,37,37,38,38,39,39,40,40,41,41,42,42,43,43,44,44,46,46,47,47,48,48,49,49,50,50,51,51,52,52,53,53,54,54,55,55,56,56,57,57,58,58,59,59,60,60],"right_children":[2,4,6,8,10,12,14,16,18,20,22,24,26,28,30,32,34,36,38,40,42,44,46,48,50,52,54,56,58,60,62,-1,-1,64,66,68,70,72,74,76,78,80,82,84,86,-1,88,90,92,94,96,98,100,102,104,106,108,110,112,114,116,-1,-1,-1,-1,-1,-1,-1,-1,-1,-1,-1,-1,-1,-1,-1,-1,-1,-1,-1,-1,-1,-1,-1,-1,-1,-1,-1,-1,-1,-1,-1,-1,-1,-1,-1,-1,-1,-1,-1,-1,-1,-1,-1,-1,-1,-1,-1,-1,-1,-1,-1,-1,-1,-1,-1,-1],"split_conditions":[6.3652797E4,1.962525E4,4.2459998E2,6.962E3,4.822275E4,1.03657836E5,5.497E2,1.4375E1,1.2376451E3,2.308825E1,1.305E2,6.2467273E4,-1.2403474E-1,2E0,2.5E-1,1.16E1,2.1325E1,4.5000002E-1,4.9987793E-2,6.886303E4,9.5601E4,2.5E-1,8.166284E-2,1.2738538E6,1.02796875E2,2.882E2,3E-1,2.225E0,1.9180454E6,6.36725E2,1.4837E3,-4.2167506E-3,-3.980171E-3,7.567758E2,1E0,5.6994277E3,1.1159E3,5.14E1,2.6E0,8E0,1.000885E2,1.27E2,-1.5E0,9.851E2,3.9207508E1,1.4874098E-2,1E0,9.13375E0,4.2719948E-1,1E0,1.6455255E0,4.6675785E1,-3.7E0,1.1467676E5,7.12E1,3.3153522E1,6.84325E2,3E0,2.643454E6,-1.1383885E0,4.6E0,9.200137E-4,7.253248E-3,-3.6268265E-3,-1.796533E-3,-1.7246535E-3,-3.2947932E-3,-2.9352768E-3,-2.191753E-3,-1.6799973E-3,1.2640693E-3,-1.3591893E-3,1.8959286E-3,-1.710391E-3,5.9915206E-4,-1.7013977E-3,-6.7900977E-4,-5.986565E-4,2.244353E-3,-5.364637E-4,1.0267303E-3,-2.3332846E-4,2.7245998E-3,-2.2029025E-3,1.0836631E-3,-3.2627552E-3,-1.9548538E-4,3.1283915E-3,-8.170201E-4,4.312488E-3,-1.3215767E-3,2.6019646E-3,9.585149E-3,3.973044E-3,-2.6152146E-3,7.2478326E-3,4.6849637E-3,6.9573685E-3,-2.2801734E-3,4.3771492E-4,9.930674E-3,7.0178807E-3,1.5149027E-2,6.744839E-3,1.4914322E-4,1.3179841E-2,9.1440845E-3,3.1475096E-3,9.548884E-3,-6.421372E-3,5.193269E-3,9.020722E-3,1.6040204E-2,1.5741652E-2,1.27545465E-2,1.8414726E-2,9.449175E-3],"split_indices":[41,41,51,41,41,41,93,147,151,138,51,161,45,0,130,67,123,139,185,161,70,130,192,116,48,51,144,144,116,159,58,0,0,97,0,211,16,13,91,3,137,51,91,23,216,0,1,158,194,1,192,201,91,178,71,171,117,59,116,40,35,0,0,0,0,0,0,0,0,0,0,0,0,0,0,0,0,0,0,0,0,0,0,0,0,0,0,0,0,0,0,0,0,0,0,0,0,0,0,0,0,0,0,0,0,0,0,0,0,0,0,0,0,0,0,0,0],"split_type":[0,0,0,0,0,0,0,0,0,0,0,0,0,0,0,0,0,0,0,0,0,0,0,0,0,0,0,0,0,0,0,0,0,0,0,0,0,0,0,0,0,0,0,0,0,0,0,0,0,0,0,0,0,0,0,0,0,0,0,0,0,0,0,0,0,0,0,0,0,0,0,0,0,0,0,0,0,0,0,0,0,0,0,0,0,0,0,0,0,0,0,0,0,0,0,0,0,0,0,0,0,0,0,0,0,0,0,0,0,0,0,0,0,0,0,0,0],"sum_hessian":[2.4603E4,1.8673E4,5.93E3,1.3806E4,4.867E3,3.595E3,2.335E3,1.1647E4,2.159E3,3.399E3,1.468E3,2.519E3,1.076E3,1.089E3,1.246E3,1.009E4,1.557E3,1.765E3,3.94E2,2.161E3,1.238E3,4.68E2,1E3,4.79E2,2.04E3,8.13E2,2.63E2,8.43E2,2.46E2,1.214E3,3.2E1,9.293E3,7.97E2,1.472E3,8.5E1,1.728E3,3.7E1,4.3E1,3.51E2,1.764E3,3.97E2,8.19E2,4.19E2,4.06E2,6.2E1,1.1E1,9.89E2,8.7E1,3.92E2,3.78E2,1.662E3,1.36E2,6.77E2,1.74E2,8.9E1,7.34E2,1.09E2,1.37E2,1.09E2,8.85E2,3.29E2,1.4E1,1.8E1,1.459E3,1.3E1,3.2E1,5.3E1,1.266E3,4.62E2,2.1E1,1.6E1,1.3E1,3E1,3.11E2,4E1,1.232E3,5.32E2,2.35E2,1.62E2,4.89E2,3.3E2,9.5E1,3.24E2,3.4E1,3.72E2,3.5E1,2.7E1,8.92E2,9.7E1,1.3E1,7.4E1,3.82E2,1E1,3.19E2,5.9E1,7.38E2,9.24E2,1.23E2,1.3E1,1.1E1,6.66E2,1.58E2,1.6E1,2.9E1,6E1,5.13E2,2.21E2,4.7E1,6.2E1,1.3E1,1.24E2,7.4E1,3.5E1,5.27E2,3.58E2,3.19E2,1E1],"tree_param":{"num_deleted":"0","num_feature":"217","num_nodes":"117","size_leaf_vector":"1"}},{"base_weights":[-1.1042482E-3,-5.1611643E-2,1.631871E-1,-7.248335E-2,9.779603E-3,1.01123184E-1,2.3329508E-1,-7.7866964E-2,-4.327412E-2,-4.5447242E-3,4.128656E-2,5.1885344E-2,1.145097E-1,1.9920872E-1,2.9005495E-1,-7.9819195E-2,-6.73601E-2,-4.9260646E-2,-2.2801314E-2,-1.6840896E-2,2.0739429E-2,2.8648375E-2,7.1674116E-2,-4.446911E-2,5.8370735E-2,1.20693825E-1,2.3172753E-2,2.1846455E-1,1.4454181E-1,2.6859456E-1,3.3983195E-1,-4.0060724E-3,-3.7893094E-3,-6.877773E-2,-5.852402E-2,-5.214721E-2,-3.1785417E-2,2.9971076E-3,-2.6042579E-2,-3.378492E-2,-9.220046E-3,3.6219144E-3,4.8301894E-2,3.673687E-2,-1.2470082E-2,1.313086E-1,4.9203336E-2,-7.890198E-2,2.987093E-3,8.263613E-2,4.1230842E-2,1.1664391E-1,2.3691012E-1,-1.3122472E-1,7.138914E-2,2.3479591E-1,1.7091322E-1,5.6063976E-2,1.5687571E-1,3.035835E-1,2.4491602E-1,9.9837445E-3,3.4697473E-1,-3.46402E-3,-2.1006702E-3,-2.2297238E-3,-3.35096E-3,-3.6306584E-3,-2.526297E-3,-2.0551882E-3,4.960819E-4,-1.7057197E-3,4.7632773E-5,-3.0973828E-3,-1.5439054E-3,3.9292462E-4,-1.1411834E-3,3.0960335E-5,8.32336E-3,1.4965298E-3,5.147342E-3,3.029995E-3,8.9599396E-4,2.45099E-4,-4.48559E-3,1.0218217E-2,4.1236985E-3,4.3385997E-3,1.1950649E-3,-6.8566254E-3,-2.3100127E-3,9.169279E-3,3.7317802E-3,3.382499E-3,7.5809745E-4,6.9841794E-3,4.9214847E-3,1.4687243E-2,6.550903E-3,-8.889667E-3,-4.569594E-3,5.234405E-3,-6.978968E-4,1.200914E-2,5.9045022E-3,9.530953E-3,4.3124543E-3,4.3102647E-3,-1.2503336E-4,8.193424E-3,9.6581364E-4,1.8721292E-2,1.3747105E-2,2.992318E-3,1.2572268E-2,1.8021535E-2,1.4454722E-2],"categories":[],"categories_nodes":[],"categories_segments":[],"categories_sizes":[],"default_left":[0,0,0,0,0,0,0,0,0,0,0,0,0,0,0,0,0,0,0,0,0,0,0,0,0,0,0,0,0,0,0,0,0,0,0,0,0,0,0,0,0,0,0,0,0,0,0,0,0,0,0,0,0,0,0,0,0,0,0,0,0,0,0,0,0,0,0,0,0,0,0,0,0,0,0,0,0,0,0,0,0,0,0,0,0,0,0,0,0,0,0,0,0,0,0,0,0,0,0,0,0,0,0,0,0,0,0,0,0,0,0,0,0,0,0,0,0],"id":13,"left_children":[1,3,5,7,9,11,13,15,17,19,21,23,25,27,29,31,33,35,37,39,41,43,45,47,49,51,53,55,57,59,61,-1,-1,63,65,67,69,-1,71,73,75,77,79,81,83,85,87,89,-1,91,93,95,97,99,101,103,105,107,109,111,113,-1,115,-1,-1,-1,-1,-1,-1,-1,-1,-1,-1,-1,-1,-1,-1,-1,-1,-1,-1,-1,-1,-1,-1,-1,-1,-1,-1,-1,-1,-1,-1,-1,-1,-1,-1,-1,-1,-1,-1,-1,-1,-1,-1,-1,-1,-1,-1,-1,-1,-1,-1,-1,-1,-1,-1],"loss_changes":[2.0379724E2,2.4070683E1,2.5104462E1,2.2011337E0,2.1516109E0,2.0142708E0,5.1872864E0,2.3739624E-1,2.665496E-1,1.0194738E0,5.7017136E-1,4.131528E-1,1.3579025E0,1.7547836E0,9.9298096E-1,6.0920715E-3,1.9285202E-2,8.354139E-2,1.34585E-1,2.8454453E-1,5.0606745E-1,3.5100418E-1,5.7913375E-1,1.554216E-1,2.5279117E-1,1.0341873E0,1.155819E0,9.3292236E-1,4.7682285E-1,5.171852E-1,2.3305511E-1,0E0,0E0,1.8588543E-2,2.8251529E-2,4.437709E-2,9.445885E-2,0E0,1.0418895E-1,5.4082036E-2,3.5401794E-1,3.240885E-1,4.0952098E-1,3.945099E-1,2.3392127E-1,4.0769577E-1,3.0115587E-1,5.460009E-2,0E0,1.9104922E-1,2.489788E-1,9.0192604E-1,4.1288996E-1,5.2384675E-2,3.368135E-1,5.5630875E-1,5.241127E-1,9.906766E-2,3.7198257E-1,4.7329712E-1,5.05764E-1,0E0,1.1854935E-1,0E0,0E0,0E0,0E0,0E0,0E0,0E0,0E0,0E0,0E0,0E0,0E0,0E0,0E0,0E0,0E0,0E0,0E0,0E0,0E0,0E0,0E0,0E0,0E0,0E0,0E0,0E0,0E0,0E0,0E0,0E0,0E0,0E0,0E0,0E0,0E0,0E0,0E0,0E0,0E0,0E0,0E0,0E0,0E0,0E0,0E0,0E0,0E0,0E0,0E0,0E0,0E0,0E0,0E0],"parents":[2147483647,0,0,1,1,2,2,3,3,4,4,5,5,6,6,7,7,8,8,9,9,10,10,11,11,12,12,13,13,14,14,15,15,16,16,17,17,18,18,19,19,20,20,21,21,22,22,23,23,24,24,25,25,26,26,27,27,28,28,29,29,30,30,33,33,34,34,35,35,36,36,38,38,39,39,40,40,41,41,42,42,43,43,44,44,45,45,46,46,47,47,49,49,50,50,51,51,52,52,53,53,54,54,55,55,56,56,57,57,58,58,59,59,60,60,62,62],"right_children":[2,4,6,8,10,12,14,16,18,20,22,24,26,28,30,32,34,36,38,40,42,44,46,48,50,52,54,56,58,60,62,-1,-1,64,66,68,70,-1,72,74,76,78,80,82,84,86,88,90,-1,92,94,96,98,100,102,104,106,108,110,112,114,-1,116,-1,-1,-1,-1,-1,-1,-1,-1,-1,-1,-1,-1,-1,-1,-1,-1,-1,-1,-1,-1,-1,-1,-1,-1,-1,-1,-1,-1,-1,-1,-1,-1,-1,-1,-1,-1,-1,-1,-1,-1,-1,-1,-1,-1,-1,-1,-1,-1,-1,-1,-1,-1,-1,-1],"split_conditions":[6.434802E4,2.103135E4,4.4809998E2,7.8868096E3,4.822275E4,2.388E2,4.023E2,4.1734825E1,9.398932E2,2.2899E1,4.8532498E2,9.982E2,2.4993889E1,9.468072E3,6.36725E2,1.6112865E1,1.01225E2,1.959E2,9.79E1,7.9825E1,1.705E2,9.28E1,8.99E1,1.67305E-1,-6.139408E-1,4.9005E2,9.957E2,3.5E0,1.6834044E2,1E0,-9.670745E-1,-4.0060724E-3,-3.7893094E-3,3.399361E1,1E0,2.7384998E2,1.02804E2,2.9971076E-3,5E0,1.0393612E5,1E0,1.0253E3,9.7609274E-2,1E0,2.3985E1,6.610554E4,2.83925E2,2.220509E1,2.987093E-3,-9.659258E-1,2.803E2,1E0,1.4543336E5,9.942E2,9.92E1,7.98E1,1.022E3,1.7078252E-1,8.164964E-3,1.08282104E2,1.7250417E2,9.9837445E-3,9.960977E4,-3.46402E-3,-2.1006702E-3,-2.2297238E-3,-3.35096E-3,-3.6306584E-3,-2.526297E-3,-2.0551882E-3,4.960819E-4,-1.7057197E-3,4.7632773E-5,-3.0973828E-3,-1.5439054E-3,3.9292462E-4,-1.1411834E-3,3.0960335E-5,8.32336E-3,1.4965298E-3,5.147342E-3,3.029995E-3,8.9599396E-4,2.45099E-4,-4.48559E-3,1.0218217E-2,4.1236985E-3,4.3385997E-3,1.1950649E-3,-6.8566254E-3,-2.3100127E-3,9.169279E-3,3.7317802E-3,3.382499E-3,7.5809745E-4,6.9841794E-3,4.9214847E-3,1.4687243E-2,6.550903E-3,-8.889667E-3,-4.569594E-3,5.234405E-3,-6.978968E-4,1.200914E-2,5.9045022E-3,9.530953E-3,4.3124543E-3,4.3102647E-3,-1.2503336E-4,8.193424E-3,9.6581364E-4,1.8721292E-2,1.3747105E-2,2.992318E-3,1.2572268E-2,1.8021535E-2,1.4454722E-2],"split_indices":[41,41,93,41,41,159,15,205,43,30,117,20,2,211,159,205,159,105,109,159,105,55,55,202,45,159,24,89,49,0,98,0,0,2,0,140,137,0,35,170,0,24,202,0,2,170,140,215,0,47,66,0,170,20,55,81,74,186,183,205,48,0,170,0,0,0,0,0,0,0,0,0,0,0,0,0,0,0,0,0,0,0,0,0,0,0,0,0,0,0,0,0,0,0,0,0,0,0,0,0,0,0,0,0,0,0,0,0,0,0,0,0,0,0,0,0,0],"split_type":[0,0,0,0,0,0,0,0,0,0,0,0,0,0,0,0,0,0,0,0,0,0,0,0,0,0,0,0,0,0,0,0,0,0,0,0,0,0,0,0,0,0,0,0,0,0,0,0,0,0,0,0,0,0,0,0,0,0,0,0,0,0,0,0,0,0,0,0,0,0,0,0,0,0,0,0,0,0,0,0,0,0,0,0,0,0,0,0,0,0,0,0,0,0,0,0,0,0,0,0,0,0,0,0,0,0,0,0,0,0,0,0,0,0,0,0,0],"sum_hessian":[2.4558E4,1.8784E4,5.774E3,1.4018E4,4.766E3,3.064E3,2.71E3,1.1835E4,2.183E3,3.277E3,1.489E3,6.56E2,2.408E3,1.696E3,1.014E3,9.975E3,1.86E3,1.688E3,4.95E2,2.205E3,1.072E3,1.053E3,4.36E2,4.1E1,6.15E2,2.255E3,1.53E2,1.252E3,4.44E2,7.13E2,3.01E2,9.262E3,7.13E2,1.597E3,2.63E2,1.447E3,2.41E2,1.8E1,4.77E2,6.83E2,1.522E3,6.62E2,4.1E2,8.8E2,1.73E2,1.18E2,3.18E2,3.1E1,1E1,2.53E2,3.62E2,2.181E3,7.4E1,3.6E1,1.17E2,9.29E2,3.23E2,5.5E1,3.89E2,2.83E2,4.3E2,1.6E1,2.85E2,1.566E3,3.1E1,1.02E2,1.61E2,1.03E2,1.344E3,1.97E2,4.4E1,3.67E2,1.1E2,6.2E1,6.21E2,6.75E2,8.47E2,6.51E2,1.1E1,3.08E2,1.02E2,3.87E2,4.93E2,1.42E2,3.1E1,4.6E1,7.2E1,1.27E2,1.91E2,1E1,2.1E1,1.7E1,2.36E2,1.79E2,1.83E2,9.6E2,1.221E3,4.7E1,2.7E1,1.5E1,2.1E1,8.4E1,3.3E1,8.87E2,4.2E1,2.61E2,6.2E1,3.6E1,1.9E1,3.7E2,1.9E1,7.8E1,2.05E2,1.5E1,4.15E2,2.27E2,5.8E1],"tree_param":{"num_deleted":"0","num_feature":"217","num_nodes":"117","size_leaf_vector":"1"}},{"base_weights":[4.8023165E-4,-5.4870687E-2,1.4149359E-1,-7.112421E-2,-8.004087E-3,8.412014E-2,2.2077127E-1,-7.502652E-2,-5.1306017E-2,-2.7674418E-2,8.624398E-3,5.554753E-2,1.1455572E-1,1.6936941E-1,2.4991195E-1,-3.8027936E-3,-6.84942E-2,-5.6102734E-2,-3.411916E-2,-3.6244806E-2,-6.8454533E-3,-1.145487E-3,3.8623497E-2,4.15778E-2,8.940923E-2,1.2833096E-1,7.363697E-2,2.003036E-1,1.4440948E-1,2.7119485E-1,2.0903745E-1,-6.888291E-2,-4.6214275E-2,-5.8317885E-2,-4.370527E-2,-3.65802E-2,1.9614866E-3,-3.9816894E-2,-1.1613467E-2,-9.77868E-3,7.252951E-2,-1.7666362E-2,9.550611E-3,6.5785035E-2,1.3717896E-2,1.1340516E-1,3.4544725E-2,9.521522E-2,-1.5168761E-2,1.2214978E-1,2.2273219E-1,5.1744405E-2,1.5896083E-1,2.3944125E-1,1.4614998E-1,2.1280032E-2,1.5570818E-1,2.8442106E-1,1.9564164E-1,2.35206E-1,1.5706025E-1,-3.4738567E-3,-3.095884E-3,-1.1274138E-3,-3.2016814E-3,-3.0011062E-3,-2.302265E-3,-1.3043812E-3,-2.7754502E-3,2.3788784E-3,-1.9366775E-3,-3.3060715E-3,-1.8689063E-3,3.4035947E-3,-9.91865E-4,-2.1467738E-4,-1.8552786E-3,6.5182685E-3,1.4211219E-4,-3.1856445E-3,-7.113676E-4,-1.071063E-4,1.6517146E-3,8.034523E-3,2.4599081E-3,-1.3223661E-3,1.8974632E-3,3.001327E-3,1.04331905E-2,-1.281946E-3,2.0891994E-3,6.2575387E-3,3.477628E-3,-4.9948217E-3,1.5867911E-3,6.8712616E-3,3.940662E-3,7.451584E-3,1.6609175E-2,3.1121871E-3,-4.1817464E-3,4.354752E-3,9.787593E-3,1.4956611E-2,9.234277E-3,2.200089E-3,8.297645E-3,-4.659834E-3,2.5737134E-3,6.630558E-3,9.450802E-3,1.3538246E-2,1.6799679E-2,1.1088559E-2,6.2943436E-3,1.2126044E-2,1.04696366E-4,1.0519527E-2,6.115925E-3],"categories":[],"categories_nodes":[],"categories_segments":[],"categories_sizes":[],"default_left":[0,0,0,0,0,0,0,0,0,0,0,0,0,0,0,0,0,0,0,0,0,0,0,0,0,0,0,0,0,0,0,0,0,0,0,0,0,0,0,0,0,0,0,0,0,0,0,0,0,0,0,0,0,0,0,0,0,0,0,0,0,0,0,0,0,0,0,0,0,0,0,0,0,0,0,0,0,0,0,0,0,0,0,0,0,0,0,0,0,0,0,0,0,0,0,0,0,0,0,0,0,0,0,0,0,0,0,0,0,0,0,0,0,0,0,0,0,0,0],"id":14,"left_children":[1,3,5,7,9,11,13,15,17,19,21,23,25,27,29,-1,31,33,35,37,39,41,43,45,47,49,51,53,55,57,59,61,63,65,67,69,-1,71,73,75,77,79,81,83,85,87,89,91,93,95,97,99,101,103,105,107,109,111,113,115,117,-1,-1,-1,-1,-1,-1,-1,-1,-1,-1,-1,-1,-1,-1,-1,-1,-1,-1,-1,-1,-1,-1,-1,-1,-1,-1,-1,-1,-1,-1,-1,-1,-1,-1,-1,-1,-1,-1,-1,-1,-1,-1,-1,-1,-1,-1,-1,-1,-1,-1,-1,-1,-1,-1,-1,-1,-1,-1],"loss_changes":[1.9360841E2,1.3568436E1,3.1784088E1,1.0190048E0,1.5009174E0,3.5225697E0,4.353958E0,6.907654E-2,1.7772388E-1,3.7498498E-1,7.289534E-1,9.8729897E-1,1.0975914E0,7.933769E-1,1.5709457E0,0E0,9.92918E-3,4.4192314E-2,8.772111E-2,1.305474E-1,1.4366366E-1,3.318513E-1,4.124235E-1,7.462561E-1,3.7243032E-1,8.2938766E-1,9.201498E-1,9.675026E-1,8.216696E-1,1.1704712E0,8.403683E-1,1.8486977E-3,1.0785829E-2,2.7375221E-2,5.3035915E-2,8.5748136E-2,0E0,8.092451E-2,1.2586099E-1,8.872643E-2,8.829878E-2,1.1595917E-1,3.1310165E-1,4.5175588E-1,3.1244624E-1,6.586647E-1,5.909889E-1,4.360981E-1,