{"learner":{"attributes":{"best_iteration":"106","best_score":"0.0515675927641621"},"feature_names":[],"feature_types":[],"gradient_booster":{"model":{"gbtree_model_param":{"num_parallel_tree":"1","num_trees":"157"},"iteration_indptr":[0,1,2,3,4,5,6,7,8,9,10,11,12,13,14,15,16,17,18,19,20,21,22,23,24,25,26,27,28,29,30,31,32,33,34,35,36,37,38,39,40,41,42,43,44,45,46,47,48,49,50,51,52,53,54,55,56,57,58,59,60,61,62,63,64,65,66,67,68,69,70,71,72,73,74,75,76,77,78,79,80,81,82,83,84,85,86,87,88,89,90,91,92,93,94,95,96,97,98,99,100,101,102,103,104,105,106,107,108,109,110,111,112,113,114,115,116,117,118,119,120,121,122,123,124,125,126,127,128,129,130,131,132,133,134,135,136,137,138,139,140,141,142,143,144,145,146,147,148,149,150,151,152,153,154,155,156,157],"tree_info":[0,0,0,0,0,0,0,0,0,0,0,0,0,0,0,0,0,0,0,0,0,0,0,0,0,0,0,0,0,0,0,0,0,0,0,0,0,0,0,0,0,0,0,0,0,0,0,0,0,0,0,0,0,0,0,0,0,0,0,0,0,0,0,0,0,0,0,0,0,0,0,0,0,0,0,0,0,0,0,0,0,0,0,0,0,0,0,0,0,0,0,0,0,0,0,0,0,0,0,0,0,0,0,0,0,0,0,0,0,0,0,0,0,0,0,0,0,0,0,0,0,0,0,0,0,0,0,0,0,0,0,0,0,0,0,0,0,0,0,0,0,0,0,0,0,0,0,0,0,0,0,0,0,0,0,0,0],"trees":[{"base_weights":[1.135938E-3,-9.998448E-2,3.1852993E-1,-1.4337802E-1,1.232745E-2,2.1678148E-1,4.7720385E-1,-1.5266946E-1,-9.422416E-2,-3.280376E-2,5.143195E-2,1.7296652E-1,2.870466E-1,4.111332E-1,5.5776066E-1,-1.5557945E-1,-1.3489184E-1,-1.0332831E-1,-5.505073E-2,-5.432373E-2,4.2438717E-4,2.8250922E-2,1.1066689E-1,1.0440038E-1,1.9313918E-1,2.384535E-1,3.3188516E-1,3.442143E-1,4.4411933E-1,4.7842246E-1,6.0030276E-1,-7.798937E-3,-7.4297534E-3,-1.3844252E-1,-1.2650387E-1,-1.0766716E-1,-8.510714E-2,-6.361485E-2,-2.2689447E-2,-6.3058324E-2,-2.1504099E-2,-1.4699166E-2,4.3367635E-2,1.6147822E-2,8.678895E-2,6.8275854E-2,1.5245657E-1,6.34282E-2,1.24881566E-1,1.662643E-1,2.310574E-1,2.4652748E-1,9.1895364E-2,3.0011407E-1,3.7870827E-1,2.0036572E-1,3.5685775E-1,3.4341162E-1,4.587374E-1,5.014972E-1,4.0965295E-1,6.1657614E-1,4.7304717E-1,-7.0002466E-3,-1.2359245E-1,-1.0805071E-1,-6.4243744E-3,-1.14074975E-1,-9.402749E-2,-9.8145545E-2,-7.0326135E-2,-5.5131596E-2,-8.6418934E-2,4.0631066E-3,-3.4871817E-2,-6.912455E-2,-4.367231E-2,9.174915E-3,-4.4852458E-2,-3.0319389E-2,3.0814952E-3,2.6850382E-2,1.2711506E-1,-2.3920994E-2,2.5576E-2,1.3707067E-1,4.6932746E-2,8.151155E-2,-2.7197253E-2,1.9356078E-1,1.13609865E-1,1.0945833E-1,2.3516744E-2,1.3883212E-1,1.939453E-2,2.1968028E-1,1.2384143E-1,2.3996076E-1,1.1072086E-1,1.1522305E-1,2.553289E-1,5.3692125E-2,9.305636E-3,3.4885794E-1,2.6082158E-1,2.980076E-1,4.031077E-1,1.3421698E-1,1.4239124E-2,3.621651E-1,6.3826214E-3,2.5724176E-1,4.0747392E-1,5.059202E-1,4.2196104E-1,5.082383E-1,1.3235248E-2,1.5097749E-2,2.132626E-2,5.861801E-1,6.526559E-1,5.1456755E-1,1.2613657E-2,-9.982996E-2,-6.686193E-3,-5.696101E-3,-3.8578582E-3,-1.1833326E-1,-1.0630346E-1,-7.1575895E-2,-9.93434E-2,-1.0327338E-1,-7.868758E-2,-4.1513164E-2,-9.303924E-2,-7.661003E-2,-4.4834677E-2,-9.508084E-2,-5.290984E-2,-1.4134337E-2,-7.15196E-2,-9.809957E-2,-6.398334E-2,-4.932031E-2,-9.580478E-3,-3.242276E-2,8.4181674E-2,-7.359452E-2,-2.809119E-2,-1.2098326E-3,-4.2405754E-2,-1.9075884E-3,5.31476E-3,2.034859E-2,7.0908605E-3,-1.711021E-4,1.7569804E-1,1.4729222E-2,-4.975327E-2,-4.329456E-3,4.0462468E-2,6.1005022E-2,2.0368657E-1,2.9347882E-2,7.72997E-2,1.0444006E-1,4.906703E-2,1.351313E-3,-4.954305E-2,2.8410372E-1,1.5580392E-1,7.3868126E-2,1.598468E-1,1.3095579E-1,-1.1369121E-3,-5.4016214E-2,4.5781944E-2,4.5486912E-2,1.479674E-1,4.2709396E-3,-2.2813775E-4,2.693167E-1,1.4818895E-1,-4.487628E-3,1.2953952E-1,2.067319E-1,2.7110484E-1,1.6143899E-1,3.8187947E-2,1.8914498E-1,2.343543E-2,2.0108281E-1,2.7225336E-1,8.450712E-2,-2.3542324E-4,4.1342378E-1,3.0060196E-1,2.274796E-1,3.1849912E-1,8.5151E-3,3.307522E-1,2.8869709E-2,3.9079174E-1,8.85766E-3,4.8154877E-3,3.9954245E-1,3.3160254E-1,3.4055898E-1,2.0223595E-1,3.2221434E-1,2.420125E-2,5.685929E-1,4.5825696E-1,3.6285282E-3,4.311387E-1,1.5140489E-2,5.1473963E-1,5.9071845E-1,1.8743707E-2,2.1315228E-2,3.2934967E-2,1.5416798E-2,5.4690254E-1,-5.5991667E-3,-3.5781306E-3,-1.20419286E-1,-1.01204835E-1,-3.6424696E-3,-1.0730984E-1,-3.381846E-2,-8.163135E-2,-1.0130886E-1,-1.4252152E-3,-5.331924E-3,-4.2752284E-3,-1.9740614E-3,-8.7966055E-2,-5.5046838E-2,-6.28913E-3,-4.92601E-3,-2.0947508E-3,-8.8806E-2,-5.4269306E-2,-3.6195286E-2,-8.663055E-2,-2.1508504E-3,-5.143516E-3,-1.4817287E-3,-3.4267155E-3,2.7381715E-3,-3.4356344E-2,-4.645871E-3,-2.5431197E-3,-2.2385684E-3,-1.0349351E-1,-6.783209E-2,-3.0793041E-2,-1.2039855E-2,-5.455422E-2,-3.3698574E-2,2.2862954E-3,-5.3892016E-2,-3.5536683E-3,1.3693245E-1,1.6019884E-2,-5.4854054E-2,-8.9967415E-2,1.7868901E-3,-3.471669E-2,-2.6022235E-2,4.084403E-2,-4.802382E-2,2.145611E-2,5.5143936E-3,-3.9959602E-2,4.0662405E-3,6.9686994E-2,2.3823397E-1,3.8217276E-3,6.679856E-5,7.910337E-3,-6.026988E-2,5.3113974E-3,-3.307437E-2,8.755435E-3,-5.71516E-3,5.1837634E-2,8.8571355E-2,1.0129112E-2,2.3674148E-1,2.9503384E-3,8.100973E-2,1.8004445E-2,1.06571496E-1,3.6123417E-2,1.3022003E-1,5.5038437E-2,1.15842424E-1,2.694584E-2,2.0256727E-3,-1.5034244E-3,-3.0088184E-2,-3.973024E-3,6.6531845E-3,3.2675448E-1,8.428233E-2,1.9419284E-1,1.3295332E-1,3.621919E-2,1.2815692E-1,2.4113755E-1,7.161244E-2,1.8710507E-1,-4.8435857E-3,2.41609E-5,5.9005793E-5,5.595979E-2,-1.0619137E-3,5.8854907E-3,1.8851513E-1,1.280362E-1,2.0411467E-2,-2.07449E-3,3.2659552E-1,1.902022E-1,2.3215117E-1,1.2754512E-1,1.038138E-1,1.600262E-1,2.713447E-1,1.8828954E-1,2.1358737E-1,3.0449387E-1,1.0004881E-2,4.827717E-3,-2.5611182E-4,4.0946077E-3,1.2593172E-2,6.108967E-3,-1.5841911E-3,3.8300864E-3,1.8744487E-1,1.652105E-2,3.063275E-1,2.4037094E-1,5.7521714E-3,2.314418E-3,2.5455583E-2,3.0250794E-1,1.8488438E-1,3.3543444E-1,3.9797E-3,2.3998657E-1,2.870445E-1,2.357967E-2,3.5572764E-1,9.540001E-3,4.0941828E-1,3.27895E-1,4.2877015E-1,3.0689064E-1,1.9308974E-1,3.432578E-1,1.2636505E-2,1.9634444E-2,2.4117461E-1,5.912862E-3,8.804805E-3,1.9144028E-2,2.9015467E-2,1.7856663E-2,3.4635937E-1,4.74691E-1,4.388676E-1,2.9877236E-1,5.3241473E-1,4.4506228E-1,2.9757276E-2,1.9344913E-2,1.9134546E-2,5.689977E-1,-5.808731E-3,-6.305004E-3,-3.2416438E-3,-5.440476E-3,-5.4884185E-3,-4.6854555E-3,1.824224E-5,-2.9130585E-3,-1.9110136E-3,-4.386638E-3,-5.346008E-3,-4.3880227E-3,-3.35932E-3,-5.165422E-3,7.425591E-5,-3.2973464E-3,-1.6007934E-3,8.105791E-4,-5.105397E-3,-3.2640565E-3,-1.6898284E-3,-3.3455198E-3,-3.9912076E-3,-1.4696209E-3,-2.99773E-3,-5.2023856E-3,-3.1831756E-3,1.0553547E-3,-4.287209E-3,-5.698481E-3,-4.237594E-3,-3.1797641E-3,-2.1859515E-3,1.7476792E-3,1.1016903E-3,-2.1843247E-3,-5.528399E-3,-2.5611722E-3,-2.4263735E-3,-6.991552E-4,-1.215376E-3,-2.97168E-3,7.164988E-4,-2.4338628E-3,9.261702E-3,5.1405476E-3,2.6903849E-3,-1.6274935E-3,-1.7201258E-3,-3.5770156E-3,-3.5341599E-3,-5.426941E-3,-1.2917347E-3,-3.164747E-3,1.4987257E-3,-2.8324823E-3,3.867281E-3,-1.96373E-3,-1.1496269E-3,-2.8364852E-3,-1.6565906E-3,4.3951506E-3,-1.6510197E-3,7.111695E-4,2.1859345E-3,-2.8612171E-3,-2.7726952E-3,5.7873497E-4,7.376801E-3,2.078188E-3,7.7218222E-3,1.5018694E-2,-1.4208504E-3,1.5337634E-3,-1.8008968E-3,-4.44485E-3,-1.8842131E-3,1.9932243E-3,-1.20508E-3,-3.298478E-3,-6.012844E-4,1.0869679E-3,-1.5702883E-3,1.7718719E-4,3.8319118E-3,1.729778E-3,2.6975414E-3,7.566431E-3,2.8204042E-3,-9.0723636E-4,8.5105095E-3,1.4013509E-2,1.7622622E-3,5.370485E-3,-1.2420362E-3,1.4995987E-3,2.9852653E-3,6.205665E-3,6.205414E-4,4.1257176E-3,3.3141987E-3,7.7483444E-3,1.70304E-3,8.815887E-3,2.9076217E-3,1.0297707E-2,3.7290459E-3,7.673765E-4,-2.1904733E-3,-6.815807E-4,1.8348202E-2,8.442194E-3,7.886133E-3,9.84162E-4,7.7374214E-3,1.3905345E-2,3.4913353E-3,1.2754954E-2,3.1749967E-3,-6.592045E-4,3.4289341E-3,7.5109988E-3,5.4952796E-3,1.6125983E-2,2.5331776E-3,5.419752E-3,4.177741E-3,1.0890654E-2,1.7903019E-3,3.6483516E-3,7.7386065E-3,1.3149092E-2,2.1512154E-3,6.7038084E-3,2.2708178E-3,-6.2727986E-4,1.8558377E-2,1.12342015E-2,8.551011E-3,1.3311383E-2,1.5075937E-2,6.6155246E-3,-1.3963995E-3,6.998189E-3,1.3697515E-3,6.3250433E-3,6.567923E-3,9.4388E-3,1.0501285E-2,1.5193063E-2,8.961789E-3,1.878871E-2,2.5310908E-3,1.1559465E-2,2.939919E-3,1.5989807E-2,9.969003E-3,4.2101066E-3,1.7687479E-2,1.2521245E-2,3.6145195E-3,1.238136E-2,1.73872E-2,9.79782E-3,5.2961702E-3,1.264849E-2,1.890827E-2,1.3183889E-2,8.224164E-3,1.2712397E-2,1.5710881E-2,1.0074523E-2,1.9247351E-2,1.22373765E-2,1.8788239E-2,2.2850836E-2,1.0350287E-2,1.7376993E-2,2.4311207E-2,1.8473927E-2,1.6776865E-2,8.610871E-3,6.092216E-3,1.2115362E-2,9.854805E-3,1.751512E-2,1.4395666E-2,7.775751E-3,2.2736268E-2,1.2414067E-2,2.693143E-2,2.1896997E-2,1.558913E-2,2.2289727E-2,6.604746E-3,1.877532E-2,2.695616E-2,1.8141154E-2,1.4239864E-2,2.391853E-2,2.0526124E-2,3.0106753E-2],"categories":[],"categories_nodes":[],"categories_segments":[],"categories_sizes":[],"default_left":[0,0,0,0,0,0,0,0,0,0,0,0,0,0,0,0,0,0,0,0,0,0,0,0,0,0,0,0,0,0,0,0,0,0,0,0,0,0,0,0,0,0,0,0,0,0,0,0,0,0,0,0,0,0,0,0,0,0,0,0,0,0,0,0,0,0,0,0,0,0,0,0,0,0,0,0,0,0,0,0,0,0,0,0,0,0,0,0,0,0,0,0,0,0,0,0,0,0,0,0,0,0,0,0,0,0,0,0,0,0,0,0,0,0,0,0,0,0,0,0,0,0,0,0,0,0,0,0,0,0,0,0,0,0,0,0,0,0,0,0,0,0,0,0,0,0,0,0,0,0,0,0,0,0,0,0,0,0,0,0,0,0,0,0,0,0,0,0,0,0,0,0,0,0,0,0,0,0,0,0,0,0,0,0,0,0,0,0,0,0,0,0,0,0,0,0,0,0,0,0,0,0,0,0,0,0,0,0,0,0,0,0,0,0,0,0,0,0,0,0,0,0,0,0,0,0,0,0,0,0,0,0,0,0,0,0,0,0,0,0,0,0,0,0,0,0,0,0,0,0,0,0,0,0,0,0,0,0,0,0,0,0,0,0,0,0,0,0,0,0,0,0,0,0,0,0,0,0,0,0,0,0,0,0,0,0,0,0,0,0,0,0,0,0,0,0,0,0,0,0,0,0,0,0,0,0,0,0,0,0,0,0,0,0,0,0,0,0,0,0,0,0,0,0,0,0,0,0,0,0,0,0,0,0,0,0,0,0,0,0,0,0,0,0,0,0,0,0,0,0,0,0,0,0,0,0,0,0,0,0,0,0,0,0,0,0,0,0,0,0,0,0,0,0,0,0,0,0,0,0,0,0,0,0,0,0,0,0,0,0,0,0,0,0,0,0,0,0,0,0,0,0,0,0,0,0,0,0,0,0,0,0,0,0,0,0,0,0,0,0,0,0,0,0,0,0,0,0,0,0,0,0,0,0,0,0,0,0,0,0,0,0,0,0,0,0,0,0,0,0,0,0,0,0,0,0,0,0,0,0,0,0,0,0,0,0,0,0,0,0,0,0,0,0,0,0,0,0,0,0,0,0,0,0,0,0,0,0,0,0,0,0,0,0,0,0,0,0,0,0,0,0,0,0,0,0,0,0,0,0,0,0,0,0,0,0,0,0,0,0,0,0,0,0,0,0,0,0,0,0,0,0,0,0,0,0,0,0,0,0,0,0,0,0,0,0,0,0,0,0,0,0,0,0,0,0,0,0,0,0,0,0,0,0,0,0,0,0,0,0,0,0,0,0,0,0,0,0,0,0,0,0,0],"id":0,"left_children":[1,3,5,7,9,11,13,15,17,19,21,23,25,27,29,31,33,35,37,39,41,43,45,47,49,51,53,55,57,59,61,-1,-1,63,65,67,69,71,73,75,77,79,81,83,85,87,89,91,93,95,97,99,101,103,105,107,109,111,113,115,117,119,121,-1,123,125,-1,127,129,131,133,135,137,-1,139,141,143,145,147,149,151,153,155,157,159,161,163,165,167,169,171,173,175,177,179,181,183,185,187,189,191,193,-1,195,197,199,201,203,-1,205,-1,207,209,211,213,215,-1,-1,-1,217,219,221,-1,223,-1,-1,-1,225,227,229,231,233,235,237,239,241,243,245,247,249,251,253,255,257,259,261,263,265,267,269,271,273,-1,275,-1,-1,277,279,281,283,285,287,289,291,293,295,297,299,301,303,305,307,309,311,-1,313,315,317,319,-1,321,323,325,-1,327,329,331,333,335,337,339,341,343,345,-1,347,349,351,353,-1,355,-1,357,-1,-1,359,361,363,365,367,-1,369,371,-1,373,-1,375,377,-1,-1,-1,-1,379,-1,-1,381,383,-1,385,387,389,391,-1,-1,-1,-1,393,395,397,-1,-1,399,401,403,405,-1,-1,-1,-1,-1,407,-1,-1,-1,409,411,413,415,417,419,-1,421,423,425,427,429,431,-1,433,435,437,439,441,443,445,447,449,451,-1,453,-1,455,457,459,461,463,465,467,469,471,-1,473,475,477,479,481,483,485,487,-1,-1,489,-1,-1,491,493,495,497,499,501,503,505,507,-1,-1,-1,509,-1,-1,511,513,515,-1,517,519,521,523,525,527,529,531,533,535,-1,-1,-1,-1,-1,-1,-1,-1,537,-1,539,541,-1,-1,-1,543,545,547,-1,549,551,-1,553,-1,555,557,559,561,563,565,-1,-1,567,-1,-1,-1,-1,-1,569,571,573,575,577,579,-1,-1,-1,581,-1,-1,-1,-1,-1,-1,-1,-1,-1,-1,-1,-1,-1,-1,-1,-1,-1,-1,-1,-1,-1,-1,-1,-1,-1,-1,-1,-1,-1,-1,-1,-1,-1,-1,-1,-1,-1,-1,-1,-1,-1,-1,-1,-1,-1,-1,-1,-1,-1,-1,-1,-1,-1,-1,-1,-1,-1,-1,-1,-1,-1,-1,-1,-1,-1,-1,-1,-1,-1,-1,-1,-1,-1,-1,-1,-1,-1,-1,-1,-1,-1,-1,-1,-1,-1,-1,-1,-1,-1,-1,-1,-1,-1,-1,-1,-1,-1,-1,-1,-1,-1,-1,-1,-1,-1,-1,-1,-1,-1,-1,-1,-1,-1,-1,-1,-1,-1,-1,-1,-1,-1,-1,-1,-1,-1,-1,-1,-1,-1,-1,-1,-1,-1,-1,-1,-1,-1,-1,-1,-1,-1,-1,-1,-1,-1,-1,-1,-1,-1,-1,-1,-1,-1,-1,-1,-1,-1,-1,-1,-1,-1,-1,-1,-1,-1,-1,-1,-1,-1,-1,-1,-1,-1,-1,-1,-1,-1,-1,-1,-1,-1,-1,-1,-1,-1,-1,-1,-1,-1,-1,-1,-1,-1,-1,-1,-1,-1,-1,-1,-1,-1,-1],"loss_changes":[9.3422144E2,1.0758678E2,1.13443115E2,7.2578125E0,1.0860706E1,1.3148575E1,1.4391418E1,6.717224E-1,8.9803696E-1,2.0429745E0,4.5240717E0,3.6355362E0,3.505066E0,3.186905E0,3.881195E0,8.880615E-3,3.88031E-2,1.5330315E-1,1.3158667E-1,4.9572325E-1,7.306243E-1,1.6784321E0,1.6317787E0,4.9809122E-1,2.0414581E0,9.1570663E-1,1.1552811E0,8.4514236E-1,1.3293457E0,4.864273E-1,1.3650208E0,0E0,0E0,1.3277054E-2,7.127762E-3,1.3400841E-1,7.018614E-2,6.855416E-2,1.3200414E-1,1.579752E-1,2.62579E-1,2.3117134E-1,4.0188724E-1,7.4331933E-1,8.0720663E-1,5.860245E-1,7.2210217E-1,3.7036306E-1,5.8742E-1,2.6875343E0,8.7768936E-1,8.384781E-1,1.4478177E-1,8.915405E-1,5.5132294E-1,2.0189214E-1,5.157776E-1,6.238518E-1,1.3117828E0,3.7945557E-1,8.017349E-2,3.916626E-1,7.410164E-1,0E0,1.8910408E-2,2.4560094E-3,0E0,2.4551392E-2,5.6741714E-2,1.2826681E-2,1.2113416E-1,5.826938E-2,2.428478E-2,0E0,6.890752E-2,1.4879751E-1,6.287658E-2,4.9882638E-1,9.813732E-2,1.5580884E-1,2.0103008E-1,1.8099685E-1,3.0501157E-1,3.7514144E-1,7.0891225E-1,8.945992E-1,1.1948305E-1,2.9690075E-1,3.6429558E-2,7.2492504E-1,4.3287587E-1,2.7011538E-1,1.9236451E-1,2.951374E-1,6.2206946E-2,1.837286E0,8.270683E-1,7.563362E-1,2.1455902E-1,3.2803816E-1,5.9067154E-1,5.7985544E-2,0E0,5.798683E-1,4.8139763E-1,2.9075098E-1,3.3029556E-1,2.5255859E-2,0E0,3.827095E-1,0E0,2.0151973E-1,3.2701778E-1,8.7457275E-1,1.5719986E0,2.608261E-1,0E0,0E0,0E0,1.5544128E-1,1.4871216E-1,3.58181E-1,0E0,7.102132E-3,0E0,0E0,0E0,1.3395309E-2,5.885124E-3,3.748423E-2,5.6981564E-2,6.2835217E-4,1.3988227E-2,4.065092E-2,2.5586367E-2,1.94301E-2,6.583279E-2,2.7613282E-2,6.3332766E-3,8.547654E-2,9.86062E-3,3.995204E-2,1.1121774E-1,5.436778E-2,6.556737E-2,6.364767E-2,2.0275483E-1,1.8384457E-2,5.748628E-2,1.3775577E-1,1.13328576E-1,1.05563514E-1,0E0,1.8769939E-1,0E0,0E0,1.9905436E-1,3.176524E-1,1.3061619E-1,1.9963533E-1,5.5866706E-1,1.1831215E-1,4.4035697E-1,8.410081E-2,9.619051E-2,2.9466915E-1,2.4799421E-1,3.321031E-2,1.6234435E-2,3.7524843E-1,4.2568016E-1,2.8881782E-1,2.5504303E-1,2.565E-1,0E0,5.843682E-2,3.897372E-2,1.6152981E-1,2.3609209E-1,0E0,3.3208597E-2,1.3472023E0,3.4998274E-1,0E0,4.9553013E-1,4.0648842E-1,7.0698357E-1,6.847203E-2,4.963323E-2,8.262694E-2,6.982823E-2,2.3969173E-1,5.054016E-1,1.9183084E-2,0E0,8.436394E-1,4.7407055E-1,3.2492447E-1,3.6063004E-1,0E0,1.5932608E-1,0E0,1.5278625E-1,0E0,0E0,4.0460014E-1,3.437786E-1,1.4827251E-3,9.574008E-2,2.694254E-1,0E0,1.8915558E-1,2.4198914E-1,0E0,3.6710358E-1,0E0,1.3374329E-1,1.1532593E-1,0E0,0E0,0E0,0E0,2.5344849E-2,0E0,0E0,6.1416626E-4,1.617968E-2,0E0,2.854824E-3,2.0074036E-2,1.8630922E-2,2.2394657E-2,0E0,0E0,0E0,0E0,5.173832E-3,3.8302556E-2,1.4990776E-2,0E0,0E0,1.0858148E-2,6.53778E-3,4.514198E-2,8.629665E-3,0E0,0E0,0E0,0E0,0E0,7.7741146E-2,0E0,0E0,0E0,1.6260028E-2,5.1528692E-2,8.141309E-2,3.9781984E-2,4.0418923E-2,9.2616305E-3,0E0,8.228064E-3,3.7011378E-2,3.3695877E-2,4.9470395E-2,1.0506697E-2,6.295383E-3,0E0,2.9078469E-2,1.44046E-1,1.4633611E-1,6.1456442E-2,9.721954E-2,1.0551225E-1,9.0627484E-2,7.974397E-2,1.208511E-1,6.2961936E-2,0E0,1.21186405E-1,0E0,1.2801391E-1,5.6470677E-2,4.7406748E-2,9.8745905E-2,5.0301198E-2,3.6210322E-1,1.1133361E-1,4.158652E-2,1.752882E-1,0E0,2.7627036E-2,6.289154E-2,3.2051444E-2,3.85777E-2,2.34972E-1,2.0515922E-1,2.0636207E-1,7.01261E-2,0E0,0E0,4.144717E-3,0E0,0E0,2.5551605E-1,2.7205783E-1,3.0119705E-1,3.754304E-1,1.1135335E-1,9.7485304E-2,2.8495145E-1,2.6101038E-2,1.1217332E-1,0E0,0E0,0E0,2.1380514E-2,0E0,0E0,2.2062159E-1,1.0668135E-1,2.1996055E-2,0E0,7.2969437E-1,1.4842606E-1,2.5098562E-1,3.4758568E-1,6.154716E-1,2.1998692E-1,1.016736E-1,4.4527435E-1,4.2144156E-1,9.286423E-1,0E0,0E0,0E0,0E0,0E0,0E0,0E0,0E0,1.7667007E-1,0E0,5.847721E-1,3.2359695E-1,0E0,0E0,0E0,1.5357637E-1,1.5061569E-1,2.099762E-1,0E0,1.4230919E-1,1.4126778E-1,0E0,8.089495E-2,0E0,1.2461281E-1,7.292318E-2,3.245182E-1,1.389699E-1,4.761976E-2,1.708622E-1,0E0,0E0,5.5315614E-2,0E0,0E0,0E0,0E0,0E0,2.272067E-1,2.105751E-1,2.6418304E-1,3.3409238E-1,7.1754456E-2,2.2141743E-1,0E0,0E0,0E0,5.2143097E-2,0E0,0E0,0E0,0E0,0E0,0E0,0E0,0E0,0E0,0E0,0E0,0E0,0E0,0E0,0E0,0E0,0E0,0E0,0E0,0E0,0E0,0E0,0E0,0E0,0E0,0E0,0E0,0E0,0E0,0E0,0E0,0E0,0E0,0E0,0E0,0E0,0E0,0E0,0E0,0E0,0E0,0E0,0E0,0E0,0E0,0E0,0E0,0E0,0E0,0E0,0E0,0E0,0E0,0E0,0E0,0E0,0E0,0E0,0E0,0E0,0E0,0E0,0E0,0E0,0E0,0E0,0E0,0E0,0E0,0E0,0E0,0E0,0E0,0E0,0E0,0E0,0E0,0E0,0E0,0E0,0E0,0E0,0E0,0E0,0E0,0E0,0E0,0E0,0E0,0E0,0E0,0E0,0E0,0E0,0E0,0E0,0E0,0E0,0E0,0E0,0E0,0E0,0E0,0E0,0E0,0E0,0E0,0E0,0E0,0E0,0E0,0E0,0E0,0E0,0E0,0E0,0E0,0E0,0E0,0E0,0E0,0E0,0E0,0E0,0E0,0E0,0E0,0E0,0E0,0E0,0E0,0E0,0E0,0E0,0E0,0E0,0E0,0E0,0E0,0E0,0E0,0E0,0E0,0E0,0E0,0E0,0E0,0E0,0E0,0E0,0E0,0E0,0E0,0E0,0E0,0E0,0E0,0E0,0E0,0E0,0E0,0E0,0E0,0E0,0E0,0E0,0E0,0E0,0E0,0E0,0E0,0E0,0E0,0E0,0E0,0E0,0E0,0E0,0E0,0E0,0E0,0E0,0E0,0E0,0E0,0E0,0E0,0E0,0E0,0E0,0E0,0E0,0E0,0E0,0E0,0E0,0E0,0E0,0E0,0E0,0E0,0E0],"parents":[2147483647,0,0,1,1,2,2,3,3,4,4,5,5,6,6,7,7,8,8,9,9,10,10,11,11,12,12,13,13,14,14,15,15,16,16,17,17,18,18,19,19,20,20,21,21,22,22,23,23,24,24,25,25,26,26,27,27,28,28,29,29,30,30,33,33,34,34,35,35,36,36,37,37,38,38,39,39,40,40,41,41,42,42,43,43,44,44,45,45,46,46,47,47,48,48,49,49,50,50,51,51,52,52,53,53,54,54,55,55,56,56,57,57,58,58,59,59,60,60,61,61,62,62,64,64,65,65,67,67,68,68,69,69,70,70,71,71,72,72,74,74,75,75,76,76,77,77,78,78,79,79,80,80,81,81,82,82,83,83,84,84,85,85,86,86,87,87,88,88,89,89,90,90,91,91,92,92,93,93,94,94,95,95,96,96,97,97,98,98,99,99,100,100,101,101,103,103,104,104,105,105,106,106,107,107,109,109,111,111,112,112,113,113,114,114,115,115,119,119,120,120,121,121,123,123,127,127,128,128,129,129,130,130,131,131,132,132,133,133,134,134,135,135,136,136,137,137,138,138,139,139,140,140,141,141,142,142,143,143,144,144,145,145,146,146,147,147,148,148,149,149,150,150,151,151,153,153,156,156,157,157,158,158,159,159,160,160,161,161,162,162,163,163,164,164,165,165,166,166,167,167,168,168,169,169,170,170,171,171,172,172,173,173,175,175,176,176,177,177,178,178,180,180,181,181,182,182,184,184,185,185,186,186,187,187,188,188,189,189,190,190,191,191,192,192,193,193,195,195,196,196,197,197,198,198,200,200,202,202,205,205,206,206,207,207,208,208,209,209,211,211,212,212,214,214,216,216,217,217,222,222,225,225,226,226,228,228,229,229,230,230,231,231,236,236,237,237,238,238,241,241,242,242,243,243,244,244,250,250,254,254,255,255,256,256,257,257,258,258,259,259,261,261,262,262,263,263,264,264,265,265,266,266,268,268,269,269,270,270,271,271,272,272,273,273,274,274,275,275,276,276,277,277,279,279,281,281,282,282,283,283,284,284,285,285,286,286,287,287,288,288,289,289,291,291,292,292,293,293,294,294,295,295,296,296,297,297,298,298,301,301,304,304,305,305,306,306,307,307,308,308,309,309,310,310,311,311,312,312,316,316,319,319,320,320,321,321,323,323,324,324,325,325,326,326,327,327,328,328,329,329,330,330,331,331,332,332,341,341,343,343,344,344,348,348,349,349,350,350,352,352,353,353,355,355,357,357,358,358,359,359,360,360,361,361,362,362,365,365,371,371,372,372,373,373,374,374,375,375,376,376,380,380],"right_children":[2,4,6,8,10,12,14,16,18,20,22,24,26,28,30,32,34,36,38,40,42,44,46,48,50,52,54,56,58,60,62,-1,-1,64,66,68,70,72,74,76,78,80,82,84,86,88,90,92,94,96,98,100,102,104,106,108,110,112,114,116,118,120,122,-1,124,126,-1,128,130,132,134,136,138,-1,140,142,144,146,148,150,152,154,156,158,160,162,164,166,168,170,172,174,176,178,180,182,184,186,188,190,192,194,-1,196,198,200,202,204,-1,206,-1,208,210,212,214,216,-1,-1,-1,218,220,222,-1,224,-1,-1,-1,226,228,230,232,234,236,238,240,242,244,246,248,250,252,254,256,258,260,262,264,266,268,270,272,274,-1,276,-1,-1,278,280,282,284,286,288,290,292,294,296,298,300,302,304,306,308,310,312,-1,314,316,318,320,-1,322,324,326,-1,328,330,332,334,336,338,340,342,344,346,-1,348,350,352,354,-1,356,-1,358,-1,-1,360,362,364,366,368,-1,370,372,-1,374,-1,376,378,-1,-1,-1,-1,380,-1,-1,382,384,-1,386,388,390,392,-1,-1,-1,-1,394,396,398,-1,-1,400,402,404,406,-1,-1,-1,-1,-1,408,-1,-1,-1,410,412,414,416,418,420,-1,422,424,426,428,430,432,-1,434,436,438,440,442,444,446,448,450,452,-1,454,-1,456,458,460,462,464,466,468,470,472,-1,474,476,478,480,482,484,486,488,-1,-1,490,-1,-1,492,494,496,498,500,502,504,506,508,-1,-1,-1,510,-1,-1,512,514,516,-1,518,520,522,524,526,528,530,532,534,536,-1,-1,-1,-1,-1,-1,-1,-1,538,-1,540,542,-1,-1,-1,544,546,548,-1,550,552,-1,554,-1,556,558,560,562,564,566,-1,-1,568,-1,-1,-1,-1,-1,570,572,574,576,578,580,-1,-1,-1,582,-1,-1,-1,-1,-1,-1,-1,-1,-1,-1,-1,-1,-1,-1,-1,-1,-1,-1,-1,-1,-1,-1,-1,-1,-1,-1,-1,-1,-1,-1,-1,-1,-1,-1,-1,-1,-1,-1,-1,-1,-1,-1,-1,-1,-1,-1,-1,-1,-1,-1,-1,-1,-1,-1,-1,-1,-1,-1,-1,-1,-1,-1,-1,-1,-1,-1,-1,-1,-1,-1,-1,-1,-1,-1,-1,-1,-1,-1,-1,-1,-1,-1,-1,-1,-1,-1,-1,-1,-1,-1,-1,-1,-1,-1,-1,-1,-1,-1,-1,-1,-1,-1,-1,-1,-1,-1,-1,-1,-1,-1,-1,-1,-1,-1,-1,-1,-1,-1,-1,-1,-1,-1,-1,-1,-1,-1,-1,-1,-1,-1,-1,-1,-1,-1,-1,-1,-1,-1,-1,-1,-1,-1,-1,-1,-1,-1,-1,-1,-1,-1,-1,-1,-1,-1,-1,-1,-1,-1,-1,-1,-1,-1,-1,-1,-1,-1,-1,-1,-1,-1,-1,-1,-1,-1,-1,-1,-1,-1,-1,-1,-1,-1,-1,-1,-1,-1,-1,-1,-1,-1,-1,-1,-1,-1,-1,-1,-1,-1,-1,-1,-1,-1],"split_conditions":[6.3652797E4,6.25E1,4.2459998E2,5.8447197E3,1.268E2,3.63825E2,1.5179169E5,8.795159E1,7.5732477E2,3.612E2,4.981E2,6.3028965E4,1.0732325E5,1.1611351E5,5.06125E2,1.16E1,3.8444597E3,2.9677148E4,5E-1,5.8059684E4,3.731546E4,7.6618234E4,2.051E2,1.4321326E6,1.8487415E6,8.164964E-3,9.446754E4,1.6101372E2,1.8647574E2,2E0,5.53E1,-7.798937E-3,-7.4297534E-3,2.8069129E4,3.0269623E0,3.6706818E2,8.28155E1,9.788587E-1,9.94E2,2.968155E4,1E0,3.327507E3,1.4201526E1,2.759E2,1E0,2E-2,2.839E2,1E0,1.2499999E-2,1E0,1E0,1.0477396E2,3.2739E3,1E0,1.6101372E2,2.6064E3,3.559026E-2,4.35467E4,1E0,1E0,2.080618E2,7.359E2,5E-1,-7.0002466E-3,1E0,1E0,-6.4243744E-3,3.6E1,9.32E1,3.8088637E4,1E0,2.6107373E2,1.4E0,4.0631066E-3,9.7E0,2.75175E2,1.0099E3,1.000885E2,1.1917346E4,9.9425E1,2.3675E1,2.7204E3,3.895E2,1E0,2.7594281E4,9.884825E1,9.730693E4,8.75E0,7.2500005E-2,2.0838066E4,6.931E2,7.75E1,2.771E2,8.331771E1,2.844E2,5.86E1,9.859E2,1E-1,2.833E2,2.5907E3,7.058674E4,9.42E1,9.305636E-3,3.3E1,1.3139816E5,1.547E2,1.239E2,6.54E1,1.4239124E-2,1E0,6.3826214E-3,1.311251E5,1.63293E2,6.567E2,2.722E2,4.075E2,1.3235248E-2,1.5097749E-2,2.132626E-2,9.858123E-1,2.992E2,7.42E1,1.2613657E-2,2.1114614E0,-6.686193E-3,-5.696101E-3,-3.8578582E-3,3.7783283E1,-2.4155908E0,4.9996376E-4,7.1E0,1.4583168E1,1E0,1.95E1,1.124E2,1.7240193E3,1.5882384E0,2.2E0,9.9475E1,2.6E0,-7.0710677E-1,4.52E1,2E-1,5.0002337E-4,3.7543043E4,2.1406193E0,6E1,2E0,1.1761342E1,4.33093E4,3.8731408E-1,1.0425E1,5.31476E-3,5.5266976E0,7.0908605E-3,-1.711021E-4,9.218008E-1,3.0067312E1,1.0237E3,2.6458043E4,9.418175E1,4.4798613E0,6.6524994E1,6.768001E1,3.6299E3,2.1923724E2,1.5519E2,2.427961E4,1.9513026E0,5.0048828E-2,5.773855E-2,2.25E0,5.9447308E0,4.640667E0,-1.1369121E-3,7.499614E4,4.9999714E-2,2.1507E3,2.0629908E4,4.2709396E-3,1.012422E4,2.0087945E0,8.111E1,-4.487628E-3,9.3054875E4,-6.643638E-1,8.282E2,2.6244E3,1.2E1,-6.0228735E-1,2.611E2,1.4387689E5,6.778125E1,6E-2,-2.3542324E-4,2.1807709E2,1.6355669E2,2.736E2,6.1918945E3,8.5151E-3,6.866235E-1,2.8869709E-2,2E0,8.85766E-3,4.8154877E-3,2.3539725E2,2.755E2,6.047865E-1,1.3410077E3,2.768E2,2.420125E-2,1.3239119E5,1.00545E3,3.6285282E-3,9.486833E-1,1.5140489E-2,2.85E2,3.1092507E-1,1.8743707E-2,2.1315228E-2,3.2934967E-2,1.5416798E-2,-3.1E0,-5.5991667E-3,-3.5781306E-3,9.42E1,9.94E1,-3.6424696E-3,1.0083E3,1.1105555E0,6.1404E3,4.6005383E0,-1.4252152E-3,-5.331924E-3,-4.2752284E-3,-1.9740614E-3,5.63E1,2.663E2,3.76144E4,-4.92601E-3,-2.0947508E-3,8.045741E-1,1.0042E3,1.214E0,9.958343E2,-2.1508504E-3,-5.143516E-3,-1.4817287E-3,-3.4267155E-3,2.7381715E-3,5.3E0,-4.645871E-3,-2.5431197E-3,-2.2385684E-3,1E0,6.98E1,1.469E3,1.0095E3,2.73175E2,1.0349265E0,2.2862954E-3,5.512E2,5.6806674E0,4.4252E3,1.3E0,1.5882365E0,3.2384178E4,1.7868901E-3,1.6E0,6.067917E1,1.893909E1,5.775617E-2,6.0759145E-1,-3.3541018E-1,4.764955E0,4.390566E0,2.8060408E4,8.29E1,3.8217276E-3,1.0016E3,7.910337E-3,9.81E1,9.87E1,2.0321696E0,1.217E0,1.19789984E5,6.74E1,1.452143E5,6.367957E4,2.6064E3,2.9503384E-3,3.303E1,4.9999714E-2,8.6554474E-1,9.694E1,6.622604E1,3.8786674E1,8.05E1,1.7020824E4,2.0256727E-3,-1.5034244E-3,9.865258E0,-3.973024E-3,6.6531845E-3,3.8775276E3,1.0098E3,9.94E1,9.68771E4,4.325E0,2.8495E2,6.8495834E-1,4.4051566E0,6.814423E4,-4.8435857E-3,2.41609E-5,5.9005793E-5,2E0,-1.0619137E-3,5.8854907E-3,5.5266976E0,5.955E2,1.202E0,-2.07449E-3,1.659354E4,1.521688E5,2.838E2,2.729E2,2.764E2,3.207E2,7.121196E4,7.951E2,1.7078176E-1,3.2914035E0,1.0004881E-2,4.827717E-3,-2.5611182E-4,4.0946077E-3,1.2593172E-2,6.108967E-3,-1.5841911E-3,3.8300864E-3,3.907128E1,1.652105E-2,1E0,2.741E2,5.7521714E-3,2.314418E-3,2.5455583E-2,1.2909156E-1,2.2722967E0,7.25E1,3.9797E-3,2.246408E3,5E1,2.357967E-2,7.903796E0,9.540001E-3,1.0168E3,2.9848751E1,1.779336E4,6.06E1,1.4509245E6,1.63293E2,1.2636505E-2,1.9634444E-2,7.66E1,5.912862E-3,8.804805E-3,1.9144028E-2,2.9015467E-2,1.7856663E-2,9.574273E-2,7.628801E-1,1.7250417E2,1.3844942E1,9.720822E-1,4.6609998E2,2.9757276E-2,1.9344913E-2,1.9134546E-2,7.084E2,-5.808731E-3,-6.305004E-3,-3.2416438E-3,-5.440476E-3,-5.4884185E-3,-4.6854555E-3,1.824224E-5,-2.9130585E-3,-1.9110136E-3,-4.386638E-3,-5.346008E-3,-4.3880227E-3,-3.35932E-3,-5.165422E-3,7.425591E-5,-3.2973464E-3,-1.6007934E-3,8.105791E-4,-5.105397E-3,-3.2640565E-3,-1.6898284E-3,-3.3455198E-3,-3.9912076E-3,-1.4696209E-3,-2.99773E-3,-5.2023856E-3,-3.1831756E-3,1.0553547E-3,-4.287209E-3,-5.698481E-3,-4.237594E-3,-3.1797641E-3,-2.1859515E-3,1.7476792E-3,1.1016903E-3,-2.1843247E-3,-5.528399E-3,-2.5611722E-3,-2.4263735E-3,-6.991552E-4,-1.215376E-3,-2.97168E-3,7.164988E-4,-2.4338628E-3,9.261702E-3,5.1405476E-3,2.6903849E-3,-1.6274935E-3,-1.7201258E-3,-3.5770156E-3,-3.5341599E-3,-5.426941E-3,-1.2917347E-3,-3.164747E-3,1.4987257E-3,-2.8324823E-3,3.867281E-3,-1.96373E-3,-1.1496269E-3,-2.8364852E-3,-1.6565906E-3,4.3951506E-3,-1.6510197E-3,7.111695E-4,2.1859345E-3,-2.8612171E-3,-2.7726952E-3,5.7873497E-4,7.376801E-3,2.078188E-3,7.7218222E-3,1.5018694E-2,-1.4208504E-3,1.5337634E-3,-1.8008968E-3,-4.44485E-3,-1.8842131E-3,1.9932243E-3,-1.20508E-3,-3.298478E-3,-6.012844E-4,1.0869679E-3,-1.5702883E-3,1.7718719E-4,3.8319118E-3,1.729778E-3,2.6975414E-3,7.566431E-3,2.8204042E-3,-9.0723636E-4,8.5105095E-3,1.4013509E-2,1.7622622E-3,5.370485E-3,-1.2420362E-3,1.4995987E-3,2.9852653E-3,6.205665E-3,6.205414E-4,4.1257176E-3,3.3141987E-3,7.7483444E-3,1.70304E-3,8.815887E-3,2.9076217E-3,1.0297707E-2,3.7290459E-3,7.673765E-4,-2.1904733E-3,-6.815807E-4,1.8348202E-2,8.442194E-3,7.886133E-3,9.84162E-4,7.7374214E-3,1.3905345E-2,3.4913353E-3,1.2754954E-2,3.1749967E-3,-6.592045E-4,3.4289341E-3,7.5109988E-3,5.4952796E-3,1.6125983E-2,2.5331776E-3,5.419752E-3,4.177741E-3,1.0890654E-2,1.7903019E-3,3.6483516E-3,7.7386065E-3,1.3149092E-2,2.1512154E-3,6.7038084E-3,2.2708178E-3,-6.2727986E-4,1.8558377E-2,1.12342015E-2,8.551011E-3,1.3311383E-2,1.5075937E-2,6.6155246E-3,-1.3963995E-3,6.998189E-3,1.3697515E-3,6.3250433E-3,6.567923E-3,9.4388E-3,1.0501285E-2,1.5193063E-2,8.961789E-3,1.878871E-2,2.5310908E-3,1.1559465E-2,2.939919E-3,1.5989807E-2,9.969003E-3,4.2101066E-3,1.7687479E-2,1.2521245E-2,3.6145195E-3,1.238136E-2,1.73872E-2,9.79782E-3,5.2961702E-3,1.264849E-2,1.890827E-2,1.3183889E-2,8.224164E-3,1.2712397E-2,1.5710881E-2,1.0074523E-2,1.9247351E-2,1.22373765E-2,1.8788239E-2,2.2850836E-2,1.0350287E-2,1.7376993E-2,2.4311207E-2,1.8473927E-2,1.6776865E-2,8.610871E-3,6.092216E-3,1.2115362E-2,9.854805E-3,1.751512E-2,1.4395666E-2,7.775751E-3,2.2736268E-2,1.2414067E-2,2.693143E-2,2.1896997E-2,1.558913E-2,2.2289727E-2,6.604746E-3,1.877532E-2,2.695616E-2,1.8141154E-2,1.4239864E-2,2.391853E-2,2.0526124E-2,3.0106753E-2],"split_indices":[41,39,39,41,39,147,53,97,43,63,63,161,161,53,160,67,41,53,85,161,53,53,105,116,116,183,162,157,157,0,55,0,0,161,210,43,137,98,28,41,0,97,177,140,0,129,32,0,129,0,76,48,112,0,157,61,183,88,0,76,157,9,37,0,0,46,0,39,55,176,0,178,177,0,113,140,77,137,162,163,123,112,63,0,53,137,161,113,129,176,10,55,32,48,32,55,20,85,12,166,53,33,0,55,53,15,123,27,0,0,0,149,137,63,140,106,0,0,0,152,123,87,0,192,0,0,0,171,148,168,90,210,35,15,9,97,189,201,163,90,47,27,85,168,176,192,71,0,177,16,190,113,0,191,0,0,40,177,20,161,137,179,163,96,7,137,150,176,94,182,179,143,191,191,0,149,167,61,176,0,211,192,150,0,53,99,118,7,4,40,15,178,158,129,0,48,157,32,43,0,99,0,0,0,0,137,32,208,196,123,0,170,136,0,44,0,12,182,0,0,0,0,90,0,0,55,17,0,77,179,88,191,0,0,0,0,55,10,88,0,0,44,28,60,196,0,0,0,0,0,35,0,0,0,0,39,10,28,140,208,0,10,213,7,37,213,176,0,90,48,201,182,189,152,191,191,41,27,0,77,0,87,67,148,60,170,55,170,149,61,0,150,167,189,104,48,171,27,124,0,0,175,0,0,196,74,71,16,143,140,179,191,41,0,0,0,0,0,0,191,112,60,0,176,170,140,32,32,147,53,63,213,177,0,0,0,0,0,0,0,0,201,0,0,32,0,0,0,190,213,27,0,211,56,0,175,0,20,158,176,55,124,137,0,0,55,0,0,0,0,0,199,192,48,177,44,39,0,0,0,9,0,0,0,0,0,0,0,0,0,0,0,0,0,0,0,0,0,0,0,0,0,0,0,0,0,0,0,0,0,0,0,0,0,0,0,0,0,0,0,0,0,0,0,0,0,0,0,0,0,0,0,0,0,0,0,0,0,0,0,0,0,0,0,0,0,0,0,0,0,0,0,0,0,0,0,0,0,0,0,0,0,0,0,0,0,0,0,0,0,0,0,0,0,0,0,0,0,0,0,0,0,0,0,0,0,0,0,0,0,0,0,0,0,0,0,0,0,0,0,0,0,0,0,0,0,0,0,0,0,0,0,0,0,0,0,0,0,0,0,0,0,0,0,0,0,0,0,0,0,0,0,0,0,0,0,0,0,0,0,0,0,0,0,0,0,0,0,0,0,0,0,0,0,0,0,0,0,0,0,0,0,0,0,0,0,0,0,0,0,0,0,0,0,0,0,0,0,0,0,0,0,0],"split_type":[0,0,0,0,0,0,0,0,0,0,0,0,0,0,0,0,0,0,0,0,0,0,0,0,0,0,0,0,0,0,0,0,0,0,0,0,0,0,0,0,0,0,0,0,0,0,0,0,0,0,0,0,0,0,0,0,0,0,0,0,0,0,0,0,0,0,0,0,0,0,0,0,0,0,0,0,0,0,0,0,0,0,0,0,0,0,0,0,0,0,0,0,0,0,0,0,0,0,0,0,0,0,0,0,0,0,0,0,0,0,0,0,0,0,0,0,0,0,0,0,0,0,0,0,0,0,0,0,0,0,0,0,0,0,0,0,0,0,0,0,0,0,0,0,0,0,0,0,0,0,0,0,0,0,0,0,0,0,0,0,0,0,0,0,0,0,0,0,0,0,0,0,0,0,0,0,0,0,0,0,0,0,0,0,0,0,0,0,0,0,0,0,0,0,0,0,0,0,0,0,0,0,0,0,0,0,0,0,0,0,0,0,0,0,0,0,0,0,0,0,0,0,0,0,0,0,0,0,0,0,0,0,0,0,0,0,0,0,0,0,0,0,0,0,0,0,0,0,0,0,0,0,0,0,0,0,0,0,0,0,0,0,0,0,0,0,0,0,0,0,0,0,0,0,0,0,0,0,0,0,0,0,0,0,0,0,0,0,0,0,0,0,0,0,0,0,0,0,0,0,0,0,0,0,0,0,0,0,0,0,0,0,0,0,0,0,0,0,0,0,0,0,0,0,0,0,0,0,0,0,0,0,0,0,0,0,0,0,0,0,0,0,0,0,0,0,0,0,0,0,0,0,0,0,0,0,0,0,0,0,0,0,0,0,0,0,0,0,0,0,0,0,0,0,0,0,0,0,0,0,0,0,0,0,0,0,0,0,0,0,0,0,0,0,0,0,0,0,0,0,0,0,0,0,0,0,0,0,0,0,0,0,0,0,0,0,0,0,0,0,0,0,0,0,0,0,0,0,0,0,0,0,0,0,0,0,0,0,0,0,0,0,0,0,0,0,0,0,0,0,0,0,0,0,0,0,0,0,0,0,0,0,0,0,0,0,0,0,0,0,0,0,0,0,0,0,0,0,0,0,0,0,0,0,0,0,0,0,0,0,0,0,0,0,0,0,0,0,0,0,0,0,0,0,0,0,0,0,0,0,0,0,0,0,0,0,0,0,0,0,0,0,0,0,0,0,0,0,0,0,0,0,0,0,0,0,0,0,0,0,0,0,0,0,0,0,0,0,0,0,0,0,0,0,0,0,0,0,0,0,0,0,0,0,0,0,0,0,0,0,0,0,0,0,0,0,0,0,0,0,0,0,0],"sum_hessian":[2.9106E4,2.2074E4,7.032E3,1.5922E4,6.152E3,4.286E3,2.746E3,1.3389E4,2.533E3,2.856E3,3.296E3,2.642E3,1.644E3,1.512E3,1.234E3,1.1499E4,1.89E3,2.054E3,4.79E2,1.733E3,1.123E3,2.37E3,9.26E2,6.02E2,2.04E3,7.92E2,8.52E2,5.03E2,1.009E3,4.35E2,7.99E2,1.0857E4,6.42E2,1.317E3,5.73E2,1.655E3,3.99E2,3.78E2,1.01E2,1.368E3,3.65E2,8.31E2,2.92E2,1.965E3,4.05E2,4.61E2,4.65E2,2.02E2,4E2,1.197E3,8.43E2,7.5E2,4.2E1,5.12E2,3.4E2,4.2E1,4.61E2,1.31E2,8.78E2,3.21E2,1.14E2,7.05E2,9.4E1,1.184E3,1.33E2,6.1E1,5.12E2,1.121E3,5.34E2,2.09E2,1.9E2,2.78E2,1E2,1E1,9.1E1,1.04E3,3.28E2,1.58E2,2.07E2,4.42E2,3.89E2,2.45E2,4.7E1,3.74E2,1.591E3,1.78E2,2.27E2,4.05E2,5.6E1,2.24E2,2.41E2,9.3E1,1.09E2,3.53E2,4.7E1,5.28E2,6.69E2,7.84E2,5.9E1,4.8E1,7.02E2,3.1E1,1.1E1,2.25E2,2.87E2,8.2E1,2.58E2,2.5E1,1.7E1,4.5E2,1.1E1,5.8E1,7.3E1,3.79E2,4.99E2,3.11E2,1E1,1.8E1,9.6E1,3.92E2,3.13E2,7.8E1,1.6E1,4.3E1,9E1,4.9E1,1.2E1,7.15E2,4.06E2,1.05E2,4.29E2,1.62E2,4.7E1,8.5E1,1.05E2,8.8E1,1.9E2,7.8E1,2.2E1,5.9E1,3.2E1,1.54E2,8.86E2,2.81E2,4.7E1,1.02E2,5.6E1,7.5E1,1.32E2,1.3E2,3.12E2,3.72E2,1.7E1,2.33E2,1.2E1,1.3E1,3.4E1,1.5E2,2.24E2,5.29E2,1.062E3,8.4E1,9.4E1,1.45E2,8.2E1,2.36E2,1.69E2,2.5E1,3.1E1,6.4E1,1.6E2,1.31E2,1.1E2,8E1,1.3E1,2.4E1,8.5E1,3.2E1,3.21E2,1E1,3.7E1,3.1E2,2.18E2,1.7E1,6.52E2,3.83E2,4.01E2,3.4E1,2.5E1,2.6E1,2.2E1,1.7E2,5.32E2,2E1,1.1E1,9.3E1,1.32E2,1.85E2,1.02E2,1.8E1,6.4E1,1.4E1,2.44E2,1E1,1.5E1,1.97E2,2.53E2,2.1E1,3.7E1,3.7E1,3.6E1,1.59E2,2.2E2,1.3E1,4.86E2,1.1E1,3E2,3.82E2,1E1,1E1,3.03E2,1.2E1,6.6E1,2.8E1,1.5E1,6.32E2,8.3E1,1.4E1,3.92E2,2.3E1,8.2E1,4.17E2,1.2E1,1.32E2,3E1,1E1,3.7E1,6.1E1,2.4E1,9.4E1,1.1E1,5.5E1,3.3E1,1.59E2,3.1E1,1.1E1,6.7E1,1E1,1.2E1,1.3E1,4.6E1,1.4E1,1.8E1,1.5E1,1.39E2,7.93E2,9.3E1,3.5E1,2.46E2,3.3E1,1.4E1,5.8E1,4.4E1,3.1E1,2.5E1,3.7E1,3.8E1,1.2E1,1.2E2,8.2E1,4.8E1,2.87E2,2.5E1,3.12E2,6E1,1.76E2,5.7E1,2E1,1.4E1,1.37E2,1.3E1,1.88E2,3.6E1,1.65E2,3.64E2,2.1E2,8.52E2,5.4E1,3E1,7.6E1,1.8E1,2.5E1,1.2E2,4.7E1,3.5E1,1.54E2,8.2E1,4.1E1,1.28E2,1.1E1,1.4E1,2E1,1.1E1,1.5E1,4.9E1,5.7E1,1.03E2,5E1,8.1E1,8.1E1,2.9E1,4E1,4E1,1.3E1,1.1E1,1.6E1,6.9E1,1.7E1,1.5E1,1.03E2,2.18E2,2.5E1,1.2E1,1.78E2,1.32E2,4.1E1,1.77E2,3.56E2,2.96E2,8.2E1,3.01E2,1.5E2,2.51E2,2E1,1.4E1,1.3E1,1.2E1,1.2E1,1.4E1,1.1E1,1.1E1,1.56E2,1.4E1,2.53E2,2.79E2,1E1,1E1,4.8E1,4.5E1,3.2E1,1E2,1.5E1,1.7E2,8.7E1,1.5E1,5.3E1,1.1E1,1.84E2,6E1,1.47E2,5E1,2.1E1,2.32E2,1E1,1.1E1,2.4E1,1.3E1,1.2E1,2.5E1,1.49E2,1E1,3.1E1,1.89E2,4.57E2,2.9E1,2.34E2,6.6E1,3.72E2,1E1,1E1,5.6E1,3.74E2,2.58E2,1.6E1,6.7E1,3.26E2,6.6E1,1E1,1.3E1,1.1E1,7.1E1,2.9E2,1.27E2,1.8E1,1.9E1,1E1,5.1E1,1.1E1,1.3E1,3.3E1,2.2E1,1.4E1,1.9E1,2E1,1.39E2,1.4E1,1.7E1,3E1,1.6E1,5.5E1,8.4E1,1.55E2,6.38E2,7.8E1,1.5E1,1.7E1,1.8E1,1.2E1,2.34E2,1.8E1,1.5E1,1E1,4.8E1,3.2E1,1.2E1,1.1E1,2E1,1.4E1,1.1E1,1.8E1,1.9E1,2.1E1,1.7E1,9.3E1,2.7E1,2.9E1,5.3E1,3.3E1,1.5E1,7.5E1,2.12E2,1.4E1,1.1E1,5.7E1,2.55E2,1E1,5E1,1.9E1,1.57E2,1.4E1,4.3E1,1E1,1E1,7.1E1,6.6E1,1.03E2,8.5E1,1.6E1,2E1,1.31E2,3.4E1,1.4E2,2.24E2,5.5E1,1.55E2,3.48E2,5.04E2,3.6E1,1.8E1,1.1E1,1.9E1,3.2E1,4.4E1,1E1,1.5E1,2.6E1,9.4E1,1.4E1,3.3E1,2.4E1,1.1E1,4.4E1,1.1E2,7.1E1,1.1E1,2.6E1,1.5E1,2.4E1,1.04E2,1E1,1E1,3.8E1,1.1E1,2.6E1,3.1E1,7.2E1,3.1E1,3.4E1,1.6E1,5.2E1,2.9E1,2.3E1,5.8E1,1.2E1,1.7E1,2.7E1,1.3E1,1E1,3E1,3.3E1,3.6E1,7.3E1,3E1,1.5E1,2.03E2,1.4E1,1.1E1,1.22E2,5.6E1,1.08E2,2.4E1,2.3E1,1.8E1,1.3E1,1.64E2,8.2E1,2.74E2,1.51E2,1.45E2,3.1E1,5.1E1,2.89E2,1.2E1,1.5E1,1.35E2,1.5E1,2.36E2,1.39E2,1.7E1,1.34E2,1.19E2,1.2E1,2.67E2,3E1,1.5E1,1.6E1,1.6E1,6E1,4E1,2.9E1,1.41E2,6.4E1,2.3E1,4E1,1.3E1,1.13E2,7.1E1,1E1,5E1,7.1E1,7.6E1,4E1,1E1,1E1,1.1E1,1.2E1,2.2E2,1.4E1,1E1,1.3E1,1.8E1,6.4E1,1.25E2,2.6E1,4.31E2,1E1,1.9E1,2.23E2,1.1E1,1.3E1,5.3E1,1.2E1,4.4E1],"tree_param":{"num_deleted":"0","num_feature":"217","num_nodes":"583","size_leaf_vector":"1"}},{"base_weights":[4.4032044E-4,-9.4932504E-2,2.994005E-1,-1.3554849E-1,1.4097768E-2,1.9560532E-1,4.4559002E-1,-1.450303E-1,-8.739233E-2,-2.886563E-2,5.0547585E-2,1.5445104E-1,2.5601414E-1,3.9741713E-1,5.512172E-1,-1.4778282E-1,-1.2800354E-1,-9.613137E-2,-4.5387335E-2,-4.8443675E-2,3.4007032E-3,2.6894491E-2,1.086987E-1,9.820066E-2,1.7129776E-1,1.6651884E-1,2.7300856E-1,2.95398E-1,4.2381364E-1,5.7894224E-1,4.640961E-1,-7.41094E-3,-7.084269E-3,-1.3158569E-1,-1.18560284E-1,-9.999682E-2,-7.770602E-2,-5.188081E-2,-4.611113E-5,-5.543526E-2,3.9708256E-4,1.1345174E-1,-2.3124237E-3,1.6858887E-2,9.663219E-2,6.738097E-2,1.5386617E-1,4.110557E-2,1.1178804E-1,2.0358697E-1,1.4382954E-1,1.7717575E-1,1.3023674E-3,2.1089077E-1,2.886139E-1,1.6090828E-1,3.1469727E-1,4.6684274E-1,3.8889956E-1,5.3936696E-1,6.2692505E-1,4.867507E-1,2.3396088E-1,-1.3320157E-1,-6.044214E-3,-1.1937534E-1,-3.488535E-3,-1.0719855E-1,-8.992503E-2,-9.234351E-2,-6.1785094E-2,-1.8297724E-2,-6.1494395E-2,-4.589729E-2,2.9248979E-2,-5.6335613E-2,3.0001465E-3,-3.2109015E-2,4.8217583E-2,3.6520332E-2,1.8601963E-1,-1.4541268E-2,2.4662301E-2,-1.1815738E-2,2.9593315E-2,1.4736736E-1,5.3360373E-2,9.4904564E-2,3.257084E-2,7.571683E-2,1.842516E-1,7.66266E-2,1.4579179E-3,1.0444279E-1,2.0255335E-1,2.582399E-1,1.780954E-1,1.0839595E-1,2.02601E-1,1.1332199E-3,1.8425152E-1,2.2728458E-1,1.0249655E-1,2.9716063E-1,2.0037356E-1,1.3367883E-2,1.1696705E-1,6.041888E-3,3.2217047E-1,5.016229E-1,4.0072915E-1,2.9776296E-1,4.105889E-1,4.2976037E-1,2.7654681E-2,2.2342863E-2,3.1705093E-2,5.152351E-1,3.3530444E-1,1.4319121E-2,7.77523E-3,-6.678864E-3,-4.7846106E-3,-1.20055094E-1,-3.8719827E-3,-1.1126398E-1,-9.7549655E-2,-1.7176605E-3,-9.115859E-2,-9.455464E-2,-2.3179709E-3,-3.5234224E-2,-8.578296E-2,-3.6284063E-2,5.7087727E-3,-2.5800683E-2,-6.482039E-2,-3.074087E-3,-1.1653412E-3,3.617276E-3,-1.4645257E-3,-9.859665E-2,-5.2929632E-2,-3.7774347E-2,1.0456545E-3,1.1824019E-1,-1.3891879E-2,-1.8534212E-3,4.2415042E-3,4.5866165E-3,1.30142495E-2,-2.6726702E-2,9.572708E-3,-1.718598E-2,3.87471E-2,-3.140094E-2,6.781641E-5,3.7014354E-2,-3.4773275E-2,6.940473E-2,2.1972331E-1,6.4486496E-2,-1.42651545E-2,5.2705146E-2,1.1689355E-1,4.4468947E-2,-4.0252294E-2,3.779307E-2,1.4553401E-1,1.2824053E-1,2.1968018E-1,1.5274526E-1,2.5866713E-2,3.1467713E-3,-2.4465714E-2,9.904702E-2,1.1374007E-2,5.6022755E-3,1.3167311E-2,2.9865393E-1,1.7767692E-1,1.496123E-1,2.1283258E-1,4.5341484E-2,1.314862E-1,1.909713E-1,3.234696E-1,2.0122018E-1,1.296474E-1,1.01748176E-1,2.4236594E-1,5.5635482E-2,1.0836075E-2,2.7794635E-1,3.382279E-1,1.13309614E-1,2.4286409E-1,7.224295E-2,1.021492E-2,3.6205602E-1,2.9068747E-1,4.5340976E-1,5.4868823E-1,4.1977075E-1,2.94354E-1,1.2362988E-1,3.334298E-1,3.6073747E-1,4.2840463E-1,2.3812234E-2,1.4308634E-2,3.7492713E-1,2.7263556E-2,8.847455E-3,4.0051112E-1,-6.123205E-3,-5.2217217E-3,-3.6456392E-3,-1.1197053E-1,-6.588758E-2,-1.0050908E-1,-9.333266E-2,-6.129873E-2,-4.987611E-3,-8.5650906E-2,-5.1837186E-3,-5.7094526E-2,-4.49584E-3,-2.264482E-3,-4.551365E-3,-1.6519198E-2,1.02765E-4,-2.3410562E-3,-5.745127E-2,-8.33569E-2,1.4213081E-3,-1.437114E-3,-6.9947675E-2,-1.1620207E-1,-6.939959E-2,-4.737742E-2,-4.9160838E-2,-1.8716525E-2,1.5002486E-1,2.6572559E-3,-4.607646E-2,2.1695359E-2,-3.6135852E-2,1.9914124E-3,-4.834794E-3,6.096011E-2,1.42621985E-2,-5.6229804E-2,-2.3819365E-2,4.7186084E-2,-6.789193E-2,-2.325499E-2,-3.7520524E-2,1.1004666E-2,7.8197644E-4,4.539971E-2,-5.5684615E-2,2.9507538E-2,6.233772E-3,5.0330006E-2,2.611407E-1,2.0658816E-3,5.6340657E-2,7.1643153E-3,2.4470463E-3,-4.383321E-3,9.391689E-2,1.8274762E-2,1.850959E-1,9.513157E-2,1.1377878E-1,2.422592E-2,-7.6203025E-4,-3.4767508E-3,1.0198056E-1,9.954421E-3,7.330453E-2,1.18357325E-2,7.5505875E-2,1.6427696E-1,1.7805518E-1,2.9770964E-1,4.2976686E-3,1.0889761E-2,-1.7962705E-4,2.9501542E-3,-3.9609475E-3,1.4687219E-2,1.0259459E-1,-1.8996131E-3,3.261115E-1,2.0132549E-1,9.898913E-2,2.0515051E-1,1.5827765E-1,4.060443E-5,2.7571788E-1,1.7563125E-1,7.392175E-2,-7.2834924E-2,1.03695005E-1,1.5117359E-1,1.6629192E-1,2.4546471E-1,1.07167335E-2,1.9822244E-2,1.5225887E-2,1.8850058E-1,1.5813637E-1,2.7985258E-3,9.048327E-3,1.0513915E-3,2.7444953E-1,1.6910645E-1,-1.853851E-4,4.6053375E-3,3.2074064E-1,2.4579771E-1,2.7146327E-1,3.7048188E-1,1.697751E-1,8.2422904E-4,3.3676246E-1,1.82624E-1,1.8713294E-3,5.476836E-3,1.0574819E-2,3.7857825E-1,6.8351105E-3,3.0249766E-1,4.6894366E-1,3.804044E-1,5.5889153E-1,1.6886769E-2,1.206975E-2,4.333781E-1,6.419835E-3,3.4374675E-1,1.2601897E-2,1.4632456E-3,1.7689867E-1,3.700035E-1,3.702517E-1,1.161728E-2,4.3266517E-1,1.2221251E-2,2.269426E-2,1.313332E-2,2.3335112E-2,1.3992886E-2,-5.630816E-3,-4.2013857E-3,-4.1104713E-3,-1.7277012E-3,-5.083245E-3,-3.634767E-3,-4.0821764E-3,-4.9411706E-3,2.9496587E-4,-4.1642794E-3,-4.6282834E-3,-3.5245556E-3,-1.5387888E-3,1.0333762E-3,-3.5088805E-3,-1.0072202E-3,-1.6055148E-3,1.8501142E-3,-3.2555552E-3,-1.7127469E-3,-4.7438815E-3,-2.8333152E-3,-4.575747E-3,-2.4043657E-4,-6.4054816E-3,-4.4185068E-3,-3.666072E-3,-9.3815255E-4,-3.1227553E-3,-2.0564152E-3,-1.9333599E-3,-3.3119656E-3,1.9313161E-4,-1.8467179E-3,4.187812E-3,9.517489E-3,-3.4080688E-3,-1.0223602E-3,-1.08965345E-4,2.3969286E-3,-7.17276E-5,-2.1498736E-3,-1.1857756E-3,1.9024063E-3,-7.14427E-4,3.1640027E-3,7.7974754E-3,7.897336E-4,-1.0043856E-3,2.6420045E-3,-3.820573E-4,-3.767981E-3,9.685918E-4,-2.8711753E-3,2.6939881E-3,-8.3775335E-4,-3.9513526E-3,-2.2429097E-3,-2.0750824E-4,-1.8145156E-3,-2.9596158E-3,5.129523E-4,1.9701954E-4,2.9710694E-3,-1.5352286E-3,6.121828E-4,3.5022814E-3,1.3918872E-3,-7.1856537E-4,-4.2810887E-3,-6.1926706E-4,3.3821247E-3,4.7456073E-3,1.42558E-3,1.6032476E-2,9.615271E-3,2.169119E-3,4.173534E-3,2.8221002E-3,8.375594E-3,1.6036331E-4,3.7756811E-3,1.1915428E-2,2.4029668E-3,3.5771646E-3,8.36512E-3,1.1308965E-2,2.4750342E-3,-1.4443056E-3,1.7196144E-3,8.194583E-3,2.0814794E-3,1.5461349E-3,-2.1834269E-3,7.8134047E-4,6.081319E-3,6.15788E-3,6.397564E-4,9.878969E-3,4.949416E-3,1.6382474E-2,7.5422428E-3,7.725205E-3,1.7022267E-2,1.8536778E-3,-6.552281E-4,5.3706635E-3,9.78423E-4,1.7668515E-2,1.0047979E-2,3.025096E-3,1.2172109E-2,3.0949647E-3,6.855116E-3,1.2720272E-2,8.325468E-3,8.496205E-3,3.9002586E-3,8.792329E-3,1.6635496E-2,1.12954E-2,5.2729E-3,-6.4084627E-4,5.106531E-3,3.5107837E-4,-5.5666226E-3,6.520919E-3,3.5713583E-3,5.981508E-3,8.422524E-3,9.097676E-3,3.965137E-3,4.312202E-3,1.3328354E-2,1.1408425E-2,7.6700146E-3,1.0552312E-2,5.483018E-3,1.45680485E-2,3.6908302E-3,1.4505391E-2,6.1984663E-3,2.03841E-2,1.4111529E-2,1.0521232E-2,1.3320188E-2,1.6530192E-2,1.1245555E-2,9.510686E-3,1.9116363E-2,1.1536524E-2,4.392212E-3,2.1657987E-2,1.2181016E-2,1.0546893E-2,5.0529167E-3,1.1923408E-2,1.9991906E-2,1.3167343E-2,1.6898742E-2,2.4012087E-2,1.8826123E-2,2.0856952E-2,1.27533665E-2,2.9315367E-2,2.3630528E-2,1.8250316E-2,2.308455E-2,1.0833748E-2,2.0140124E-2,1.21278465E-2,2.3703638E-3,1.3604212E-2,2.0223869E-2,1.681333E-2,2.047556E-2,2.0400302E-2,2.3649003E-2],"categories":[],"categories_nodes":[],"categories_segments":[],"categories_sizes":[],"default_left":[0,0,0,0,0,0,0,0,0,0,0,0,0,0,0,0,0,0,0,0,0,0,0,0,0,0,0,0,0,0,0,0,0,0,0,0,0,0,0,0,0,0,0,0,0,0,0,0,0,0,0,0,0,0,0,0,0,0,0,0,0,0,0,0,0,0,0,0,0,0,0,0,0,0,0,0,0,0,0,0,0,0,0,0,0,0,0,0,0,0,0,0,0,0,0,0,0,0,0,0,0,0,0,0,0,0,0,0,0,0,0,0,0,0,0,0,0,0,0,0,0,0,0,0,0,0,0,0,0,0,0,0,0,0,0,0,0,0,0,0,0,0,0,0,0,0,0,0,0,0,0,0,0,0,0,0,0,0,0,0,0,0,0,0,0,0,0,0,0,0,0,0,0,0,0,0,0,0,0,0,0,0,0,0,0,0,0,0,0,0,0,0,0,0,0,0,0,0,0,0,0,0,0,0,0,0,0,0,0,0,0,0,0,0,0,0,0,0,0,0,0,0,0,0,0,0,0,0,0,0,0,0,0,0,0,0,0,0,0,0,0,0,0,0,0,0,0,0,0,0,0,0,0,0,0,0,0,0,0,0,0,0,0,0,0,0,0,0,0,0,0,0,0,0,0,0,0,0,0,0,0,0,0,0,0,0,0,0,0,0,0,0,0,0,0,0,0,0,0,0,0,0,0,0,0,0,0,0,0,0,0,0,0,0,0,0,0,0,0,0,0,0,0,0,0,0,0,0,0,0,0,0,0,0,0,0,0,0,0,0,0,0,0,0,0,0,0,0,0,0,0,0,0,0,0,0,0,0,0,0,0,0,0,0,0,0,0,0,0,0,0,0,0,0,0,0,0,0,0,0,0,0,0,0,0,0,0,0,0,0,0,0,0,0,0,0,0,0,0,0,0,0,0,0,0,0,0,0,0,0,0,0,0,0,0,0,0,0,0,0,0,0,0,0,0,0,0,0,0,0,0,0,0,0,0,0,0,0,0,0,0,0,0,0,0,0,0,0,0,0,0,0,0,0,0,0,0,0,0,0,0,0,0,0,0,0,0,0,0,0,0,0,0,0,0,0,0,0,0,0,0,0,0,0,0,0,0,0,0,0,0,0,0,0,0,0,0,0,0,0,0,0,0,0,0,0,0,0,0,0,0,0,0,0,0,0,0,0,0,0,0,0,0,0,0,0,0,0,0,0,0,0,0],"id":1,"left_children":[1,3,5,7,9,11,13,15,17,19,21,23,25,27,29,31,33,35,37,39,41,43,45,47,49,51,53,55,57,59,61,-1,-1,63,65,67,69,71,73,75,77,79,81,83,85,87,89,91,93,95,97,99,-1,101,103,105,107,109,111,113,115,117,119,121,-1,123,-1,125,127,129,131,133,135,137,139,141,-1,143,145,147,149,151,153,155,157,159,161,163,165,167,169,171,173,175,177,179,181,183,185,-1,187,189,191,193,195,-1,197,-1,199,201,203,205,207,209,-1,-1,-1,211,213,-1,-1,-1,-1,215,-1,217,219,-1,221,223,-1,225,227,229,-1,231,233,-1,-1,-1,235,237,239,241,-1,243,245,-1,-1,-1,-1,247,249,251,253,255,257,259,261,263,265,267,269,271,273,275,277,279,281,283,285,287,289,-1,291,293,-1,-1,-1,295,297,299,301,303,305,307,309,311,313,315,317,319,-1,321,323,325,327,329,-1,331,333,335,337,339,341,343,345,347,349,-1,-1,351,-1,-1,353,-1,-1,-1,355,357,359,361,363,-1,365,367,369,-1,-1,-1,371,-1,-1,373,375,-1,-1,377,379,381,383,385,387,389,-1,391,393,395,397,399,401,403,405,407,409,411,413,415,417,419,421,423,425,-1,427,429,-1,431,-1,-1,-1,433,435,437,439,441,443,-1,-1,445,447,449,-1,451,453,455,457,-1,-1,-1,-1,-1,459,461,-1,463,465,467,469,471,-1,473,475,477,479,481,483,485,487,-1,-1,-1,489,491,-1,-1,-1,493,495,-1,-1,497,499,501,503,505,-1,507,509,-1,-1,-1,511,-1,513,515,517,519,-1,-1,521,-1,523,-1,-1,525,527,529,-1,531,-1,-1,-1,-1,-1,-1,-1,-1,-1,-1,-1,-1,-1,-1,-1,-1,-1,-1,-1,-1,-1,-1,-1,-1,-1,-1,-1,-1,-1,-1,-1,-1,-1,-1,-1,-1,-1,-1,-1,-1,-1,-1,-1,-1,-1,-1,-1,-1,-1,-1,-1,-1,-1,-1,-1,-1,-1,-1,-1,-1,-1,-1,-1,-1,-1,-1,-1,-1,-1,-1,-1,-1,-1,-1,-1,-1,-1,-1,-1,-1,-1,-1,-1,-1,-1,-1,-1,-1,-1,-1,-1,-1,-1,-1,-1,-1,-1,-1,-1,-1,-1,-1,-1,-1,-1,-1,-1,-1,-1,-1,-1,-1,-1,-1,-1,-1,-1,-1,-1,-1,-1,-1,-1,-1,-1,-1,-1,-1,-1,-1,-1,-1,-1,-1,-1,-1,-1,-1,-1,-1,-1,-1,-1,-1,-1,-1,-1,-1,-1,-1,-1,-1,-1,-1,-1,-1,-1,-1,-1,-1,-1,-1,-1,-1,-1,-1,-1,-1,-1,-1,-1,-1,-1,-1,-1,-1,-1,-1,-1,-1,-1,-1,-1],"loss_changes":[8.247576E2,9.7116104E1,1.0606854E2,7.28302E0,9.323904E0,1.0135971E1,1.4557495E1,6.0665894E-1,9.614334E-1,1.7266328E0,4.427414E0,2.2925682E0,2.4747162E0,5.2553406E0,1.9221191E0,9.506226E-3,4.748535E-2,1.4728165E-1,1.3395965E-1,5.808699E-1,6.497461E-1,1.6017499E0,1.7270803E0,4.3294048E-1,1.6328201E0,3.95082E-1,1.2875214E0,1.023922E0,2.1996155E0,9.607239E-1,1.0539703E0,0E0,0E0,7.12204E-3,1.2468338E-2,1.2063217E-1,8.3316565E-2,1.2737072E-1,7.9248875E-2,1.5803576E-1,3.342022E-1,2.7792674E-1,3.2462057E-1,7.321203E-1,6.244128E-1,4.6446157E-1,1.040371E0,1.548041E-1,2.8219128E-1,1.1507568E0,2.0938416E0,2.6696014E-1,0E0,4.7959328E-1,7.7682495E-1,2.2131395E-1,4.8406982E-1,1.420105E0,1.6192017E0,3.370285E-1,1.0821533E-1,7.0295334E-1,4.594767E-2,3.5247803E-3,0E0,5.3272247E-3,0E0,3.0020714E-2,4.8624516E-2,1.5646815E-2,1.1549008E-1,2.1858643E-1,3.5011053E-2,6.6644363E-3,4.77572E-2,2.0738125E-1,0E0,3.92396E-2,3.8001138E-1,9.557593E-2,1.581828E-1,1.9918504E-1,1.8161923E-1,1.4360386E-1,6.64289E-1,7.293701E-1,1.190483E-1,2.4623418E-1,1.8981129E-1,3.2811368E-1,6.048498E-1,2.2014797E-1,8.600694E-2,2.582903E-1,1.5206683E-1,8.2927704E-1,5.509281E-1,9.2001915E-1,4.7378445E-1,0E0,1.9350624E-1,4.3918896E-1,1.9669798E-1,7.021713E-1,3.461194E-1,0E0,1.4147353E-1,0E0,3.304863E-1,7.904968E-1,3.7877274E-1,1.0332451E0,4.7514343E-1,1.7741776E-1,0E0,0E0,0E0,5.0777435E-1,2.9053354E-1,0E0,0E0,0E0,0E0,6.1383247E-3,0E0,1.1507988E-2,2.3081064E-2,0E0,4.218769E-2,1.1014938E-4,0E0,5.8826216E-2,1.2164772E-2,8.5055724E-2,0E0,1.6491491E-2,3.373158E-2,0E0,0E0,0E0,1.8754752E-2,4.684913E-2,1.2189984E-1,2.4252102E-2,0E0,7.685697E-2,5.4831587E-2,0E0,0E0,0E0,0E0,1.2166789E-1,1.6909775E-1,9.657482E-2,1.2256336E-1,6.768133E-2,1.5868564E-1,3.7822247E-1,1.952076E-1,6.225285E-2,4.916687E-1,7.8582406E-2,1.1099681E-1,1.3308266E-1,2.4658227E-1,2.5961226E-1,2.1644965E-2,1.47297E-1,2.7242875E-1,2.2704268E-1,5.770979E-1,8.1210375E-2,3.535419E-2,0E0,8.262599E-2,2.0176363E-1,0E0,0E0,0E0,4.1270638E-1,1.8074322E-1,4.2150688E-1,5.668421E-1,5.8631635E-1,2.3874187E-1,4.2988205E-1,1.698811E-1,1.777873E-1,1.14988744E-1,1.7524159E-1,4.6598148E-1,6.310681E-2,0E0,8.7457657E-1,5.8206177E-1,1.8855593E-1,3.1748128E-1,3.225653E-2,0E0,2.9058075E-1,3.205471E-1,8.47168E-2,2.9984283E-1,4.0024948E-1,2.919445E-1,3.6825797E-1,7.532091E-1,1.497345E-1,2.994995E-1,0E0,0E0,1.7328787E-1,0E0,0E0,6.105852E-2,0E0,0E0,0E0,3.367424E-3,1.2501985E-2,1.8677711E-3,3.5960674E-2,7.8797445E-2,0E0,1.4417171E-3,2.6437929E-2,2.3724243E-2,0E0,0E0,0E0,5.1255677E-2,0E0,0E0,3.4193933E-2,1.8608272E-2,0E0,0E0,6.1374143E-2,1.0551989E-2,6.674039E-2,9.419751E-2,1.03422105E-2,1.8653112E-2,5.620849E-2,0E0,1.2756791E-2,1.4515072E-2,8.065662E-2,1.04715936E-1,1.1616952E-1,2.1204871E-1,5.936791E-2,3.195639E-2,4.1751683E-2,8.778703E-2,7.2272867E-3,4.7664598E-2,9.069305E-2,1.0203252E-1,8.5184775E-2,4.35642E-1,1.3358104E-1,5.8350768E-2,0E0,4.592946E-2,1.636343E-1,0E0,3.9972037E-2,0E0,0E0,0E0,1.0913774E-1,4.546746E-2,2.9481447E-1,2.2125757E-1,2.9224938E-1,7.982707E-2,0E0,0E0,8.65871E-2,6.768884E-2,7.056381E-2,0E0,1.568028E-1,1.4133787E-1,4.7567177E-1,3.5131884E-1,0E0,0E0,0E0,0E0,0E0,1.4795423E-2,1.5672874E-1,0E0,3.9977264E-1,2.3437428E-1,2.8267413E-2,8.706117E-2,2.756257E-1,0E0,4.879136E-1,5.688939E-1,3.4141427E-1,1.0530713E-1,1.5969634E-1,1.2699127E-1,3.1799316E-1,3.36524E-1,0E0,0E0,0E0,1.9056082E-1,8.458078E-2,0E0,0E0,0E0,4.874401E-1,3.4088957E-1,0E0,0E0,8.6928177E-1,2.3550415E-1,2.2022772E-1,3.7783432E-1,8.960241E-2,0E0,1.1893964E-1,7.7988744E-2,0E0,0E0,0E0,3.008213E-1,0E0,1.6656494E-1,1.4438629E-2,1.0539484E-1,2.3148346E-1,0E0,0E0,2.031517E-1,0E0,1.4535713E-1,0E0,0E0,2.3506427E-1,2.7814865E-1,9.9788666E-2,0E0,3.0806732E-1,0E0,0E0,0E0,0E0,0E0,0E0,0E0,0E0,0E0,0E0,0E0,0E0,0E0,0E0,0E0,0E0,0E0,0E0,0E0,0E0,0E0,0E0,0E0,0E0,0E0,0E0,0E0,0E0,0E0,0E0,0E0,0E0,0E0,0E0,0E0,0E0,0E0,0E0,0E0,0E0,0E0,0E0,0E0,0E0,0E0,0E0,0E0,0E0,0E0,0E0,0E0,0E0,0E0,0E0,0E0,0E0,0E0,0E0,0E0,0E0,0E0,0E0,0E0,0E0,0E0,0E0,0E0,0E0,0E0,0E0,0E0,0E0,0E0,0E0,0E0,0E0,0E0,0E0,0E0,0E0,0E0,0E0,0E0,0E0,0E0,0E0,0E0,0E0,0E0,0E0,0E0,0E0,0E0,0E0,0E0,0E0,0E0,0E0,0E0,0E0,0E0,0E0,0E0,0E0,0E0,0E0,0E0,0E0,0E0,0E0,0E0,0E0,0E0,0E0,0E0,0E0,0E0,0E0,0E0,0E0,0E0,0E0,0E0,0E0,0E0,0E0,0E0,0E0,0E0,0E0,0E0,0E0,0E0,0E0,0E0,0E0,0E0,0E0,0E0,0E0,0E0,0E0,0E0,0E0,0E0,0E0,0E0,0E0,0E0,0E0,0E0,0E0,0E0,0E0,0E0,0E0,0E0,0E0,0E0,0E0,0E0,0E0,0E0,0E0,0E0,0E0,0E0,0E0,0E0,0E0,0E0,0E0,0E0,0E0,0E0,0E0,0E0,0E0,0E0,0E0,0E0,0E0,0E0],"parents":[2147483647,0,0,1,1,2,2,3,3,4,4,5,5,6,6,7,7,8,8,9,9,10,10,11,11,12,12,13,13,14,14,15,15,16,16,17,17,18,18,19,19,20,20,21,21,22,22,23,23,24,24,25,25,26,26,27,27,28,28,29,29,30,30,33,33,34,34,35,35,36,36,37,37,38,38,39,39,40,40,41,41,42,42,43,43,44,44,45,45,46,46,47,47,48,48,49,49,50,50,51,51,53,53,54,54,55,55,56,56,57,57,58,58,59,59,60,60,61,61,62,62,63,63,65,65,67,67,68,68,69,69,70,70,71,71,72,72,73,73,74,74,75,75,77,77,78,78,79,79,80,80,81,81,82,82,83,83,84,84,85,85,86,86,87,87,88,88,89,89,90,90,91,91,92,92,93,93,94,94,95,95,96,96,97,97,98,98,100,100,101,101,102,102,103,103,104,104,106,106,108,108,109,109,110,110,111,111,112,112,113,113,117,117,118,118,123,123,125,125,126,126,128,128,129,129,131,131,132,132,133,133,135,135,136,136,140,140,141,141,142,142,143,143,145,145,146,146,151,151,152,152,153,153,154,154,155,155,156,156,157,157,158,158,159,159,160,160,161,161,162,162,163,163,164,164,165,165,166,166,167,167,168,168,169,169,170,170,171,171,172,172,174,174,175,175,179,179,180,180,181,181,182,182,183,183,184,184,185,185,186,186,187,187,188,188,189,189,190,190,191,191,193,193,194,194,195,195,196,196,197,197,199,199,200,200,201,201,202,202,203,203,204,204,205,205,206,206,207,207,208,208,211,211,214,214,218,218,219,219,220,220,221,221,222,222,224,224,225,225,226,226,230,230,233,233,234,234,237,237,238,238,239,239,240,240,241,241,242,242,243,243,245,245,246,246,247,247,248,248,249,249,250,250,251,251,252,252,253,253,254,254,255,255,256,256,257,257,258,258,259,259,260,260,261,261,262,262,264,264,265,265,267,267,271,271,272,272,273,273,274,274,275,275,276,276,279,279,280,280,281,281,283,283,284,284,285,285,286,286,292,292,293,293,295,295,296,296,297,297,298,298,299,299,301,301,302,302,303,303,304,304,305,305,306,306,307,307,308,308,312,312,313,313,317,317,318,318,321,321,322,322,323,323,324,324,325,325,327,327,328,328,332,332,334,334,335,335,336,336,337,337,340,340,342,342,345,345,346,346,347,347,349,349],"right_children":[2,4,6,8,10,12,14,16,18,20,22,24,26,28,30,32,34,36,38,40,42,44,46,48,50,52,54,56,58,60,62,-1,-1,64,66,68,70,72,74,76,78,80,82,84,86,88,90,92,94,96,98,100,-1,102,104,106,108,110,112,114,116,118,120,122,-1,124,-1,126,128,130,132,134,136,138,140,142,-1,144,146,148,150,152,154,156,158,160,162,164,166,168,170,172,174,176,178,180,182,184,186,-1,188,190,192,194,196,-1,198,-1,200,202,204,206,208,210,-1,-1,-1,212,214,-1,-1,-1,-1,216,-1,218,220,-1,222,224,-1,226,228,230,-1,232,234,-1,-1,-1,236,238,240,242,-1,244,246,-1,-1,-1,-1,248,250,252,254,256,258,260,262,264,266,268,270,272,274,276,278,280,282,284,286,288,290,-1,292,294,-1,-1,-1,296,298,300,302,304,306,308,310,312,314,316,318,320,-1,322,324,326,328,330,-1,332,334,336,338,340,342,344,346,348,350,-1,-1,352,-1,-1,354,-1,-1,-1,356,358,360,362,364,-1,366,368,370,-1,-1,-1,372,-1,-1,374,376,-1,-1,378,380,382,384,386,388,390,-1,392,394,396,398,400,402,404,406,408,410,412,414,416,418,420,422,424,426,-1,428,430,-1,432,-1,-1,-1,434,436,438,440,442,444,-1,-1,446,448,450,-1,452,454,456,458,-1,-1,-1,-1,-1,460,462,-1,464,466,468,470,472,-1,474,476,478,480,482,484,486,488,-1,-1,-1,490,492,-1,-1,-1,494,496,-1,-1,498,500,502,504,506,-1,508,510,-1,-1,-1,512,-1,514,516,518,520,-1,-1,522,-1,524,-1,-1,526,528,530,-1,532,-1,-1,-1,-1,-1,-1,-1,-1,-1,-1,-1,-1,-1,-1,-1,-1,-1,-1,-1,-1,-1,-1,-1,-1,-1,-1,-1,-1,-1,-1,-1,-1,-1,-1,-1,-1,-1,-1,-1,-1,-1,-1,-1,-1,-1,-1,-1,-1,-1,-1,-1,-1,-1,-1,-1,-1,-1,-1,-1,-1,-1,-1,-1,-1,-1,-1,-1,-1,-1,-1,-1,-1,-1,-1,-1,-1,-1,-1,-1,-1,-1,-1,-1,-1,-1,-1,-1,-1,-1,-1,-1,-1,-1,-1,-1,-1,-1,-1,-1,-1,-1,-1,-1,-1,-1,-1,-1,-1,-1,-1,-1,-1,-1,-1,-1,-1,-1,-1,-1,-1,-1,-1,-1,-1,-1,-1,-1,-1,-1,-1,-1,-1,-1,-1,-1,-1,-1,-1,-1,-1,-1,-1,-1,-1,-1,-1,-1,-1,-1,-1,-1,-1,-1,-1,-1,-1,-1,-1,-1,-1,-1,-1,-1,-1,-1,-1,-1,-1,-1,-1,-1,-1,-1,-1,-1,-1,-1,-1,-1,-1,-1,-1,-1],"split_conditions":[6.3652797E4,1.874763E4,4.1140002E2,5.8447197E3,3.59295E4,3.52675E2,5.629E2,8.795159E1,8.8008E2,3.30375E2,4.981E2,6.2467273E4,7.058674E4,1.076325E5,4.75E1,4.325E0,9.744198E1,1.44275E2,4.75E-1,6.606936E4,9.76E1,3.20675E2,1.95625E2,1.2961285E6,1E0,1.0544351E1,1.5095828E2,1.72735E2,1E0,7.45925E2,1E0,-7.41094E-3,-7.084269E-3,2.9275E1,6E-1,7.567758E2,7.6701E1,9.9975E1,8.164963E-2,1.309E0,9.512E1,1.3333334E-1,3.4851207E4,3.5300336E4,1E0,2.827E2,1.615E2,1.1645736E3,5.0000004E-2,5.03E1,1.8487415E6,1.1E1,1.3023674E-3,7.875278E0,4.2E0,1.1927E3,3.12125E2,5.38E1,1.765573E2,5.31475E2,2.321425E2,3.5112345E-1,3.607515E-1,4.6252747E0,-6.044214E-3,3.3990276E1,-3.488535E-3,3.82E1,-9.856374E-1,2.099904E5,1E0,4.767E2,1.9845833E1,1.233E0,2.5E0,2.734E2,3.0001465E-3,4.345172E2,1E0,8.45825E2,8.435838E0,4.1458606E5,1E-1,9.7425E1,2.29975E1,1.03868E2,1E0,3.3914098E4,1E-2,4.7547344E1,5.5052433E0,1E0,-6.5512735E-1,4.7264E2,2.6354567E1,4.0478172E1,5.407903E0,4E0,4.4809998E2,1.1332199E-3,3.314441E4,-1.9E0,1.4196423E2,5.3198376E0,1.38531275E1,1.3367883E-2,8.29E1,6.041888E-3,1E0,1.217E0,9.6168923E-1,1.4975E1,4.9459998E2,2.7501498E2,2.7654681E-2,2.2342863E-2,3.1705093E-2,1.0017E3,2.4013886E0,1.4319121E-2,7.77523E-3,-6.678864E-3,-4.7846106E-3,7.4510127E3,-3.8719827E-3,8.62E1,6.26E3,-1.7176605E-3,4E-1,3.15E1,-2.3179709E-3,5.09E1,5.8741934E4,9.7488475E5,5.7087727E-3,8.85E1,2E-1,-3.074087E-3,-1.1653412E-3,3.617276E-3,4.122E2,1E0,2.02774E4,6.124592E4,1.0456545E-3,1.2909944E-1,3.7330807E1,-1.8534212E-3,4.2415042E-3,4.5866165E-3,1.30142495E-2,3E-1,1.29E1,1.5E0,4.735E2,1.198E0,3.1900948E1,8.8962E1,2.9998888E1,7.2335E2,6.23E1,3.7093594E3,2E0,9.99E1,2.2604112E2,1.7E0,1.653E2,2.273E2,2E-1,5E-2,6.7218374E3,2.159E2,-1.3E0,3.1467713E-3,4.2267695E3,1E-2,1.1374007E-2,5.6022755E-3,1.3167311E-2,7E-1,4.3753905E0,2.4989445E1,1.932E2,2.4989445E1,2.72E2,1.7377E3,5.1680715E4,-9.103665E-1,-1E-1,7.646607E-1,9E-1,9.907E2,1.0836075E-2,1E0,1.1042137E5,1.7079443E-1,3.962E2,2.7148E3,1.021492E-2,1.18E0,2.757E2,2.12415E2,2.2E0,1.177E0,2.5517783E2,1.8896094E2,3.81993E4,9.320047E-1,1E0,2.3812234E-2,1.4308634E-2,4.833908E0,2.7263556E-2,8.847455E-3,8.60041E3,-6.123205E-3,-5.2217217E-3,-3.6456392E-3,7.02E1,8.39E2,3.0643042E2,9.49E1,9.995E1,-4.987611E-3,9.611436E3,4.3881E0,8.6582065E-2,-4.49584E-3,-2.264482E-3,-4.551365E-3,1.0317E3,1.02765E-4,-2.3410562E-3,4.1536002E2,3.0655E1,1.4213081E-3,-1.437114E-3,1.665793E1,5.000007E-2,1.75E-1,4.217559E0,2.1E0,2E-1,4.44929E0,2.6572559E-3,1.4278E3,7.5553527E0,9.77E1,1.24E0,1.0076E3,9.92E1,-4.472135E-1,6E0,3.1267797E1,3.8729835E-1,1.4141672E-3,1E0,1.4959325E6,9.522153E-1,5.1389847E0,1E0,1E0,1.5691683E-1,6.233772E-3,2.4E1,3.2712177E1,2.0658816E-3,1.12421E5,7.1643153E-3,2.4470463E-3,-4.383321E-3,2.2173561E-1,5.1E0,1.639E2,9.743912E-1,9.45E1,3.0199832E4,-7.6203025E-4,-3.4767508E-3,9.965E2,2.848E2,1.528309E2,1.18357325E-2,9.057E1,1.74725E2,2.74E2,4.55975E2,4.2976686E-3,1.0889761E-2,-1.7962705E-4,2.9501542E-3,-3.9609475E-3,6.88E1,1.2181166E4,-1.8996131E-3,2.8275E2,3.13E1,1.0031E3,1.2225518E6,2.8555E2,4.060443E-5,1.9753098E6,7.39E1,8.0780205E1,4.371E1,2E0,1.3246499E3,3.7261996E2,1.175E0,1.07167335E-2,1.9822244E-2,1.5225887E-2,1E0,6.96591E5,2.7985258E-3,9.048327E-3,1.0513915E-3,2.895E2,3.55E1,-1.853851E-4,4.6053375E-3,1.967441E2,4.935E2,4E-1,1.528309E2,9.574287E-2,8.2422904E-4,6.97E1,6E0,1.8713294E-3,5.476836E-3,1.0574819E-2,3.45775E2,6.8351105E-3,4.687E2,7.410604E5,1.9952002E2,2.4467194E1,1.6886769E-2,1.206975E-2,9.963E2,6.419835E-3,1.24771914E5,1.2601897E-2,1.4632456E-3,7.23E1,1.4444792E2,3.6113E1,1.161728E-2,7.026E2,1.2221251E-2,2.269426E-2,1.313332E-2,2.3335112E-2,1.3992886E-2,-5.630816E-3,-4.2013857E-3,-4.1104713E-3,-1.7277012E-3,-5.083245E-3,-3.634767E-3,-4.0821764E-3,-4.9411706E-3,2.9496587E-4,-4.1642794E-3,-4.6282834E-3,-3.5245556E-3,-1.5387888E-3,1.0333762E-3,-3.5088805E-3,-1.0072202E-3,-1.6055148E-3,1.8501142E-3,-3.2555552E-3,-1.7127469E-3,-4.7438815E-3,-2.8333152E-3,-4.575747E-3,-2.4043657E-4,-6.4054816E-3,-4.4185068E-3,-3.666072E-3,-9.3815255E-4,-3.1227553E-3,-2.0564152E-3,-1.9333599E-3,-3.3119656E-3,1.9313161E-4,-1.8467179E-3,4.187812E-3,9.517489E-3,-3.4080688E-3,-1.0223602E-3,-1.08965345E-4,2.3969286E-3,-7.17276E-5,-2.1498736E-3,-1.1857756E-3,1.9024063E-3,-7.14427E-4,3.1640027E-3,7.7974754E-3,7.897336E-4,-1.0043856E-3,2.6420045E-3,-3.820573E-4,-3.767981E-3,9.685918E-4,-2.8711753E-3,2.6939881E-3,-8.3775335E-4,-3.9513526E-3,-2.2429097E-3,-2.0750824E-4,-1.8145156E-3,-2.9596158E-3,5.129523E-4,1.9701954E-4,2.9710694E-3,-1.5352286E-3,6.121828E-4,3.5022814E-3,1.3918872E-3,-7.1856537E-4,-4.2810887E-3,-6.1926706E-4,3.3821247E-3,4.7456073E-3,1.42558E-3,1.6032476E-2,9.615271E-3,2.169119E-3,4.173534E-3,2.8221002E-3,8.375594E-3,1.6036331E-4,3.7756811E-3,1.1915428E-2,2.4029668E-3,3.5771646E-3,8.36512E-3,1.1308965E-2,2.4750342E-3,-1.4443056E-3,1.7196144E-3,8.194583E-3,2.0814794E-3,1.5461349E-3,-2.1834269E-3,7.8134047E-4,6.081319E-3,6.15788E-3,6.397564E-4,9.878969E-3,4.949416E-3,1.6382474E-2,7.5422428E-3,7.725205E-3,1.7022267E-2,1.8536778E-3,-6.552281E-4,5.3706635E-3,9.78423E-4,1.7668515E-2,1.0047979E-2,3.025096E-3,1.2172109E-2,3.0949647E-3,6.855116E-3,1.2720272E-2,8.325468E-3,8.496205E-3,3.9002586E-3,8.792329E-3,1.6635496E-2,1.12954E-2,5.2729E-3,-6.4084627E-4,5.106531E-3,3.5107837E-4,-5.5666226E-3,6.520919E-3,3.5713583E-3,5.981508E-3,8.422524E-3,9.097676E-3,3.965137E-3,4.312202E-3,1.3328354E-2,1.1408425E-2,7.6700146E-3,1.0552312E-2,5.483018E-3,1.45680485E-2,3.6908302E-3,1.4505391E-2,6.1984663E-3,2.03841E-2,1.4111529E-2,1.0521232E-2,1.3320188E-2,1.6530192E-2,1.1245555E-2,9.510686E-3,1.9116363E-2,1.1536524E-2,4.392212E-3,2.1657987E-2,1.2181016E-2,1.0546893E-2,5.0529167E-3,1.1923408E-2,1.9991906E-2,1.3167343E-2,1.6898742E-2,2.4012087E-2,1.8826123E-2,2.0856952E-2,1.27533665E-2,2.9315367E-2,2.3630528E-2,1.8250316E-2,2.308455E-2,1.0833748E-2,2.0140124E-2,1.21278465E-2,2.3703638E-3,1.3604212E-2,2.0223869E-2,1.681333E-2,2.047556E-2,2.0400302E-2,2.3649003E-2],"split_indices":[41,41,39,41,41,147,39,97,43,117,63,161,53,53,55,147,205,159,139,161,87,159,159,116,0,214,103,29,0,117,76,0,0,147,85,97,29,141,197,6,29,139,53,161,0,66,106,43,193,55,116,4,0,214,90,7,159,55,48,159,103,44,208,191,0,2,0,39,152,68,0,117,48,6,90,86,0,205,0,166,209,122,139,159,2,83,1,53,21,172,191,0,152,96,209,171,191,3,105,0,176,91,103,191,209,0,110,0,0,60,152,50,147,205,0,0,0,74,214,0,0,0,0,211,0,112,34,0,31,13,0,110,161,116,0,81,26,0,0,0,111,0,107,53,0,185,171,0,0,0,0,31,123,36,7,6,171,29,2,165,55,97,0,55,196,35,13,118,85,139,211,105,90,0,212,21,0,0,0,90,191,2,13,2,39,111,178,99,91,208,91,23,0,0,107,182,106,118,0,6,86,29,36,6,205,103,34,44,76,0,0,214,0,0,212,0,0,0,147,112,172,55,125,0,211,191,202,0,0,0,111,0,0,96,30,0,0,177,167,139,191,89,91,191,0,10,175,55,6,23,105,44,3,171,199,168,0,116,44,175,0,0,208,0,56,209,0,107,0,0,0,197,90,13,152,56,53,0,0,77,86,103,0,50,121,12,165,0,0,0,0,0,71,211,0,120,17,23,116,120,0,116,81,48,50,0,165,96,60,0,0,0,0,16,0,0,0,86,17,0,0,205,63,90,103,197,0,55,35,0,0,0,159,0,147,122,96,171,0,0,77,0,53,0,0,81,48,30,0,63,0,0,0,0,0,0,0,0,0,0,0,0,0,0,0,0,0,0,0,0,0,0,0,0,0,0,0,0,0,0,0,0,0,0,0,0,0,0,0,0,0,0,0,0,0,0,0,0,0,0,0,0,0,0,0,0,0,0,0,0,0,0,0,0,0,0,0,0,0,0,0,0,0,0,0,0,0,0,0,0,0,0,0,0,0,0,0,0,0,0,0,0,0,0,0,0,0,0,0,0,0,0,0,0,0,0,0,0,0,0,0,0,0,0,0,0,0,0,0,0,0,0,0,0,0,0,0,0,0,0,0,0,0,0,0,0,0,0,0,0,0,0,0,0,0,0,0,0,0,0,0,0,0,0,0,0,0,0,0,0,0,0,0,0,0,0,0,0,0,0,0,0,0,0,0,0,0,0,0,0,0,0,0],"split_type":[0,0,0,0,0,0,0,0,0,0,0,0,0,0,0,0,0,0,0,0,0,0,0,0,0,0,0,0,0,0,0,0,0,0,0,0,0,0,0,0,0,0,0,0,0,0,0,0,0,0,0,0,0,0,0,0,0,0,0,0,0,0,0,0,0,0,0,0,0,0,0,0,0,0,0,0,0,0,0,0,0,0,0,0,0,0,0,0,0,0,0,0,0,0,0,0,0,0,0,0,0,0,0,0,0,0,0,0,0,0,0,0,0,0,0,0,0,0,0,0,0,0,0,0,0,0,0,0,0,0,0,0,0,0,0,0,0,0,0,0,0,0,0,0,0,0,0,0,0,0,0,0,0,0,0,0,0,0,0,0,0,0,0,0,0,0,0,0,0,0,0,0,0,0,0,0,0,0,0,0,0,0,0,0,0,0,0,0,0,0,0,0,0,0,0,0,0,0,0,0,0,0,0,0,0,0,0,0,0,0,0,0,0,0,0,0,0,0,0,0,0,0,0,0,0,0,0,0,0,0,0,0,0,0,0,0,0,0,0,0,0,0,0,0,0,0,0,0,0,0,0,0,0,0,0,0,0,0,0,0,0,0,0,0,0,0,0,0,0,0,0,0,0,0,0,0,0,0,0,0,0,0,0,0,0,0,0,0,0,0,0,0,0,0,0,0,0,0,0,0,0,0,0,0,0,0,0,0,0,0,0,0,0,0,0,0,0,0,0,0,0,0,0,0,0,0,0,0,0,0,0,0,0,0,0,0,0,0,0,0,0,0,0,0,0,0,0,0,0,0,0,0,0,0,0,0,0,0,0,0,0,0,0,0,0,0,0,0,0,0,0,0,0,0,0,0,0,0,0,0,0,0,0,0,0,0,0,0,0,0,0,0,0,0,0,0,0,0,0,0,0,0,0,0,0,0,0,0,0,0,0,0,0,0,0,0,0,0,0,0,0,0,0,0,0,0,0,0,0,0,0,0,0,0,0,0,0,0,0,0,0,0,0,0,0,0,0,0,0,0,0,0,0,0,0,0,0,0,0,0,0,0,0,0,0,0,0,0,0,0,0,0,0,0,0,0,0,0,0,0,0,0,0,0,0,0,0,0,0,0,0,0,0,0,0,0,0,0,0,0,0,0,0,0,0,0,0,0,0,0,0,0,0,0,0,0,0,0,0,0,0,0,0,0,0,0,0,0,0,0,0,0,0],"sum_hessian":[2.8924E4,2.1929E4,6.995E3,1.5977E4,5.952E3,4.092E3,2.903E3,1.3347E4,2.63E3,2.732E3,3.22E3,2.436E3,1.656E3,1.997E3,9.06E2,1.1483E4,1.864E3,2.176E3,4.54E2,1.7E3,1.032E3,2.29E3,9.3E2,5.63E2,1.873E3,2.66E2,1.39E3,4.13E2,1.584E3,6.83E2,2.23E2,1.0695E4,7.88E2,1.342E3,5.22E2,1.795E3,3.81E2,3.97E2,5.7E1,1.487E3,2.13E2,5E1,9.82E2,2.003E3,2.87E2,4.87E2,4.43E2,1.09E2,4.54E2,8.58E2,1.015E3,2.47E2,1.9E1,2.82E2,1.108E3,5.3E1,3.6E2,7.04E2,8.8E2,3.81E2,3.02E2,2.02E2,2.1E1,1.156E3,1.86E2,5.12E2,1E1,1.041E3,7.54E2,1.96E2,1.85E2,8.9E1,3.08E2,2.2E1,3.5E1,1.476E3,1.1E1,1.27E2,8.6E1,2.5E1,2.5E1,6.76E2,3.06E2,6.16E2,1.387E3,1.31E2,1.56E2,2.71E2,2.16E2,1.25E2,3.18E2,5.7E1,5.2E1,4.22E2,3.2E1,2.7E2,5.88E2,6.35E2,3.8E2,1.1E1,2.36E2,2.44E2,3.8E1,1.008E3,1E2,1.4E1,3.9E1,1.4E1,3.46E2,4.57E2,2.47E2,1.72E2,7.08E2,4.6E1,3.35E2,1.4E1,2.88E2,1.68E2,3.4E1,1.1E1,1E1,1.142E3,1.4E1,5.02E2,1E1,7.25E2,3.16E2,1.7E1,7.37E2,1.86E2,1E1,8.9E1,9.6E1,7.9E1,1E1,2.7E1,2.81E2,1.2E1,1E1,1.4E1,2.1E1,1.08E2,1.368E3,1.15E2,1.2E1,4E1,4.6E1,1E1,1.5E1,1.2E1,1.3E1,4.49E2,2.27E2,7.7E1,2.29E2,2.32E2,3.84E2,1.244E3,1.43E2,6.4E1,6.7E1,1.34E2,2.2E1,9.4E1,1.77E2,1.86E2,3E1,8.2E1,4.3E1,1.25E2,1.93E2,2.2E1,3.5E1,1.5E1,3.7E1,4.06E2,1.6E1,1.4E1,1.8E1,1.78E2,9.2E1,3.26E2,2.62E2,1.71E2,4.64E2,3.49E2,3.1E1,1.78E2,5.8E1,2.7E1,2.17E2,2.8E1,1E1,6.92E2,3.16E2,3.4E1,6.6E1,2.7E1,1.2E1,1.48E2,1.98E2,2.31E2,2.26E2,2.07E2,4E1,3E1,1.42E2,1.92E2,5.16E2,3.3E1,1.3E1,3.2E1,1.36E2,1.1E1,2.3E1,4.29E2,7.3E1,1.5E1,7.1E2,2.9E1,2.87E2,6.85E2,5.2E1,1.11E2,7.5E1,3.8E1,5.1E1,8.6E1,1E1,2E1,5.9E1,1.2E1,1.5E1,2.04E2,7.7E1,1E1,1.1E1,4.3E1,6.5E1,3.42E2,1.026E3,7.1E1,4.4E1,2.6E1,1.4E1,2.4E1,2.2E1,3.38E2,1.11E2,1.78E2,4.9E1,4.3E1,3.4E1,2.7E1,2.02E2,4.1E1,1.91E2,8.6E1,2.98E2,2.34E2,1.01E3,1.08E2,3.5E1,1.5E1,4.9E1,5.4E1,1.3E1,1.23E2,1.1E1,1.2E1,1E1,4.2E1,5.2E1,4.1E1,1.36E2,4.1E1,1.45E2,1.7E1,1.3E1,2.4E1,5.8E1,2.5E1,1.8E1,5.2E1,7.3E1,1.28E2,6.5E1,1.2E1,1E1,1.9E1,1.6E1,1.5E1,2.2E1,3.96E2,1E1,1.37E2,4.1E1,2.5E1,6.7E1,3.08E2,1.8E1,9.5E1,1.67E2,1.38E2,3.3E1,1.95E2,2.69E2,2.43E2,1.06E2,1.4E1,1.7E1,1.7E1,1.61E2,4.1E1,1.7E1,1.3E1,1.4E1,1.49E2,6.8E1,1.1E1,1.7E1,2.93E2,3.99E2,1.06E2,2.1E2,2.1E1,1.3E1,2.4E1,4.2E1,1.5E1,1.2E1,1.6E1,1.32E2,1.5E1,1.83E2,1.86E2,4.5E1,2.14E2,1.2E1,1.6E1,1.91E2,1E1,3E1,1.2E1,1.8E1,2.8E1,1.14E2,1.77E2,1.5E1,5.03E2,1.3E1,1.7E1,1.5E1,1.3E1,1E1,6.91E2,1.9E1,1.8E1,1.1E1,2.73E2,1.4E1,2.24E2,4.61E2,1.3E1,3.9E1,4.8E1,2.7E1,1.9E1,1.9E1,3.7E1,1.4E1,4.6E1,1.3E1,1.52E2,5.2E1,5.2E1,2.5E1,3.2E1,1.1E1,4.3E1,2.2E1,3.17E2,2.5E1,2.98E2,7.28E2,4.6E1,2.5E1,2E1,2.4E1,1.1E1,1.5E1,1.2E1,1.2E1,1.2E1,1E1,5.6E1,2.82E2,6.5E1,4.6E1,1.57E2,2.1E1,1.5E1,3.4E1,2.3E1,2E1,1E1,2.4E1,1.2E1,1.5E1,1.83E2,1.9E1,2.6E1,1.5E1,7.8E1,1.13E2,5.9E1,2.7E1,2.61E2,3.7E1,6.2E1,1.72E2,4.19E2,5.91E2,4.6E1,6.2E1,1.7E1,1.8E1,1.5E1,3.4E1,2.7E1,2.7E1,8.5E1,3.8E1,2.9E1,1.3E1,4.2E1,1E1,2.9E1,1.2E1,1.04E2,3.2E1,1.4E1,2.7E1,2.3E1,1.22E2,1.1E1,1.3E1,4.2E1,1.6E1,1.2E1,1.3E1,2.9E1,2.3E1,4.7E1,2.6E1,1.8E1,1.1E2,1.6E1,4.9E1,1.2E1,1E1,3.74E2,2.2E1,1.11E2,2.6E1,1E1,3.1E1,1.4E1,1.1E1,2.7E1,4E1,2.68E2,4E1,3.6E1,5.9E1,9.6E1,7.1E1,3.4E1,1.04E2,1.1E1,2.2E1,1.05E2,9E1,9.8E1,1.71E2,2.05E2,3.8E1,1.3E1,9.3E1,7.3E1,8.8E1,1.8E1,2.3E1,1.37E2,1.2E1,1.7E1,5.1E1,8.7E1,2.06E2,1.51E2,2.48E2,4.4E1,6.2E1,1.4E1,1.96E2,1.1E1,1E1,1E1,1.4E1,3E1,1.2E1,1.9E1,1.13E2,9.1E1,9.2E1,1.62E2,2.4E1,3.3E1,1.2E1,1.58E2,5.6E1,6E1,1.31E2,1.1E1,1.9E1,1.8E1,1E1,3.2E1,8.2E1,1E2,7.7E1,3.19E2,1.84E2],"tree_param":{"num_deleted":"0","num_feature":"217","num_nodes":"533","size_leaf_vector":"1"}},{"base_weights":[-1.1567574E-3,-9.1417E-2,2.8604457E-1,-1.293902E-1,1.0199985E-2,1.8841466E-1,4.2428216E-1,-1.3852385E-1,-8.838038E-2,-3.1687357E-2,4.620045E-2,1.4897156E-1,2.3974268E-1,3.7769672E-1,5.1566166E-1,-7.024395E-3,-1.24184E-1,-9.636806E-2,-5.3083323E-2,-5.127027E-2,-1.8297731E-3,2.3473373E-2,9.9402234E-2,8.9918904E-2,1.6605365E-1,2.0236674E-1,2.7893016E-1,2.7993435E-1,4.026469E-1,4.5505577E-1,5.584954E-1,-1.2561989E-1,-1.0817616E-1,-1.0439255E-1,-8.634866E-2,-5.8002587E-2,-1.7342234E-2,-5.6062132E-2,-9.37058E-3,-2.5605556E-2,1.769774E-2,1.2825995E-2,9.57946E-2,5.404527E-2,1.3959405E-1,-2.9263055E-2,9.65323E-2,1.4804965E-1,2.152814E-1,1.3231964E-1,2.1340844E-1,2.0251088E-1,2.9024944E-1,1.5069014E-1,2.9225224E-1,4.0880087E-1,1.928063E-1,2.7819586E-1,4.694829E-1,3.6454853E-1,5.6723946E-1,-6.45177E-3,-6.090893E-3,-5.5520083E-3,-3.8644315E-3,-1.0731866E-1,-8.465086E-2,-9.037144E-2,-6.7446575E-2,-6.308532E-2,-1.7949574E-2,-5.0948314E-2,1.1282922E-2,-8.673007E-2,-5.2771296E-2,-2.7932921E-2,2.4312528E-2,-3.635911E-2,6.7620975E-4,7.740065E-3,5.907935E-2,-5.379301E-2,1.9835265E-2,1.5885316E-1,7.017126E-2,8.247834E-2,1.638939E-2,8.256444E-2,1.6753393E-1,1.6435294E-3,-3.2803945E-3,-1.36757735E-2,1.0247409E-1,1.2494462E-1,1.757832E-1,2.2850268E-1,9.2906654E-2,1.4734828E-1,-1.1365687E-3,1.6348277E-1,2.2808921E-1,2.1908388E-1,5.4057566E-3,2.6644513E-1,3.3186746E-1,1.0286803E-2,1.0157466E-1,3.4022243E-3,2.985538E-1,4.3986064E-1,3.7037846E-1,1.3999481E-1,1.4454815E-2,6.058631E-3,1.9375985E-2,3.9184698E-1,4.837002E-1,1.3086158E-2,2.2066737E-2,5.2629274E-1,2.990192E-2,-1.0956989E-1,-8.889896E-2,-9.048242E-2,-1.0522275E-3,-1.17178045E-1,-8.83627E-2,-7.3750235E-2,-3.6169376E-2,-5.2345186E-2,-7.617492E-2,1.9646946E-3,-3.6603358E-2,-1.142027E-3,-3.374923E-3,-1.600698E-2,3.4735396E-3,-4.6593886E-2,-9.8242685E-2,-6.542858E-2,-4.7310345E-2,-3.2978044E-3,-1.9455543E-2,-1.82816E-2,8.399215E-2,1.6406972E-3,-3.95354E-2,2.766341E-2,-2.2220228E-2,1.34323025E-2,-5.8138065E-2,2.5332535E-2,1.2857056E-1,-7.382827E-2,-6.4518126E-3,-6.8328897E-3,3.1654976E-2,-1.3723631E-3,1.8474975E-1,3.5794657E-2,9.3169965E-2,7.4242495E-2,9.767535E-3,5.388939E-3,6.028846E-3,6.592051E-2,1.9751807E-1,5.962769E-2,1.8326631E-1,-3.4477175E-3,2.8281047E-3,1.1073069E-1,9.235698E-3,2.7236177E-2,1.320711E-1,1.6321217E-1,2.6430717E-1,2.0476326E-1,3.0532598E-1,1.5302658E-1,2.0905573E-2,1.0387159E-1,1.8976541E-1,1.750852E-1,8.4080204E-2,2.6067796E-1,2.0461434E-1,2.5461933E-1,1.3636056E-1,2.8679165E-1,1.9955012E-1,3.9207838E-3,3.4348708E-1,6.4226463E-3,3.273117E-3,3.304683E-1,2.7404556E-1,3.773021E-1,4.652099E-1,2.3927705E-1,3.8045126E-1,2.57106E-3,1.797241E-1,4.633981E-1,2.722012E-1,4.9851716E-1,4.1995424E-1,4.4286862E-1,2.7172467E-2,-1.0995118E-1,-3.2369127E-3,-9.431698E-2,-2.7191977E-3,-9.380478E-2,-2.7359233E-3,-4.239211E-3,-6.147783E-3,-9.450925E-2,-8.215134E-2,-7.771918E-2,-1.3687693E-3,1.3378321E-3,-6.350341E-2,-5.935144E-2,-1.3248168E-2,-3.900097E-2,-8.13772E-2,-5.6854203E-2,-7.117214E-6,1.0484203E-3,-2.7297658E-3,-4.997468E-3,-2.0197878E-2,-2.8742454E-3,-1.0260236E-1,-6.763564E-2,-9.6700556E-4,-5.674827E-2,-3.8426224E-2,-4.0101636E-2,-5.7123667E-3,1.5232885E-3,-4.5955833E-2,2.3472977E-4,7.581308E-3,-5.3611305E-2,-2.696024E-2,-3.4466643E-2,6.0923815E-2,3.2089616E-4,-4.534756E-2,-1.3684113E-2,2.2035394E-2,-1.6492362E-3,-4.0192255E-3,6.0219124E-2,-9.321028E-3,9.799947E-3,2.541322E-3,-9.398815E-2,-2.1485735E-2,3.4694098E-2,-6.050634E-2,-2.3604155E-2,6.4643417E-3,2.3391678E-4,4.2207584E-2,2.0911407E-1,2.8106682E-3,9.832851E-2,1.5040724E-2,6.429173E-2,1.3064286E-1,5.8326833E-2,1.2288919E-1,1.52227385E-2,-4.8305552E-2,1.5030117E-1,3.7955552E-2,1.347366E-2,5.380337E-3,1.4361874E-4,9.735818E-2,2.395836E-1,1.4806673E-1,9.4030865E-2,1.5590362E-1,2.965794E-2,-2.2722182E-3,8.706001E-2,-4.1976986E-3,1.0303165E-1,1.547617E-1,8.996432E-2,1.7532793E-1,2.9051557E-1,7.721024E-3,1.742992E-1,2.816779E-1,2.4280196E-1,3.6174345E-1,4.414126E-3,1.1664413E-2,-1.2050809E-3,3.609769E-3,4.8399396E-4,1.2525553E-1,2.1970049E-1,5.3203194E-3,1.341382E-1,1.9296567E-1,2.2575816E-3,6.4760484E-3,2.921349E-1,2.1922089E-1,1.26086E-1,2.2973E-1,2.830839E-1,8.7498315E-3,1.7955856E-1,2.0747618E-3,2.1891177E-1,3.1597596E-1,2.1934179E-3,2.1559465E-1,3.75204E-1,2.832147E-1,3.7576053E-1,2.7657288E-1,2.9675904E-1,2.1145782E-1,3.911829E-1,2.6802242E-1,4.1155556E-1,4.8992288E-1,1.6073843E-2,1.7852631E-1,3.8523972E-1,8.177451E-3,6.4057284E-3,1.07497545E-2,1.5548602E-2,2.5336493E-2,8.714986E-3,1.8594733E-2,2.0587347E-2,5.099735E-1,2.3313692E-2,1.4621071E-2,4.9041787E-1,1.6153134E-2,-5.5494015E-3,-4.6187104E-3,-4.880955E-3,-2.946981E-3,-4.809358E-3,-3.232097E-3,-4.2213406E-3,-4.9845013E-3,-1.011622E-3,-4.181512E-3,-4.2362544E-3,-2.8940828E-3,-1.6000703E-3,-4.1859513E-3,-3.1654486E-3,-5.0651806E-4,1.7276475E-3,-1.6116012E-3,-6.479217E-4,-2.9268682E-3,-2.2835769E-3,-4.3438813E-3,-1.870598E-3,-3.6117719E-3,-2.340326E-3,2.9588156E-4,-5.413854E-3,-3.738669E-3,-3.4657677E-3,-1.0622981E-3,-3.2344207E-3,-2.3277977E-3,-2.5074272E-3,-1.2593556E-3,-9.9484E-4,-2.3423997E-3,-8.4895495E-4,1.8976402E-3,-7.30948E-4,-3.803723E-3,-1.7477493E-4,-2.92297E-3,-3.8220696E-3,-9.972116E-4,1.9450841E-4,-3.1071117E-3,4.649759E-3,1.0684849E-3,-8.683417E-4,1.3156695E-3,-2.9476832E-3,-6.800228E-4,-3.8692355E-3,-1.3479411E-4,5.494991E-4,2.5318891E-3,7.341699E-3,8.927197E-4,2.6925046E-3,-1.5717953E-3,-3.4191166E-3,-5.2377093E-3,1.0699065E-3,-2.3696458E-3,5.685072E-3,-4.988912E-4,-1.6006324E-3,-4.4353395E-3,-9.009394E-4,-3.4763727E-3,-1.6175564E-3,6.5405964E-4,-7.441085E-4,1.2437492E-3,2.607177E-3,3.503868E-4,1.3575911E-2,5.7332763E-3,6.4192875E-3,2.9666154E-3,-5.1523355E-4,2.6727575E-3,3.9345855E-3,-7.132893E-4,4.9364325E-3,8.918243E-3,9.941165E-3,2.4581167E-3,1.0479205E-2,4.287829E-3,3.2675627E-3,-9.54869E-5,-3.3214383E-3,-1.0813038E-3,1.01739885E-2,4.460599E-3,6.0745664E-3,1.300027E-3,6.9958367E-3,2.9677188E-3,3.7286722E-3,1.28323855E-2,2.4874066E-3,8.73313E-3,6.6692415E-3,4.025806E-3,8.882969E-3,3.3458532E-3,2.4705587E-4,3.482723E-3,6.715761E-3,6.6669955E-4,6.828194E-3,3.623702E-3,8.697746E-3,5.509475E-3,1.958995E-4,5.382886E-3,6.2739938E-3,1.0221628E-2,9.872613E-3,1.6100854E-2,8.206293E-3,1.7653387E-2,1.1186621E-2,1.8482694E-2,9.386371E-3,1.651415E-2,1.9287892E-2,1.2076634E-2,7.3531824E-3,3.622392E-3,6.601501E-3,1.2784463E-2,3.138339E-3,8.558302E-3,1.0564356E-2,6.8200785E-3,1.0860111E-2,1.5635353E-2,8.791207E-3,1.2534124E-2,2.5500085E-3,7.1672993E-3,1.206785E-2,6.671461E-3,1.5947243E-2,1.0051918E-2,1.0697334E-2,6.4423466E-3,4.7464194E-3,1.1993917E-2,1.3353229E-2,1.7209128E-2,6.3324044E-3,1.2034777E-2,1.1878597E-2,1.9527256E-2,1.0282933E-2,1.694591E-2,1.1524427E-2,1.9713959E-2,1.5151466E-2,7.4551115E-3,1.0697542E-2,1.5694676E-2,1.3510103E-2,5.643528E-3,1.6998714E-2,2.0452924E-2,7.1600634E-3,1.7164046E-2,2.1924995E-2,1.391007E-2,1.6677339E-2,2.4924068E-2,1.0812024E-2,5.03961E-3,1.7456733E-2,2.0839892E-2,2.617125E-2,2.0684103E-2,2.7366383E-2,1.847588E-2],"categories":[],"categories_nodes":[],"categories_segments":[],"categories_sizes":[],"default_left":[0,0,0,0,0,0,0,0,0,0,0,0,0,0,0,0,0,0,0,0,0,0,0,0,0,0,0,0,0,0,0,0,0,0,0,0,0,0,0,0,0,0,0,0,0,0,0,0,0,0,0,0,0,0,0,0,0,0,0,0,0,0,0,0,0,0,0,0,0,0,0,0,0,0,0,0,0,0,0,0,0,0,0,0,0,0,0,0,0,0,0,0,0,0,0,0,0,0,0,0,0,0,0,0,0,0,0,0,0,0,0,0,0,0,0,0,0,0,0,0,0,0,0,0,0,0,0,0,0,0,0,0,0,0,0,0,0,0,0,0,0,0,0,0,0,0,0,0,0,0,0,0,0,0,0,0,0,0,0,0,0,0,0,0,0,0,0,0,0,0,0,0,0,0,0,0,0,0,0,0,0,0,0,0,0,0,0,0,0,0,0,0,0,0,0,0,0,0,0,0,0,0,0,0,0,0,0,0,0,0,0,0,0,0,0,0,0,0,0,0,0,0,0,0,0,0,0,0,0,0,0,0,0,0,0,0,0,0,0,0,0,0,0,0,0,0,0,0,0,0,0,0,0,0,0,0,0,0,0,0,0,0,0,0,0,0,0,0,0,0,0,0,0,0,0,0,0,0,0,0,0,0,0,0,0,0,0,0,0,0,0,0,0,0,0,0,0,0,0,0,0,0,0,0,0,0,0,0,0,0,0,0,0,0,0,0,0,0,0,0,0,0,0,0,0,0,0,0,0,0,0,0,0,0,0,0,0,0,0,0,0,0,0,0,0,0,0,0,0,0,0,0,0,0,0,0,0,0,0,0,0,0,0,0,0,0,0,0,0,0,0,0,0,0,0,0,0,0,0,0,0,0,0,0,0,0,0,0,0,0,0,0,0,0,0,0,0,0,0,0,0,0,0,0,0,0,0,0,0,0,0,0,0,0,0,0,0,0,0,0,0,0,0,0,0,0,0,0,0,0,0,0,0,0,0,0,0,0,0,0,0,0,0,0,0,0,0,0,0,0,0,0,0,0,0,0,0,0,0,0,0,0,0,0,0,0,0,0,0,0,0,0,0,0,0,0,0,0,0,0,0,0,0,0,0,0,0,0,0,0,0,0,0,0,0,0,0,0,0,0,0,0,0,0,0,0,0,0,0,0,0,0,0,0,0,0,0,0,0,0,0,0,0,0,0,0,0,0,0,0,0,0,0,0,0],"id":2,"left_children":[1,3,5,7,9,11,13,15,17,19,21,23,25,27,29,-1,31,33,35,37,39,41,43,45,47,49,51,53,55,57,59,61,63,65,67,69,71,73,75,77,79,81,83,85,87,89,91,93,95,97,99,101,103,105,107,109,111,113,115,117,119,-1,-1,-1,-1,121,123,125,127,129,131,133,135,137,139,141,143,145,147,149,151,153,155,157,159,161,163,165,167,-1,-1,169,171,173,175,177,179,181,-1,183,185,187,-1,189,191,-1,193,-1,195,197,199,201,-1,-1,-1,203,205,-1,-1,207,-1,209,211,213,-1,215,217,219,221,223,225,-1,227,-1,-1,229,-1,231,233,235,237,-1,239,241,243,-1,245,247,249,251,253,255,257,259,261,263,265,-1,267,269,271,273,-1,-1,275,277,279,281,283,-1,-1,285,287,289,291,293,295,297,299,301,303,305,307,309,311,313,315,317,319,321,323,-1,325,-1,-1,327,329,331,333,335,337,-1,339,341,343,345,347,349,-1,351,-1,353,-1,355,-1,-1,-1,357,359,361,-1,-1,363,365,367,369,371,373,-1,-1,-1,-1,375,-1,377,379,-1,381,383,385,387,-1,389,-1,-1,391,393,395,397,399,401,403,405,-1,-1,407,409,-1,-1,411,413,415,417,419,421,423,425,427,-1,429,431,433,435,437,439,441,443,445,447,-1,-1,-1,449,451,453,455,457,459,-1,461,-1,463,465,467,469,471,-1,473,475,477,479,-1,-1,-1,-1,-1,481,483,-1,485,487,-1,-1,489,491,493,495,497,-1,499,-1,501,503,-1,505,507,509,511,513,515,517,519,521,523,525,-1,527,529,-1,-1,-1,-1,-1,-1,-1,-1,531,-1,-1,533,-1,-1,-1,-1,-1,-1,-1,-1,-1,-1,-1,-1,-1,-1,-1,-1,-1,-1,-1,-1,-1,-1,-1,-1,-1,-1,-1,-1,-1,-1,-1,-1,-1,-1,-1,-1,-1,-1,-1,-1,-1,-1,-1,-1,-1,-1,-1,-1,-1,-1,-1,-1,-1,-1,-1,-1,-1,-1,-1,-1,-1,-1,-1,-1,-1,-1,-1,-1,-1,-1,-1,-1,-1,-1,-1,-1,-1,-1,-1,-1,-1,-1,-1,-1,-1,-1,-1,-1,-1,-1,-1,-1,-1,-1,-1,-1,-1,-1,-1,-1,-1,-1,-1,-1,-1,-1,-1,-1,-1,-1,-1,-1,-1,-1,-1,-1,-1,-1,-1,-1,-1,-1,-1,-1,-1,-1,-1,-1,-1,-1,-1,-1,-1,-1,-1,-1,-1,-1,-1,-1,-1,-1,-1,-1,-1,-1,-1,-1,-1,-1,-1,-1,-1,-1,-1,-1,-1,-1,-1,-1,-1,-1,-1,-1,-1,-1,-1,-1,-1,-1,-1,-1,-1,-1,-1,-1,-1,-1,-1,-1,-1,-1,-1,-1,-1],"loss_changes":[7.508299E2,8.503981E1,9.3394165E1,5.9969788E0,9.043215E0,8.185928E0,1.2005737E1,3.5205078E-1,8.195648E-1,1.6206906E0,3.8970833E0,2.3041687E0,2.5257645E0,4.526642E0,2.2509766E0,0E0,2.293396E-2,1.8266106E-1,9.428847E-2,3.3557558E-1,5.1069903E-1,1.7398124E0,1.7516289E0,4.1111135E-1,1.5475082E0,6.725006E-1,6.83403E-1,5.76849E-1,1.8749847E0,9.0278625E-1,7.445984E-1,3.1356812E-3,3.6256313E-3,6.710911E-2,7.4962616E-2,9.577119E-2,6.502746E-2,1.4700985E-1,1.0884518E-1,1.402053E-1,2.4842975E-1,9.218935E-1,4.5742655E-1,4.858042E-1,8.00395E-1,6.5387204E-2,3.229246E-1,8.161831E-1,7.472954E-1,2.969551E-1,5.35141E-1,1.5465784E-1,6.496391E-1,7.643223E-2,4.8124695E-1,1.5901794E0,1.8836284E-1,5.195341E-1,2.2216797E-1,9.767294E-2,3.5995483E-1,0E0,0E0,0E0,0E0,3.7739754E-2,6.300759E-2,3.6815643E-2,3.499019E-2,5.5339098E-2,6.016769E-2,1.2879118E-2,5.9865844E-2,6.1960936E-2,9.0839624E-2,3.4818515E-2,1.591396E-1,7.86365E-2,9.021175E-2,1.8377799E-1,2.7112046E-1,1.7784053E-1,5.6286585E-1,4.0550852E-1,1.611135E-1,2.2626257E-1,1.8587846E-1,3.1223726E-1,5.6965923E-1,0E0,0E0,1.04849085E-1,3.5771942E-1,4.9566078E-1,6.156597E-1,7.180424E-1,2.0457843E-1,1.923666E-1,0E0,1.520276E-1,4.0643692E-1,2.474823E-1,0E0,5.947304E-1,7.5938416E-1,0E0,1.19745135E-2,0E0,1.7928505E-1,1.1042328E0,7.845001E-1,9.98463E-2,0E0,0E0,0E0,4.1319275E-1,8.438873E-2,0E0,0E0,9.996796E-2,0E0,1.0249138E-2,1.9180894E-2,1.38783455E-2,0E0,4.3052435E-4,2.3504257E-2,2.6953876E-2,6.0179878E-2,6.358576E-2,3.3183336E-2,0E0,3.1003304E-2,0E0,0E0,3.8242064E-2,0E0,4.586587E-2,1.3825655E-2,4.009199E-2,7.7726126E-2,0E0,2.6159018E-2,5.131478E-2,1.387317E-1,0E0,5.8205903E-2,1.4055337E-1,4.119852E-2,1.0527978E-1,1.9171879E-2,9.727687E-2,1.8924016E-1,1.372695E-1,1.288742E-1,1.2258583E-1,4.101473E-1,0E0,2.168591E-1,1.0883607E-1,1.257875E-1,1.8097377E-1,0E0,0E0,8.965429E-2,3.4825045E-1,1.06864154E-1,9.608358E-2,5.552645E-1,0E0,0E0,3.0821466E-1,4.489868E-2,3.3990008E-1,4.2421532E-1,4.4658947E-1,1.6249514E-1,7.241373E-1,2.6138592E-1,1.1451286E-1,5.4833457E-2,1.176247E-1,1.1885786E-1,8.9063644E-2,3.837551E-2,2.5937653E-1,6.692257E-1,1.00045204E-1,1.19586885E-1,6.5390205E-1,2.7779388E-1,0E0,3.812065E-1,0E0,0E0,2.500267E-1,2.2298622E-1,2.56176E-1,5.541687E-1,1.9229293E-1,5.7470703E-1,0E0,1.0682702E-2,9.340668E-2,1.8894243E-1,3.555298E-2,2.4762344E-1,1.03611946E-1,0E0,8.08239E-3,0E0,7.2134137E-3,0E0,3.8565397E-3,0E0,0E0,0E0,1.2738466E-2,3.6310196E-2,1.5248001E-2,0E0,0E0,1.2604848E-2,3.8122654E-2,3.4689344E-2,1.19608715E-2,2.8241158E-2,5.371757E-3,0E0,0E0,0E0,0E0,1.6954545E-2,0E0,7.537961E-3,2.8760552E-2,0E0,3.421557E-2,7.540232E-2,4.111305E-3,2.868634E-2,0E0,2.1539643E-2,0E0,0E0,3.8184315E-2,6.09643E-2,2.5718883E-2,5.3829104E-2,1.9306656E-2,1.6044423E-2,7.608668E-2,1.074899E-1,0E0,0E0,1.4415497E-1,5.8970705E-2,0E0,0E0,1.9025624E-2,4.3232113E-2,1.1760501E-1,1.724863E-2,6.1076343E-2,7.92719E-2,1.1658286E-1,3.2349765E-1,3.283987E-1,0E0,1.6997054E-2,6.383671E-2,8.257088E-2,6.3109756E-2,2.2842783E-1,1.7196012E-1,1.3152513E-1,1.1134867E-2,1.0204673E-1,1.1068967E-1,0E0,0E0,0E0,3.5364807E-2,2.990408E-1,4.776764E-1,1.5679598E-1,2.08812E-1,2.8324848E-2,0E0,1.13179E-1,0E0,2.9340363E-1,2.999277E-1,1.1528462E-1,6.214094E-1,1.0351992E-1,0E0,3.7671518E-1,3.8629436E-1,1.7889595E-1,5.1166534E-2,0E0,0E0,0E0,0E0,0E0,4.462409E-2,9.560275E-2,0E0,1.24035716E-1,8.2068205E-2,0E0,0E0,1.4480972E-1,1.0747576E-1,1.0673559E-1,2.6675224E-1,7.4165106E-2,0E0,9.055078E-3,0E0,2.7097273E-1,2.5712585E-1,0E0,2.017107E-1,2.5349236E-1,3.2775164E-1,1.1358166E-1,1.9088697E-1,1.3858032E-1,2.9961395E-1,5.2248E-2,2.326572E-1,5.463333E-1,3.489914E-1,0E0,6.908655E-2,5.381317E-1,0E0,0E0,0E0,0E0,0E0,0E0,0E0,0E0,6.0653687E-2,0E0,0E0,1.1045456E-2,0E0,0E0,0E0,0E0,0E0,0E0,0E0,0E0,0E0,0E0,0E0,0E0,0E0,0E0,0E0,0E0,0E0,0E0,0E0,0E0,0E0,0E0,0E0,0E0,0E0,0E0,0E0,0E0,0E0,0E0,0E0,0E0,0E0,0E0,0E0,0E0,0E0,0E0,0E0,0E0,0E0,0E0,0E0,0E0,0E0,0E0,0E0,0E0,0E0,0E0,0E0,0E0,0E0,0E0,0E0,0E0,0E0,0E0,0E0,0E0,0E0,0E0,0E0,0E0,0E0,0E0,0E0,0E0,0E0,0E0,0E0,0E0,0E0,0E0,0E0,0E0,0E0,0E0,0E0,0E0,0E0,0E0,0E0,0E0,0E0,0E0,0E0,0E0,0E0,0E0,0E0,0E0,0E0,0E0,0E0,0E0,0E0,0E0,0E0,0E0,0E0,0E0,0E0,0E0,0E0,0E0,0E0,0E0,0E0,0E0,0E0,0E0,0E0,0E0,0E0,0E0,0E0,0E0,0E0,0E0,0E0,0E0,0E0,0E0,0E0,0E0,0E0,0E0,0E0,0E0,0E0,0E0,0E0,0E0,0E0,0E0,0E0,0E0,0E0,0E0,0E0,0E0,0E0,0E0,0E0,0E0,0E0,0E0,0E0,0E0,0E0,0E0,0E0,0E0,0E0,0E0,0E0,0E0,0E0,0E0,0E0,0E0,0E0,0E0,0E0,0E0,0E0,0E0,0E0,0E0,0E0,0E0,0E0,0E0,0E0,0E0,0E0,0E0,0E0,0E0,0E0,0E0,0E0,0E0,0E0],"parents":[2147483647,0,0,1,1,2,2,3,3,4,4,5,5,6,6,7,7,8,8,9,9,10,10,11,11,12,12,13,13,14,14,16,16,17,17,18,18,19,19,20,20,21,21,22,22,23,23,24,24,25,25,26,26,27,27,28,28,29,29,30,30,31,31,32,32,33,33,34,34,35,35,36,36,37,37,38,38,39,39,40,40,41,41,42,42,43,43,44,44,45,45,46,46,47,47,48,48,49,49,50,50,51,51,52,52,53,53,54,54,55,55,56,56,57,57,58,58,59,59,60,60,65,65,66,66,67,67,68,68,69,69,70,70,71,71,72,72,73,73,74,74,75,75,76,76,77,77,78,78,79,79,80,80,81,81,82,82,83,83,84,84,85,85,86,86,87,87,88,88,91,91,92,92,93,93,94,94,95,95,96,96,97,97,99,99,100,100,101,101,103,103,104,104,106,106,108,108,109,109,110,110,111,111,115,115,116,116,119,119,121,121,122,122,123,123,125,125,126,126,127,127,128,128,129,129,130,130,132,132,135,135,137,137,138,138,139,139,140,140,142,142,143,143,144,144,146,146,147,147,148,148,149,149,150,150,151,151,152,152,153,153,154,154,155,155,156,156,158,158,159,159,160,160,161,161,164,164,165,165,166,166,167,167,168,168,171,171,172,172,173,173,174,174,175,175,176,176,177,177,178,178,179,179,180,180,181,181,182,182,183,183,184,184,185,185,186,186,187,187,188,188,189,189,190,190,192,192,195,195,196,196,197,197,198,198,199,199,200,200,202,202,203,203,204,204,205,205,206,206,207,207,209,209,211,211,213,213,217,217,218,218,219,219,222,222,223,223,224,224,225,225,226,226,227,227,232,232,234,234,235,235,237,237,238,238,239,239,240,240,242,242,245,245,246,246,247,247,248,248,249,249,250,250,251,251,252,252,255,255,256,256,259,259,260,260,261,261,262,262,263,263,264,264,265,265,266,266,267,267,269,269,270,270,271,271,272,272,273,273,274,274,275,275,276,276,277,277,278,278,282,282,283,283,284,284,285,285,286,286,287,287,289,289,291,291,292,292,293,293,294,294,295,295,297,297,298,298,299,299,300,300,306,306,307,307,309,309,310,310,313,313,314,314,315,315,316,316,317,317,319,319,321,321,322,322,324,324,325,325,326,326,327,327,328,328,329,329,330,330,331,331,332,332,333,333,334,334,336,336,337,337,346,346,349,349],"right_children":[2,4,6,8,10,12,14,16,18,20,22,24,26,28,30,-1,32,34,36,38,40,42,44,46,48,50,52,54,56,58,60,62,64,66,68,70,72,74,76,78,80,82,84,86,88,90,92,94,96,98,100,102,104,106,108,110,112,114,116,118,120,-1,-1,-1,-1,122,124,126,128,130,132,134,136,138,140,142,144,146,148,150,152,154,156,158,160,162,164,166,168,-1,-1,170,172,174,176,178,180,182,-1,184,186,188,-1,190,192,-1,194,-1,196,198,200,202,-1,-1,-1,204,206,-1,-1,208,-1,210,212,214,-1,216,218,220,222,224,226,-1,228,-1,-1,230,-1,232,234,236,238,-1,240,242,244,-1,246,248,250,252,254,256,258,260,262,264,266,-1,268,270,272,274,-1,-1,276,278,280,282,284,-1,-1,286,288,290,292,294,296,298,300,302,304,306,308,310,312,314,316,318,320,322,324,-1,326,-1,-1,328,330,332,334,336,338,-1,340,342,344,346,348,350,-1,352,-1,354,-1,356,-1,-1,-1,358,360,362,-1,-1,364,366,368,370,372,374,-1,-1,-1,-1,376,-1,378,380,-1,382,384,386,388,-1,390,-1,-1,392,394,396,398,400,402,404,406,-1,-1,408,410,-1,-1,412,414,416,418,420,422,424,426,428,-1,430,432,434,436,438,440,442,444,446,448,-1,-1,-1,450,452,454,456,458,460,-1,462,-1,464,466,468,470,472,-1,474,476,478,480,-1,-1,-1,-1,-1,482,484,-1,486,488,-1,-1,490,492,494,496,498,-1,500,-1,502,504,-1,506,508,510,512,514,516,518,520,522,524,526,-1,528,530,-1,-1,-1,-1,-1,-1,-1,-1,532,-1,-1,534,-1,-1,-1,-1,-1,-1,-1,-1,-1,-1,-1,-1,-1,-1,-1,-1,-1,-1,-1,-1,-1,-1,-1,-1,-1,-1,-1,-1,-1,-1,-1,-1,-1,-1,-1,-1,-1,-1,-1,-1,-1,-1,-1,-1,-1,-1,-1,-1,-1,-1,-1,-1,-1,-1,-1,-1,-1,-1,-1,-1,-1,-1,-1,-1,-1,-1,-1,-1,-1,-1,-1,-1,-1,-1,-1,-1,-1,-1,-1,-1,-1,-1,-1,-1,-1,-1,-1,-1,-1,-1,-1,-1,-1,-1,-1,-1,-1,-1,-1,-1,-1,-1,-1,-1,-1,-1,-1,-1,-1,-1,-1,-1,-1,-1,-1,-1,-1,-1,-1,-1,-1,-1,-1,-1,-1,-1,-1,-1,-1,-1,-1,-1,-1,-1,-1,-1,-1,-1,-1,-1,-1,-1,-1,-1,-1,-1,-1,-1,-1,-1,-1,-1,-1,-1,-1,-1,-1,-1,-1,-1,-1,-1,-1,-1,-1,-1,-1,-1,-1,-1,-1,-1,-1,-1,-1,-1,-1,-1,-1,-1,-1,-1,-1,-1,-1],"split_conditions":[6.3652797E4,6.39E1,4.1140002E2,1.61E1,1.268E2,9.010312E4,5.54E2,1.035E1,7.1532117E2,3.16525E2,4.5905E2,6.105678E4,1.0297788E5,3.756E2,5.31425E2,-7.024395E-3,3.9110402E4,3.6E1,4.5E-1,6.673911E4,3.374117E4,8.102473E4,5.732512E4,9.824E2,5.48595E0,1.71635E2,1.486344E2,1.86696E2,5E-1,2.0983498E2,1.0025E3,7.212455E1,1.9349998E1,2.216E2,3.591675E4,3.370064E4,4.89E1,2.74E2,9.6628E1,2.75E-1,4.07E1,2.737E2,1.9610599E0,8.75E0,3.740121E4,5.29785E-1,2.744E2,7.506702E4,1E-2,7.5E-1,2.33E2,7.31E1,1.52996E2,2.718E2,9.979E2,-8.660254E-1,2.0942E3,3.5721848E1,1.3696E3,4.34E1,2.4868117E2,-6.45177E-3,-6.090893E-3,-5.5520083E-3,-3.8644315E-3,8.391956E3,6E-1,2.735E2,9.7854E1,9.3E0,5.1314587E1,1E2,4.997E2,2.1E0,1.051E2,1.8263766E2,2.799E2,3.2863487E-4,9.9975E1,1.17E1,2.8898E1,1.294582E2,3.5300336E4,-7E-1,9.730693E4,4.6713E1,1.4E0,1.545E3,1.17143E2,1.6435294E-3,-3.2803945E-3,1.0046667E2,1.2499999E-2,9.966E2,3.084025E1,1.9652E3,2.851E2,7.583777E-1,-1.1365687E-3,5.6468385E-1,6.208E1,2.2225E3,5.4057566E-3,7.43E1,2.744E2,1.0286803E-2,8.167957E-2,3.4022243E-3,1.15950005E2,1.23513305E5,1.7335022E2,1.0073E3,1.4454815E-2,6.058631E-3,1.9375985E-2,9.458E2,2.866E2,1.3086158E-2,2.2066737E-2,1.707825E-1,2.990192E-2,5.33902E4,4.410052E0,2.639075E3,-1.0522275E-3,1.6E0,1.245E2,4.4341664E4,5.3954998E1,1.4219395E3,1.9845833E1,1.9646946E-3,1.5987828E2,-1.142027E-3,-3.374923E-3,4.447E2,3.4735396E-3,5.4308086E3,4.9987793E-2,2.25E-1,1.9373398E4,-3.2978044E-3,1.231E0,4.1755E1,1.237E0,1.6406972E-3,2.908585E4,2.48E2,4.7075E2,1E-1,1.876175E2,4.7547344E1,1.0115E3,1.9476001E3,2.9E0,2.851585E4,1.03868E2,-1.3723631E-3,2.5819895E-1,9.0369564E-1,1.24E0,3.961575E4,9.767535E-3,5.388939E-3,5.2499995E-2,8.8625E1,1.5159642E1,6.4836247E-3,2.806E2,-3.4477175E-3,2.8281047E-3,1.7010309E6,2.0695236E1,1E0,6.4343047E4,9.8007E1,8E-1,7.1886943E3,2.882E2,6.557E2,-5.8123815E-1,9.487188E1,5.4810355E4,1.3075008E-2,3.7806E3,-9.3141043E-1,2.8423E1,1.0046E3,4.9775E1,1.9274416E2,2.765E2,3.9207838E-3,-2.5000002E-2,6.4226463E-3,3.273117E-3,2.24403E2,1.1437682E4,2.8798248E2,9.98725E2,6.6748345E3,1.330228E4,2.57106E-3,8.8589417E2,6E0,9.952E2,5.169274E0,3.0643042E2,1.211E0,2.7172467E-2,9.1700005E1,-3.2369127E-3,2.1666794E0,-2.7191977E-3,4.271971E-1,-2.7359233E-3,-4.239211E-3,-6.147783E-3,1.324E2,5.418E1,2.1588073E0,-1.3687693E-3,1.3378321E-3,1.4838E3,3E0,7.4361854E0,-8.660254E-1,1.1043001E2,2.2173552E-1,-7.117214E-6,1.0484203E-3,-2.7297658E-3,-4.997468E-3,5.6E1,-2.8742454E-3,3.5253E3,1.0296427E4,-9.6700556E-4,1.387174E0,4.3177333E0,5.588E2,7.025E1,1.5232885E-3,3.1022627E1,2.3472977E-4,7.581308E-3,-2.2662678E0,2.742E2,9.863939E-1,9.99E1,9.2025E1,8.895E2,5.77E1,2.1693052E-1,-1.6492362E-3,-4.0192255E-3,1.974375E2,1.6579999E2,9.799947E-3,2.541322E-3,-1.4E0,8.4125E1,1.289E0,6.405E1,2.4970001E2,3.55E1,3.25033E4,9.36E1,8.176E1,2.8106682E-3,-4.8782134E-1,9.208575E3,1.1579975E5,4.01E1,3.9597918E4,2.764E2,1.207E0,4.186E1,1.4425E3,6.8499637E0,1.347366E-2,5.380337E-3,1.4361874E-4,9.021E1,8.182672E1,8.129271E1,-8.2219213E-1,7.5E1,4.7E0,-2.2722182E-3,7.471E1,-4.1976986E-3,2.7361339E-2,1.2909944E-1,2.0374544E2,9.811193E4,5.0048828E-2,7.721024E-3,1.0267E3,5.4810355E4,1.229E0,2.937E2,4.414126E-3,1.1664413E-2,-1.2050809E-3,3.609769E-3,4.8399396E-4,9.2062646E2,1.38629E2,5.3203194E-3,1.7534E3,2.9235E2,2.2575816E-3,6.4760484E-3,9.512797E5,8.016E4,1.0026E3,7.2E1,2.858E2,8.7498315E-3,2.0361666E-2,2.0747618E-3,1.7859994E3,4.75587E0,2.1934179E-3,2.576E2,1.34241E4,2.2173305E-1,1.5491934E1,5.5742946E-2,1.339151E5,1.0139E3,-9.363291E-1,5.373126E0,2.8567848E6,2.7864098E-3,1.6073843E-2,4.83641E4,1.0135E3,8.177451E-3,6.4057284E-3,1.07497545E-2,1.5548602E-2,2.5336493E-2,8.714986E-3,1.8594733E-2,2.0587347E-2,5.695E1,2.3313692E-2,1.4621071E-2,4.6246E1,1.6153134E-2,-5.5494015E-3,-4.6187104E-3,-4.880955E-3,-2.946981E-3,-4.809358E-3,-3.232097E-3,-4.2213406E-3,-4.9845013E-3,-1.011622E-3,-4.181512E-3,-4.2362544E-3,-2.8940828E-3,-1.6000703E-3,-4.1859513E-3,-3.1654486E-3,-5.0651806E-4,1.7276475E-3,-1.6116012E-3,-6.479217E-4,-2.9268682E-3,-2.2835769E-3,-4.3438813E-3,-1.870598E-3,-3.6117719E-3,-2.340326E-3,2.9588156E-4,-5.413854E-3,-3.738669E-3,-3.4657677E-3,-1.0622981E-3,-3.2344207E-3,-2.3277977E-3,-2.5074272E-3,-1.2593556E-3,-9.9484E-4,-2.3423997E-3,-8.4895495E-4,1.8976402E-3,-7.30948E-4,-3.803723E-3,-1.7477493E-4,-2.92297E-3,-3.8220696E-3,-9.972116E-4,1.9450841E-4,-3.1071117E-3,4.649759E-3,1.0684849E-3,-8.683417E-4,1.3156695E-3,-2.9476832E-3,-6.800228E-4,-3.8692355E-3,-1.3479411E-4,5.494991E-4,2.5318891E-3,7.341699E-3,8.927197E-4,2.6925046E-3,-1.5717953E-3,-3.4191166E-3,-5.2377093E-3,1.0699065E-3,-2.3696458E-3,5.685072E-3,-4.988912E-4,-1.6006324E-3,-4.4353395E-3,-9.009394E-4,-3.4763727E-3,-1.6175564E-3,6.5405964E-4,-7.441085E-4,1.2437492E-3,2.607177E-3,3.503868E-4,1.3575911E-2,5.7332763E-3,6.4192875E-3,2.9666154E-3,-5.1523355E-4,2.6727575E-3,3.9345855E-3,-7.132893E-4,4.9364325E-3,8.918243E-3,9.941165E-3,2.4581167E-3,1.0479205E-2,4.287829E-3,3.2675627E-3,-9.54869E-5,-3.3214383E-3,-1.0813038E-3,1.01739885E-2,4.460599E-3,6.0745664E-3,1.300027E-3,6.9958367E-3,2.9677188E-3,3.7286722E-3,1.28323855E-2,2.4874066E-3,8.73313E-3,6.6692415E-3,4.025806E-3,8.882969E-3,3.3458532E-3,2.4705587E-4,3.482723E-3,6.715761E-3,6.6669955E-4,6.828194E-3,3.623702E-3,8.697746E-3,5.509475E-3,1.958995E-4,5.382886E-3,6.2739938E-3,1.0221628E-2,9.872613E-3,1.6100854E-2,8.206293E-3,1.7653387E-2,1.1186621E-2,1.8482694E-2,9.386371E-3,1.651415E-2,1.9287892E-2,1.2076634E-2,7.3531824E-3,3.622392E-3,6.601501E-3,1.2784463E-2,3.138339E-3,8.558302E-3,1.0564356E-2,6.8200785E-3,1.0860111E-2,1.5635353E-2,8.791207E-3,1.2534124E-2,2.5500085E-3,7.1672993E-3,1.206785E-2,6.671461E-3,1.5947243E-2,1.0051918E-2,1.0697334E-2,6.4423466E-3,4.7464194E-3,1.1993917E-2,1.3353229E-2,1.7209128E-2,6.3324044E-3,1.2034777E-2,1.1878597E-2,1.9527256E-2,1.0282933E-2,1.694591E-2,1.1524427E-2,1.9713959E-2,1.5151466E-2,7.4551115E-3,1.0697542E-2,1.5694676E-2,1.3510103E-2,5.643528E-3,1.6998714E-2,2.0452924E-2,7.1600634E-3,1.7164046E-2,2.1924995E-2,1.391007E-2,1.6677339E-2,2.4924068E-2,1.0812024E-2,5.03961E-3,1.7456733E-2,2.0839892E-2,2.617125E-2,2.0684103E-2,2.7366383E-2,1.847588E-2],"split_indices":[41,39,39,39,39,41,51,147,43,117,117,161,161,51,160,0,107,39,139,161,95,53,107,77,191,29,103,83,130,103,74,151,123,117,53,161,39,32,29,139,69,140,192,113,54,192,32,178,75,130,51,27,83,15,74,47,57,172,111,27,103,0,0,0,0,211,15,32,29,5,48,163,57,35,147,103,86,206,164,59,84,103,161,91,161,84,89,64,29,0,0,48,129,74,138,111,86,40,0,45,50,10,0,27,86,0,186,0,96,53,103,28,0,0,0,64,66,0,0,194,0,34,191,124,0,35,117,53,50,43,48,0,103,0,0,64,0,212,190,139,161,0,60,50,60,0,107,10,166,139,150,172,74,166,89,161,83,0,199,214,60,142,0,0,129,163,204,206,66,0,0,8,204,1,54,83,91,211,51,111,45,48,178,206,10,40,84,77,164,103,32,0,145,0,0,83,211,150,131,212,211,0,196,59,58,191,172,60,0,93,0,192,0,186,0,0,0,96,96,192,0,0,10,15,215,47,150,199,0,0,0,0,121,0,7,211,0,40,191,58,121,0,172,0,0,148,86,98,109,121,58,51,45,0,0,150,93,0,0,91,104,60,163,93,69,162,163,104,0,45,211,178,56,149,66,60,84,7,215,0,0,0,104,103,48,45,27,35,0,104,0,207,186,103,107,186,0,28,178,60,32,0,0,0,0,0,196,29,0,64,140,0,0,70,53,28,27,140,0,206,0,211,191,0,69,34,194,196,207,95,28,45,204,8,206,0,34,82,0,0,0,0,0,0,0,0,163,0,0,30,0,0,0,0,0,0,0,0,0,0,0,0,0,0,0,0,0,0,0,0,0,0,0,0,0,0,0,0,0,0,0,0,0,0,0,0,0,0,0,0,0,0,0,0,0,0,0,0,0,0,0,0,0,0,0,0,0,0,0,0,0,0,0,0,0,0,0,0,0,0,0,0,0,0,0,0,0,0,0,0,0,0,0,0,0,0,0,0,0,0,0,0,0,0,0,0,0,0,0,0,0,0,0,0,0,0,0,0,0,0,0,0,0,0,0,0,0,0,0,0,0,0,0,0,0,0,0,0,0,0,0,0,0,0,0,0,0,0,0,0,0,0,0,0,0,0,0,0,0,0,0,0,0,0,0,0,0,0,0,0,0,0,0,0,0,0,0,0,0,0,0,0,0,0,0,0,0,0,0,0,0,0,0,0,0],"split_type":[0,0,0,0,0,0,0,0,0,0,0,0,0,0,0,0,0,0,0,0,0,0,0,0,0,0,0,0,0,0,0,0,0,0,0,0,0,0,0,0,0,0,0,0,0,0,0,0,0,0,0,0,0,0,0,0,0,0,0,0,0,0,0,0,0,0,0,0,0,0,0,0,0,0,0,0,0,0,0,0,0,0,0,0,0,0,0,0,0,0,0,0,0,0,0,0,0,0,0,0,0,0,0,0,0,0,0,0,0,0,0,0,0,0,0,0,0,0,0,0,0,0,0,0,0,0,0,0,0,0,0,0,0,0,0,0,0,0,0,0,0,0,0,0,0,0,0,0,0,0,0,0,0,0,0,0,0,0,0,0,0,0,0,0,0,0,0,0,0,0,0,0,0,0,0,0,0,0,0,0,0,0,0,0,0,0,0,0,0,0,0,0,0,0,0,0,0,0,0,0,0,0,0,0,0,0,0,0,0,0,0,0,0,0,0,0,0,0,0,0,0,0,0,0,0,0,0,0,0,0,0,0,0,0,0,0,0,0,0,0,0,0,0,0,0,0,0,0,0,0,0,0,0,0,0,0,0,0,0,0,0,0,0,0,0,0,0,0,0,0,0,0,0,0,0,0,0,0,0,0,0,0,0,0,0,0,0,0,0,0,0,0,0,0,0,0,0,0,0,0,0,0,0,0,0,0,0,0,0,0,0,0,0,0,0,0,0,0,0,0,0,0,0,0,0,0,0,0,0,0,0,0,0,0,0,0,0,0,0,0,0,0,0,0,0,0,0,0,0,0,0,0,0,0,0,0,0,0,0,0,0,0,0,0,0,0,0,0,0,0,0,0,0,0,0,0,0,0,0,0,0,0,0,0,0,0,0,0,0,0,0,0,0,0,0,0,0,0,0,0,0,0,0,0,0,0,0,0,0,0,0,0,0,0,0,0,0,0,0,0,0,0,0,0,0,0,0,0,0,0,0,0,0,0,0,0,0,0,0,0,0,0,0,0,0,0,0,0,0,0,0,0,0,0,0,0,0,0,0,0,0,0,0,0,0,0,0,0,0,0,0,0,0,0,0,0,0,0,0,0,0,0,0,0,0,0,0,0,0,0,0,0,0,0,0,0,0,0,0,0,0,0,0,0,0,0,0,0,0,0,0,0,0,0,0,0,0,0,0,0,0,0,0,0,0,0,0,0,0,0,0,0,0,0,0],"sum_hessian":[2.8962E4,2.2037E4,6.925E3,1.6042E4,5.995E3,4.06E3,2.865E3,1.3118E4,2.924E3,2.771E3,3.224E3,2.298E3,1.762E3,1.901E3,9.64E2,1.153E4,1.588E3,2.383E3,5.41E2,1.673E3,1.098E3,2.26E3,9.64E2,5.17E2,1.781E3,9.05E2,8.57E2,3.89E2,1.512E3,4.04E2,5.6E2,1.451E3,1.37E2,1.318E3,1.065E3,4.75E2,6.6E1,1.501E3,1.72E2,4.95E2,6.03E2,1.971E3,2.89E2,4.54E2,5.1E2,2.7E1,4.9E2,1.307E3,4.74E2,1.25E2,7.8E2,1.13E2,7.44E2,3.5E1,3.54E2,1.468E3,4.4E1,3.2E1,3.72E2,2.6E1,5.34E2,7.47E2,7.04E2,1.23E2,1.4E1,1.144E3,1.74E2,8.75E2,1.9E2,4.21E2,5.4E1,3E1,3.6E1,1.43E2,1.358E3,1.11E2,6.1E1,3.51E2,1.44E2,4.87E2,1.16E2,1.87E2,1.784E3,8.2E1,2.07E2,2.58E2,1.96E2,1.69E2,3.41E2,1E1,1.7E1,2.5E1,4.65E2,7.16E2,5.91E2,4.27E2,4.7E1,1.14E2,1.1E1,1.8E2,6E2,9.5E1,1.8E1,4.78E2,2.66E2,1.5E1,2E1,1E1,3.44E2,8.06E2,6.62E2,3E1,1.4E1,1.4E1,1.8E1,6.2E1,3.1E2,1.3E1,1.3E1,2.37E2,2.97E2,1.015E3,1.29E2,1.59E2,1.5E1,5.7E1,8.18E2,1.57E2,3.3E1,2.34E2,1.87E2,1.3E1,4.1E1,1.2E1,1.8E1,2.5E1,1.1E1,3.3E1,1.1E2,4.06E2,9.52E2,1.9E1,9.2E1,3.6E1,2.5E1,1.5E1,3.36E2,6.6E1,7.8E1,4.49E2,3.8E1,7.9E1,3.7E1,1.31E2,5.6E1,5.48E2,1.236E3,1E1,7.2E1,8.4E1,1.23E2,2.42E2,1.6E1,1.9E1,1.77E2,1.49E2,2E1,4.4E1,2.97E2,1.4E1,1.1E1,4.27E2,3.8E1,4.9E1,6.67E2,5.2E2,7.1E1,3.29E2,9.8E1,2.5E1,2.2E1,5.8E1,5.6E1,1.56E2,2.4E1,2.47E2,3.53E2,6.5E1,3E1,3.64E2,1.14E2,1.2E1,2.54E2,1E1,1E1,1.44E2,2E2,2.37E2,5.69E2,4.9E1,6.13E2,1E1,2E1,3.7E1,2.5E1,2.46E2,6.4E1,4.5E1,1.92E2,1.005E3,1E1,1.1E2,1.9E1,1.44E2,1.5E1,1.1E1,4.6E1,4.04E2,4.14E2,1.44E2,1.3E1,1E1,2.3E1,1.98E2,3.6E1,2.4E1,1.63E2,2.6E1,1.5E1,1.3E1,1.2E1,1E1,2.3E1,1.2E1,9.8E1,3.87E2,1.9E1,4.59E2,4.93E2,3.6E1,5.6E1,1.3E1,2.3E1,1.2E1,1.3E1,1.57E2,1.79E2,2.3E1,4.3E1,4E1,3.8E1,1.08E2,3.41E2,1.9E1,1.9E1,3.9E1,4E1,1.9E1,1.8E1,9.4E1,3.7E1,3.2E1,2.4E1,2.42E2,3.06E2,3.11E2,9.25E2,6E1,1.2E1,2E1,6.4E1,7.1E1,5.2E1,1.84E2,5.8E1,1.52E2,2.5E1,3.6E1,1.13E2,1E1,1E1,1.8E1,2.6E1,1.12E2,1.85E2,3.14E2,1.13E2,2.8E1,1E1,3.2E1,1.7E1,2.95E2,3.72E2,7.5E1,4.45E2,5.6E1,1.5E1,2.38E2,9.1E1,4.9E1,4.9E1,1.5E1,1E1,1.2E1,1E1,1.1E1,4.7E1,4E1,1.6E1,5E1,1.06E2,1.4E1,1E1,1.37E2,1.1E2,8.7E1,2.66E2,4.6E1,1.9E1,2E1,1E1,1.12E2,2.52E2,1.1E1,1.03E2,1.63E2,9.1E1,7.5E1,6.9E1,1.44E2,5.6E1,2.08E2,2.9E1,1.85E2,3.84E2,1.9E1,3E1,5.99E2,1.4E1,1E1,1E1,1E1,2.7E1,1.4E1,1.1E1,3.3E1,2.13E2,4.5E1,1.9E1,3E1,1.5E1,9.44E2,6.1E1,9.9E1,1.1E1,1.31E2,1.3E1,1.43E2,2.61E2,1E1,4.04E2,1.04E2,4E1,1E1,1.3E1,1.83E2,1.5E1,1E1,2.6E1,1.1E1,1.3E1,2.3E1,1.4E2,1.3E1,1.3E1,1.1E1,1.2E1,7.9E1,1.9E1,3.73E2,1.4E1,2.55E2,2.04E2,2.6E2,2.33E2,1E1,2.6E1,4.5E1,1.1E1,1.2E1,1.1E1,1.4E1,1.43E2,2.1E1,1.58E2,1E1,1.3E1,2.3E1,2E1,2.4E1,1.6E1,2.6E1,1.2E1,1.5E1,9.3E1,2.47E2,9.4E1,1.2E1,2.7E1,1E1,3E1,3E1,6.4E1,1.4E1,2.3E1,1.1E1,2.1E1,1.3E1,1.1E1,2.17E2,2.5E1,4.4E1,2.62E2,1.93E2,1.18E2,7.21E2,2.04E2,3.5E1,2.5E1,1E1,1E1,3.9E1,2.5E1,6E1,1.1E1,3.3E1,1.9E1,1E1,1.74E2,1.6E1,4.2E1,3.8E1,1.14E2,1.4E1,1.1E1,1.8E1,1.8E1,1.3E1,1E2,1.1E1,1.5E1,1.1E1,1.01E2,4E1,1.45E2,7.8E1,2.36E2,9E1,2.3E1,1.8E1,1E1,1.9E1,1.3E1,1.39E2,1.56E2,2.58E2,1.14E2,1.3E1,6.2E1,1.66E2,2.79E2,1.6E1,4E1,2.27E2,1.1E1,5.7E1,3.4E1,3.2E1,1.7E1,3.9E1,1E1,3.2E1,1.5E1,1.3E1,2.7E1,1.8E1,3.2E1,7.8E1,2.8E1,3.2E1,1.05E2,4.9E1,6.1E1,1.7E1,7E1,2.36E2,3E1,3E1,1.6E1,1E1,1E1,1.7E1,9.5E1,9.6E1,1.56E2,2.4E1,7.9E1,1.8E1,1.45E2,4E1,5.1E1,1E1,6.5E1,5.6E1,1.3E1,2.7E1,1.17E2,3.4E1,2.2E1,5.9E1,1.49E2,1.2E1,1.7E1,1.52E2,3.3E1,2.2E1,3.62E2,1.9E1,1.1E1,2.85E2,3.14E2,1.83E2,3E1,1.8E1,1.2E1],"tree_param":{"num_deleted":"0","num_feature":"217","num_nodes":"535","size_leaf_vector":"1"}},{"base_weights":[6.6655275E-4,-8.582085E-2,2.7616757E-1,-1.2289934E-1,1.1724498E-2,1.7847969E-1,3.9940175E-1,-1.3130246E-1,-8.2230605E-2,-2.5826544E-2,4.9284056E-2,1.3761345E-1,2.2556674E-1,3.5106096E-1,4.9318093E-1,-1.3330376E-1,-1.1624509E-1,-8.968888E-2,-5.073817E-2,-4.639313E-2,1.3845374E-3,2.7745051E-2,1.02716416E-1,8.864437E-2,1.5573946E-1,1.8237169E-1,2.6153064E-1,2.752783E-1,3.790865E-1,4.496938E-1,5.389867E-1,-6.6853985E-3,-6.3124397E-3,-1.1766716E-1,-1.0087095E-1,-9.2217326E-2,-6.628089E-2,-5.7017986E-2,-1.7486209E-2,-5.430375E-2,-1.3700619E-2,-7.831096E-3,5.4617938E-2,1.8750526E-2,8.463665E-2,6.30881E-2,1.3831337E-1,1.6245993E-2,9.9955775E-2,1.9036403E-1,1.2684378E-1,1.2927622E-1,2.038447E-1,2.8166142E-1,2.0072988E-1,2.8259322E-1,2.8178797E-3,3.3458924E-1,4.0268266E-1,2.3777756E-1,4.595576E-1,5.464734E-1,1.0824337E-2,-1.18145265E-1,-9.322255E-2,-8.7464824E-2,-5.382325E-3,-9.5295474E-2,-7.313549E-2,-7.448596E-2,-3.466901E-2,-7.279966E-2,-4.7536932E-2,-3.1831976E-2,1.8216914E-2,-9.026518E-2,-5.159804E-2,1.6516006E-2,-3.704282E-2,-2.1602588E-2,1.3186589E-2,6.2277773E-3,8.400339E-2,-3.7364297E-2,2.4061915E-2,1.3113888E-1,4.403639E-2,7.4406005E-2,-2.2737248E-2,1.647651E-1,7.44735E-2,5.357973E-2,-5.1001605E-2,1.0814729E-1,1.5396454E-2,2.4222264E-1,1.6508763E-1,9.348915E-2,1.8138683E-1,1.4595458E-1,8.774453E-3,2.0968913E-1,7.124862E-2,2.8886458E-1,1.0992344E-1,1.7209274E-4,2.108325E-1,2.100718E-1,2.927906E-1,2.515493E-1,3.5084313E-1,3.1375197E-1,4.1481623E-1,1.7107014E-2,3.2180555E-3,5.0663966E-1,4.249849E-1,4.7322688E-1,5.6274736E-1,-5.9422697E-3,-1.0178254E-1,-5.6215418E-3,-2.5919753E-3,-4.758499E-3,-2.6925069E-3,-1.0050596E-1,-8.790698E-2,-4.094755E-2,-7.877891E-2,-8.179305E-2,-5.3156476E-2,7.006467E-3,-3.4299728E-3,-4.6914376E-2,-7.8719474E-2,-4.2112414E-2,-8.957463E-2,9.6142053E-4,-4.2220846E-2,3.5905936E-3,-1.1150257E-3,-9.719877E-2,-2.4761136E-3,-5.8558412E-2,-3.9240964E-2,-2.8838305E-2,8.5420616E-2,-6.0523015E-2,-1.6394466E-2,-1.1308605E-3,-3.511316E-2,5.8072135E-2,-1.1465654E-3,3.6394168E-3,-1.4900606E-2,1.20558746E-1,1.574011E-2,-5.9828866E-2,2.6196463E-2,7.5005344E-3,4.2413294E-2,2.0856959E-1,8.970611E-2,5.6607414E-2,-3.6819875E-2,6.9628544E-2,9.938816E-3,-3.1518973E-3,-4.815884E-3,1.261629E-1,2.1187367E-1,1.3408257E-1,2.84298E-2,6.2836185E-3,1.595753E-2,-1.0551318E-3,-3.9696624E-3,9.861479E-2,1.9213194E-1,-5.777722E-3,3.972212E-3,1.4418104E-1,2.7521774E-1,1.5850288E-1,1.9041432E-2,-4.153655E-3,9.7875245E-2,1.5688558E-1,2.4497387E-1,1.5299837E-1,8.7845506E-4,3.999092E-3,-2.1570288E-3,2.266451E-1,1.7426896E-1,5.996052E-3,-3.0123905E-4,3.0675262E-1,2.3344754E-1,7.9054115E-3,1.0227587E-3,1.722829E-1,2.5655267E-1,1.58517E-1,2.7180913E-1,3.264458E-1,2.6730525E-1,2.734989E-1,5.193936E-3,3.7459993E-1,2.7100906E-1,7.336087E-3,3.311131E-1,3.8949996E-1,4.485675E-1,3.9778727E-1,5.3198206E-1,4.305716E-1,1.1902425E-2,3.2904446E-1,5.1733017E-1,4.4560894E-1,2.849063E-2,-5.428499E-3,-3.3401672E-3,-1.0228684E-1,-8.581477E-2,-2.1574586E-3,-8.893378E-2,2.4885507E-4,-7.004741E-2,-6.1939817E-2,-8.542651E-2,-4.300946E-3,-6.454633E-2,-1.1338474E-3,-7.129284E-2,-1.5659546E-3,2.077718E-3,-6.287243E-2,-4.6412926E-4,-8.283007E-2,-2.0567395E-3,-4.4546995E-2,7.3064177E-4,-2.9418154E-3,-5.0705094E-3,-2.00002E-2,-5.8388222E-2,-7.006213E-2,-5.2473736E-3,-6.0306612E-2,-2.0673202E-2,-3.3097547E-2,-5.9526328E-2,-4.722721E-2,7.683397E-3,1.4820209E-1,4.4085626E-2,-7.819988E-2,-3.9794277E-2,-2.4045587E-2,2.4891344E-3,-6.7503065E-2,6.248483E-3,-4.787476E-2,-1.5192982E-2,1.3285927E-1,3.3650942E-2,-6.994953E-3,8.264383E-2,-4.0787287E-2,2.5140023E-2,2.096721E-3,1.4178298E-1,-3.0251162E-3,4.067728E-2,-7.3971525E-2,3.032409E-3,5.9226654E-3,-3.286141E-2,-1.0692372E-2,2.1844637E-2,4.807287E-2,-2.4307292E-2,4.561639E-3,2.607202E-1,1.700337E-1,6.1630152E-2,7.347383E-2,2.9010134E-2,1.5584914E-3,-4.8037726E-3,8.258148E-2,4.7827954E-3,1.4735657E-3,-2.6416106E-2,1.8429096E-1,1.01108596E-1,1.5050912E-1,2.9060566E-1,2.0123684E-1,3.470326E-2,-3.5008878E-2,5.9014253E-2,-1.0840924E-3,3.2539766E-3,9.2064604E-2,1.5070318E-1,1.4217453E-2,1.1067296E-1,-2.7174242E-3,1.5469617E-3,9.7095475E-2,1.9464613E-1,3.2140857E-1,2.1407211E-1,1.660732E-1,2.2861693E-2,1.07668705E-1,2.9168893E-2,1.3756795E-1,2.2290497E-1,1.4641656E-1,2.9607028E-1,1.43058E-1,1.2520941E-2,1.748014E-2,2.190366E-1,2.2553566E-1,1.422718E-1,2.865119E-1,3.680876E-1,1.111891E-1,2.52143E-1,1.8652563E-1,8.3428074E-4,2.2060074E-1,3.4316453E-1,1.1743606E-1,1.222931E-2,7.883072E-3,1.6049994E-2,2.1683845E-1,3.5602656E-1,2.8001565E-1,1.7726254E-1,2.3560801E-1,3.6151746E-1,3.831913E-1,1.0267484E-2,2.3399708E-1,1.8257678E-2,3.6215302E-1,2.2048286E-1,4.2356455E-1,3.5787722E-1,4.5992836E-1,3.648152E-1,2.1152178E-2,1.4177993E-2,5.42037E-1,1.691402E-2,1.866833E-2,4.4897074E-1,2.0596586E-2,9.305161E-3,2.7396044E-2,1.7682254E-2,2.5021661E-2,1.601853E-2,-5.3681713E-3,-4.873013E-3,-1.8216141E-3,-4.510639E-3,-5.641075E-3,-4.3419763E-3,-4.889184E-3,-1.3614212E-3,-3.650513E-3,-1.9324903E-3,-4.6621207E-3,-3.4497809E-3,-3.8495155E-3,-2.025076E-3,-3.9483155E-3,-2.5778746E-3,-1.9032527E-3,-3.951348E-3,-4.528224E-3,-3.5249994E-3,-3.3857033E-3,-1.8543799E-3,1.7830615E-4,-1.9201229E-3,-3.2991485E-3,-1.9981002E-3,-1.9910731E-3,-4.696676E-3,-3.6522117E-3,-2.8173053E-3,2.8704505E-3,-2.9459593E-3,-2.9148746E-3,-1.3702643E-3,-9.4511046E-4,-3.1739385E-3,-2.7011372E-3,-1.3430354E-3,-9.950711E-4,1.4355701E-3,8.9245355E-3,4.946678E-3,-9.3238516E-4,4.638522E-3,-5.235368E-3,-2.734333E-3,-5.048847E-4,-2.4843465E-3,1.3683842E-3,-1.563812E-3,-5.0481264E-3,-8.632598E-4,7.341605E-4,-2.825015E-3,-2.532329E-3,