{"learner":{"attributes":{"best_iteration":"164","best_score":"0.05199907875747052"},"feature_names":[],"feature_types":[],"gradient_booster":{"model":{"gbtree_model_param":{"num_parallel_tree":"1","num_trees":"215"},"iteration_indptr":[0,1,2,3,4,5,6,7,8,9,10,11,12,13,14,15,16,17,18,19,20,21,22,23,24,25,26,27,28,29,30,31,32,33,34,35,36,37,38,39,40,41,42,43,44,45,46,47,48,49,50,51,52,53,54,55,56,57,58,59,60,61,62,63,64,65,66,67,68,69,70,71,72,73,74,75,76,77,78,79,80,81,82,83,84,85,86,87,88,89,90,91,92,93,94,95,96,97,98,99,100,101,102,103,104,105,106,107,108,109,110,111,112,113,114,115,116,117,118,119,120,121,122,123,124,125,126,127,128,129,130,131,132,133,134,135,136,137,138,139,140,141,142,143,144,145,146,147,148,149,150,151,152,153,154,155,156,157,158,159,160,161,162,163,164,165,166,167,168,169,170,171,172,173,174,175,176,177,178,179,180,181,182,183,184,185,186,187,188,189,190,191,192,193,194,195,196,197,198,199,200,201,202,203,204,205,206,207,208,209,210,211,212,213,214,215],"tree_info":[0,0,0,0,0,0,0,0,0,0,0,0,0,0,0,0,0,0,0,0,0,0,0,0,0,0,0,0,0,0,0,0,0,0,0,0,0,0,0,0,0,0,0,0,0,0,0,0,0,0,0,0,0,0,0,0,0,0,0,0,0,0,0,0,0,0,0,0,0,0,0,0,0,0,0,0,0,0,0,0,0,0,0,0,0,0,0,0,0,0,0,0,0,0,0,0,0,0,0,0,0,0,0,0,0,0,0,0,0,0,0,0,0,0,0,0,0,0,0,0,0,0,0,0,0,0,0,0,0,0,0,0,0,0,0,0,0,0,0,0,0,0,0,0,0,0,0,0,0,0,0,0,0,0,0,0,0,0,0,0,0,0,0,0,0,0,0,0,0,0,0,0,0,0,0,0,0,0,0,0,0,0,0,0,0,0,0,0,0,0,0,0,0,0,0,0,0,0,0,0,0,0,0,0,0,0,0,0,0,0,0,0,0,0,0],"trees":[{"base_weights":[-2.1911369E-4,-1.0007177E-1,3.1126973E-1,-1.415775E-1,1.7078822E-2,2.1629016E-1,4.903861E-1,-1.5238023E-1,-9.0329655E-2,-2.6902217E-2,5.643083E-2,1.6179518E-1,2.804187E-1,4.3288976E-1,5.8823186E-1,-1.5533023E-1,-1.3336639E-1,-1.0150922E-1,-5.0370984E-2,-4.893962E-2,8.177139E-3,3.0872554E-2,1.2838289E-1,1.14300005E-1,1.8469009E-1,2.4022491E-1,3.1836852E-1,3.6066917E-1,4.613662E-1,2.7518103E-1,5.9618115E-1,-7.789045E-3,-7.3622423E-3,-1.3682492E-1,-1.2305512E-1,-1.053441E-1,-8.161382E-2,2.7472859E-3,-5.3109568E-2,-5.6711942E-2,-2.3699393E-3,-1.1286471E-3,6.595649E-2,2.0783685E-2,1.01282805E-1,7.627815E-2,1.9195001E-1,7.6369327E-3,1.232181E-1,1.553812E-1,2.2194888E-1,2.4711853E-1,7.988546E-2,3.3461055E-1,2.5884613E-1,5.3843367E-3,3.6793852E-1,4.6908233E-1,2.5329044E-1,1.8696893E-2,7.570387E-3,5.417668E-1,6.384947E-1,-6.8759555E-3,-4.529396E-3,-6.272744E-3,-4.881261E-3,-5.6224745E-3,-4.7583855E-3,-4.9080793E-3,-3.2162995E-3,-2.460106E-3,-4.765536E-3,-4.843987E-3,-2.5810322E-3,-1.5146405E-3,1.6978061E-3,-1.1022183E-3,1.085088E-3,1.0048048E-2,2.6234742E-3,-2.4286963E-3,1.3574484E-3,7.681984E-3,3.6403239E-3,5.5332626E-3,2.280874E-3,4.300043E-3,1.1352301E-2,2.0414381E-3,-5.136944E-3,4.2723324E-3,7.108447E-3,9.604934E-3,5.407461E-3,1.2182178E-2,8.598491E-3,7.338094E-3,1.2861214E-2,5.9980075E-3,-8.4698584E-4,1.1669897E-2,1.731117E-2,7.7248863E-3,1.4247288E-2,2.054718E-2,1.6251728E-2,1.7885856E-2,2.4103321E-2,8.005674E-3,1.561105E-2,2.0469783E-2,2.7814338E-2,3.3119593E-2,2.8926125E-2],"categories":[],"categories_nodes":[],"categories_segments":[],"categories_sizes":[],"default_left":[0,0,0,0,0,0,0,0,0,0,0,0,0,0,0,0,0,0,0,0,0,0,0,0,0,0,0,0,0,0,0,0,0,0,0,0,0,0,0,0,0,0,0,0,0,0,0,0,0,0,0,0,0,0,0,0,0,0,0,0,0,0,0,0,0,0,0,0,0,0,0,0,0,0,0,0,0,0,0,0,0,0,0,0,0,0,0,0,0,0,0,0,0,0,0,0,0,0,0,0,0,0,0,0,0,0,0,0,0,0,0,0,0,0,0],"id":0,"left_children":[1,3,5,7,9,11,13,15,17,19,21,23,25,27,29,31,33,35,37,39,41,43,45,47,49,51,53,55,57,59,61,-1,-1,63,65,67,69,-1,71,73,75,77,79,81,83,85,87,89,91,93,95,97,99,101,103,-1,105,107,109,-1,-1,111,113,-1,-1,-1,-1,-1,-1,-1,-1,-1,-1,-1,-1,-1,-1,-1,-1,-1,-1,-1,-1,-1,-1,-1,-1,-1,-1,-1,-1,-1,-1,-1,-1,-1,-1,-1,-1,-1,-1,-1,-1,-1,-1,-1,-1,-1,-1,-1,-1,-1,-1,-1,-1],"loss_changes":[7.7530426E2,9.178548E1,1.0283594E2,7.702545E0,8.549654E0,1.3779587E1,1.1537018E1,6.248779E-1,1.0799713E0,1.8039445E0,4.7902336E0,2.3070107E0,2.6935577E0,2.5565186E0,1.759552E0,1.335144E-2,3.854561E-2,1.3613701E-1,1.5664518E-1,5.185466E-1,4.845262E-1,1.3653378E0,2.2475557E0,6.6397E-1,1.5412865E0,9.59568E-1,8.1344604E-1,6.573601E-1,1.4000244E0,2.0007527E-1,1.3878479E0,0E0,0E0,2.4583817E-2,1.2163162E-2,1.0404968E-1,8.265495E-2,0E0,8.1057906E-2,2.4613261E-1,2.0998016E-1,3.7150708E-1,2.1705645E-1,7.4521387E-1,3.4812832E-1,3.9243484E-1,1.1220198E0,2.0569134E-1,4.49543E-1,1.3856907E0,6.4444923E-1,8.2328796E-1,1.4948118E-1,7.7484894E-1,5.1156044E-1,0E0,5.454216E-1,1.1448517E0,1.476841E-1,0E0,0E0,4.1805267E-1,2.1585083E-1,0E0,0E0,0E0,0E0,0E0,0E0,0E0,0E0,0E0,0E0,0E0,0E0,0E0,0E0,0E0,0E0,0E0,0E0,0E0,0E0,0E0,0E0,0E0,0E0,0E0,0E0,0E0,0E0,0E0,0E0,0E0,0E0,0E0,0E0,0E0,0E0,0E0,0E0,0E0,0E0,0E0,0E0,0E0,0E0,0E0,0E0,0E0,0E0,0E0,0E0,0E0,0E0],"parents":[2147483647,0,0,1,1,2,2,3,3,4,4,5,5,6,6,7,7,8,8,9,9,10,10,11,11,12,12,13,13,14,14,15,15,16,16,17,17,18,18,19,19,20,20,21,21,22,22,23,23,24,24,25,25,26,26,27,27,28,28,29,29,30,30,33,33,34,34,35,35,36,36,38,38,39,39,40,40,41,41,42,42,43,43,44,44,45,45,46,46,47,47,48,48,49,49,50,50,51,51,52,52,53,53,54,54,56,56,57,57,58,58,61,61,62,62],"right_children":[2,4,6,8,10,12,14,16,18,20,22,24,26,28,30,32,34,36,38,40,42,44,46,48,50,52,54,56,58,60,62,-1,-1,64,66,68,70,-1,72,74,76,78,80,82,84,86,88,90,92,94,96,98,100,102,104,-1,106,108,110,-1,-1,112,114,-1,-1,-1,-1,-1,-1,-1,-1,-1,-1,-1,-1,-1,-1,-1,-1,-1,-1,-1,-1,-1,-1,-1,-1,-1,-1,-1,-1,-1,-1,-1,-1,-1,-1,-1,-1,-1,-1,-1,-1,-1,-1,-1,-1,-1,-1,-1,-1,-1,-1,-1,-1],"split_conditions":[6.346144E4,7.0899994E1,1.253425E5,5.85684E3,3.7448402E4,3.252E2,4.914E2,1.185E1,1.0380942E3,3.3E2,1.6818769E6,2.37675E2,1.1238636E5,1.2233518E5,2.1418675E2,5.95E0,5.14E1,5.058726E4,8.957095E-2,2.37675E2,1.14103365E1,8.140827E4,5.8790793E4,9.985E2,1.6711648E6,2E-2,7.415E1,1.1828499E5,6E-2,2.72E1,1.8707183E5,-7.789045E-3,-7.3622423E-3,1.751E2,2.713552E4,7.195123E5,8.292375E1,2.7472859E-3,9.7500004E-2,2.7405E2,1.0093875E2,3.2435938E3,7.66E1,2.738E2,1.9614434E0,2.811E2,9.564974E1,1E0,1.6190089E6,6.47E1,9.42E1,1.02796875E2,9.36E1,1.5279054E2,2.786E2,5.3843367E-3,2.874E2,1.891624E2,2.0199E3,1.8696893E-2,7.570387E-3,1.59909E2,2.2186634E1,-6.8759555E-3,-4.529396E-3,-6.272744E-3,-4.881261E-3,-5.6224745E-3,-4.7583855E-3,-4.9080793E-3,-3.2162995E-3,-2.460106E-3,-4.765536E-3,-4.843987E-3,-2.5810322E-3,-1.5146405E-3,1.6978061E-3,-1.1022183E-3,1.085088E-3,1.0048048E-2,2.6234742E-3,-2.4286963E-3,1.3574484E-3,7.681984E-3,3.6403239E-3,5.5332626E-3,2.280874E-3,4.300043E-3,1.1352301E-2,2.0414381E-3,-5.136944E-3,4.2723324E-3,7.108447E-3,9.604934E-3,5.407461E-3,1.2182178E-2,8.598491E-3,7.338094E-3,1.2861214E-2,5.9980075E-3,-8.4698584E-4,1.1669897E-2,1.731117E-2,7.7248863E-3,1.4247288E-2,2.054718E-2,1.6251728E-2,1.7885856E-2,2.4103321E-2,8.005674E-3,1.561105E-2,2.0469783E-2,2.7814338E-2,3.3119593E-2,2.8926125E-2],"split_indices":[41,39,41,41,41,39,69,147,151,117,8,159,107,53,49,147,93,107,192,159,177,53,107,74,8,75,135,162,75,17,107,0,0,9,53,62,137,0,129,140,137,151,33,32,192,12,49,1,62,109,55,48,55,49,32,0,32,49,166,0,0,137,171,0,0,0,0,0,0,0,0,0,0,0,0,0,0,0,0,0,0,0,0,0,0,0,0,0,0,0,0,0,0,0,0,0,0,0,0,0,0,0,0,0,0,0,0,0,0,0,0,0,0,0,0],"split_type":[0,0,0,0,0,0,0,0,0,0,0,0,0,0,0,0,0,0,0,0,0,0,0,0,0,0,0,0,0,0,0,0,0,0,0,0,0,0,0,0,0,0,0,0,0,0,0,0,0,0,0,0,0,0,0,0,0,0,0,0,0,0,0,0,0,0,0,0,0,0,0,0,0,0,0,0,0,0,0,0,0,0,0,0,0,0,0,0,0,0,0,0,0,0,0,0,0,0,0,0,0,0,0,0,0,0,0,0,0,0,0,0,0,0,0],"sum_hessian":[2.4925E4,1.8875E4,6.05E3,1.3937E4,4.938E3,3.955E3,2.095E3,1.1509E4,2.428E3,2.332E3,2.606E3,2.14E3,1.815E3,1.323E3,7.72E2,9.957E3,1.552E3,1.896E3,5.32E2,1.432E3,9E2,1.924E3,6.82E2,6.98E2,1.442E3,8.85E2,9.3E2,3.78E2,9.45E2,2E1,7.52E2,9.414E3,5.43E2,1.153E3,3.99E2,1.586E3,3.1E2,1.3E1,5.19E2,1.227E3,2.05E2,7.76E2,1.24E2,1.684E3,2.4E2,3.76E2,3.06E2,5.4E1,6.44E2,8.1E2,6.32E2,8.48E2,3.7E1,7.27E2,2.03E2,1.1E1,3.67E2,9.1E2,3.5E1,1E1,1E1,3.35E2,4.17E2,1.134E3,1.9E1,3.61E2,3.8E1,9.28E2,6.58E2,1.56E2,1.54E2,4.77E2,4.2E1,1.36E2,1.091E3,1.16E2,8.9E1,4.05E2,3.71E2,1E1,1.14E2,1.41E2,1.543E3,8.3E1,1.57E2,1.76E2,2E2,7.7E1,2.29E2,4.2E1,1.2E1,2.17E2,4.27E2,4.54E2,3.56E2,4.38E2,1.94E2,7.9E1,7.69E2,2.6E1,1.1E1,7.7E1,6.5E2,4.2E1,1.61E2,1.79E2,1.88E2,9.8E1,8.12E2,1.5E1,2E1,3.6E1,2.99E2,2.91E2,1.26E2],"tree_param":{"num_deleted":"0","num_feature":"217","num_nodes":"115","size_leaf_vector":"1"}},{"base_weights":[-5.5130915E-4,-9.904666E-2,2.8267267E-1,-1.3834544E-1,-6.9542223E-4,1.8843606E-1,4.6146753E-1,-1.4596131E-1,-9.8201886E-2,-2.2226378E-2,7.827739E-2,1.3406524E-1,2.501519E-1,3.9794344E-1,5.450413E-1,-7.3901336E-3,-1.316936E-1,-1.08568534E-1,-7.097442E-2,-5.119669E-2,7.7048936E-3,4.7108565E-2,1.20670155E-1,1.1001445E-1,1.8781197E-1,1.8767013E-1,2.7540272E-1,3.426601E-1,4.3398657E-1,5.0006324E-1,6.228926E-1,-6.699905E-3,-1.17864884E-1,-1.1464416E-1,-9.8752245E-2,-4.9072657E-2,-8.5332476E-2,-6.78684E-2,-1.8643307E-2,-3.3429377E-2,2.1197487E-2,2.5879364E-2,7.176684E-2,5.3791877E-2,1.5189281E-1,1.5201588E-1,7.884877E-2,2.3398551E-1,1.5145712E-1,1.250201E-1,2.0715868E-1,3.144755E-1,2.4495019E-1,1.5159658E-1,3.523156E-1,3.2436284E-1,4.5498908E-1,4.583472E-1,5.351268E-1,3.136741E-2,2.1508466E-2,-5.20247E-3,-6.3442304E-3,-5.7865013E-3,-4.015896E-3,-5.0758696E-3,-3.4687226E-3,-3.549469E-3,2.7369434E-4,-4.44706E-3,-3.0601094E-3,-3.8192465E-3,-2.6446932E-3,-1.1619715E-3,6.3699917E-3,-1.7931104E-3,3.4753978E-3,1.5833406E-4,2.1040735E-3,7.724812E-4,3.8276885E-3,5.2605866E-4,4.6339855E-3,8.4939407E-4,6.081642E-3,1.6652836E-3,8.6882105E-3,9.971038E-3,5.0512506E-3,1.1041E-3,4.7972957E-3,6.5052505E-3,1.3090479E-2,9.666357E-3,5.051095E-3,7.138164E-3,1.2487957E-3,1.0837442E-2,5.363839E-3,2.0668073E-2,1.3528088E-2,1.0993711E-2,1.4543419E-2,1.1445322E-3,1.15303565E-2,7.202218E-3,1.800676E-2,8.594445E-3,1.7491562E-2,2.307134E-2,1.1665709E-2,2.3367852E-2,1.16595095E-2,2.4043141E-2,2.8548166E-2],"categories":[],"categories_nodes":[],"categories_segments":[],"categories_sizes":[],"default_left":[0,0,0,0,0,0,0,0,0,0,0,0,0,0,0,0,0,0,0,0,0,0,0,0,0,0,0,0,0,0,0,0,0,0,0,0,0,0,0,0,0,0,0,0,0,0,0,0,0,0,0,0,0,0,0,0,0,0,0,0,0,0,0,0,0,0,0,0,0,0,0,0,0,0,0,0,0,0,0,0,0,0,0,0,0,0,0,0,0,0,0,0,0,0,0,0,0,0,0,0,0,0,0,0,0,0,0,0,0,0,0,0,0,0,0],"id":1,"left_children":[1,3,5,7,9,11,13,15,17,19,21,23,25,27,29,-1,31,33,35,37,39,41,43,45,47,49,51,53,55,57,59,-1,61,63,65,67,69,71,73,75,77,79,81,83,85,87,89,91,93,95,97,99,101,103,105,107,109,111,113,-1,-1,-1,-1,-1,-1,-1,-1,-1,-1,-1,-1,-1,-1,-1,-1,-1,-1,-1,-1,-1,-1,-1,-1,-1,-1,-1,-1,-1,-1,-1,-1,-1,-1,-1,-1,-1,-1,-1,-1,-1,-1,-1,-1,-1,-1,-1,-1,-1,-1,-1,-1,-1,-1,-1,-1],"loss_changes":[6.95593E2,7.150781E1,1.0831964E2,4.0270844E0,8.984742E0,1.4110077E1,1.1568939E1,2.7238464E-1,5.881386E-1,3.6006699E0,1.4900641E0,2.8787575E0,3.0611572E0,2.3719025E0,3.0360107E0,0E0,2.4965286E-2,7.975006E-2,1.7977548E-1,1.1438746E0,1.1345899E0,3.404957E-1,9.920378E-1,2.0195847E0,1.1261749E0,6.712704E-1,1.5923462E0,8.763771E-1,1.6068268E0,6.4845276E-1,2.7252197E-2,0E0,1.05986595E-2,2.563095E-2,4.0966988E-2,2.8013122E-1,2.5208712E-2,1.738658E-1,4.8356307E-1,1.2895942E-1,5.79385E-1,1.8538514E-1,3.8583326E-1,3.8244373E-1,8.3974886E-1,1.5752182E0,8.6458206E-1,8.417225E-1,8.0404186E-1,2.4139833E-1,3.924694E-1,2.541401E0,8.4913635E-1,2.591185E-1,7.282219E-1,4.2915916E-1,8.013916E-1,4.7120285E-1,3.5940552E-1,0E0,0E0,0E0,0E0,0E0,0E0,0E0,0E0,0E0,0E0,0E0,0E0,0E0,0E0,0E0,0E0,0E0,0E0,0E0,0E0,0E0,0E0,0E0,0E0,0E0,0E0,0E0,0E0,0E0,0E0,0E0,0E0,0E0,0E0,0E0,0E0,0E0,0E0,0E0,0E0,0E0,0E0,0E0,0E0,0E0,0E0,0E0,0E0,0E0,0E0,0E0,0E0,0E0,0E0,0E0,0E0],"parents":[2147483647,0,0,1,1,2,2,3,3,4,4,5,5,6,6,7,7,8,8,9,9,10,10,11,11,12,12,13,13,14,14,16,16,17,17,18,18,19,19,20,20,21,21,22,22,23,23,24,24,25,25,26,26,27,27,28,28,29,29,30,30,32,32,33,33,34,34,35,35,36,36,37,37,38,38,39,39,40,40,41,41,42,42,43,43,44,44,45,45,46,46,47,47,48,48,49,49,50,50,51,51,52,52,53,53,54,54,55,55,56,56,57,57,58,58],"right_children":[2,4,6,8,10,12,14,16,18,20,22,24,26,28,30,-1,32,34,36,38,40,42,44,46,48,50,52,54,56,58,60,-1,62,64,66,68,70,72,74,76,78,80,82,84,86,88,90,92,94,96,98,100,102,104,106,108,110,112,114,-1,-1,-1,-1,-1,-1,-1,-1,-1,-1,-1,-1,-1,-1,-1,-1,-1,-1,-1,-1,-1,-1,-1,-1,-1,-1,-1,-1,-1,-1,-1,-1,-1,-1,-1,-1,-1,-1,-1,-1,-1,-1,-1,-1,-1,-1,-1,-1,-1,-1,-1,-1,-1,-1,-1,-1],"split_conditions":[2.4082501E2,3.995136E2,4.6072498E2,2.748612E2,3.1654688E3,9.632822E4,5.473E2,9.65E0,3.16427E4,1.3E2,1.72E2,1.8664442E6,2.8940002E2,4.342E2,5.464E2,-7.3901336E-3,2.62E1,5.305E1,1E0,1.3962856E3,2.8950625E4,4.366086E3,4.1686477E4,1E0,9.25E1,2.049E2,1E0,9.632563E4,1.0564E5,5.04375E2,5.5325E1,-6.699905E-3,1E0,1.7933E1,1E0,9.659258E-1,6.1531184E4,1.4849999E1,6.2846242E4,8.71E1,3.333392E5,2.4918213E0,6.6311455E1,1.1618955E0,1.7221148E6,6.2225E1,2.763E2,2.252E2,7.7E0,1.0488246E1,2.2174567E-1,3.03E1,1.1932608E5,1.7078249E-1,1.586245E2,4.858E2,1.0000002E-2,2.7E0,1.2396244E0,3.136741E-2,2.1508466E-2,-5.20247E-3,-6.3442304E-3,-5.7865013E-3,-4.015896E-3,-5.0758696E-3,-3.4687226E-3,-3.549469E-3,2.7369434E-4,-4.44706E-3,-3.0601094E-3,-3.8192465E-3,-2.6446932E-3,-1.1619715E-3,6.3699917E-3,-1.7931104E-3,3.4753978E-3,1.5833406E-4,2.1040735E-3,7.724812E-4,3.8276885E-3,5.2605866E-4,4.6339855E-3,8.4939407E-4,6.081642E-3,1.6652836E-3,8.6882105E-3,9.971038E-3,5.0512506E-3,1.1041E-3,4.7972957E-3,6.5052505E-3,1.3090479E-2,9.666357E-3,5.051095E-3,7.138164E-3,1.2487957E-3,1.0837442E-2,5.363839E-3,2.0668073E-2,1.3528088E-2,1.0993711E-2,1.4543419E-2,1.1445322E-3,1.15303565E-2,7.202218E-3,1.800676E-2,8.594445E-3,1.7491562E-2,2.307134E-2,1.1665709E-2,2.3367852E-2,1.16595095E-2,2.4043141E-2,2.8548166E-2],"split_indices":[147,43,147,97,43,149,51,147,95,147,51,116,51,51,69,0,69,147,0,43,161,43,162,0,55,51,0,161,54,160,163,0,0,84,46,46,161,123,161,81,70,214,48,189,62,163,140,51,59,214,190,55,149,197,49,51,183,36,195,0,0,0,0,0,0,0,0,0,0,0,0,0,0,0,0,0,0,0,0,0,0,0,0,0,0,0,0,0,0,0,0,0,0,0,0,0,0,0,0,0,0,0,0,0,0,0,0,0,0,0,0,0,0,0,0],"split_type":[0,0,0,0,0,0,0,0,0,0,0,0,0,0,0,0,0,0,0,0,0,0,0,0,0,0,0,0,0,0,0,0,0,0,0,0,0,0,0,0,0,0,0,0,0,0,0,0,0,0,0,0,0,0,0,0,0,0,0,0,0,0,0,0,0,0,0,0,0,0,0,0,0,0,0,0,0,0,0,0,0,0,0,0,0,0,0,0,0,0,0,0,0,0,0,0,0,0,0,0,0,0,0,0,0,0,0,0,0,0,0,0,0,0,0],"sum_hessian":[2.4933E4,1.85E4,6.433E3,1.3218E4,5.282E3,4.214E3,2.219E3,1.1108E4,2.11E3,4.151E3,1.131E3,2.242E3,1.972E3,1.264E3,9.55E2,9.83E3,1.278E3,1.526E3,5.84E2,2.109E3,2.042E3,6.53E2,4.78E2,1.551E3,6.91E2,5.7E2,1.402E3,5.03E2,7.61E2,6.1E2,3.45E2,1.088E3,1.9E2,9.36E2,5.9E2,2.33E2,3.51E2,1.394E3,7.15E2,5.04E2,1.538E3,3.52E2,3.01E2,1.53E2,3.25E2,6.59E2,8.92E2,3.02E2,3.89E2,1.37E2,4.33E2,6.1E2,7.92E2,2.5E1,4.78E2,1.25E2,6.36E2,2.85E2,3.25E2,3.35E2,1E1,8E1,1.1E2,9.05E2,3.1E1,5.37E2,5.3E1,1.66E2,6.7E1,3.03E2,4.8E1,8.86E2,5.08E2,6.94E2,2.1E1,4.93E2,1.1E1,8.26E2,7.12E2,2.93E2,5.9E1,7.7E1,2.24E2,1E2,5.3E1,5.1E1,2.74E2,3.4E2,3.19E2,2.07E2,6.85E2,6.5E1,2.37E2,2.11E2,1.78E2,1.16E2,2.1E1,3.94E2,3.9E1,1.85E2,4.25E2,5.16E2,2.76E2,1E1,1.5E1,1.8E1,4.6E2,1.9E1,1.06E2,6.17E2,1.9E1,2.73E2,1.2E1,1.35E2,1.9E2],"tree_param":{"num_deleted":"0","num_feature":"217","num_nodes":"115","size_leaf_vector":"1"}},{"base_weights":[-3.28131E-4,-8.9828625E-2,2.8538042E-1,-1.2795757E-1,1.7330214E-2,1.9063339E-1,4.3252987E-1,-1.3841785E-1,-8.4187E-2,-2.4828473E-2,5.04756E-2,1.4952019E-1,2.4432789E-1,3.7257373E-1,5.200763E-1,-1.4031358E-1,-1.24123245E-1,-9.3424074E-2,-3.6407355E-2,-4.5537546E-2,7.3930896E-3,2.6880734E-2,1.0868391E-1,7.748379E-2,1.6453339E-1,2.1223752E-1,2.892144E-1,3.0878362E-1,3.9913073E-1,4.832247E-1,5.868851E-1,-7.035039E-3,-6.746327E-3,-6.3079135E-3,-1.1562144E-1,-9.662283E-2,-6.418147E-2,-2.8860169E-2,-8.207709E-2,-5.3169742E-2,1.5127754E-3,8.672757E-3,3.8469243E-3,1.7001083E-2,9.0960264E-2,6.6987194E-2,1.4771378E-1,-3.3624712E-3,8.271291E-2,1.9423395E-1,1.3946126E-1,6.6738605E-2,2.184235E-1,2.9474607E-1,3.8847611E-3,2.1077536E-1,3.2582292E-1,3.4774372E-1,4.2452642E-1,4.8738676E-1,1.0500143E-2,3.0457681E-2,2.5910914E-2,-5.3115455E-3,-6.0613025E-3,-5.0991545E-3,-4.2828512E-3,-1.7087528E-3,-4.029739E-3,4.452712E-3,-1.6143866E-3,-4.7931373E-3,-3.2088482E-3,-4.5302813E-3,-2.4764265E-3,-1.5771209E-3,2.9489072E-3,1.8350221E-3,-2.9999504E-4,-8.817282E-4,1.3504878E-3,6.639227E-3,2.7571442E-3,3.9558844E-3,-7.2673625E-5,5.4763346E-3,1.0954216E-2,-3.6354796E-3,4.3784715E-3,1.2374786E-2,7.955265E-3,5.74063E-3,1.0251444E-2,7.0135365E-3,4.743548E-4,1.2257753E-2,9.503813E-3,1.38710765E-2,1.7524468E-2,6.186885E-3,1.3547254E-2,2.0910416E-2,1.5224114E-2,1.3980235E-2,1.9128637E-2,1.5467058E-2,2.1818087E-2,2.5167564E-2,2.0541262E-2],"categories":[],"categories_nodes":[],"categories_segments":[],"categories_sizes":[],"default_left":[0,0,0,0,0,0,0,0,0,0,0,0,0,0,0,0,0,0,0,0,0,0,0,0,0,0,0,0,0,0,0,0,0,0,0,0,0,0,0,0,0,0,0,0,0,0,0,0,0,0,0,0,0,0,0,0,0,0,0,0,0,0,0,0,0,0,0,0,0,0,0,0,0,0,0,0,0,0,0,0,0,0,0,0,0,0,0,0,0,0,0,0,0,0,0,0,0,0,0,0,0,0,0,0,0,0,0,0,0],"id":2,"left_children":[1,3,5,7,9,11,13,15,17,19,21,23,25,27,29,31,33,35,37,39,41,43,45,47,49,51,53,55,57,59,61,-1,-1,-1,63,65,67,69,71,73,75,-1,77,79,81,83,85,-1,87,89,91,93,95,97,-1,99,101,103,105,107,-1,-1,-1,-1,-1,-1,-1,-1,-1,-1,-1,-1,-1,-1,-1,-1,-1,-1,-1,-1,-1,-1,-1,-1,-1,-1,-1,-1,-1,-1,-1,-1,-1,-1,-1,-1,-1,-1,-1,-1,-1,-1,-1,-1,-1,-1,-1,-1,-1],"loss_changes":[6.3955774E2,7.781729E1,8.30954E1,6.4198E0,6.986686E0,7.9790955E0,1.2067749E1,2.897644E-1,1.1935253E0,1.4690174E0,3.8412724E0,2.2140503E0,2.2044144E0,2.2315216E0,2.0479126E0,1.876831E-3,8.525848E-3,2.0631981E-1,1.4963418E-1,4.812708E-1,5.0695026E-1,1.2601889E0,1.3034306E0,2.7575016E-1,1.2410583E0,8.143692E-1,7.411461E-1,6.210327E-1,1.1286621E0,5.981293E-1,1.9199371E-1,0E0,0E0,0E0,1.3325214E-3,1.115284E-1,1.09044194E-1,1.5645579E-1,9.147227E-3,1.5267992E-1,3.5897174E-1,0E0,2.7358013E-1,5.9949934E-1,3.9115548E-1,3.255608E-1,1.1097851E0,0E0,2.6677775E-1,1.414402E0,1.4746342E0,1.6285242E-1,6.225052E-1,5.169678E-1,0E0,3.0164385E-1,5.627098E-1,6.738205E-1,7.5112915E-1,5.33905E-1,0E0,0E0,0E0,0E0,0E0,0E0,0E0,0E0,0E0,0E0,0E0,0E0,0E0,0E0,0E0,0E0,0E0,0E0,0E0,0E0,0E0,0E0,0E0,0E0,0E0,0E0,0E0,0E0,0E0,0E0,0E0,0E0,0E0,0E0,0E0,0E0,0E0,0E0,0E0,0E0,0E0,0E0,0E0,0E0,0E0,0E0,0E0,0E0,0E0],"parents":[2147483647,0,0,1,1,2,2,3,3,4,4,5,5,6,6,7,7,8,8,9,9,10,10,11,11,12,12,13,13,14,14,15,15,16,16,17,17,18,18,19,19,20,20,21,21,22,22,23,23,24,24,25,25,26,26,27,27,28,28,29,29,30,30,34,34,35,35,36,36,37,37,38,38,39,39,40,40,42,42,43,43,44,44,45,45,46,46,48,48,49,49,50,50,51,51,52,52,53,53,55,55,56,56,57,57,58,58,59,59],"right_children":[2,4,6,8,10,12,14,16,18,20,22,24,26,28,30,32,34,36,38,40,42,44,46,48,50,52,54,56,58,60,62,-1,-1,-1,64,66,68,70,72,74,76,-1,78,80,82,84,86,-1,88,90,92,94,96,98,-1,100,102,104,106,108,-1,-1,-1,-1,-1,-1,-1,-1,-1,-1,-1,-1,-1,-1,-1,-1,-1,-1,-1,-1,-1,-1,-1,-1,-1,-1,-1,-1,-1,-1,-1,-1,-1,-1,-1,-1,-1,-1,-1,-1,-1,-1,-1,-1,-1,-1,-1,-1,-1],"split_conditions":[6.417513E4,7.0899994E1,4.255E2,1.63E1,1.293E2,3.252E2,4.242E2,3.6676125E1,8.8102026E2,2.0887749E1,4.997E2,5.043808E4,1.1082867E5,1.160906E5,6.339E2,3.8E0,5.252186E3,1.311E2,1E-1,7.5669086E4,8.815E1,2.84E2,5.8790793E4,1.8E0,1E0,9.972E2,4.04865E2,7.324E2,9.991E2,1E-2,9.653124E4,-7.035039E-3,-6.746327E-3,-6.3079135E-3,1E0,7.7750476E2,1.5429167E2,8.957095E-2,1.1367E3,2.73425E2,1.0093875E2,8.672757E-3,9.62E1,3.297443E4,1E0,1.25E-2,9.535E2,-3.3624712E-3,9.91E2,5.7E1,2.1100708E6,1.7208E3,7.4995E1,1.136048E6,3.8847611E-3,2.78625E2,2.8075E2,6.575E0,2.20276E4,2.3911295E1,1.0500143E-2,3.0457681E-2,2.5910914E-2,-5.3115455E-3,-6.0613025E-3,-5.0991545E-3,-4.2828512E-3,-1.7087528E-3,-4.029739E-3,4.452712E-3,-1.6143866E-3,-4.7931373E-3,-3.2088482E-3,-4.5302813E-3,-2.4764265E-3,-1.5771209E-3,2.9489072E-3,1.8350221E-3,-2.9999504E-4,-8.817282E-4,1.3504878E-3,6.639227E-3,2.7571442E-3,3.9558844E-3,-7.2673625E-5,5.4763346E-3,1.0954216E-2,-3.6354796E-3,4.3784715E-3,1.2374786E-2,7.955265E-3,5.74063E-3,1.0251444E-2,7.0135365E-3,4.743548E-4,1.2257753E-2,9.503813E-3,1.38710765E-2,1.7524468E-2,6.186885E-3,1.3547254E-2,2.0910416E-2,1.5224114E-2,1.3980235E-2,1.9128637E-2,1.5467058E-2,2.1818087E-2,2.5167564E-2,2.0541262E-2],"split_indices":[41,39,39,39,39,39,15,205,43,138,63,53,161,53,51,147,203,51,75,107,141,51,107,171,0,128,150,166,77,75,170,0,0,0,0,97,102,192,61,140,137,0,55,161,0,129,165,0,128,55,116,112,50,70,0,140,140,113,142,171,0,0,0,0,0,0,0,0,0,0,0,0,0,0,0,0,0,0,0,0,0,0,0,0,0,0,0,0,0,0,0,0,0,0,0,0,0,0,0,0,0,0,0,0,0,0,0,0,0],"split_type":[0,0,0,0,0,0,0,0,0,0,0,0,0,0,0,0,0,0,0,0,0,0,0,0,0,0,0,0,0,0,0,0,0,0,0,0,0,0,0,0,0,0,0,0,0,0,0,0,0,0,0,0,0,0,0,0,0,0,0,0,0,0,0,0,0,0,0,0,0,0,0,0,0,0,0,0,0,0,0,0,0,0,0,0,0,0,0,0,0,0,0,0,0,0,0,0,0,0,0,0,0,0,0,0,0,0,0,0,0],"sum_hessian":[2.5009E4,1.9044E4,5.965E3,1.4046E4,4.998E3,3.63E3,2.335E3,1.1335E4,2.711E3,2.2E3,2.798E3,2.058E3,1.572E3,1.389E3,9.46E2,1E4,1.335E3,2.271E3,4.4E2,1.339E3,8.61E2,1.992E3,8.06E2,3.56E2,1.702E3,9.2E2,6.52E2,4.12E2,9.77E2,6.15E2,3.31E2,9.306E3,6.94E2,1.066E3,2.69E2,2.045E3,2.26E2,3.79E2,6.1E1,1.152E3,1.87E2,1.7E1,8.44E2,1.727E3,2.65E2,3.91E2,4.15E2,1.2E1,3.44E2,7.76E2,9.26E2,3.8E1,8.82E2,6.35E2,1.7E1,6.3E1,3.49E2,3.28E2,6.49E2,6.05E2,1E1,2.44E2,8.7E1,1.08E2,1.61E2,1.368E3,6.77E2,8.1E1,1.45E2,1E1,3.69E2,3.2E1,2.9E1,1E2,1.052E3,1.19E2,6.8E1,1.94E2,6.5E2,3.87E2,1.34E3,1.21E2,1.44E2,3.32E2,5.9E1,2.72E2,1.43E2,1E1,3.34E2,3.06E2,4.7E2,6.75E2,2.51E2,1.6E1,2.2E1,4.5E2,4.32E2,4.89E2,1.46E2,2.7E1,3.6E1,6.2E1,2.87E2,1.14E2,2.14E2,6.3E1,5.86E2,4.96E2,1.09E2],"tree_param":{"num_deleted":"0","num_feature":"217","num_nodes":"109","size_leaf_vector":"1"}},{"base_weights":[-1.0447259E-4,-8.823841E-2,2.5617555E-1,-1.240089E-1,3.3113894E-3,1.6694488E-1,4.0339798E-1,-1.3152711E-1,-8.571771E-2,-2.0083921E-2,6.446554E-2,1.2507105E-1,2.2048679E-1,3.5371208E-1,5.076535E-1,-6.6712983E-3,-1.186599E-1,-9.305963E-2,-4.532248E-2,-4.365586E-2,1.2029175E-2,3.963271E-2,1.0680779E-1,7.2532676E-2,1.456399E-1,1.74517E-1,2.4668638E-1,2.6043814E-1,3.7840664E-1,4.7373033E-1,5.633294E-1,-1.19145125E-1,-3.4044373E-3,-9.8027885E-2,-7.328289E-2,-1.3295489E-2,-6.527543E-2,-5.83389E-2,-1.4592442E-2,-3.1329248E-2,2.4998598E-2,3.5386886E-2,2.0901515E-1,7.583084E-2,1.8953176E-1,7.979231E-2,-3.3350185E-2,1.2700626E-1,1.9611941E-1,1.8193237E-1,6.836768E-2,2.8302994E-1,2.181723E-1,1.3154419E-1,2.8294134E-1,3.8611263E-1,2.1745229E-1,1.2725796E-2,4.816178E-1,2.5804356E-2,2.9509598E-2,-6.1242483E-3,-5.6912927E-3,-5.3136214E-3,-4.6147206E-3,-4.3270844E-3,-2.7941787E-3,-1.7556917E-3,3.2327857E-3,-4.461282E-3,-3.0206942E-3,-3.039451E-3,4.7914303E-4,1.028885E-3,-1.5422184E-3,-9.962386E-4,-2.6362066E-3,2.635241E-3,1.6640696E-4,3.0016878E-3,5.1057327E-4,5.592738E-3,1.4800346E-2,6.4225467E-3,2.378246E-3,8.335556E-3,2.1333316E-2,2.2113884E-3,5.289224E-3,-2.6895131E-3,1.0264595E-3,8.339035E-3,4.806291E-3,8.711754E-3,1.4262445E-2,9.377269E-3,2.063847E-3,5.7607386E-3,1.3239897E-3,1.579887E-2,1.0363754E-2,1.133369E-2,5.458049E-3,4.1178777E-3,1.4636769E-2,1.4963326E-2,9.334203E-3,2.1263367E-2,1.7811885E-2,6.067711E-3,1.3068477E-2,2.0246165E-2,2.502893E-2],"categories":[],"categories_nodes":[],"categories_segments":[],"categories_sizes":[],"default_left":[0,0,0,0,0,0,0,0,0,0,0,0,0,0,0,0,0,0,0,0,0,0,0,0,0,0,0,0,0,0,0,0,0,0,0,0,0,0,0,0,0,0,0,0,0,0,0,0,0,0,0,0,0,0,0,0,0,0,0,0,0,0,0,0,0,0,0,0,0,0,0,0,0,0,0,0,0,0,0,0,0,0,0,0,0,0,0,0,0,0,0,0,0,0,0,0,0,0,0,0,0,0,0,0,0,0,0,0,0,0,0,0,0],"id":3,"left_children":[1,3,5,7,9,11,13,15,17,19,21,23,25,27,29,-1,31,33,35,37,39,41,43,45,47,49,51,53,55,57,59,61,-1,63,65,67,69,71,73,75,77,79,81,83,85,87,89,91,93,95,97,99,101,103,105,107,109,-1,111,-1,-1,-1,-1,-1,-1,-1,-1,-1,-1,-1,-1,-1,-1,-1,-1,-1,-1,-1,-1,-1,-1,-1,-1,-1,-1,-1,-1,-1,-1,-1,-1,-1,-1,-1,-1,-1,-1,-1,-1,-1,-1,-1,-1,-1,-1,-1,-1,-1,-1,-1,-1,-1,-1],"loss_changes":[5.6128613E2,6.0554413E1,8.34693E1,3.8163757E0,7.4353166E0,8.853012E0,1.2247314E1,2.5567627E-1,6.4380836E-1,2.8459673E0,1.5077925E0,2.3938942E0,2.0489655E0,3.6513062E0,1.1912079E0,0E0,2.7173996E-2,1.743927E-1,2.1512526E-1,9.2431974E-1,8.960185E-1,6.456082E-1,1.346334E0,4.853866E-1,1.4781952E0,4.866066E-1,1.0823288E0,9.6056175E-1,1.5098419E0,7.177429E-1,5.9631348E-2,1.1339188E-2,0E0,5.986786E-2,8.16741E-2,2.2507069E-1,1.8828034E-2,2.4022245E-1,4.1731834E-1,8.8496506E-2,7.359229E-1,5.497663E-1,1.5283763E-1,5.709841E-1,7.081351E-1,5.388682E-1,4.625752E-2,1.4210262E0,7.870827E-1,4.596424E-1,8.132912E-2,1.1375465E0,5.5262375E-1,3.960988E-1,4.0298653E-1,1.2814331E0,2.2572374E-1,0E0,4.7785187E-1,0E0,0E0,0E0,0E0,0E0,0E0,0E0,0E0,0E0,0E0,0E0,0E0,0E0,0E0,0E0,0E0,0E0,0E0,0E0,0E0,0E0,0E0,0E0,0E0,0E0,0E0,0E0,0E0,0E0,0E0,0E0,0E0,0E0,0E0,0E0,0E0,0E0,0E0,0E0,0E0,0E0,0E0,0E0,0E0,0E0,0E0,0E0,0E0,0E0,0E0,0E0,0E0,0E0,0E0],"parents":[2147483647,0,0,1,1,2,2,3,3,4,4,5,5,6,6,7,7,8,8,9,9,10,10,11,11,12,12,13,13,14,14,16,16,17,17,18,18,19,19,20,20,21,21,22,22,23,23,24,24,25,25,26,26,27,27,28,28,29,29,30,30,31,31,33,33,34,34,35,35,36,36,37,37,38,38,39,39,40,40,41,41,42,42,43,43,44,44,45,45,46,46,47,47,48,48,49,49,50,50,51,51,52,52,53,53,54,54,55,55,56,56,58,58],"right_children":[2,4,6,8,10,12,14,16,18,20,22,24,26,28,30,-1,32,34,36,38,40,42,44,46,48,50,52,54,56,58,60,62,-1,64,66,68,70,72,74,76,78,80,82,84,86,88,90,92,94,96,98,100,102,104,106,108,110,-1,112,-1,-1,-1,-1,-1,-1,-1,-1,-1,-1,-1,-1,-1,-1,-1,-1,-1,-1,-1,-1,-1,-1,-1,-1,-1,-1,-1,-1,-1,-1,-1,-1,-1,-1,-1,-1,-1,-1,-1,-1,-1,-1,-1,-1,-1,-1,-1,-1,-1,-1,-1,-1,-1,-1],"split_conditions":[6.866496E4,4.4969757E2,1.27231266E5,2.3675E1,3.2435938E3,9.632822E4,4.914E2,2.9182695E1,2.956347E4,4.0558117E4,4.640918E3,6.2255938E4,3.5890002E2,3.791E2,1.8896672E5,-6.6712983E-3,1.38E2,2.96672E4,1E0,1.4165204E3,2.9568201E4,1.0186E3,2.511E2,1.5000001E-2,5.4857845E0,2.581989E-1,1E0,1.80865E2,7.5E-3,2.1418675E2,1.8565769E6,7.980977E1,-3.4044373E-3,1.303679E2,9.0838E1,1.915E2,2.75E2,2.694E2,9.93E1,2.83E2,1E0,9.99E1,2.77225E2,7.455E1,3E-1,1.534708E6,4.1499996E0,1E0,1.7978E3,1.4999999E-2,2.63439E0,7.7875E1,2.4991388E1,6.1967726E0,2.4999999E-1,1E0,1.3738E3,1.2725796E-2,5.66964E0,2.5804356E-2,2.9509598E-2,-6.1242483E-3,-5.6912927E-3,-5.3136214E-3,-4.6147206E-3,-4.3270844E-3,-2.7941787E-3,-1.7556917E-3,3.2327857E-3,-4.461282E-3,-3.0206942E-3,-3.039451E-3,4.7914303E-4,1.028885E-3,-1.5422184E-3,-9.962386E-4,-2.6362066E-3,2.635241E-3,1.6640696E-4,3.0016878E-3,5.1057327E-4,5.592738E-3,1.4800346E-2,6.4225467E-3,2.378246E-3,8.335556E-3,2.1333316E-2,2.2113884E-3,5.289224E-3,-2.6895131E-3,1.0264595E-3,8.339035E-3,4.806291E-3,8.711754E-3,1.4262445E-2,9.377269E-3,2.063847E-3,5.7607386E-3,1.3239897E-3,1.579887E-2,1.0363754E-2,1.133369E-2,5.458049E-3,4.1178777E-3,1.4636769E-2,1.4963326E-2,9.334203E-3,2.1263367E-2,1.7811885E-2,6.067711E-3,1.3068477E-2,2.0246165E-2,2.502893E-2],"split_indices":[149,43,149,121,151,149,69,205,149,149,43,161,105,51,53,0,159,53,0,43,161,77,105,129,191,190,0,137,129,103,16,151,0,43,83,51,86,105,109,12,0,141,140,135,31,62,144,0,57,129,214,163,2,213,198,0,112,0,191,0,0,0,0,0,0,0,0,0,0,0,0,0,0,0,0,0,0,0,0,0,0,0,0,0,0,0,0,0,0,0,0,0,0,0,0,0,0,0,0,0,0,0,0,0,0,0,0,0,0,0,0,0,0],"split_type":[0,0,0,0,0,0,0,0,0,0,0,0,0,0,0,0,0,0,0,0,0,0,0,0,0,0,0,0,0,0,0,0,0,0,0,0,0,0,0,0,0,0,0,0,0,0,0,0,0,0,0,0,0,0,0,0,0,0,0,0,0,0,0,0,0,0,0,0,0,0,0,0,0,0,0,0,0,0,0,0,0,0,0,0,0,0,0,0,0,0,0,0,0,0,0,0,0,0,0,0,0,0,0,0,0,0,0,0,0,0,0,0,0],"sum_hessian":[2.4848E4,1.849E4,6.358E3,1.3295E4,5.195E3,3.96E3,2.398E3,1.1111E4,2.184E3,3.758E3,1.437E3,2.224E3,1.736E3,1.627E3,7.71E2,9.674E3,1.437E3,1.847E3,3.37E2,2.167E3,1.591E3,9.07E2,5.3E2,6.27E2,1.597E3,6.33E2,1.103E3,3.43E2,1.284E3,4.85E2,2.86E2,1.422E3,1.5E1,1.473E3,3.74E2,1.3E2,2.07E2,1.439E3,7.28E2,3.66E2,1.225E3,8.86E2,2.1E1,3.87E2,1.43E2,5.87E2,4E1,1.169E3,4.28E2,5.91E2,4.2E1,4.81E2,6.22E2,5.2E1,2.91E2,1.224E3,6E1,1.8E1,4.67E2,1.11E2,1.75E2,8.6E2,5.62E2,5.97E2,8.76E2,2.1E2,1.64E2,1.02E2,2.8E1,3.2E1,1.75E2,1.389E3,5E1,2.3E2,4.98E2,2.4E2,1.26E2,5.37E2,6.88E2,4.47E2,4.39E2,1.1E1,1E1,1.34E2,2.53E2,1.32E2,1.1E1,2.49E2,3.38E2,2.9E1,1.1E1,5.09E2,6.6E2,3.46E2,8.2E1,5.68E2,2.3E1,1.9E1,2.3E1,3.33E2,1.48E2,5.76E2,4.6E1,4.1E1,1.1E1,2.47E2,4.4E1,5.24E2,7E2,2E1,4E1,9.7E1,3.7E2],"tree_param":{"num_deleted":"0","num_feature":"217","num_nodes":"113","size_leaf_vector":"1"}},{"base_weights":[-9.139466E-4,-8.434863E-2,2.4709338E-1,-1.1830556E-1,3.6523624E-3,1.6465858E-1,3.8688043E-1,-1.24865554E-1,-8.245926E-2,-1.9366441E-2,5.0676275E-2,1.2182319E-1,2.1691184E-1,3.2715443E-1,4.6604577E-1,-1.265939E-1,-1.1075647E-1,-8.497887E-2,-9.040578E-3,-4.0305577E-2,1.4567669E-2,2.8516503E-2,8.8841975E-2,1.0747764E-1,2.0441163E-1,1.591498E-1,2.4003701E-1,2.8254038E-1,3.65455E-1,4.3138382E-1,5.2886975E-1,-6.350022E-3,-6.075245E-3,-5.651094E-3,-9.2524074E-2,-9.3903445E-2,-7.5586535E-2,-5.5179197E-2,2.9048558E-2,-5.2725364E-2,-1.4374676E-2,5.6054303E-4,5.4708906E-2,4.2616427E-2,-4.0118385E-4,2.6309928E-2,1.2812112E-1,4.8383236E-2,1.21919535E-1,2.9639947E-1,1.598072E-1,1.0100442E-1,1.7821644E-1,1.7861165E-1,2.5062302E-1,2.9022497E-1,1.3322729E-1,1.5425193E-1,3.719939E-1,4.542346E-1,3.6826944E-1,5.3323907E-1,1.7306775E-2,-4.8131365E-3,-3.311015E-3,-4.83599E-3,-3.196715E-3,-3.9073112E-3,-2.200525E-3,-3.867841E-3,-1.6816165E-3,3.693333E-3,-1.1008052E-3,-3.0515394E-3,-1.7482592E-3,1.1188299E-3,-1.8554177E-3,-1.5117892E-3,6.3345983E-4,2.974529E-4,4.1320124E-3,1.3180169E-3,3.6666268E-3,2.0231623E-3,-5.3981855E-4,2.2405745E-3,-4.409704E-3,4.6507767E-3,9.59612E-3,-3.0090949E-3,2.6937712E-3,6.46498E-3,4.505546E-4,1.591816E-2,4.1880417E-3,1.0462493E-2,5.579321E-3,1.6353844E-3,6.0788915E-3,1.1992785E-3,9.311154E-3,7.375413E-3,1.2886022E-2,1.4288898E-2,1.1805725E-2,1.4808386E-2,5.376712E-3,9.774117E-4,1.0022866E-2,2.5442496E-3,1.2238228E-2,1.880886E-2,5.2668075E-3,1.2565198E-2,2.3064768E-2,8.310907E-3,1.9032855E-2,2.6870856E-2,1.8730164E-2],"categories":[],"categories_nodes":[],"categories_segments":[],"categories_sizes":[],"default_left":[0,0,0,0,0,0,0,0,0,0,0,0,0,0,0,0,0,0,0,0,0,0,0,0,0,0,0,0,0,0,0,0,0,0,0,0,0,0,0,0,0,0,0,0,0,0,0,0,0,0,0,0,0,0,0,0,0,0,0,0,0,0,0,0,0,0,0,0,0,0,0,0,0,0,0,0,0,0,0,0,0,0,0,0,0,0,0,0,0,0,0,0,0,0,0,0,0,0,0,0,0,0,0,0,0,0,0,0,0,0,0,0,0,0,0,0,0,0,0],"id":4,"left_children":[1,3,5,7,9,11,13,15,17,19,21,23,25,27,29,31,33,35,37,39,41,43,45,47,49,51,53,55,57,59,61,-1,-1,-1,63,65,67,69,71,73,75,77,79,81,83,85,87,89,91,93,95,97,99,101,103,105,107,109,111,113,115,117,-1,-1,-1,-1,-1,-1,-1,-1,-1,-1,-1,-1,-1,-1,-1,-1,-1,-1,-1,-1,-1,-1,-1,-1,-1,-1,-1,-1,-1,-1,-1,-1,-1,-1,-1,-1,-1,-1,-1,-1,-1,-1,-1,-1,-1,-1,-1,-1,-1,-1,-1,-1,-1,-1,-1,-1,-1],"loss_changes":[5.135858E2,5.5498077E1,7.193402E1,3.1409912E0,5.599331E0,8.7745285E0,1.0802826E1,2.6216125E-1,3.8326263E-1,2.4683304E0,1.4352303E0,2.540699E0,2.326088E0,2.159134E0,1.9363861E0,5.432129E-3,4.0925026E-2,1.6113377E-1,1.24619484E-1,6.9101906E-1,7.455305E-1,4.3914998E-1,1.5293007E0,1.5686893E0,1.2615108E0,5.462961E-1,7.758484E-1,6.681404E-1,9.217758E-1,7.6438904E-1,9.4078064E-2,0E0,0E0,0E0,7.688284E-3,8.032894E-2,7.601166E-2,1.2689769E-2,9.088247E-2,2.1204424E-1,5.83168E-1,3.6731863E-1,4.6664965E-1,3.5957742E-1,1.508137E-1,5.166297E-1,8.399849E-1,2.2028106E-1,1.2337418E0,4.5437813E-1,4.940138E-1,1.7587578E-1,4.6725273E-1,4.2702866E-1,4.8031616E-1,6.032791E-1,2.4064606E-1,2.027334E-1,7.267227E-1,5.5750275E-1,3.797474E-1,2.3361206E-2,0E0,0E0,0E0,0E0,0E0,0E0,0E0,0E0,0E0,0E0,0E0,0E0,0E0,0E0,0E0,0E0,0E0,0E0,0E0,0E0,0E0,0E0,0E0,0E0,0E0,0E0,0E0,0E0,0E0,0E0,0E0,0E0,0E0,0E0,0E0,0E0,0E0,0E0,0E0,0E0,0E0,0E0,0E0,0E0,0E0,0E0,0E0,0E0,0E0,0E0,0E0,0E0,0E0,0E0,0E0,0E0,0E0],"parents":[2147483647,0,0,1,1,2,2,3,3,4,4,5,5,6,6,7,7,8,8,9,9,10,10,11,11,12,12,13,13,14,14,15,15,16,16,17,17,18,18,19,19,20,20,21,21,22,22,23,23,24,24,25,25,26,26,27,27,28,28,29,29,30,30,34,34,35,35,36,36,37,37,38,38,39,39,40,40,41,41,42,42,43,43,44,44,45,45,46,46,47,47,48,48,49,49,50,50,51,51,52,52,53,53,54,54,55,55,56,56,57,57,58,58,59,59,60,60,61,61],"right_children":[2,4,6,8,10,12,14,16,18,20,22,24,26,28,30,32,34,36,38,40,42,44,46,48,50,52,54,56,58,60,62,-1,-1,-1,64,66,68,70,72,74,76,78,80,82,84,86,88,90,92,94,96,98,100,102,104,106,108,110,112,114,116,118,-1,-1,-1,-1,-1,-1,-1,-1,-1,-1,-1,-1,-1,-1,-1,-1,-1,-1,-1,-1,-1,-1,-1,-1,-1,-1,-1,-1,-1,-1,-1,-1,-1,-1,-1,-1,-1,-1,-1,-1,-1,-1,-1,-1,-1,-1,-1,-1,-1,-1,-1,-1,-1,-1,-1,-1,-1],"split_conditions":[6.925679E4,4.24E1,1.28560695E5,3.076552E2,3.3846252E3,9.731083E4,4.173E2,3.8923294E1,1.699E2,4.2626258E4,1.811E2,5.7291036E0,2.815E2,1.4376425E5,5.38425E2,2.4985998E1,3.0043027E4,2.82E1,2.1188736E1,1.4165204E3,2.486E2,1E-1,4.609E2,5.5054336E4,9.195E1,2.049E2,6.04493E5,5.0000027E-3,1.7400566E2,6.9230996E3,3.8729835E-1,-6.350022E-3,-6.075245E-3,-5.651094E-3,2.811303E1,4.460543E4,4E-1,7.37E1,-1.1E0,3.2419975E4,9.84E1,2.9568201E4,4.4048963E0,4.011071E3,9.99E1,2.2998888E1,9.535E2,2.741E2,2.4993889E1,1E0,7.5E0,3.997E2,1.86149E2,1.6818552E2,-1.4E0,7.57E1,1.2516665E0,9.95E2,9.883717E-1,5.239E2,1.1368673E1,1.07188E4,1.7306775E-2,-4.8131365E-3,-3.311015E-3,-4.83599E-3,-3.196715E-3,-3.9073112E-3,-2.200525E-3,-3.867841E-3,-1.6816165E-3,3.693333E-3,-1.1008052E-3,-3.0515394E-3,-1.7482592E-3,1.1188299E-3,-1.8554177E-3,-1.5117892E-3,6.3345983E-4,2.974529E-4,4.1320124E-3,1.3180169E-3,3.6666268E-3,2.0231623E-3,-5.3981855E-4,2.2405745E-3,-4.409704E-3,4.6507767E-3,9.59612E-3,-3.0090949E-3,2.6937712E-3,6.46498E-3,4.505546E-4,1.591816E-2,4.1880417E-3,1.0462493E-2,5.579321E-3,1.6353844E-3,6.0788915E-3,1.1992785E-3,9.311154E-3,7.375413E-3,1.2886022E-2,1.4288898E-2,1.1805725E-2,1.4808386E-2,5.376712E-3,9.774117E-4,1.0022866E-2,2.5442496E-3,1.2238228E-2,1.880886E-2,5.2668075E-3,1.2565198E-2,2.3064768E-2,8.310907E-3,1.9032855E-2,2.6870856E-2,1.8730164E-2],"split_indices":[149,13,149,97,97,149,15,205,51,149,51,191,51,107,123,97,161,13,210,43,51,80,9,161,163,51,70,183,103,211,199,0,0,0,201,161,85,27,36,149,163,161,191,43,141,2,165,32,2,76,5,106,83,103,36,135,214,24,44,9,201,61,0,0,0,0,0,0,0,0,0,0,0,0,0,0,0,0,0,0,0,0,0,0,0,0,0,0,0,0,0,0,0,0,0,0,0,0,0,0,0,0,0,0,0,0,0,0,0,0,0,0,0,0,0,0,0,0,0],"split_type":[0,0,0,0,0,0,0,0,0,0,0,0,0,0,0,0,0,0,0,0,0,0,0,0,0,0,0,0,0,0,0,0,0,0,0,0,0,0,0,0,0,0,0,0,0,0,0,0,0,0,0,0,0,0,0,0,0,0,0,0,0,0,0,0,0,0,0,0,0,0,0,0,0,0,0,0,0,0,0,0,0,0,0,0,0,0,0,0,0,0,0,0,0,0,0,0,0,0,0,0,0,0,0,0,0,0,0,0,0,0,0,0,0,0,0,0,0,0,0],"sum_hessian":[2.4818E4,1.8571E4,6.247E3,1.34E4,5.171E3,3.931E3,2.316E3,1.1325E4,2.075E3,3.472E3,1.699E3,2.162E3,1.769E3,1.323E3,9.93E2,1.0082E4,1.243E3,2.006E3,6.9E1,2.147E3,1.325E3,1.076E3,6.23E2,1.844E3,3.18E2,5.08E2,1.261E3,6.15E2,7.08E2,6.45E2,3.48E2,9.314E3,7.68E2,1.101E3,1.42E2,1.024E3,9.82E2,3.1E1,3.8E1,1.451E3,6.96E2,9.83E2,3.42E2,7.23E2,3.53E2,2.41E2,3.82E2,3.63E2,1.481E3,1.02E2,2.16E2,1.27E2,3.81E2,1.88E2,1.073E3,5.84E2,3.1E1,2.2E1,6.86E2,4.69E2,1.76E2,3.38E2,1E1,1.22E2,2E1,9.34E2,9E1,9.07E2,7.5E1,1.4E1,1.7E1,2E1,1.8E1,9.87E2,4.64E2,2.66E2,4.3E2,2.77E2,7.06E2,1.25E2,2.17E2,4.74E2,2.49E2,7.1E1,2.82E2,2.08E2,3.3E1,2.48E2,1.34E2,1.7E1,3.46E2,1.39E3,9.1E1,9.2E1,1E1,1.05E2,1.11E2,3E1,9.7E1,1.9E1,3.62E2,1.37E2,5.1E1,3.08E2,7.65E2,5.65E2,1.9E1,1.2E1,1.9E1,1.1E1,1.1E1,6.75E2,1.1E1,1.7E1,4.52E2,1.1E1,1.65E2,3.27E2,1.1E1],"tree_param":{"num_deleted":"0","num_feature":"217","num_nodes":"119","size_leaf_vector":"1"}},{"base_weights":[5.049352E-4,-8.0399975E-2,2.3324834E-1,-1.1187623E-1,9.768457E-4,1.467777E-1,3.58967E-1,-1.182216E-1,-7.5788274E-2,-1.4167001E-2,7.614522E-2,9.3279324E-2,1.793727E-1,3.0938303E-1,4.3906376E-1,-1.20275795E-1,-1.04237765E-1,-7.831922E-2,-1.4182414E-2,-3.8071144E-2,9.541696E-3,4.9186632E-2,1.1077764E-1,7.486838E-2,1.6803259E-1,1.3924095E-1,2.0548902E-1,2.430922E-1,3.3069342E-1,4.0118018E-1,4.9086955E-1,-6.0349205E-3,-5.809521E-3,-1.0541035E-1,-7.821167E-2,-8.2888074E-2,-6.335401E-2,3.3090033E-2,-4.8814606E-2,-5.847558E-2,-1.6477298E-2,-2.4835332E-3,3.544861E-2,7.5387076E-2,1.991109E-2,3.1775992E-2,1.388154E-1,1.0354137E-1,5.1713087E-2,2.2348388E-1,1.1596487E-1,1.0821082E-1,1.6747147E-1,2.3930222E-1,1.7852077E-1,1.4025617E-1,2.6047796E-1,2.6101834E-1,3.4401187E-1,4.0931207E-1,1.7816848E-1,2.330201E-2,2.604461E-2,-5.359498E-3,-4.9404944E-3,-2.2276544E-3,-4.8824274E-3,-4.354471E-3,-3.1594262E-3,-2.4242247E-3,-3.6552304E-3,-4.6471955E-4,6.127848E-3,-3.1374723E-3,-1.0676131E-3,-4.340013E-3,-2.7093738E-3,1.3522048E-3,-1.2034246E-3,-6.6555705E-4,2.2652016E-3,5.477711E-3,1.3346663E-3,2.1605068E-3,6.1851274E-3,1.3965428E-3,-2.656625E-3,-9.472083E-4,4.1958936E-3,2.4819288E-3,8.226997E-3,7.258753E-3,2.7962548E-3,-4.8146024E-4,3.2209426E-3,1.45371575E-2,8.89213E-3,7.146532E-3,3.0169936E-4,7.905661E-3,3.6566393E-3,9.676267E-3,6.829952E-3,1.5298146E-2,1.0034045E-2,7.2634565E-3,1.1027653E-2,5.041765E-3,1.0897017E-2,1.3928125E-2,9.703542E-3,9.317844E-3,1.6473046E-2,1.8934155E-2,1.5890231E-2,1.7971251E-2,2.1314144E-2,2.7459317E-3,1.4821285E-2],"categories":[],"categories_nodes":[],"categories_segments":[],"categories_sizes":[],"default_left":[0,0,0,0,0,0,0,0,0,0,0,0,0,0,0,0,0,0,0,0,0,0,0,0,0,0,0,0,0,0,0,0,0,0,0,0,0,0,0,0,0,0,0,0,0,0,0,0,0,0,0,0,0,0,0,0,0,0,0,0,0,0,0,0,0,0,0,0,0,0,0,0,0,0,0,0,0,0,0,0,0,0,0,0,0,0,0,0,0,0,0,0,0,0,0,0,0,0,0,0,0,0,0,0,0,0,0,0,0,0,0,0,0,0,0,0,0,0,0],"id":5,"left_children":[1,3,5,7,9,11,13,15,17,19,21,23,25,27,29,31,33,35,37,39,41,43,45,47,49,51,53,55,57,59,61,-1,-1,63,65,67,69,71,73,75,77,79,81,83,85,87,89,91,93,95,97,99,101,103,105,107,109,111,113,115,117,-1,-1,-1,-1,-1,-1,-1,-1,-1,-1,-1,-1,-1,-1,-1,-1,-1,-1,-1,-1,-1,-1,-1,-1,-1,-1,-1,-1,-1,-1,-1,-1,-1,-1,-1,-1,-1,-1,-1,-1,-1,-1,-1,-1,-1,-1,-1,-1,-1,-1,-1,-1,-1,-1,-1,-1,-1,-1],"loss_changes":[4.6318234E2,4.6753998E1,6.8923676E1,3.0050354E0,5.797497E0,6.541626E0,1.0130524E1,3.0895996E-1,3.062086E-1,2.4027576E0,7.918811E-1,1.9499922E0,2.4197311E0,2.1799164E0,1.7381897E0,2.8076172E-3,3.573227E-2,1.2418175E-1,1.3095E-1,9.291649E-1,6.6334945E-1,3.6820853E-1,8.2179546E-1,7.555108E-1,7.8539276E-1,7.912998E-1,1.2457733E0,6.6610336E-1,1.031189E0,9.69841E-1,6.436157E-2,0E0,0E0,5.5713654E-3,3.8827837E-2,1.1425686E-1,6.1264515E-2,1.3006723E-1,1.6263574E-2,1.2707973E-1,3.3995053E-1,7.534564E-1,4.3502623E-1,3.8953435E-1,1.3563049E-1,2.6340955E-1,6.226907E-1,1.0049081E0,4.963194E-1,3.6271667E-1,4.3490005E-1,7.638984E-1,3.612585E-1,1.5450974E0,1.0720997E0,1.5870428E-1,3.4825516E-1,9.5038795E-1,7.982788E-1,3.158188E-1,3.0437475E-1,0E0,0E0,0E0,0E0,0E0,0E0,0E0,0E0,0E0,0E0,0E0,0E0,0E0,0E0,0E0,0E0,0E0,0E0,0E0,0E0,0E0,0E0,0E0,0E0,0E0,0E0,0E0,0E0,0E0,0E0,0E0,0E0,0E0,0E0,0E0,0E0,0E0,0E0,0E0,0E0,0E0,0E0,0E0,0E0,0E0,0E0,0E0,0E0,0E0,0E0,0E0,0E0,0E0,0E0,0E0,0E0,0E0,0E0],"parents":[2147483647,0,0,1,1,2,2,3,3,4,4,5,5,6,6,7,7,8,8,9,9,10,10,11,11,12,12,13,13,14,14,15,15,16,16,17,17,18,18,19,19,20,20,21,21,22,22,23,23,24,24,25,25,26,26,27,27,28,28,29,29,30,30,33,33,34,34,35,35,36,36,37,37,38,38,39,39,40,40,41,41,42,42,43,43,44,44,45,45,46,46,47,47,48,48,49,49,50,50,51,51,52,52,53,53,54,54,55,55,56,56,57,57,58,58,59,59,60,60],"right_children":[2,4,6,8,10,12,14,16,18,20,22,24,26,28,30,32,34,36,38,40,42,44,46,48,50,52,54,56,58,60,62,-1,-1,64,66,68,70,72,74,76,78,80,82,84,86,88,90,92,94,96,98,100,102,104,106,108,110,112,114,116,118,-1,-1,-1,-1,-1,-1,-1,-1,-1,-1,-1,-1,-1,-1,-1,-1,-1,-1,-1,-1,-1,-1,-1,-1,-1,-1,-1,-1,-1,-1,-1,-1,-1,-1,-1,-1,-1,-1,-1,-1,-1,-1,-1,-1,-1,-1,-1,-1,-1,-1,-1,-1,-1,-1,-1,-1,-1,-1],"split_conditions":[2.4082501E2,4.31E1,4.33025E2,1.67E1,4.905066E3,3.036E2,4.419E2,3.8923294E1,4.8681914E4,1.3595E2,1.9220001E2,5.5052433E0,8.213812E4,3.791E2,5.27325E2,7.7E0,1.703E2,1.104E2,1E0,2.1917E1,2.3655E1,8.85E0,1.6925822E6,1E0,9.81E1,1.657889E6,1E0,1.73977E2,1.8674928E2,1.3236397E4,5.885E2,-6.0349205E-3,-5.809521E-3,1.8665533E1,1E0,1.802E2,1E0,8.268E1,2.8938E3,2.739E2,9.84E1,2.486E2,6E1,2E-1,1.1E-1,4.079544E1,3.8870367E4,2.0183349E0,2.0695E1,1.944348E5,3.351525E2,1E0,7.5E0,5.47E1,1.9711992E6,6.1291223E2,-1.3216366E-1,1.5661E2,1E0,5.2832495E2,2.858E2,2.330201E-2,2.604461E-2,-5.359498E-3,-4.9404944E-3,-2.2276544E-3,-4.8824274E-3,-4.354471E-3,-3.1594262E-3,-2.4242247E-3,-3.6552304E-3,-4.6471955E-4,6.127848E-3,-3.1374723E-3,-1.0676131E-3,-4.340013E-3,-2.7093738E-3,1.3522048E-3,-1.2034246E-3,-6.6555705E-4,2.2652016E-3,5.477711E-3,1.3346663E-3,2.1605068E-3,6.1851274E-3,1.3965428E-3,-2.656625E-3,-9.472083E-4,4.1958936E-3,2.4819288E-3,8.226997E-3,7.258753E-3,2.7962548E-3,-4.8146024E-4,3.2209426E-3,1.45371575E-2,8.89213E-3,7.146532E-3,3.0169936E-4,7.905661E-3,3.6566393E-3,9.676267E-3,6.829952E-3,1.5298146E-2,1.0034045E-2,7.2634565E-3,1.1027653E-2,5.041765E-3,1.0897017E-2,1.3928125E-2,9.703542E-3,9.317844E-3,1.6473046E-2,1.8934155E-2,1.5890231E-2,1.7971251E-2,2.1314144E-2,2.7459317E-3,1.4821285E-2],"split_indices":[147,13,147,13,97,147,123,205,53,147,159,191,53,51,123,93,105,93,0,84,84,113,8,0,33,8,0,29,49,211,123,0,0,201,0,9,0,29,54,32,109,51,55,31,75,216,162,192,84,16,150,0,5,109,62,205,45,29,0,159,32,0,0,0,0,0,0,0,0,0,0,0,0,0,0,0,0,0,0,0,0,0,0,0,0,0,0,0,0,0,0,0,0,0,0,0,0,0,0,0,0,0,0,0,0,0,0,0,0,0,0,0,0,0,0,0,0,0,0],"split_type":[0,0,0,0,0,0,0,0,0,0,0,0,0,0,0,0,0,0,0,0,0,0,0,0,0,0,0,0,0,0,0,0,0,0,0,0,0,0,0,0,0,0,0,0,0,0,0,0,0,0,0,0,0,0,0,0,0,0,0,0,0,0,0,0,0,0,0,0,0,0,0,0,0,0,0,0,0,0,0,0,0,0,0,0,0,0,0,0,0,0,0,0,0,0,0,0,0,0,0,0,0,0,0,0,0,0,0,0,0,0,0,0,0,0,0,0,0,0,0],"sum_hessian":[2.4596E4,1.8252E4,6.344E3,1.3161E4,5.091E3,3.76E3,2.584E3,1.1191E4,1.97E3,4.238E3,8.53E2,1.425E3,2.335E3,1.599E3,9.85E2,9.751E3,1.44E3,1.892E3,7.8E1,2.11E3,2.128E3,4.81E2,3.72E2,1.145E3,2.8E2,9.23E2,1.412E3,3.92E2,1.207E3,5.74E2,4.11E2,8.811E3,9.4E2,1.375E3,6.5E1,1.446E3,4.46E2,3.3E1,4.5E1,1.084E3,1.026E3,1.454E3,6.74E2,2.53E2,2.28E2,9.8E1,2.74E2,5.1E2,6.35E2,1.34E2,1.46E2,4.42E2,4.81E2,6.23E2,7.89E2,5.8E1,3.34E2,1.97E2,1.01E3,5.53E2,2.1E1,2.34E2,1.77E2,1.071E3,3.04E2,2.5E1,4E1,1.189E3,2.57E2,1.79E2,2.67E2,2.3E1,1E1,2.9E1,1.6E1,1.4E2,9.44E2,1.52E2,8.74E2,1.186E3,2.68E2,7E1,6.04E2,1.53E2,1E2,2.06E2,2.2E1,5E1,4.8E1,6.2E1,2.12E2,2.71E2,2.39E2,1.09E2,5.26E2,5.2E1,8.2E1,1.17E2,2.9E1,1.81E2,2.61E2,2.58E2,2.23E2,2.26E2,3.97E2,4.43E2,3.46E2,4E1,1.8E1,2.6E2,7.4E1,9.6E1,1.01E2,4.29E2,5.81E2,1.46E2,4.07E2,1.1E1,1E1],"tree_param":{"num_deleted":"0","num_feature":"217","num_nodes":"119","size_leaf_vector":"1"}},{"base_weights":[-3.8540483E-4,-7.660369E-2,2.2294301E-1,-1.0667951E-1,1.2885941E-3,1.4036149E-1,3.4211317E-1,-1.1312131E-1,-7.692648E-2,-2.1911874E-2,4.778304E-2,1.0588957E-1,1.7793085E-1,2.954514E-1,4.26839E-1,-5.723876E-3,-1.03665456E-1,-7.956372E-2,-2.6858829E-2,-4.0996924E-2,1.4639111E-3,6.3665505E-3,7.064965E-2,8.0789305E-2,1.5372878E-1,1.122967E-1,1.934006E-1,2.3565944E-1,3.2605335E-1,3.944205E-1,4.7817597E-1,-1.0437748E-1,-8.003273E-2,-8.794701E-2,-6.992696E-2,1.6330475E-2,-5.8558613E-2,-5.5783406E-2,-2.2530885E-2,-4.9210065E-3,5.949911E-2,1.5567696E-2,-2.7677123E-2,2.9664818E-2,1.0419515E-1,1.1906276E-1,5.4278992E-2,1.8913132E-1,1.151201E-1,3.7032343E-2,1.246727E-1,2.2591029E-1,1.6864645E-1,2.5087425E-1,1.4929993E-1,2.7136976E-1,3.4373596E-1,4.360089E-1,3.651271E-1,3.8186774E-1,4.8663992E-1,-5.234171E-3,-3.941439E-3,-2.8270043E-3,-5.0022844E-3,-4.5499536E-3,-3.5390065E-3,-3.7193995E-3,-2.8266336E-3,-1.1270164E-3,5.685724E-3,-4.7899457E-3,-2.49959E-3,-2.4449904E-3,-3.6929657E-3,-1.2486657E-3,6.80407E-3,4.5080288E-4,-1.295253E-3,8.151883E-3,1.8101608E-3,5.541359E-3,5.611416E-4,-2.2501636E-3,7.955324E-4,3.0967034E-3,-3.1271434E-4,7.4386783E-3,3.1124738E-3,2.0784147E-3,7.4974853E-3,-4.6288352E-3,2.88795E-3,4.815424E-3,1.0327175E-2,3.4394679E-3,8.387273E-3,6.3071135E-3,4.3321797E-4,6.462041E-3,-2.5083087E-4,1.5735889E-2,9.5119765E-3,3.3111677E-3,8.84358E-3,7.4046026E-3,1.314517E-2,8.862347E-3,1.1076904E-3,1.14196725E-2,1.5558991E-2,1.7484045E-2,9.696056E-3,2.3129348E-2,1.7826496E-2,1.2021386E-2,1.8887406E-2,1.2386336E-2,2.2833655E-2,2.1014374E-2,2.4870533E-2],"categories":[],"categories_nodes":[],"categories_segments":[],"categories_sizes":[],"default_left":[0,0,0,0,0,0,0,0,0,0,0,0,0,0,0,0,0,0,0,0,0,0,0,0,0,0,0,0,0,0,0,0,0,0,0,0,0,0,0,0,0,0,0,0,0,0,0,0,0,0,0,0,0,0,0,0,0,0,0,0,0,0,0,0,0,0,0,0,0,0,0,0,0,0,0,0,0,0,0,0,0,0,0,0,0,0,0,0,0,0,0,0,0,0,0,0,0,0,0,0,0,0,0,0,0,0,0,0,0,0,0,0,0,0,0,0,0,0,0,0,0],"id":6,"left_children":[1,3,5,7,9,11,13,15,17,19,21,23,25,27,29,-1,31,33,35,37,39,41,43,45,47,49,51,53,55,57,59,61,63,65,67,69,71,73,75,77,79,81,83,85,87,89,91,93,95,97,99,101,103,105,107,109,111,113,115,117,119,-1,-1,-1,-1,-1,-1,-1,-1,-1,-1,-1,-1,-1,-1,-1,-1,-1,-1,-1,-1,-1,-1,-1,-1,-1,-1,-1,-1,-1,-1,-1,-1,-1,-1,-1,-1,-1,-1,-1,-1,-1,-1,-1,-1,-1,-1,-1,-1,-1,-1,-1,-1,-1,-1,-1,-1,-1,-1,-1,-1],"loss_changes":[4.2406186E2,4.351297E1,6.2335724E1,2.5595856E0,5.583282E0,4.8325577E0,1.012912E1,1.2936401E-1,3.1317616E-1,1.5405402E0,1.6313252E0,2.336298E0,1.7967606E0,2.9898376E0,1.3408813E0,0E0,1.5069008E-2,1.7707634E-1,1.6661638E-1,5.1780677E-1,5.7575685E-1,1.9276072E-1,1.5229998E0,1.2973518E0,8.967476E-1,3.1580973E-1,1.1271782E0,7.128086E-1,9.761658E-1,5.3398895E-1,1.0028076E-1,2.28405E-3,1.5500456E-2,5.6904793E-2,5.9132576E-2,1.9940367E-1,1.7543003E-2,1.2765908E-1,3.3152556E-1,4.0967214E-1,3.6554903E-1,1.9907871E-1,9.964831E-2,5.8108777E-1,1.131361E0,1.2503891E0,3.9426255E-1,5.44178E-1,7.7842855E-1,1.2530051E-1,1.7541647E-1,1.9136868E0,6.841469E-1,5.5947495E-1,3.0876863E-1,3.994236E-1,6.732025E-1,3.2092285E-1,4.4428253E-1,2.1800756E-1,1.8928528E-2,0E0,0E0,0E0,0E0,0E0,0E0,0E0,0E0,0E0,0E0,0E0,0E0,0E0,0E0,0E0,0E0,0E0,0E0,0E0,0E0,0E0,0E0,0E0,0E0,0E0,0E0,0E0,0E0,0E0,0E0,0E0,0E0,0E0,0E0,0E0,0E0,0E0,0E0,0E0,0E0,0E0,0E0,0E0,0E0,0E0,0E0,0E0,0E0,0E0,0E0,0E0,0E0,0E0,0E0,0E0,0E0,0E0,0E0,0E0,0E0],"parents":[2147483647,0,0,1,1,2,2,3,3,4,4,5,5,6,6,7,7,8,8,9,9,10,10,11,11,12,12,13,13,14,14,16,16,17,17,18,18,19,19,20,20,21,21,22,22,23,23,24,24,25,25,26,26,27,27,28,28,29,29,30,30,31,31,32,32,33,33,34,34,35,35,36,36,37,37,38,38,39,39,40,40,41,41,42,42,43,43,44,44,45,45,46,46,47,47,48,48,49,49,50,50,51,51,52,52,53,53,54,54,55,55,56,56,57,57,58,58,59,59,60,60],"right_children":[2,4,6,8,10,12,14,16,18,20,22,24,26,28,30,-1,32,34,36,38,40,42,44,46,48,50,52,54,56,58,60,62,64,66,68,70,72,74,76,78,80,82,84,86,88,90,92,94,96,98,100,102,104,106,108,110,112,114,116,118,120,-1,-1,-1,-1,-1,-1,-1,-1,-1,-1,-1,-1,-1,-1,-1,-1,-1,-1,-1,-1,-1,-1,-1,-1,-1,-1,-1,-1,-1,-1,-1,-1,-1,-1,-1,-1,-1,-1,-1,-1,-1,-1,-1,-1,-1,-1,-1,-1,-1,-1,-1,-1,-1,-1,-1,-1,-1,-1,-1,-1],"split_conditions":[2.723E2,4.24E1,4.608E2,2.0675E1,3.3846252E3,3.5890002E2,4.242E2,5.5284203E1,1.552E2,1.634E2,1.311E2,1.6711648E6,2.327E2,4.081E2,5.143E2,-5.723876E-3,3.1963113E4,5.526704E2,1E0,1.944175E1,3.54525E2,1.01E1,1.6925822E6,1E0,7.8E0,1.72E2,1E0,8.51E1,4.309E2,1E0,1.0095E3,4.496708E0,1E0,1.081E2,2.0568018E1,4.414065E0,2.713E2,9.78E1,6.1531184E4,7.12E1,6.79E1,9.24E1,7.76772E4,9.715E1,2.818E2,4.430497E0,9.799E2,5.345E1,8.893063E4,3.5065E1,3.8729813E0,3.03E1,2.75025E2,2.84E2,5.469E2,1.0036E3,2.6299555E-2,2.4720894E1,2.1418675E2,1.215E1,5.827E2,-5.234171E-3,-3.941439E-3,-2.8270043E-3,-5.0022844E-3,-4.5499536E-3,-3.5390065E-3,-3.7193995E-3,-2.8266336E-3,-1.1270164E-3,5.685724E-3,-4.7899457E-3,-2.49959E-3,-2.4449904E-3,-3.6929657E-3,-1.2486657E-3,6.80407E-3,4.5080288E-4,-1.295253E-3,8.151883E-3,1.8101608E-3,5.541359E-3,5.611416E-4,-2.2501636E-3,7.955324E-4,3.0967034E-3,-3.1271434E-4,7.4386783E-3,3.1124738E-3,2.0784147E-3,7.4974853E-3,-4.6288352E-3,2.88795E-3,4.815424E-3,1.0327175E-2,3.4394679E-3,8.387273E-3,6.3071135E-3,4.3321797E-4,6.462041E-3,-2.5083087E-4,1.5735889E-2,9.5119765E-3,3.3111677E-3,8.84358E-3,7.4046026E-3,1.314517E-2,8.862347E-3,1.1076904E-3,1.14196725E-2,1.5558991E-2,1.7484045E-2,9.696056E-3,2.3129348E-2,1.7826496E-2,1.2021386E-2,1.8887406E-2,1.2386336E-2,2.2833655E-2,2.1014374E-2,2.4870533E-2],"split_indices":[93,13,93,121,97,93,15,97,51,93,51,8,51,51,15,0,161,97,0,138,117,59,8,0,59,51,0,110,106,0,74,191,0,51,209,191,32,17,161,109,17,33,16,164,66,191,24,135,107,104,189,55,140,51,106,131,183,209,157,164,51,0,0,0,0,0,0,0,0,0,0,0,0,0,0,0,0,0,0,0,0,0,0,0,0,0,0,0,0,0,0,0,0,0,0,0,0,0,0,0,0,0,0,0,0,0,0,0,0,0,0,0,0,0,0,0,0,0,0,0,0],"split_type":[0,0,0,0,0,0,0,0,0,0,0,0,0,0,0,0,0,0,0,0,0,0,0,0,0,0,0,0,0,0,0,0,0,0,0,0,0,0,0,0,0,0,0,0,0,0,0,0,0,0,0,0,0,0,0,0,0,0,0,0,0,0,0,0,0,0,0,0,0,0,0,0,0,0,0,0,0,0,0,0,0,0,0,0,0,0,0,0,0,0,0,0,0,0,0,0,0,0,0,0,0,0,0,0,0,0,0,0,0,0,0,0,0,0,0,0,0,0,0,0,0],"sum_hessian":[2.4911E4,1.8573E4,6.338E3,1.3399E4,5.174E3,3.745E3,2.593E3,1.1012E4,2.387E3,3.452E3,1.722E3,1.955E3,1.79E3,1.675E3,9.18E2,9.621E3,1.391E3,2.267E3,1.2E2,1.9E3,1.552E3,6.13E2,1.109E3,1.284E3,6.71E2,3.43E2,1.447E3,5.7E2,1.105E3,5.68E2,3.5E2,1.347E3,4.4E1,1.208E3,1.059E3,5.1E1,6.9E1,1.054E3,8.46E2,1.399E3,1.53E2,4.83E2,1.3E2,5E2,6.09E2,5.24E2,7.6E2,3.48E2,3.23E2,4.9E1,2.94E2,6.22E2,8.25E2,4.83E2,8.7E1,2.74E2,8.31E2,2.29E2,3.39E2,3.2E1,3.18E2,1.328E3,1.9E1,2.2E1,2.2E1,1.022E3,1.86E2,7.91E2,2.68E2,3.7E1,1.4E1,1.1E1,5.8E1,7.66E2,2.88E2,8.34E2,1.2E1,8.41E2,5.58E2,2.7E1,1.26E2,2E1,4.63E2,9.3E1,3.7E1,2.63E2,2.37E2,2.94E2,3.15E2,1.5E2,3.74E2,1.7E1,7.43E2,5.6E1,2.92E2,1.73E2,1.5E2,1.1E1,3.8E1,2.84E2,1E1,1.76E2,4.46E2,6.2E1,7.63E2,5.2E1,4.31E2,7.1E1,1.6E1,1.35E2,1.39E2,7.98E2,3.3E1,1.68E2,6.1E1,3.3E1,3.06E2,1.3E1,1.9E1,5E1,2.68E2],"tree_param":{"num_deleted":"0","num_feature":"217","num_nodes":"121","size_leaf_vector":"1"}},{"base_weights":[5.502488E-4,-7.023971E-2,2.207646E-1,-9.940191E-2,9.957289E-3,1.5079409E-1,3.4972408E-1,-1.0619441E-1,-6.1989542E-2,-9.593687E-3,5.6498576E-2,1.09903686E-1,1.9234823E-1,3.0197108E-1,4.0805012E-1,-1.08508356E-1,-9.308396E-2,-6.9592E-2,-2.9087296E-2,-2.2138255E-2,2.8865147E-2,3.9725285E-2,1.1060843E-1,8.8529564E-2,1.4251184E-1,1.6063493E-1,2.2086625E-1,1.6025269E-1,3.08855E-1,4.1458014E-1,1.2768824E-1,-5.443351E-3,-5.1685474E-3,-9.627017E-2,-8.693652E-2,-7.302511E-2,-5.033943E-2,-2.0695092E-2,-6.668133E-2,-3.7412606E-2,-8.403947E-3,-3.6486313E-3,5.644353E-2,3.0767752E-2,9.870974E-2,6.116554E-2,1.6142845E-1,4.665155E-2,1.06804274E-1,1.2890957E-1,2.0446366E-1,1.6572474E-1,2.7636861E-2,2.3756482E-1,1.4680706E-1,7.4704476E-2,2.2683337E-1,3.4338716E-1,2.8086364E-1,3.4341693E-1,4.3386245E-1,3.173415E-3,8.610303E-3,-4.8857597E-3,-4.3228413E-3,-3.3741072E-3,-4.4475384E-3,-3.70572E-3,-1.410588E-3,-2.65773E-3,3.8353502E-4,-1.3849956E-3,1.4336277E-3,-3.755586E-3,-1.1321268E-3,-2.5990605E-3,-1.4428105E-3,-9.5038157E-4,7.8270305E-4,4.397031E-4,-2.1110924E-3,4.267995E-3,1.179517E-3,1.8969022E-3,-1.4321804E-3,8.350764E-3,3.6368947E-3,5.601788E-3,8.765642E-4,5.642008E-3,1.2359843E-2,4.5967777E-3,8.0548675E-4,5.775114E-3,-1.1904101E-4,8.388261E-3,4.9734353E-3,6.5159784E-3,1.3530954E-2,5.5989823E-3,8.882265E-3,3.153462E-3,-1.8588555E-3,1.3678709E-2,1.0433979E-2,8.286023E-3,-2.1477566E-4,5.5750953E-3,7.194813E-4,4.6863053E-3,1.4767803E-2,1.4596864E-2,2.049814E-2,4.2049135E-3,1.4365189E-2,1.8279694E-2,1.3232464E-2,2.0880533E-2,2.398127E-2],"categories":[],"categories_nodes":[],"categories_segments":[],"categories_sizes":[],"default_left":[0,0,0,0,0,0,0,0,0,0,0,0,0,0,0,0,0,0,0,0,0,0,0,0,0,0,0,0,0,0,0,0,0,0,0,0,0,0,0,0,0,0,0,0,0,0,0,0,0,0,0,0,0,0,0,0,0,0,0,0,0,0,0,0,0,0,0,0,0,0,0,0,0,0,0,0,0,0,0,0,0,0,0,0,0,0,0,0,0,0,0,0,0,0,0,0,0,0,0,0,0,0,0,0,0,0,0,0,0,0,0,0,0,0,0,0,0,0,0],"id":7,"left_children":[1,3,5,7,9,11,13,15,17,19,21,23,25,27,29,31,33,35,37,39,41,43,45,47,49,51,53,55,57,59,61,-1,-1,63,65,67,69,71,73,75,77,79,81,83,85,87,89,91,93,95,97,99,101,103,105,107,109,111,113,115,117,-1,-1,-1,-1,-1,-1,-1,-1,-1,-1,-1,-1,-1,-1,-1,-1,-1,-1,-1,-1,-1,-1,-1,-1,-1,-1,-1,-1,-1,-1,-1,-1,-1,-1,-1,-1,-1,-1,-1,-1,-1,-1,-1,-1,-1,-1,-1,-1,-1,-1,-1,-1,-1,-1,-1,-1,-1,-1],"loss_changes":[3.8456406E2,4.3660233E1,5.4096466E1,3.4723663E0,4.5310717E0,6.592003E0,5.753662E0,3.413391E-1,5.2476597E-1,1.6925892E0,1.3325014E0,1.3562355E0,1.7091141E0,1.0860825E0,1.6808014E0,6.881714E-3,2.5810242E-2,1.0934925E-1,1.2387225E-1,5.5456054E-1,7.7403855E-1,5.9189105E-1,8.6454153E-1,9.049692E-1,6.275673E-1,6.16169E-1,1.2178802E0,3.020227E-1,9.7550964E-1,1.120285E0,5.4825783E-2,0E0,0E0,7.7171326E-3,1.7744064E-2,6.864166E-2,4.3194473E-2,1.1352876E-1,2.5030285E-2,1.545676E-1,3.5591182E-1,1.909133E-1,4.4163394E-1,4.1813767E-1,2.5040686E-1,3.9313972E-1,6.8472195E-1,5.005682E-1,7.8567123E-1,7.142916E-1,6.416273E-1,5.458183E-1,8.272269E-2,8.010216E-1,5.408478E-1,5.610074E-2,2.5506437E-1,1.5655746E0,7.5896454E-1,2.5610352E-1,3.3816528E-1,0E0,0E0,0E0,0E0,0E0,0E0,0E0,0E0,0E0,0E0,0E0,0E0,0E0,0E0,0E0,0E0,0E0,0E0,0E0,0E0,0E0,0E0,0E0,0E0,0E0,0E0,0E0,0E0,0E0,0E0,0E0,0E0,0E0,0E0,0E0,0E0,0E0,0E0,0E0,0E0,0E0,0E0,0E0,0E0,0E0,0E0,0E0,0E0,0E0,0E0,0E0,0E0,0E0,0E0,0E0,0E0,0E0,0E0],"parents":[2147483647,0,0,1,1,2,2,3,3,4,4,5,5,6,6,7,7,8,8,9,9,10,10,11,11,12,12,13,13,14,14,15,15,16,16,17,17,18,18,19,19,20,20,21,21,22,22,23,23,24,24,25,25,26,26,27,27,28,28,29,29,30,30,33,33,34,34,35,35,36,36,37,37,38,38,39,39,40,40,41,41,42,42,43,43,44,44,45,45,46,46,47,47,48,48,49,49,50,50,51,51,52,52,53,53,54,54,55,55,56,56,57,57,58,58,59,59,60,60],"right_children":[2,4,6,8,10,12,14,16,18,20,22,24,26,28,30,32,34,36,38,40,42,44,46,48,50,52,54,56,58,60,62,-1,-1,64,66,68,70,72,74,76,78,80,82,84,86,88,90,92,94,96,98,100,102,104,106,108,110,112,114,116,118,-1,-1,-1,-1,-1,-1,-1,-1,-1,-1,-1,-1,-1,-1,-1,-1,-1,-1,-1,-1,-1,-1,-1,-1,-1,-1,-1,-1,-1,-1,-1,-1,-1,-1,-1,-1,-1,-1,-1,-1,-1,-1,-1,-1,-1,-1,-1,-1,-1,-1,-1,-1,-1,-1,-1,-1,-1,-1],"split_conditions":[6.346144E4,1.905724E4,1.253425E5,6.69051E3,4.8083348E4,9.0140484E4,1.5735072E5,1.185E1,8.8102026E2,4.523E2,1.8532652E6,8.906331E4,1.0417708E5,1.7400566E2,1E-2,1.3491924E3,4.1675303E3,9E0,1.4142136E-2,3.049501E4,1.236E2,9.632563E4,1.831E2,1.576743E6,5.7291036E0,5E-1,7.38E1,1.639625E2,1E0,1.5089098E5,1.6177E3,-5.443351E-3,-5.1685474E-3,6E1,8.4079865E2,5.5054336E4,3.7741091E0,2.8E0,8.14E1,4.3129497E0,8E0,1E1,2.82E2,2.3989445E1,1.9614434E0,2.812E2,1.147535E5,1E0,1E-2,1E0,3.73897E4,2.327E2,7.4E1,1E0,4.725E0,2.828E2,1.1469276E5,1.218E0,4E0,6.2019453E3,6.8635E2,3.173415E-3,8.610303E-3,-4.8857597E-3,-4.3228413E-3,-3.3741072E-3,-4.4475384E-3,-3.70572E-3,-1.410588E-3,-2.65773E-3,3.8353502E-4,-1.3849956E-3,1.4336277E-3,-3.755586E-3,-1.1321268E-3,-2.5990605E-3,-1.4428105E-3,-9.5038157E-4,7.8270305E-4,4.397031E-4,-2.1110924E-3,4.267995E-3,1.179517E-3,1.8969022E-3,-1.4321804E-3,8.350764E-3,3.6368947E-3,5.601788E-3,8.765642E-4,5.642008E-3,1.2359843E-2,4.5967777E-3,8.0548675E-4,5.775114E-3,-1.1904101E-4,8.388261E-3,4.9734353E-3,6.5159784E-3,1.3530954E-2,5.5989823E-3,8.882265E-3,3.153462E-3,-1.8588555E-3,1.3678709E-2,1.0433979E-2,8.286023E-3,-2.1477566E-4,5.5750953E-3,7.194813E-4,4.6863053E-3,1.4767803E-2,1.4596864E-2,2.049814E-2,4.2049135E-3,1.4365189E-2,1.8279694E-2,1.3232464E-2,2.0880533E-2,2.398127E-2],"split_indices":[41,41,41,41,41,41,41,147,43,117,116,161,161,103,75,149,41,3,183,41,51,161,51,62,191,130,27,137,0,53,112,0,0,51,212,161,208,91,67,191,3,5,12,2,192,120,16,0,129,0,88,51,81,0,143,12,161,60,3,43,147,0,0,0,0,0,0,0,0,0,0,0,0,0,0,0,0,0,0,0,0,0,0,0,0,0,0,0,0,0,0,0,0,0,0,0,0,0,0,0,0,0,0,0,0,0,0,0,0,0,0,0,0,0,0,0,0,0,0],"split_type":[0,0,0,0,0,0,0,0,0,0,0,0,0,0,0,0,0,0,0,0,0,0,0,0,0,0,0,0,0,0,0,0,0,0,0,0,0,0,0,0,0,0,0,0,0,0,0,0,0,0,0,0,0,0,0,0,0,0,0,0,0,0,0,0,0,0,0,0,0,0,0,0,0,0,0,0,0,0,0,0,0,0,0,0,0,0,0,0,0,0,0,0,0,0,0,0,0,0,0,0,0,0,0,0,0,0,0,0,0,0,0,0,0,0,0,0,0,0,0],"sum_hessian":[2.4667E4,1.8667E4,6E3,1.3689E4,4.978E3,3.891E3,2.109E3,1.1584E4,2.105E3,3.506E3,1.472E3,1.963E3,1.928E3,1.163E3,9.46E2,9.84E3,1.744E3,1.709E3,3.96E2,2.644E3,8.62E2,1.125E3,3.47E2,1.188E3,7.75E2,9.16E2,1.012E3,5.5E1,1.108E3,9.24E2,2.2E1,9.179E3,6.61E2,1.139E3,6.05E2,1.448E3,2.61E2,3.25E2,7.1E1,1.251E3,1.393E3,3.96E2,4.66E2,9.78E2,1.47E2,1.77E2,1.7E2,3.62E2,8.26E2,6.38E2,1.37E2,8.82E2,3.4E1,8.24E2,1.88E2,2.5E1,3E1,4.91E2,6.17E2,2.01E2,7.23E2,1E1,1.2E1,9.85E2,1.54E2,6E1,5.45E2,1.413E3,3.5E1,2.49E2,1.2E1,2.85E2,4E1,5.9E1,1.2E1,4.61E2,7.9E2,9.67E2,4.26E2,3E2,9.6E1,2.47E2,2.19E2,8.73E2,1.05E2,3.9E1,1.08E2,8.1E1,9.6E1,1.1E2,6E1,1.45E2,2.17E2,7.65E2,6.1E1,2.73E2,3.65E2,6.6E1,7.1E1,1.62E2,7.2E2,2.2E1,1.2E1,3.63E2,4.61E2,1.67E2,2.1E1,1.5E1,1E1,1.1E1,1.9E1,2.8E2,2.11E2,2E1,5.97E2,1.54E2,4.7E1,5.41E2,1.82E2],"tree_param":{"num_deleted":"0","num_feature":"217","num_nodes":"119","size_leaf_vector":"1"}},{"base_weights":[4.638067E-5,-6.644491E-2,2.0911716E-1,-9.5574394E-2,9.221094E-3,1.3501026E-1,3.1541058E-1,-1.019584E-1,-6.620279E-2,-1.9771257E-2,3.721063E-2,1.2010756E-1,2.0126611E-1,2.7785748E-1,3.926E-1,-5.1647774E-3,-9.278378E-2,-7.342135E-2,-4.3300852E-2,-3.5509106E-2,4.286915E-3,1.9221298E-2,7.913928E-2,7.966369E-2,1.3520488E-1,2.17112E-1,1.4429776E-1,2.3022164E-1,3.050726E-1,4.14184E-1,3.239925E-1,-9.418248E-2,-8.442196E-2,-7.731688E-2,-5.5176903E-2,-5.051038E-2,-1.4882944E-2,-4.281922E-2,-1.3125773E-2,-2.8192918E-3,5.5189908E-2,4.124962E-2,2.6975314E-3,1.1922605E-1,4.1566454E-2,8.380407E-2,-4.013758E-2,1.09711014E-1,1.6310811E-1,2.3586217E-1,1.52201E-1,2.1065111E-1,1.0676246E-1,2.3516645E-1,9.529704E-4,3.4156406E-1,2.7407962E-1,3.9452642E-1,2.2751788E-2,2.4735005E-1,3.7649104E-1,-4.765132E-3,-4.3786834E-3,-3.8145506E-3,-4.443071E-3,-4.0456983E-3,-3.3698254E-3,-1.854416E-3,-3.444216E-3,-5.722285E-4,-2.7375834E-3,-2.255441E-3,3.3062504E-4,-3.2562749E-3,-1.9250022E-3,6.6723424E-4,-1.6732406E-3,-2.2627185E-4,6.7429626E-3,6.2866467E-3,1.3179741E-3,3.2694843E-3,6.687363E-4,-3.3951625E-3,5.1478256E-4,3.487976E-3,8.162925E-3,4.9305568E-3,1.0963384E-3,3.1112346E-3,5.318952E-3,1.4450939E-3,-4.122457E-3,7.1298494E-3,4.1378313E-3,7.3061E-3,9.676039E-3,1.2971786E-2,9.391059E-3,8.948772E-3,7.3674374E-4,6.851909E-3,1.2503818E-2,-7.774164E-4,6.2425607E-3,8.7668095E-3,1.2375364E-2,1.7669452E-2,6.50393E-3,1.4222428E-2,6.6046226E-3,2.0060448E-2,1.3917153E-2,1.3795689E-2,4.3431763E-3,1.46864755E-2,1.9810835E-2],"categories":[],"categories_nodes":[],"categories_segments":[],"categories_sizes":[],"default_left":[0,0,0,0,0,0,0,0,0,0,0,0,0,0,0,0,0,0,0,0,0,0,0,0,0,0,0,0,0,0,0,0,0,0,0,0,0,0,0,0,0,0,0,0,0,0,0,0,0,0,0,0,0,0,0,0,0,0,0,0,0,0,0,0,0,0,0,0,0,0,0,0,0,0,0,0,0,0,0,0,0,0,0,0,0,0,0,0,0,0,0,0,0,0,0,0,0,0,0,0,0,0,0,0,0,0,0,0,0,0,0,0,0,0,0,0,0],"id":8,"left_children":[1,3,5,7,9,11,13,15,17,19,21,23,25,27,29,-1,31,33,35,37,39,41,43,45,47,49,51,53,55,57,59,61,63,65,67,69,71,73,75,77,79,81,83,85,87,89,91,93,95,97,99,101,103,105,-1,107,109,111,-1,113,115,-1,-1,-1,-1,-1,-1,-1,-1,-1,-1,-1,-1,-1,-1,-1,-1,-1,-1,-1,-1,-1,-1,-1,-1,-1,-1,-1,-1,-1,-1,-1,-1,-1,-1,-1,-1,-1,-1,-1,-1,-1,-1,-1,-1,-1,-1,-1,-1,-1,-1,-1,-1,-1,-1,-1,-1],"loss_changes":[3.4567184E2,4.158365E1,4.721988E1,2.547493E0,4.2569613E0,3.4682312E0,7.03331E0,1.2767029E-1,3.9937305E-1,9.758657E-1,2.011621E0,1.7538452E0,5.536308E-1,2.0831146E0,1.0563889E0,0E0,8.810043E-3,1.272173E-1,1.1930764E-1,2.5436532E-1,3.6911735E-1,6.801877E-1,1.201489E0,3.942299E-1,1.478096E0,5.7873154E-1,3.3615565E-1,6.3036346E-1,1.0984421E0,3.0873108E-1,6.9952774E-1,6.7806244E-4,9.815693E-4,4.885769E-2,7.902014E-2,7.67504E-2,7.8264505E-2,1.1060119E-1,2.077243E-1,2.1108034E-1,2.509089E-1,5.381197E-1,5.741462E-1,8.315482E-1,4.6277857E-1,3.645916E-1,8.125444E-2,9.650364E-1,4.8934746E-1,3.9294624E-1,4.2430997E-1,1.1374283E-1,2.0991158E-1,3.9518738E-1,0E0,1.1544228E0,8.089752E-1,2.1285248E-1,0E0,3.5651302E-1,7.1359634E-2,0E0,0E0,0E0,0E0,0E0,0E0,0E0,0E0,0E0,0E0,0E0,0E0,0E0,0E0,0E0,0E0,0E0,0E0,0E0,0E0,0E0,0E0,0E0,0E0,0E0,0E0,0E0,0E0,0E0,0E0,0E0,0E0,0E0,0E0,0E0,0E0,0E0,0E0,0E0,0E0,0E0,0E0,0E0,0E0,0E0,0E0,0E0,0E0,0E0,0E0,0E0,0E0,0E0,0E0,0E0,0E0],"parents":[2147483647,0,0,1,1,2,2,3,3,4,4,5,5,6,6,7,7,8,8,9,9,10,10,11,11,12,12,13,13,14,14,16,16,17,17,18,18,19,19,20,20,21,21,22,22,23,23,24,24,25,25,26,26,27,27,28,28,29,29,30,30,31,31,32,32,33,33,34,34,35,35,36,36,37,37,38,38,39,39,40,40,41,41,42,42,43,43,44,44,45,45,46,46,47,47,48,48,49,49,50,50,51,51,52,52,53,53,55,55,56,56,57,57,59,59,60,60],"right_children":[2,4,6,8,10,12,14,16,18,20,22,24,26,28,30,-1,32,34,36,38,40,42,44,46,48,50,52,54,56,58,60,62,64,66,68,70,72,74,76,78,80,82,84,86,88,90,92,94,96,98,100,102,104,106,-1,108,110,112,-1,114,116,-1,-1,-1,-1,-1,-1,-1,-1,-1,-1,-1,-1,-1,-1,-1,-1,-1,-1,-1,-1,-1,-1,-1,-1,-1,-1,-1,-1,-1,-1,-1,-1,-1,-1,-1,-1,-1,-1,-1,-1,-1,-1,-1,-1,-1,-1,-1,-1,-1,-1,-1,-1,-1,-1,-1,-1],"split_conditions":[6.346144E4,6.2399998E1,4.117E2,1.48E1,3.70596E4,1.1237933E5,5.628E2,2.32826E3,1.538E1,3.606E2,2.784725E1,5.9812836E4,2E0,1.2233518E5,2.543554E1,-5.1647774E-3,2.7475E1,2.96672E4,4E-1,4.807959E4,1.0863815E1,1E0,8.2E0,3.499785E-1,1.73313E2,7.56E1,3.0822647E1,3.559026E-2,1E0,2.7002548E2,1.8897722E6,2.3638853E1,1E0,1.16382E4,1E0,1E2,6E-1,2.75475E2,1E0,1.0329E3,2.513569E1,7.93E1,2.74125E2,4.7319316E4,1.754E2,5.000384E4,8.164963E-2,1E0,8.293871E4,3.9391932E-1,4.2379513E1,3.0467438E1,9.372119E-3,1.73977E2,9.529704E-4,1E0,7.29E1,9.5075E1,2.2751788E-2,1.0198E3,6.411E2,-4.765132E-3,-4.3786834E-3,-3.8145506E-3,-4.443071E-3,-4.0456983E-3,-3.3698254E-3,-1.854416E-3,-3.444216E-3,-5.722285E-4,-2.7375834E-3,-2.255441E-3,3.3062504E-4,-3.2562749E-3,-1.9250022E-3,6.6723424E-4,-1.6732406E-3,-2.2627185E-4,6.7429626E-3,6.2866467E-3,1.3179741E-3,3.2694843E-3,6.687363E-4,-3.3951625E-3,5.1478256E-4,3.487976E-3,8.162925E-3,4.9305568E-3,1.0963384E-3,3.1112346E-3,5.318952E-3,1.4450939E-3,-4.122457E-3,7.1298494E-3,4.1378313E-3,7.3061E-3,9.676039E-3,1.2971786E-2,9.391059E-3,8.948772E-3,7.3674374E-4,6.851909E-3,1.2503818E-2,-7.774164E-4,6.2425607E-3,8.7668095E-3,1.2375364E-2,1.7669452E-2,6.50393E-3,1.4222428E-2,6.6046226E-3,2.0060448E-2,1.3917153E-2,1.3795689E-2,4.3431763E-3,1.46864755E-2,1.9810835E-2],"split_indices":[41,39,39,39,41,53,39,149,138,63,138,53,0,53,209,0,147,53,31,53,177,0,5,182,29,27,210,183,0,49,124,209,0,41,0,87,69,140,0,74,169,109,140,53,96,53,198,0,53,44,210,172,206,29,0,76,27,141,0,20,9,0,0,0,0,0,0,0,0,0,0,0,0,0,0,0,0,0,0,0,0,0,0,0,0,0,0,0,0,0,0,0,0,0,0,0,0,0,0,0,0,0,0,0,0,0,0,0,0,0,0,0,0,0,0,0,0],"split_type":[0,0,0,0,0,0,0,0,0,0,0,0,0,0,0,0,0,0,0,0,0,0,0,0,0,0,0,0,0,0,0,0,0,0,0,0,0,0,0,0,0,0,0,0,0,0,0,0,0,0,0,0,0,0,0,0,0,0,0,0,0,0,0,0,0,0,0,0,0,0,0,0,0,0,0,0,0,0,0,0,0,0,0,0,0,0,0,0,0,0,0,0,0,0,0,0,0,0,0,0,0,0,0,0,0,0,0,0,0,0,0,0,0,0,0,0,0],"sum_hessian":[2.4864E4,1.8865E4,5.999E3,1.3621E4,5.244E3,3.536E3,2.463E3,1.1187E4,2.434E3,2.576E3,2.668E3,2.889E3,6.47E2,1.66E3,8.03E2,9.755E3,1.432E3,1.849E3,5.85E2,1.557E3,1.019E3,1.868E3,8E2,7.87E2,2.102E3,5.04E2,1.43E2,6.07E2,1.053E3,6.07E2,1.96E2,1.218E3,2.14E2,1.521E3,3.28E2,4.66E2,1.19E2,1.173E3,3.84E2,8.95E2,1.24E2,8E2,1.068E3,3.86E2,4.14E2,7.61E2,2.6E1,1.101E3,1.001E3,3.89E2,1.15E2,5E1,9.3E1,5.93E2,1.4E1,4.79E2,5.74E2,4.17E2,1.9E2,8.2E1,1.14E2,1.03E3,1.88E2,8.2E1,1.32E2,1.111E3,4.1E2,1.43E2,1.85E2,4.6E1,4.2E2,4.9E1,7E1,1.88E2,9.85E2,1.67E2,2.17E2,8.85E2,1E1,3.5E1,8.9E1,4.28E2,3.72E2,1.03E2,9.65E2,1.83E2,2.03E2,1.05E2,3.09E2,3.91E2,3.7E2,1E1,1.6E1,4.94E2,6.07E2,6.46E2,3.55E2,2.58E2,1.31E2,9.6E1,1.9E1,1.9E1,3.1E1,1.2E1,8.1E1,1.04E2,4.89E2,4.53E2,2.6E1,5.34E2,4E1,3.92E2,2.5E1,6.9E1,1.3E1,2.5E1,8.9E1],"tree_param":{"num_deleted":"0","num_feature":"217","num_nodes":"117","size_leaf_vector":"1"}},{"base_weights":[1.4028655E-4,-6.349182E-2,1.9981672E-1,-8.9270994E-2,1.179012E-2,1.2867095E-1,3.0021456E-1,-9.647685E-2,-5.8764435E-2,-5.529147E-3,5.176879E-2,9.2880756E-2,1.5871906E-1,2.6134795E-1,3.7561467E-1,-9.798899E-2,-8.610837E-2,-6.531348E-2,-2.8220957E-2,-1.7230691E-2,2.8307332E-2,3.493868E-2,9.367918E-2,7.608491E-2,1.3646975E-1,1.03878096E-1,1.7164327E-1,2.218231E-1,2.8788787E-1,3.9310116E-1,2.946E-1,-4.917436E-3,-4.7347145E-3,-8.738313E-2,-7.502079E-2,-6.661043E-2,-1.602117E-2,-2.1798758E-2,-5.7506617E-2,-2.4540495E-2,1.4818344E-2,2.114845E-2,1.2550381E-1,5.208861E-2,2.8575612E-3,4.9167905E-2,1.3669172E-1,8.290298E-2,-2.115312E-2,1.4856003E-1,1.6635593E-2,4.432995E-2,1.1751733E-1,1.7998038E-1,9.6790485E-2,1.09180465E-1,2.3158374E-1,1.776472E-1,3.0201855E-1,2.764125E-1,4.000256E-1,2.5033996E-1,3.7192717E-1,-4.3904046E-3,-3.0004003E-3,-3.8624096E-3,-1.9217285E-3,-3.4600843E-3,-2.590736E-3,-1.700034E-3,2.4415515E-3,1.8428535E-3,-1.2693008E-3,-2.2924603E-3,-4.3468755E-3,-1.4908816E-3,-1.5526515E-6,-7.2658615E-5,3.7801154E-3,2.095769E-3,8.575516E-7,1.128213E-2,4.3118666E-3,1.1996957E-3,3.3583455E-3,-2.9387085E-3,9.421034E-4,8.745117E-3,1.2947753E-3,5.025641E-3,1.2411164E-2,4.375408E-3,-1.5470715E-3,-5.339188E-3,2.274838E-3,6.3154283E-3,1.1041775E-2,-8.498354E-4,4.6484466E-3,3.1800603E-3,-1.8649001E-3,5.5498253E-3,1.3184031E-2,9.880307E-3,8.0467425E-3,6.067768E-3,-2.5801472E-3,9.85457E-4,8.193124E-3,7.005521E-3,1.1921152E-2,9.874042E-3,4.1821497E-4,1.2348657E-2,1.602053E-2,1.6301855E-2,1.0563114E-2,1.924189E-2,2.1988258E-2,1.4748432E-2,6.4683193E-3,2.0379633E-2,1.3897608E-2],"categories":[],"categories_nodes":[],"categories_segments":[],"categories_sizes":[],"default_left":[0,0,0,0,0,0,0,0,0,0,0,0,0,0,0,0,0,0,0,0,0,0,0,0,0,0,0,0,0,0,0,0,0,0,0,0,0,0,0,0,0,0,0,0,0,0,0,0,0,0,0,0,0,0,0,0,0,0,0,0,0,0,0,0,0,0,0,0,0,0,0,0,0,0,0,0,0,0,0,0,0,0,0,0,0,0,0,0,0,0,0,0,0,0,0,0,0,0,0,0,0,0,0,0,0,0,0,0,0,0,0,0,0,0,0,0,0,0,0,0,0,0,0],"id":9,"left_children":[1,3,5,7,9,11,13,15,17,19,21,23,25,27,29,31,33,35,37,39,41,43,45,47,49,51,53,55,57,59,61,-1,-1,63,65,67,69,71,73,75,77,79,81,83,85,87,89,91,93,95,97,99,101,103,105,107,109,111,113,115,117,119,121,-1,-1,-1,-1,-1,-1,-1,-1,-1,-1,-1,-1,-1,-1,-1,-1,-1,-1,-1,-1,-1,-1,-1,-1,-1,-1,-1,-1,-1,-1,-1,-1,-1,-1,-1,-1,-1,-1,-1,-1,-1,-1,-1,-1,-1,-1,-1,-1,-1,-1,-1,-1,-1,-1,-1,-1,-1,-1,-1,-1],"loss_changes":[3.158797E2,3.6589188E1,4.287581E1,3.0815582E0,3.3307366E0,3.7686157E0,7.201828E0,1.6966248E-1,5.3543854E-1,1.3296552E0,1.0223157E0,1.1668558E0,1.3366394E0,1.6638336E0,1.0812683E0,2.418518E-3,1.3995171E-2,1.4028072E-1,8.827174E-2,5.8487266E-1,5.978366E-1,5.714977E-1,7.897289E-1,7.7279425E-1,6.437063E-1,2.928648E-1,9.46743E-1,7.069588E-1,1.4760818E0,4.4857025E-1,4.339571E-1,0E0,0E0,9.830475E-3,9.825289E-3,7.899761E-2,6.928892E-2,8.341774E-2,2.5176495E-2,2.6281714E-1,4.590278E-1,3.5325912E-1,2.125349E-1,2.8517926E-1,3.587179E-1,5.98256E-1,8.2645416E-1,5.725932E-1,4.443182E-1,6.234417E-1,1.0940533E-1,1.124873E-1,2.547574E-1,4.3447495E-1,5.7856894E-1,2.658564E-1,3.4946823E-1,3.811028E-1,8.006439E-1,6.6909075E-2,2.2367859E-1,5.071287E-1,6.769848E-2,0E0,0E0,0E0,0E0,0E0,0E0,0E0,0E0,0E0,0E0,0E0,0E0,0E0,0E0,0E0,0E0,0E0,0E0,0E0,0E0,0E0,0E0,0E0,0E0,0E0,0E0,0E0,0E0,0E0,0E0,0E0,0E0,0E0,0E0,0E0,0E0,0E0,0E0,0E0,0E0,0E0,0E0,0E0,0E0,0E0,0E0,0E0,0E0,0E0,0E0,0E0,0E0,0E0,0E0,0E0,0E0,0E0,0E0,0E0,0E0],"parents":[2147483647,0,0,1,1,2,2,3,3,4,4,5,5,6,6,7,7,8,8,9,9,10,10,11,11,12,12,13,13,14,14,15,15,16,16,17,17,18,18,19,19,20,20,21,21,22,22,23,23,24,24,25,25,26,26,27,27,28,28,29,29,30,30,33,33,34,34,35,35,36,36,37,37,38,38,39,39,40,40,41,41,42,42,43,43,44,44,45,45,46,46,47,47,48,48,49,49,50,50,51,51,52,52,53,53,54,54,55,55,56,56,57,57,58,58,59,59,60,60,61,61,62,62],"right_children":[2,4,6,8,10,12,14,16,18,20,22,24,26,28,30,32,34,36,38,40,42,44,46,48,50,52,54,56,58,60,62,-1,-1,64,66,68,70,72,74,76,78,80,82,84,86,88,90,92,94,96,98,100,102,104,106,108,110,112,114,116,118,120,122,-1,-1,-1,-1,-1,-1,-1,-1,-1,-1,-1,-1,-1,-1,-1,-1,-1,-1,-1,-1,-1,-1,-1,-1,-1,-1,-1,-1,-1,-1,-1,-1,-1,-1,-1,-1,-1,-1,-1,-1,-1,-1,-1,-1,-1,-1,-1,-1,-1,-1,-1,-1,-1,-1,-1,-1,-1,-1,-1,-1],"split_conditions":[6.417513E4,7.41E1,4.117E2,5.0816704E3,4.8774855E4,3.5890002E2,5.628E2,8.93E1,8.39E2,4.814E2,1.6925822E6,5.425561E0,2.411E2,4.342E2,4.92E1,6.4637994E2,6.91E1,1.9895E2,2E-1,9E0,1.8850296E0,8.2E1,9.5735274E-2,2.4993889E1,7.5E-3,1.749E2,9.4825E1,1.00275E3,2.06344E4,5.2832495E2,6.38725E2,-4.917436E-3,-4.7347145E-3,3.4969723E1,9.92E1,9E0,4.4162254E0,4.0246E3,2.4367E3,2.836E2,2.4609999E2,2.82E2,-5.2183425E-1,4.3998516E4,1.0003E3,2.74E2,3.097E2,1.4999999E-2,9.888E2,1.6846E3,1.238E0,8.742378E0,2.626399E0,6.833E1,1.59975E1,1.88597E2,7.813E2,8.05E1,1.0091E3,2.8747E3,6.719E2,2.3744872E0,1.2909938E-1,-4.3904046E-3,-3.0004003E-3,-3.8624096E-3,-1.9217285E-3,-3.4600843E-3,-2.590736E-3,-1.700034E-3,2.4415515E-3,1.8428535E-3,-1.2693008E-3,-2.2924603E-3,-4.3468755E-3,-1.4908816E-3,-1.5526515E-6,-7.2658615E-5,3.7801154E-3,2.095769E-3,8.575516E-7,1.128213E-2,4.3118666E-3,1.1996957E-3,3.3583455E-3,-2.9387085E-3,9.421034E-4,8.745117E-3,1.2947753E-3,5.025641E-3,1.2411164E-2,4.375408E-3,-1.5470715E-3,-5.339188E-3,2.274838E-3,6.3154283E-3,1.1041775E-2,-8.498354E-4,4.6484466E-3,3.1800603E-3,-1.8649001E-3,5.5498253E-3,1.3184031E-2,9.880307E-3,8.0467425E-3,6.067768E-3,-2.5801472E-3,9.85457E-4,8.193124E-3,7.005521E-3,1.1921152E-2,9.874042E-3,4.1821497E-4,1.2348657E-2,1.602053E-2,1.6301855E-2,1.0563114E-2,1.924189E-2,2.1988258E-2,1.4748432E-2,6.4683193E-3,2.0379633E-2,1.3897608E-2],"split_indices":[41,39,39,41,41,93,39,97,43,63,8,191,51,51,163,149,51,159,26,3,195,163,194,2,129,51,163,128,34,159,160,0,0,2,110,3,191,176,16,105,105,12,40,161,20,12,105,129,23,165,60,214,148,50,2,83,7,33,82,10,39,208,167,0,0,0,0,0,0,0,0,0,0,0,0,0,0,0,0,0,0,0,0,0,0,0,0,0,0,0,0,0,0,0,0,0,0,0,0,0,0,0,0,0,0,0,0,0,0,0,0,0,0,0,0,0,0,0,0,0,0,0,0],"split_type":[0,0,0,0,0,0,0,0,0,0,0,0,0,0,0,0,0,0,0,0,0,0,0,0,0,0,0,0,0,0,0,0,0,0,0,0,0,0,0,0,0,0,0,0,0,0,0,0,0,0,0,0,0,0,0,0,0,0,0,0,0,0,0,0,0,0,0,0,0,0,0,0,0,0,0,0,0,0,0,0,0,0,0,0,0,0,0,0,0,0,0,0,0,0,0,0,0,0,0,0,0,0,0,0,0,0,0,0,0,0,0,0,0,0,0,0,0,0,0,0,0,0,0],"sum_hessian":[2.4859E4,1.8852E4,6.007E3,1.4043E4,4.809E3,3.517E3,2.49E3,1.1358E4,2.685E3,3.356E3,1.453E3,1.607E3,1.91E3,1.646E3,8.44E2,9.905E3,1.453E3,2.21E3,4.75E2,2.494E3,8.62E2,1.038E3,4.15E2,1.162E3,4.45E2,3.66E2,1.544E3,6.65E2,9.81E2,6.91E2,1.53E2,8.904E3,1.001E3,1.297E3,1.56E2,2.153E3,5.7E1,3.91E2,8.4E1,2.031E3,4.63E2,8.04E2,5.8E1,6.76E2,3.62E2,2.05E2,2.1E2,1.086E3,7.6E1,4.04E2,4.1E1,6.9E1,2.97E2,1.388E3,1.56E2,5.4E1,6.11E2,1.13E2,8.68E2,4.1E1,6.5E2,1E2,5.3E1,1.275E3,2.2E1,1.46E2,1E1,1.829E3,3.24E2,4.5E1,1.2E1,2.2E1,3.69E2,6.2E1,2.2E1,1.671E3,3.6E2,3.66E2,9.7E1,4.05E2,3.99E2,1.5E1,4.3E1,2.37E2,4.39E2,7.4E1,2.88E2,3.1E1,1.74E2,1.6E2,5E1,1.044E3,4.2E1,3.3E1,4.3E1,3.11E2,9.3E1,2.9E1,1.2E1,5.6E1,1.3E1,2.86E2,1.1E1,7.16E2,6.72E2,1.34E2,2.2E1,2.1E1,3.3E1,4.4E1,5.67E2,1.01E2,1.2E1,2.21E2,6.47E2,2.1E1,2E1,4.78E2,1.72E2,7.2E1,2.8E1,3.6E1,1.7E1],"tree_param":{"num_deleted":"0","num_feature":"217","num_nodes":"123","size_leaf_vector":"1"}},{"base_weights":[-6.6619983E-4,-6.741876E-2,1.6378589E-1,-8.806748E-2,-1.1086221E-2,1.0104762E-1,2.7466294E-1,-9.2264965E-2,-6.520264E-2,-3.1446483E-2,1.8280819E-2,7.050835E-2,1.4371419E-1,2.3103683E-1,3.3929116E-1,-4.6632458E-3,-8.48446E-2,-7.1761005E-2,-4.667536E-2,-4.3736428E-2,-1.1050339E-2,3.6108956E-2,-2.9801994E-3,5.505277E-2,1.2132327E-1,1.4908324E-1,3.761671E-2,1.7108637E-1,2.5094151E-1,3.0636397E-1,3.8032046E-1,-4.311637E-3,-7.495306E-2,-7.411637E-2,-6.358036E-2,-5.345844E-2,-2.1124884E-2,-7.270605E-2,-3.951746E-2,-1.909719E-2,3.3176214E-2,1.7031748E-2,6.925099E-2,-2.7424661E-2,1.2597347E-2,7.894237E-2,3.5527267E-2,1.3353993E-1,1.6754068E-2,1.7496894E-1,1.2994121E-1,6.709544E-2,-4.036326E-3,1.8101561E-1,2.5878701E-2,1.765247E-1,2.634041E-1,3.4948406E-1,2.769062E-1,3.8418812E-1,9.4113145E-3,-3.2785654E-3,-4.099523E-3,-3.998638E-3,-3.48052E-3,-2.5866067E-3,-3.6575627E-3,-2.7508182E-3,4.3805814E-4,1.3214017E-3,-2.6728928E-3,-4.4649495E-3,-2.9067225E-3,-2.2705726E-3,-1.0496815E-3,-1.5685514E-3,-2.4695563E-4,3.8416726E-3,7.8879966E-5,1.6935446E-3,-4.2242146E-4,4.073179E-3,4.5871324E-4,-4.0119304E-3,-1.0968767E-3,4.162312E-4,5.8899107E-3,9.7255514E-4,4.828031E-3,-5.6612664E-3,1.9642408E-3,3.981555E-3,8.024884E-3,4.364557E-3,-7.9059287E-4,1.3800581E-2,8.039415E-3,4.5116064E-3,8.008714E-3,1.3193053E-3,6.924517E-3,9.822055E-3,6.199625E-3,3.9404086E-3,-2.6731119E-3,6.002814E-3,1.1611806E-2,1.3298291E-2,1.6337471E-3,1.8618256E-2,1.34539185E-2,3.8031104E-3,1.4159945E-2,1.7374663E-2,2.0279322E-2],"categories":[],"categories_nodes":[],"categories_segments":[],"categories_sizes":[],"default_left":[0,0,0,0,0,0,0,0,0,0,0,0,0,0,0,0,0,0,0,0,0,0,0,0,0,0,0,0,0,0,0,0,0,0,0,0,0,0,0,0,0,0,0,0,0,0,0,0,0,0,0,0,0,0,0,0,0,0,0,0,0,0,0,0,0,0,0,0,0,0,0,0,0,0,0,0,0,0,0,0,0,0,0,0,0,0,0,0,0,0,0,0,0,0,0,0,0,0,0,0,0,0,0,0,0,0,0,0,0,0,0,0,0,0,0],"id":10,"left_children":[1,3,5,7,9,11,13,15,17,19,21,23,25,27,29,-1,31,33,35,37,39,41,43,45,47,49,51,53,55,57,59,-1,61,63,65,67,69,71,73,75,77,79,81,83,85,87,89,91,93,95,97,99,-1,101,103,105,107,109,111,113,-1,-1,-1,-1,-1,-1,-1,-1,-1,-1,-1,-1,-1,-1,-1,-1,-1,-1,-1,-1,-1,-1,-1,-1,-1,-1,-1,-1,-1,-1,-1,-1,-1,-1,-1,-1,-1,-1,-1,-1,-1,-1,-1,-1,-1,-1,-1,-1,-1,-1,-1,-1,-1,-1,-1],"loss_changes":[2.7162976E2,2.0471245E1,4.9667587E1,1.2300491E0,2.8239563E0,5.936779E0,7.1987E0,7.280731E-2,2.3978901E-1,6.986284E-1,7.331794E-1,2.0839872E0,1.0784264E0,1.7995148E0,1.2857971E0,0E0,1.1426926E-2,2.3727417E-2,9.003222E-2,2.0979285E-1,3.7431234E-1,6.6395533E-1,3.365784E-1,9.501662E-1,7.898035E-1,8.7462234E-1,3.29857E-1,5.5473423E-1,1.026535E0,6.412277E-1,2.6795197E-1,0E0,5.715668E-3,2.4516106E-2,3.443086E-2,4.0709257E-2,1.7361581E-1,4.8001528E-2,1.6510868E-1,1.543301E-1,2.2335914E-1,2.873302E-1,2.8099012E-1,9.7929895E-2,2.4174617E-1,9.6030664E-1,6.3382006E-1,7.937803E-1,1.5298916E-1,1.0546169E0,1.240099E0,2.1432868E-1,0E0,2.9494E-1,1.1339959E-1,5.037818E-1,5.758667E-1,3.2662964E-1,4.2080688E-1,2.1083832E-1,0E0,0E0,0E0,0E0,0E0,0E0,0E0,0E0,0E0,0E0,0E0,0E0,0E0,0E0,0E0,0E0,0E0,0E0,0E0,0E0,0E0,0E0,0E0,0E0,0E0,0E0,0E0,0E0,0E0,0E0,0E0,0E0,0E0,0E0,0E0,0E0,0E0,0E0,0E0,0E0,0E0,0E0,0E0,0E0,0E0,0E0,0E0,0E0,0E0,0E0,0E0,0E0,0E0,0E0,0E0],"parents":[2147483647,0,0,1,1,2,2,3,3,4,4,5,5,6,6,7,7,8,8,9,9,10,10,11,11,12,12,13,13,14,14,16,16,17,17,18,18,19,19,20,20,21,21,22,22,23,23,24,24,25,25,26,26,27,27,28,28,29,29,30,30,32,32,33,33,34,34,35,35,36,36,37,37,38,38,39,39,40,40,41,41,42,42,43,43,44,44,45,45,46,46,47,47,48,48,49,49,50,50,51,51,53,53,54,54,55,55,56,56,57,57,58,58,59,59],"right_children":[2,4,6,8,10,12,14,16,18,20,22,24,26,28,30,-1,32,34,36,38,40,42,44,46,48,50,52,54,56,58,60,-1,62,64,66,68,70,72,74,76,78,80,82,84,86,88,90,92,94,96,98,100,-1,102,104,106,108,110,112,114,-1,-1,-1,-1,-1,-1,-1,-1,-1,-1,-1,-1,-1,-1,-1,-1,-1,-1,-1,-1,-1,-1,-1,-1,-1,-1,-1,-1,-1,-1,-1,-1,-1,-1,-1,-1,-1,-1,-1,-1,-1,-1,-1,-1,-1,-1,-1,-1,-1,-1,-1,-1,-1,-1,-1],"split_conditions":[5.934775E4,7.7750476E2,4.33025E2,2.2654678E2,2.5038977E3,3.524E2,4.115E2,7.375E0,2.058858E4,1.535E2,1E2,5.408262E0,5E-3,4.057E2,4.969E2,-4.6632458E-3,2.48E1,1.247E2,9.659258E-1,2.749E2,9E0,4.609E2,3.7665127E3,1E0,7.5E-3,1E0,1E0,4.8353928E1,1.8383966E2,1E0,3.4999996E-1,-4.311637E-3,1E0,1.1209495E4,1E2,4.524348E0,1E0,3.29971E1,4.734366E0,4.3972745E0,1E0,9.44E1,2.5819886E-1,2.739E2,3.3774975E1,4.420466E0,9.799E2,1.0346458E2,2.648E2,1.9557E3,4.968E2,1.2013296E5,-4.036326E-3,2.67509E6,2.168E2,1.639625E2,1E0,2.86806E1,3.0114E1,6.38875E2,9.4113145E-3,-3.2785654E-3,-4.099523E-3,-3.998638E-3,-3.48052E-3,-2.5866067E-3,-3.6575627E-3,-2.7508182E-3,4.3805814E-4,1.3214017E-3,-2.6728928E-3,-4.4649495E-3,-2.9067225E-3,-2.2705726E-3,-1.0496815E-3,-1.5685514E-3,-2.4695563E-4,3.8416726E-3,7.8879966E-5,1.6935446E-3,-4.2242146E-4,4.073179E-3,4.5871324E-4,-4.0119304E-3,-1.0968767E-3,4.162312E-4,5.8899107E-3,9.7255514E-4,4.828031E-3,-5.6612664E-3,1.9642408E-3,3.981555E-3,8.024884E-3,4.364557E-3,-7.9059287E-4,1.3800581E-2,8.039415E-3,4.5116064E-3,8.008714E-3,1.3193053E-3,6.924517E-3,9.822055E-3,6.199625E-3,3.9404086E-3,-2.6731119E-3,6.002814E-3,1.1611806E-2,1.3298291E-2,1.6337471E-3,1.8618256E-2,1.34539185E-2,3.8031104E-3,1.4159945E-2,1.7374663E-2,2.0279322E-2],"split_indices":[149,97,147,97,97,93,15,147,149,93,33,191,129,159,15,0,69,117,46,32,3,9,97,0,129,0,22,201,49,0,199,0,0,149,55,191,0,171,191,191,0,55,199,32,209,191,24,102,93,97,63,95,0,62,15,137,130,209,30,159,0,0,0,0,0,0,0,0,0,0,0,0,0,0,0,0,0,0,0,0,0,0,0,0,0,0,0,0,0,0,0,0,0,0,0,0,0,0,0,0,0,0,0,0,0,0,0,0,0,0,0,0,0,0,0],"split_type":[0,0,0,0,0,0,0,0,0,0,0,0,0,0,0,0,0,0,0,0,0,0,0,0,0,0,0,0,0,0,0,0,0,0,0,0,0,0,0,0,0,0,0,0,0,0,0,0,0,0,0,0,0,0,0,0,0,0,0,0,0,0,0,0,0,0,0,0,0,0,0,0,0,0,0,0,0,0,0,0,0,0,0,0,0,0,0,0,0,0,0,0,0,0,0,0,0,0,0,0,0,0,0,0,0,0,0,0,0,0,0,0,0,0,0],"sum_hessian":[2.4742E4,1.7599E4,7.143E3,1.2878E4,4.721E3,4.563E3,2.58E3,1.0878E4,2E3,2.788E3,1.933E3,2.661E3,1.902E3,1.543E3,1.037E3,9.576E3,1.302E3,1.475E3,5.25E2,1.739E3,1.049E3,1.051E3,8.82E2,2.042E3,6.19E2,1.81E3,9.2E1,3.87E2,1.156E3,5.8E2,4.57E2,1.135E3,1.67E2,1.139E3,3.36E2,4.14E2,1.11E2,2.19E2,1.52E3,8.88E2,1.61E2,6.68E2,3.83E2,3.43E2,5.39E2,9.17E2,1.125E3,5.54E2,6.5E1,7.66E2,1.044E3,7.4E1,1.8E1,3.62E2,2.5E1,1.68E2,9.88E2,2.31E2,3.49E2,4.47E2,1E1,7.6E1,9.1E1,4.88E2,6.51E2,1.53E2,1.83E2,4.04E2,1E1,4.5E1,6.6E1,1E2,1.19E2,1.152E3,3.68E2,4.75E2,4.13E2,6.7E1,9.4E1,4.02E2,2.66E2,3.18E2,6.5E1,3.1E1,3.12E2,5.19E2,2E1,2.1E2,7.07E2,2.7E1,1.098E3,1.86E2,3.68E2,2E1,4.5E1,9.2E1,6.74E2,4.53E2,5.91E2,4.8E1,2.6E1,2.83E2,7.9E1,1.5E1,1E1,8.5E1,8.3E1,9.77E2,1.1E1,1.77E2,5.4E1,1.1E1,3.38E2,1.71E2,2.76E2],"tree_param":{"num_deleted":"0","num_feature":"217","num_nodes":"115","size_leaf_vector":"1"}},{"base_weights":[-1.1616788E-4,-5.6989275E-2,1.7965186E-1,-8.098127E-2,9.71705E-3,1.23983406E-1,2.8109202E-1,-8.6759135E-2,-5.143034E-2,-1.888604E-3,6.5027855E-2,9.5692225E-2,1.624291E-1,2.5180608E-1,3.4196043E-1,-8.8407606E-2,-7.631885E-2,-5.768029E-2,-2.6344605E-2,-1.3459418E-2,3.592577E-2,2.7692078E-2,8.905801E-2,8.143098E-2,1.3239045E-1,1.2680136E-1,1.9018283E-1,2.5855598E-1,1.0422558E-1,3.0141437E-1,3.7073022E-1,-4.4282502E-3,-4.0276865E-3,-7.772549E-2,-6.256471E-2,-6.1184507E-2,-4.1778997E-2,-3.4837462E-2,1.1934853E-2,-3.0312628E-2,-4.1065225E-3,2.5950063E-2,1.03841566E-1,4.3747514E-3,7.189782E-2,1.3109086E-1,4.993224E-2,1.14920065E-1,5.6151442E-2,2.2496481E-1,1.18206605E-1,1.1613518E-1,1.7435363E-1,2.0247577E-1,1.2787685E-1,1.8582778E-1,2.6975814E-1,3.3220828E-2,1.4888965E-1,3.1120777E-1,3.5153513E-3,3.7504727E-1,1.0102513E-2,-3.9025792E-3,-2.7671484E-3,-2.1869442E-3,-3.516089E-3,-4.1997265E-3,-2.9867738E-3,-2.7969016E-3,-1.3979607E-3,-1.4261045E-3,-3.456351E-3,-3.0618507E-4,3.6542986E-3,-1.8171136E-3,-3.7481906E-4,-1.4676102E-3,2.687054E-4,-1.9744972E-3,1.6251458E-3,8.550006E-3,2.1625045E-3,-1.1093238E-3,2.0870958E-3,-2.2134956E-4,5.9831156E-3,2.6413922E-3,8.426526E-3,1.1617208E-3,5.197983E-3,7.3451283E-3,3.1777893E-3,3.142301E-3,-1.7531777E-3,7.012322E-3,1.3734263E-2,8.235177E-3,4.4881455E-3,6.055336E-3,8.149931E-4,1.1858763E-2,6.1456366E-3,1.1801762E-2,8.829335E-3,3.7237264E-3,9.951482E-3,3.15488E-3,1.0908985E-2,1.5339415E-2,1.2051369E-2,5.2664927E-3,-1.3340557E-3,4.88586E-3,1.1212554E-2,1.6570052E-2,1.2685351E-2,1.2426113E-2,1.8888654E-2],"categories":[],"categories_nodes":[],"categories_segments":[],"categories_sizes":[],"default_left":[0,0,0,0,0,0,0,0,0,0,0,0,0,0,0,0,0,0,0,0,0,0,0,0,0,0,0,0,0,0,0,0,0,0,0,0,0,0,0,0,0,0,0,0,0,0,0,0,0,0,0,0,0,0,0,0,0,0,0,0,0,0,0,0,0,0,0,0,0,0,0,0,0,0,0,0,0,0,0,0,0,0,0,0,0,0,0,0,0,0,0,0,0,0,0,0,0,0,0,0,0,0,0,0,0,0,0,0,0,0,0,0,0,0,0,0,0,0,0],"id":11,"left_children":[1,3,5,7,9,11,13,15,17,19,21,23,25,27,29,31,33,35,37,39,41,43,45,47,49,51,53,55,57,59,61,-1,-1,63,65,67,69,71,73,75,77,79,81,83,85,87,89,91,93,95,97,99,101,103,105,107,109,111,113,115,-1,117,-1,-1,-1,-1,-1,-1,-1,-1,-1,-1,-1,-1,-1,-1,-1,-1,-1,-1,-1,-1,-1,-1,-1,-1,-1,-1,-1,-1,-1,-1,-1,-1,-1,-1,-1,-1,-1,-1,-1,-1,-1,-1,-1,-1,-1,-1,-1,-1,-1,-1,-1,-1,-1,-1,-1,-1,-1],"loss_changes":[2.5281824E2,3.006464E1,3.3525375E1,2.3544998E0,3.190456E0,4.160042E0,3.6662445E0,1.9212341E-1,3.53127E-1,1.7983482E0,7.709069E-1,1.1479454E0,1.5836792E0,1.3925629E0,6.826477E-1,5.1956177E-3,2.5763512E-2,9.82995E-2,1.4768699E-1,4.959256E-1,6.497456E-1,3.4911296E-1,8.552079E-1,1.3455486E0,7.848797E-1,3.423996E-1,6.726303E-1,1.0595093E0,1.9802088E-1,6.299591E-1,2.1113205E-1,0E0,0E0,6.131172E-3,1.912123E-2,4.3932915E-2,6.3008726E-2,7.836887E-2,9.210451E-2,1.5422285E-1,4.8483127E-1,3.6191994E-1,4.931202E-1,2.2225755E-1,4.270668E-1,7.294922E-1,3.9136374E-1,1.1175957E0,5.59113E-1,3.0266714E-1,6.9674397E-1,2.8937387E-1,3.877251E-1,6.1862373E-1,5.66535E-1,7.207861E-1,1.1793442E0,1.1511656E-1,1.2848747E-1,2.3639297E-1,0E0,3.8204193E-2,0E0,0E0,0E0,0E0,0E0,0E0,0E0,0E0,0E0,0E0,0E0,0E0,0E0,0E0,0E0,0E0,0E0,0E0,0E0,0E0,0E0,0E0,0E0,0E0,0E0,0E0,0E0,0E0,0E0,0E0,0E0,0E0,0E0,0E0,0E0,0E0,0E0,0E0,0E0,0E0,0E0,0E0,0E0,0E0,0E0,0E0,0E0,0E0,0E0,0E0,0E0,0E0,0E0,0E0,0E0,0E0,0E0],"parents":[2147483647,0,0,1,1,2,2,3,3,4,4,5,5,6,6,7,7,8,8,9,9,10,10,11,11,12,12,13,13,14,14,15,15,16,16,17,17,18,18,19,19,20,20,21,21,22,22,23,23,24,24,25,25,26,26,27,27,28,28,29,29,30,30,33,33,34,34,35,35,36,36,37,37,38,38,39,39,40,40,41,41,42,42,43,43,44,44,45,45,46,46,47,47,48,48,49,49,50,50,51,51,52,52,53,53,54,54,55,55,56,56,57,57,58,58,59,59,61,61],"right_children":[2,4,6,8,10,12,14,16,18,20,22,24,26,28,30,32,34,36,38,40,42,44,46,48,50,52,54,56,58,60,62,-1,-1,64,66,68,70,72,74,76,78,80,82,84,86,88,90,92,94,96,98,100,102,104,106,108,110,112,114,116,-1,118,-1,-1,-1,-1,-1,-1,-1,-1,-1,-1,-1,-1,-1,-1,-1,-1,-1,-1,-1,-1,-1,-1,-1,-1,-1,-1,-1,-1,-1,-1,-1,-1,-1,-1,-1,-1,-1,-1,-1,-1,-1,-1,-1,-1,-1,-1,-1,-1,-1,-1,-1,-1,-1,-1,-1,-1,-1],"split_conditions":[6.417513E4,1.9511682E4,4.7045E2,6.15816E3,4.473503E3,9.4185766E4,4.605E2,4.000315E1,1.2337108E6,4.8774855E4,9.564974E1,5.303E2,3.68225E2,2E-2,1.7945031E5,1.53391875E4,1.9581799E4,1.767E2,1.6901685E0,9.3525E1,3.43225E2,1.237E0,1.4028265E0,1E0,6.272381E3,2.94E2,7.45E1,1.9261523E2,-5.6924534E-1,4.44188E5,3.872984E-1,-4.4282502E-3,-4.0276865E-3,3.4969723E1,1E0,2.7365002E2,8.4364E1,1E-1,1.0654E3,2E-1,8.8999E1,2.738E2,1E0,1.73313E2,8.2219213E-1,6.0321598E4,1.5215E3,7.83E1,2.4998888E1,1.606E2,7.8554595E-1,2E-2,1E0,1E0,2.858E2,1.68503E2,1E0,1.9136766E1,7.9200664E3,6.3633687E3,3.5153513E-3,2.3617871E2,1.0102513E-2,-3.9025792E-3,-2.7671484E-3,-2.1869442E-3,-3.516089E-3,-4.1997265E-3,-2.9867738E-3,-2.7969016E-3,-1.3979607E-3,-1.4261045E-3,-3.456351E-3,-3.0618507E-4,3.6542986E-3,-1.8171136E-3,-3.7481906E-4,-1.4676102E-3,2.687054E-4,-1.9744972E-3,1.6251458E-3,8.550006E-3,2.1625045E-3,-1.1093238E-3,2.0870958E-3,-2.2134956E-4,5.9831156E-3,2.6413922E-3,8.426526E-3,1.1617208E-3,5.197983E-3,7.3451283E-3,3.1777893E-3,3.142301E-3,-1.7531777E-3,7.012322E-3,1.3734263E-2,8.235177E-3,4.4881455E-3,6.055336E-3,8.149931E-4,1.1858763E-2,6.1456366E-3,1.1801762E-2,8.829335E-3,3.7237264E-3,9.951482E-3,3.15488E-3,1.0908985E-2,1.5339415E-2,1.2051369E-2,5.2664927E-3,-1.3340557E-3,4.88586E-3,1.1212554E-2,1.6570052E-2,1.2685351E-2,1.2426113E-2,1.8888654E-2],"split_indices":[41,41,147,41,151,41,15,151,62,41,49,9,159,75,41,161,95,105,177,159,159,6,192,0,151,15,27,49,153,14,197,0,0,2,0,140,83,75,57,85,29,140,0,29,98,107,64,109,2,67,192,75,0,0,32,83,0,177,151,211,0,49,0,0,0,0,0,0,0,0,0,0,0,0,0,0,0,0,0,0,0,0,0,0,0,0,0,0,0,0,0,0,0,0,0,0,0,0,0,0,0,0,0,0,0,0,0,0,0,0,0,0,0,0,0,0,0,0,0],"split_type":[0,0,0,0,0,0,0,0,0,0,0,0,0,0,0,0,0,0,0,0,0,0,0,0,0,0,0,0,0,0,0,0,0,0,0,0,0,0,0,0,0,0,0,0,0,0,0,0,0,0,0,0,0,0,0,0,0,0,0,0,0,0,0,0,0,0,0,0,0,0,0,0,0,0,0,0,0,0,0,0,0,0,0,0,0,0,0,0,0,0,0,0,0,0,0,0,0,0,0,0,0,0,0,0,0,0,0,0,0,0,0,0,0,0,0,0,0,0,0],"sum_hessian":[2.4726E4,1.8784E4,5.942E3,1.3815E4,4.969E3,3.838E3,2.104E3,1.1554E4,2.261E3,4.108E3,8.61E2,2.213E3,1.625E3,1.424E3,6.8E2,9.972E3,1.582E3,1.809E3,4.52E2,3.146E3,9.62E2,3.38E2,5.23E2,1.596E3,6.17E2,7.14E2,9.11E2,1.361E3,6.3E1,2.87E2,3.93E2,9.766E3,2.06E2,1.431E3,1.51E2,1.48E3,3.29E2,3.7E2,8.2E1,1.122E3,2.024E3,8.4E2,1.22E2,2.22E2,1.16E2,2.51E2,2.72E2,6.85E2,9.11E2,8E1,5.37E2,5.86E2,1.28E2,7.59E2,1.52E2,1.84E2,1.177E3,2.5E1,3.8E1,2.75E2,1.2E1,3.82E2,1.1E1,1.408E3,2.3E1,4.6E1,1.05E2,8.5E1,1.395E3,1.61E2,1.68E2,3.14E2,5.6E1,6.4E1,1.8E1,8.87E2,2.35E2,5.52E2,1.472E3,7.6E1,7.64E2,5.7E1,6.5E1,1.3E2,9.2E1,4.5E1,7.1E1,8.2E1,1.69E2,1.83E2,8.9E1,4.21E2,2.64E2,8.49E2,6.2E1,3.1E1,4.9E1,2.02E2,3.35E2,5.58E2,2.8E1,5.6E1,7.2E1,3.27E2,4.32E2,8.8E1,6.4E1,3.9E1,1.45E2,5.1E2,6.67E2,1.1E1,1.4E1,2.4E1,1.4E1,2E2,7.5E1,1E1,3.72E2],"tree_param":{"num_deleted":"0","num_feature":"217","num_nodes":"119","size_leaf_vector":"1"}},{"base_weights":[4.0373253E-4,-5.0602663E-2,1.8571508E-1,-7.491414E-2,1.9302376E-2,1.3405803E-1,2.7735123E-1,-8.21286E-2,-4.4577908E-2,2.9298745E-3,5.9911903E-2,1.1006888E-1,1.7812309E-1,2.371006E-1,3.189768E-1,-8.36953E-2,-6.95092E-2,-5.3976897E-2,-2.5071684E-2,-4.6322932E-3,5.6251924E-2,2.5891284E-2,9.625157E-2,5.116124E-3,1.1546401E-1,1.9243532E-1,1.1921668E-1,2.4944554E-1,1.3730781E-1,3.2433277E-1,1.0997526E-1,-4.2118668E-3,-3.941843E-3,-7.1059E-2,-5.8158375E-2,-5.8241807E-2,-4.33531E-2,5.0659437E-2,-2.7385164E-2,-1.1876326E-2,2.7413288E-2,9.385296E-2,2.6459774E-2,3.510449E-2,-2.679915E-2,2.5269987E-2,1.1152431E-1,4.817598E-2,-1.4939487E-1,1.422582E-1,9.635906E-2,2.3054926E-1,1.6125421E-1,6.6229E-2,1.4529136E-1,1.3877606E-1,2.5925687E-1,1.8155111E-1,2.3791278E-2,2.8684112E-1,3.5677028E-1,1.9031632E-3,8.187938E-3,-3.5773E-3,-1.8539807E-3,-2.185867E-3,-3.4046029E-3,-2.8291014E-3,-3.6660642E-3,-2.9344843E-3,-1.4741964E-3,5.892941E-3,-1.5387591E-3,-1.8840391E-3,-7.05742E-4,-1.1617042E-3,2.524841E-4,-7.283796E-4,2.0288776E-3,1.1147133E-2,2.9018624E-3,-3.6029185E-5,2.3889525E-3,2.2647022E-4,2.406936E-3,1.3479897E-3,-2.01954E-3,2.4303126E-3,-2.3153373E-3,7.1509206E-3,3.9539854E-3,6.6784094E-3,-2.4501467E-4,-5.0298003E-3,-8.853288E-3,1.1683376E-2,5.873594E-3,3.4887267E-3,6.7952797E-3,1.5692497E-2,1.0068825E-2,1.9621227E-3,8.580557E-3,7.7075274E-3,1.1730961E-3,1.2392073E-2,5.8639944E-3,3.3907306E-3,1.1636491E-2,1.4559644E-2,1.1676407E-2,1.0272311E-2,7.57951E-4,-5.683822E-3,4.572186E-3,1.2797532E-2,1.6376367E-2,8.339616E-3,1.802017E-2],"categories":[],"categories_nodes":[],"categories_segments":[],"categories_sizes":[],"default_left":[0,0,0,0,0,0,0,0,0,0,0,0,0,0,0,0,0,0,0,0,0,0,0,0,0,0,0,0,0,0,0,0,0,0,0,0,0,0,0,0,0,0,0,0,0,0,0,0,0,0,0,0,0,0,0,0,0,0,0,0,0,0,0,0,0,0,0,0,0,0,0,0,0,0,0,0,0,0,0,0,0,0,0,0,0,0,0,0,0,0,0,0,0,0,0,0,0,0,0,0,0,0,0,0,0,0,0,0,0,0,0,0,0,0,0,0,0,0,0],"id":12,"left_children":[1,3,5,7,9,11,13,15,17,19,21,23,25,27,29,31,33,35,37,39,41,43,45,47,49,51,53,55,57,59,61,-1,-1,63,65,67,69,71,73,75,77,79,81,83,85,87,89,91,93,95,97,99,101,103,105,107,109,111,113,115,117,-1,-1,-1,-1,-1,-1,-1,-1,-1,-1,-1,-1,-1,-1,-1,-1,-1,-1,-1,-1,-1,-1,-1,-1,-1,-1,-1,-1,-1,-1,-1,-1,-1,-1,-1,-1,-1,-1,-1,-1,-1,-1,-1,-1,-1,-1,-1,-1,-1,-1,-1,-1,-1,-1,-1,-1,-1,-1],"loss_changes":[2.3310674E2,3.286798E1,2.516005E1,3.136757E0,3.3182383E0,3.5808182E0,3.1378937E0,2.2335052E-1,5.04478E-1,1.4349538E0,1.7703595E0,1.2496548E0,9.879112E-1,1.1718178E0,1.0165634E0,2.0492554E-2,1.8490314E-2,8.179617E-2,1.5889436E-1,7.2390366E-1,4.9265206E-1,3.6114314E-1,7.4845123E-1,7.3239833E-1,1.0612869E0,1.1072884E0,3.178258E-1,9.0867615E-1,5.481391E-1,1.0116501E0,9.045878E-2,0E0,0E0,1.5996933E-2,1.9975662E-2,2.9013634E-2,1.1249256E-1,1.5138072E-1,1.1874288E-1,4.8898742E-1,3.1836337E-1,8.886318E-1,1.4374188E-1,2.5164807E-1,8.2193576E-2,2.0937213E-1,5.711241E-1,3.904323E-1,1.459527E-2,1.9482422E0,1.2825966E0,9.841747E-1,6.668005E-1,2.971952E-1,4.248004E-1,4.7091556E-1,5.8769226E-1,3.109858E-1,3.0799583E-1,4.566002E-1,2.7601624E-1,0E0,0E0,0E0,0E0,0E0,0E0,0E0,0E0,0E0,0E0,0E0,0E0,0E0,0E0,0E0,0E0,0E0,0E0,0E0,0E0,0E0,0E0,0E0,0E0,0E0,0E0,0E0,0E0,0E0,0E0,0E0,0E0,0E0,0E0,0E0,0E0,0E0,0E0,0E0,0E0,0E0,0E0,0E0,0E0,0E0,0E0,0E0,0E0,0E0,0E0,0E0,0E0,0E0,0E0,0E0,0E0,0E0,0E0],"parents":[2147483647,0,0,1,1,2,2,3,3,4,4,5,5,6,6,7,7,8,8,9,9,10,10,11,11,12,12,13,13,14,14,15,15,16,16,17,17,18,18,19,19,20,20,21,21,22,22,23,23,24,24,25,25,26,26,27,27,28,28,29,29,30,30,33,33,34,34,35,35,36,36,37,37,38,38,39,39,40,40,41,41,42,42,43,43,44,44,45,45,46,46,47,47,48,48,49,49,50,50,51,51,52,52,53,53,54,54,55,55,56,56,57,57,58,58,59,59,60,60],"right_children":[2,4,6,8,10,12,14,16,18,20,22,24,26,28,30,32,34,36,38,40,42,44,46,48,50,52,54,56,58,60,62,-1,-1,64,66,68,70,72,74,76,78,80,82,84,86,88,90,92,94,96,98,100,102,104,106,108,110,112,114,116,118,-1,-1,-1,-1,-1,-1,-1,-1,-1,-1,-1,-1,-1,-1,-1,-1,-1,-1,-1,-1,-1,-1,-1,-1,-1,-1,-1,-1,-1,-1,-1,-1,-1,-1,-1,-1,-1,-1,-1,-1,-1,-1,-1,-1,-1,-1,-1,-1,-1,-1,-1,-1,-1,-1,-1,-1,-1,-1],"split_conditions":[2.88425E2,1.06225E2,1.3086328E5,6.9787197E3,1.6785758E6,4.0225E2,5.473E2,1.8375E1,9.920713E5,3.09675E2,2.049E2,9.896E2,3.0749998E0,3E0,2.5E-1,1.15E1,8.181895E3,6.106492E3,8.957095E-2,9E0,1E0,5E-1,3.7515E2,1E0,1E0,1E0,1.6700784E0,1.8674928E2,6.79E1,6.986E2,5.773504E-2,-4.2118668E-3,-3.941843E-3,1.0267452E6,1E0,5.0000027E-3,7.944575E1,1.013E3,6.2399998E1,4.337214E4,7.82E1,1.29657305E5,3.679E2,1E-1,6.713171E0,4.2728E2,2.807E2,-1.3633001E0,8.58E1,1.8413998E2,4.859E2,5E0,4E0,7.17E1,1.227E3,7.122417E1,1E0,5.8E0,5.6E0,1.0067E3,2.0916354E2,1.9031632E-3,8.187938E-3,-3.5773E-3,-1.8539807E-3,-2.185867E-3,-3.4046029E-3,-2.8291014E-3,-3.6660642E-3,-2.9344843E-3,-1.4741964E-3,5.892941E-3,-1.5387591E-3,-1.8840391E-3,-7.05742E-4,-1.1617042E-3,2.524841E-4,-7.283796E-4,2.0288776E-3,1.1147133E-2,2.9018624E-3,-3.6029185E-5,2.3889525E-3,2.2647022E-4,2.406936E-3,1.3479897E-3,-2.01954E-3,2.4303126E-3,-2.3153373E-3,7.1509206E-3,3.9539854E-3,6.6784094E-3,-2.4501467E-4,-5.0298003E-3,-8.853288E-3,1.1683376E-2,5.873594E-3,3.4887267E-3,6.7952797E-3,1.5692497E-2,1.0068825E-2,1.9621227E-3,8.580557E-3,7.7075274E-3,1.1730961E-3,1.2392073E-2,5.8639944E-3,3.3907306E-3,1.1636491E-2,1.4559644E-2,1.1676407E-2,1.0272311E-2,7.57951E-4,-5.683822E-3,4.572186E-3,1.2797532E-2,1.6376367E-2,8.339616E-3,1.802017E-2],"split_indices":[147,147,41,41,116,147,51,147,116,159,105,78,144,36,130,67,211,211,192,3,0,130,165,1,0,0,195,49,81,9,167,0,0,116,0,183,137,20,51,41,51,170,105,139,172,42,66,94,110,205,9,3,3,110,61,172,0,35,59,23,49,0,0,0,0,0,0,0,0,0,0,0,0,0,0,0,0,0,0,0,0,0,0,0,0,0,0,0,0,0,0,0,0,0,0,0,0,0,0,0,0,0,0,0,0,0,0,0,0,0,0,0,0,0,0,0,0,0,0],"split_type":[0,0,0,0,0,0,0,0,0,0,0,0,0,0,0,0,0,0,0,0,0,0,0,0,0,0,0,0,0,0,0,0,0,0,0,0,0,0,0,0,0,0,0,0,0,0,0,0,0,0,0,0,0,0,0,0,0,0,0,0,0,0,0,0,0,0,0,0,0,0,0,0,0,0,0,0,0,0,0,0,0,0,0,0,0,0,0,0,0,0,0,0,0,0,0,0,0,0,0,0,0,0,0,0,0,0,0,0,0,0,0,0,0,0,0,0,0,0,0],"sum_hessian":[2.466E4,1.9338E4,5.322E3,1.4348E4,4.99E3,3.405E3,1.917E3,1.159E4,2.758E3,3.557E3,1.433E3,2.207E3,1.198E3,9.78E2,9.39E2,1.0305E4,1.285E3,1.86E3,8.98E2,3.116E3,4.41E2,7.41E2,6.92E2,1.08E2,2.099E3,9.62E2,2.36E2,8.69E2,1.09E2,9.15E2,2.4E1,9.256E3,1.049E3,1.126E3,1.59E2,1.324E3,5.36E2,2.6E1,8.72E2,2.542E3,5.74E2,1.94E2,2.47E2,6.31E2,1.1E2,1.23E2,5.69E2,8.5E1,2.3E1,8.71E2,1.228E3,4.3E2,5.32E2,7.9E1,1.57E2,7.2E1,7.97E2,7.8E1,3.1E1,4.29E2,4.86E2,1.1E1,1.3E1,1.109E3,1.7E1,6.7E1,9.2E1,1.197E3,1.27E2,2.53E2,2.83E2,1.4E1,1.2E1,4.9E2,3.82E2,1.521E3,1.021E3,1.37E2,4.37E2,4.1E1,1.53E2,1.09E2,1.38E2,1.89E2,4.42E2,2.2E1,8.8E1,9.3E1,3E1,2.87E2,2.82E2,3.2E1,5.3E1,1E1,1.3E1,1.84E2,6.87E2,7.36E2,4.92E2,1.09E2,3.21E2,4.2E1,4.9E2,2.5E1,5.4E1,3.2E1,1.25E2,4.2E1,3E1,3.51E2,4.46E2,6.8E1,1E1,1E1,2.1E1,2.48E2,1.81E2,1E1,4.76E2],"tree_param":{"num_deleted":"0","num_feature":"217","num_nodes":"119","size_leaf_vector":"1"}},{"base_weights":[-1.2402104E-3,-5.3280424E-2,1.5362798E-1,-7.481799E-2,2.5152322E-5,9.3358606E-2,2.3129278E-1,-7.892718E-2,-5.4034863E-2,-1.9649906E-2,2.465447E-2,7.112672E-2,1.2272662E-1,1.9110826E-1,2.9163453E-1,-7.9822876E-2,-7.0791356E-2,-5.8562342E-2,-3.7226133E-2,-3.113699E-2,3.5560094E-3,-1.6138707E-3,4.5323577E-2,5.6290206E-2,1.073733E-1,1.2754264E-1,2.5370458E-2,2.07566E-1,1.3181366E-1,2.665029E-1,3.417145E-1,-4.005998E-3,-3.8461331E-3,-7.121049E-2,-5.0819542E-2,-6.0972027E-2,-3.9454993E-2,-4.430849E-2,-9.689325E-3,-4.235238E-2,-2.4084365E-2,2.9035619E-2,-1.570875E-2,-9.039871E-3,2.6854215E-2,6.835798E-2,2.413167E-2,8.392184E-2,3.6528155E-2,1.20520204E-1,1.3671088E-2,8.624649E-3,1.3140018E-1,5.1990855E-2,-3.0036628E-2,2.2655153E-1,1.6611187E-1,-2.230873E-3,1.4024752E-1,3.0457878E-1,2.402983E-1,3.1858593E-1,3.658378E-1,-3.5706626E-3,-2.5407865E-3,-1.5955962E-3,-3.1278834E-3,-3.0751382E-3,-1.4116033E-3,-7.869668E-4,-2.8157714E-3,-9.96987E-4,-2.454277E-3,-1.963523E-3,1.0993063E-3,-3.1728342E-3,-1.9398535E-3,-1.5031133E-3,-4.38602E-4,2.1731898E-3,-1.0131254E-3,-3.0464716E-3,-3.3482484E-5,-3.4361623E-5,-1.8172341E-3,3.0817583E-3,1.13435664E-4,1.6637264E-3,4.9048387E-3,-5.374838E-5,2.7435487E-3,5.5956766E-3,2.2681614E-3,-8.112498E-4,2.2634377E-3,6.993917E-3,3.1801723E-3,2.9397022E-3,-1.6542518E-3,4.428227E-3,-3.103372E-3,7.7563263E-3,5.677226E-3,-4.027367E-4,3.8119615E-3,1.7733331E-3,-3.967901E-3,1.2973716E-2,9.934835E-3,1.2283373E-2,7.7073723E-3,6.5367627E-3,1.3283369E-2,1.8047137E-2,1.3416514E-2,8.716425E-4,1.2412708E-2,1.1182107E-2,1.6130907E-2,1.2482013E-2,1.861945E-2],"categories":[],"categories_nodes":[],"categories_segments":[],"categories_sizes":[],"default_left":[0,0,0,0,0,0,0,0,0,0,0,0,0,0,0,0,0,0,0,0,0,0,0,0,0,0,0,0,0,0,0,0,0,0,0,0,0,0,0,0,0,0,0,0,0,0,0,0,0,0,0,0,0,0,0,0,0,0,0,0,0,0,0,0,0,0,0,0,0,0,0,0,0,0,0,0,0,0,0,0,0,0,0,0,0,0,0,0,0,0,0,0,0,0,0,0,0,0,0,0,0,0,0,0,0,0,0,0,0,0,0,0,0,0,0,0,0,0,0,0,0],"id":13,"left_children":[1,3,5,7,9,11,13,15,17,19,21,23,25,27,29,31,33,35,37,39,41,43,45,47,49,51,53,55,57,59,61,-1,-1,63,65,67,69,71,73,75,77,79,81,83,85,87,89,91,93,95,97,99,101,103,105,107,109,-1,111,113,115,117,119,-1,-1,-1,-1,-1,-1,-1,-1,-1,-1,-1,-1,-1,-1,-1,-1,-1,-1,-1,-1,-1,-1,-1,-1,-1,-1,-1,-1,-1,-1,-1,-1,-1,-1,-1,-1,-1,-1,-1,-1,-1,-1,-1,-1,-1,-1,-1,-1,-1,-1,-1,-1,-1,-1,-1,-1,-1,-1],"loss_changes":[1.9834937E2,2.1148647E1,2.8952621E1,1.1161957E0,2.5697448E0,2.2679539E0,6.500931E0,7.4157715E-2,1.6288328E-1,7.859541E-1,1.2787045E0,1.0625095E0,7.005367E-1,1.5593834E0,1.2669601E0,2.3345947E-3,5.5470467E-3,7.618952E-2,8.986747E-2,1.5496111E-1,4.8002493E-1,2.1968013E-1,6.417227E-1,7.6796865E-1,7.079234E-1,6.548519E-1,1.0775866E-1,9.62677E-1,5.3598404E-1,6.4819336E-1,8.263016E-2,0E0,0E0,7.958412E-4,3.774099E-3,2.4571419E-2,7.668573E-2,4.18604E-2,9.081501E-2,5.456257E-2,1.10768974E-1,3.0033034E-1,3.7876284E-1,1.8790242E-1,1.8370819E-1,6.550832E-1,5.331451E-1,6.295638E-1,3.81137E-1,5.4751396E-1,1.5384896E-1,2.6544836E-1,5.691414E-1,7.195847E-2,8.0351695E-2,7.4536896E-1,3.4572124E-1,0E0,3.708973E-1,4.9769402E-1,7.634182E-1,5.874634E-4,3.4923553E-2,0E0,0E0,0E0,0E0,0E0,0E0,0E0,0E0,0E0,0E0,0E0,0E0,0E0,0E0,0E0,0E0,0E0,0E0,0E0,0E0,0E0,0E0,0E0,0E0,0E0,0E0,0E0,0E0,0E0,0E0,0E0,0E0,0E0,0E0,0E0,0E0,0E0,0E0,0E0,0E0,0E0,0E0,0E0,0E0,0E0,0E0,0E0,0E0,0E0,0E0,0E0,0E0,0E0,0E0,0E0,0E0,0E0,0E0],"parents":[2147483647,0,0,1,1,2,2,3,3,4,4,5,5,6,6,7,7,8,8,9,9,10,10,11,11,12,12,13,13,14,14,15,15,16,16,17,17,18,18,19,19,20,20,21,21,22,22,23,23,24,24,25,25,26,26,27,27,28,28,29,29,30,30,33,33,34,34,35,35,36,36,37,37,38,38,39,39,40,40,41,41,42,42,43,43,44,44,45,45,46,46,47,47,48,48,49,49,50,50,51,51,52,52,53,53,54,54,55,55,56,56,58,58,59,59,60,60,61,61,62,62],"right_children":[2,4,6,8,10,12,14,16,18,20,22,24,26,28,30,32,34,36,38,40,42,44,46,48,50,52,54,56,58,60,62,-1,-1,64,66,68,70,72,74,76,78,80,82,84,86,88,90,92,94,96,98,100,102,104,106,108,110,-1,112,114,116,118,120,-1,-1,-1,-1,-1,-1,-1,-1,-1,-1,-1,-1,-1,-1,-1,-1,-1,-1,-1,-1,-1,-1,-1,-1,-1,-1,-1,-1,-1,-1,-1,-1,-1,-1,-1,-1,-1,-1,-1,-1,-1,-1,-1,-1,-1,-1,-1,-1,-1,-1,-1,-1,-1,-1,-1,-1,-1,-1],"split_conditions":[2.723E2,1.547255E4,1.10984164E5,3.95094E3,3.716E2,3.33575E2,4.058E2,3.8923294E1,2.594E2,1.6482501E2,1.43975E2,5.22925E2,5.0000027E-3,9.886718E3,5.38425E2,2.625E0,2.0125E1,1.81E2,4E-1,1.04625E2,1E0,1.67E1,2.860832E4,1E0,1E0,9.974E2,3.1350507E2,3.4E0,1.8236592E4,1E0,7.0260004E2,-4.005998E-3,-3.8461331E-3,1.035E3,1E0,3.2334085E2,1E0,9.7275E1,6E-1,2.75625E2,9.659258E-1,2.2741563E2,2.7584998E2,9.9E0,2.2760277E1,9.564974E1,4.0356506E1,7.9E0,3.8E0,9.87E1,8.7E0,-1.2121844E0,1E0,2.8845E2,7.25E1,1E0,2.2E1,-2.230873E-3,1E-1,1.5017026E2,5.225E2,3.0516023E3,4.9569998E2,-3.5706626E-3,-2.5407865E-3,-1.5955962E-3,-3.1278834E-3,-3.0751382E-3,-1.4116033E-3,-7.869668E-4,-2.8157714E-3,-9.96987E-4,-2.454277E-3,-1.963523E-3,1.0993063E-3,-3.1728342E-3,-1.9398535E-3,-1.5031133E-3,-4.38602E-4,2.1731898E-3,-1.0131254E-3,-3.0464716E-3,-3.3482484E-5,-3.4361623E-5,-1.8172341E-3,3.0817583E-3,1.13435664E-4,1.6637264E-3,4.9048387E-3,-5.374838E-5,2.7435487E-3,5.5956766E-3,2.2681614E-3,-8.112498E-4,2.2634377E-3,6.993917E-3,3.1801723E-3,2.9397022E-3,-1.6542518E-3,4.428227E-3,-3.103372E-3,7.7563263E-3,5.677226E-3,-4.027367E-4,3.8119615E-3,1.7733331E-3,-3.967901E-3,1.2973716E-2,9.934835E-3,1.2283373E-2,7.7073723E-3,6.5367627E-3,1.3283369E-2,1.8047137E-2,1.3416514E-2,8.716425E-4,1.2412708E-2,1.1182107E-2,1.6130907E-2,1.2482013E-2,1.861945E-2],"split_indices":[93,41,41,41,63,147,15,205,63,147,159,117,183,211,123,147,123,105,31,147,0,15,176,0,76,20,169,89,170,0,105,0,0,20,0,205,0,163,69,140,154,48,140,5,216,49,215,59,5,55,5,148,0,159,81,0,55,0,31,205,63,43,52,0,0,0,0,0,0,0,0,0,0,0,0,0,0,0,0,0,0,0,0,0,0,0,0,0,0,0,0,0,0,0,0,0,0,0,0,0,0,0,0,0,0,0,0,0,0,0,0,0,0,0,0,0,0,0,0,0,0],"split_type":[0,0,0,0,0,0,0,0,0,0,0,0,0,0,0,0,0,0,0,0,0,0,0,0,0,0,0,0,0,0,0,0,0,0,0,0,0,0,0,0,0,0,0,0,0,0,0,0,0,0,0,0,0,0,0,0,0,0,0,0,0,0,0,0,0,0,0,0,0,0,0,0,0,0,0,0,0,0,0,0,0,0,0,0,0,0,0,0,0,0,0,0,0,0,0,0,0,0,0,0,0,0,0,0,0,0,0,0,0,0,0,0,0,0,0,0,0,0,0,0,0],"sum_hessian":[2.4609E4,1.842E4,6.189E3,1.3119E4,5.301E3,3.486E3,2.703E3,1.0951E4,2.168E3,2.947E3,2.354E3,1.986E3,1.5E3,1.625E3,1.078E3,9.857E3,1.094E3,1.706E3,4.62E2,1.971E3,9.76E2,1.037E3,1.317E3,1.411E3,5.75E2,1.429E3,7.1E1,1.27E3,3.55E2,7.22E2,3.56E2,8.917E3,9.4E2,1.069E3,2.5E1,1.513E3,1.93E2,3.67E2,9.5E1,7.59E2,1.212E3,4.2E2,5.56E2,8.23E2,2.14E2,6.3E2,6.87E2,5.87E2,8.24E2,5.04E2,7.1E1,4.5E1,1.384E3,4.8E1,2.3E1,8.68E2,4.02E2,1.6E1,3.39E2,2.9E2,4.32E2,1.89E2,1.67E2,1.056E3,1.3E1,1.1E1,1.4E1,1.488E3,2.5E1,8.1E1,1.12E2,6.1E1,3.06E2,4.9E1,4.6E1,1.07E2,6.52E2,8.71E2,3.41E2,3.25E2,9.5E1,1.38E2,4.18E2,6.31E2,1.92E2,8.8E1,1.26E2,2.9E2,3.4E2,3.78E2,3.09E2,3.39E2,2.48E2,1.17E2,7.07E2,3.75E2,1.29E2,3.6E1,3.5E1,2.1E1,2.4E1,5.91E2,7.93E2,1.4E1,3.4E1,1E1,1.3E1,3.94E2,4.74E2,5E1,3.52E2,3.17E2,2.2E1,1.1E2,1.8E2,1.5E1,4.17E2,1E1,1.79E2,1.1E1,1.56E2],"tree_param":{"num_deleted":"0","num_feature":"217","num_nodes":"121","size_leaf_vector":"1"}},{"base_weights":[-1.5448308E-5,-4.347408E-2,1.7374915E-1,-6.814569E-2,2.0415395E-2,1.2608728E-1,2.4970351E-1,-7.396939E-2,-3.9972898E-2,-1.700963E-3,4.6854015E-2,9.9351026E-2,1.5619877E-1,2.0571338E-1,2.7850938E-1,-7.568339E-2,-6.3649856E-2,-4.763918E-2,-2.599081E-2,-1.2991549E-2,2.3260249E-2,-2.3489745E-2,5.301922E-2,1.241527E-1,7.951502E-2,1.735147E-1,1.225184E-1,2.1178265E-1,2.5760897E-2,2.825966E-1,9.6325524E-4,-3.8020683E-3,-3.584897E-3,-6.479784E-2,-5.1272813E-2,-1.3844491E-3,-4.8438855E-2,-4.9401287E-2,-1.9317959E-2,-2.1831533E-2,6.506396E-3,3.0639088E-2,-4.19312E-2,-5.3560823E-2,7.02004E-2,5.9486143E-2,-1.4350878E-2,1.6595605E-1,9.982352E-2,4.037671E-2,1.14156775E-1,2.0787822E-1,1.4773895E-1,2.339249E-2,1.3173865E-1,1.2264649E-1,2.2244969E-1,-3.839962E-3,5.9577622E-3,1.640253E-1,2.9165706E-1,-3.2817814E-3,-2.6777808E-3,-1.7337594E-3,-2.952945E-3,1.7008007E-3,-1.9607313E-3,-3.4109137E-3,-2.3150912E-3,-2.6860174E-3,7.2667253E-4,3.2221582E-3,-1.0650617E-3,-1.353091E-3,-4.0788214E-5,-9.0736285E-4,1.299024E-3,9.0153853E-4,3.4100283E-3,-4.252309E-3,-1.1463648E-3,5.4851564E-4,-3.5219302E-3,8.20748E-3,3.6617374E-4,4.0571634E-3,1.9169362E-3,3.1077755E-3,-1.4209698E-3,1.0678586E-2,5.281767E-3,5.460742E-3,4.5955178E-4,-5.817166E-3,2.3587605E-3,3.8845108E-3,6.644795E-3,6.654667E-3,1.2337471E-2,6.4050416E-3,1.1117111E-2,-7.474168E-4,6.814419E-3,6.9641517E-3,1.0863006E-3,8.439467E-3,1.7043632E-3,1.2695006E-2,9.928229E-3,9.950616E-3,-4.153629E-3,1.3307338E-2,1.583075E-2],"categories":[],"categories_nodes":[],"categories_segments":[],"categories_sizes":[],"default_left":[0,0,0,0,0,0,0,0,0,0,0,0,0,0,0,0,0,0,0,0,0,0,0,0,0,0,0,0,0,0,0,0,0,0,0,0,0,0,0,0,0,0,0,0,0,0,0,0,0,0,0,0,0,0,0,0,0,0,0,0,0,0,0,0,0,0,0,0,0,0,0,0,0,0,0,0,0,0,0,0,0,0,0,0,0,0,0,0,0,0,0,0,0,0,0,0,0,0,0,0,0,0,0,0,0,0,0,0,0,0,0,0,0],"id":14,"left_children":[1,3,5,7,9,11,13,15,17,19,21,23,25,27,29,31,33,35,37,39,41,43,45,47,49,51,53,55,57,59,-1,-1,-1,61,63,65,67,69,71,73,75,77,79,81,83,85,87,89,91,93,95,97,99,101,103,105,107,-1,-1,109,111,-1,-1,-1,-1,-1,-1,-1,-1,-1,-1,-1,-1,-1,-1,-1,-1,-1,-1,-1,-1,-1,-1,-1,-1,-1,-1,-1,-1,-1,-1,-1,-1,-1,-1,-1,-1,-1,-1,-1,-1,-1,-1,-1,-1,-1,-1,-1,-1,-1,-1,-1,-1],"loss_changes":[1.8767165E2,3.1337368E1,1.7967773E1,2.3501358E0,3.238877E0,2.4455795E0,2.370613E0,2.053833E-1,2.6234365E-1,8.5057336E-1,1.095429E0,7.880955E-1,8.1622696E-1,8.2678604E-1,1.2183685E0,9.0789795E-3,2.0818233E-2,5.8633804E-2,1.354211E-1,3.5830924E-1,4.5345974E-1,5.785022E-1,1.0116248E0,7.1468544E-1,1.2210512E0,8.072052E-1,4.4567537E-1,6.7346954E-1,2.5819296E-1,1.1736526E0,0E0,0E0,0E0,1.109314E-2,1.7207474E-2,3.883169E-2,6.278157E-2,5.407536E-2,1.1450127E-1,1.5716136E-1,3.1206107E-1,3.9895135E-1,7.670802E-2,1.6958976E-1,2.941597E-1,9.664583E-1,2.2133802E-1,7.32831E-1,3.879757E-1,4.5937443E-1,3.1700087E-1,1.1386719E0,7.6851463E-1,1.8816371E-1,3.696332E-1,3.2524276E-1,4.4311905E-1,0E0,0E0,7.340853E-1,5.8743286E-1,0E0,0E0,0E0,0E0,0E0,0E0,0E0,0E0,0E0,0E0,0E0,0E0,0E0,0E0,0E0,0E0,0E0,0E0,0E0,0E0,0E0,0E0,0E0,0E0,0E0,0E0,0E0,0E0,0E0,0E0,0E0,0E0,0E0,0E0,0E0,0E0,0E0,0E0,0E0,0E0,0E0,0E0,0E0,0E0,0E0,0E0,0E0,0E0,0E0,0E0,0E0,0E0],"parents":[2147483647,0,0,1,1,2,2,3,3,4,4,5,5,6,6,7,7,8,8,9,9,10,10,11,11,12,12,13,13,14,14,15,15,16,16,17,17,18,18,19,19,20,20,21,21,22,22,23,23,24,24,25,25,26,26,27,27,28,28,29,29,33,33,34,34,35,35,36,36,37,37,38,38,39,39,40,40,41,41,42,42,43,43,44,44,45,45,46,46,47,47,48,48,49,49,50,50,51,51,52,52,53,53,54,54,55,55,56,56,59,59,60,60],"right_children":[2,4,6,8,10,12,14,16,18,20,22,24,26,28,30,32,34,36,38,40,42,44,46,48,50,52,54,56,58,60,-1,-1,-1,62,64,66,68,70,72,74,76,78,80,82,84,86,88,90,92,94,96,98,100,102,104,