tree
version=v4
num_class=1
num_tree_per_iteration=1
label_index=0
max_feature_idx=216
objective=regression
feature_names=Column_0 Column_1 Column_2 Column_3 Column_4 Column_5 Column_6 Column_7 Column_8 Column_9 Column_10 Column_11 Column_12 Column_13 Column_14 Column_15 Column_16 Column_17 Column_18 Column_19 Column_20 Column_21 Column_22 Column_23 Column_24 Column_25 Column_26 Column_27 Column_28 Column_29 Column_30 Column_31 Column_32 Column_33 Column_34 Column_35 Column_36 Column_37 Column_38 Column_39 Column_40 Column_41 Column_42 Column_43 Column_44 Column_45 Column_46 Column_47 Column_48 Column_49 Column_50 Column_51 Column_52 Column_53 Column_54 Column_55 Column_56 Column_57 Column_58 Column_59 Column_60 Column_61 Column_62 Column_63 Column_64 Column_65 Column_66 Column_67 Column_68 Column_69 Column_70 Column_71 Column_72 Column_73 Column_74 Column_75 Column_76 Column_77 Column_78 Column_79 Column_80 Column_81 Column_82 Column_83 Column_84 Column_85 Column_86 Column_87 Column_88 Column_89 Column_90 Column_91 Column_92 Column_93 Column_94 Column_95 Column_96 Column_97 Column_98 Column_99 Column_100 Column_101 Column_102 Column_103 Column_104 Column_105 Column_106 Column_107 Column_108 Column_109 Column_110 Column_111 Column_112 Column_113 Column_114 Column_115 Column_116 Column_117 Column_118 Column_119 Column_120 Column_121 Column_122 Column_123 Column_124 Column_125 Column_126 Column_127 Column_128 Column_129 Column_130 Column_131 Column_132 Column_133 Column_134 Column_135 Column_136 Column_137 Column_138 Column_139 Column_140 Column_141 Column_142 Column_143 Column_144 Column_145 Column_146 Column_147 Column_148 Column_149 Column_150 Column_151 Column_152 Column_153 Column_154 Column_155 Column_156 Column_157 Column_158 Column_159 Column_160 Column_161 Column_162 Column_163 Column_164 Column_165 Column_166 Column_167 Column_168 Column_169 Column_170 Column_171 Column_172 Column_173 Column_174 Column_175 Column_176 Column_177 Column_178 Column_179 Column_180 Column_181 Column_182 Column_183 Column_184 Column_185 Column_186 Column_187 Column_188 Column_189 Column_190 Column_191 Column_192 Column_193 Column_194 Column_195 Column_196 Column_197 Column_198 Column_199 Column_200 Column_201 Column_202 Column_203 Column_204 Column_205 Column_206 Column_207 Column_208 Column_209 Column_210 Column_211 Column_212 Column_213 Column_214 Column_215 Column_216
feature_infos=[0:2] [0:1] [0:39.999168395996094] [3:9] [0:23] [1.1000000238418579:17.200000762939453] [1.1390000581741333:1.3660000562667847] [27.899999618530273:12020.099609375] [0:2965334.75] [0:833.5] [27.399999618530273:11658.5] [-1:1] [254.80000305175781:293.5] [0:317.79998779296875] [0:1121316.25] [0:680.20001220703125] [0:2425229.25] [0:100] [0:1] [0:1] [972.70001220703125:1043.9000244140625] [0:0.47999998927116394] [0:3] [957.5999755859375:1030.800048828125] [963.5999755859375:1037.199951171875] [0:96.400001525878906] [0:1] [19.5:100] [969.70001220703125:1043.699951171875] [0.0020000000949949026:343.1099853515625] [-34.368999481201172:49.804000854492188] [0:1.2999999523162842] [261.89999389648438:303.20001220703125] [0:100] [275.29998779296875:69264.1015625] [0:11] [-7.1999998092651367:11] [-9.3000001907348633:8.1000003814697266] [-0.10000000149011612:0.10000000149011612] [0:770.20001220703125] [-3.1415927410125732:3.1415927410125732] [0:226304.546875] [0:921.14007568359375] [0:15500.61328125] [-1:1] [-1:1] [-1:1] [-1:1] [0:337.53228759765625] [0:289.80059814453125] [0:100] [0:770.20001220703125] [0:770.20001220703125] [0:226304.546875] [0:226304.546875] [0:100] [0:100] [27.399999618530273:11658.5] [27.399999618530273:11658.5] [1.1000000238418579:17.5] [1.1399999856948853:1.3669999837875366] [28:12431.2998046875] [0:3007721.5] [0:837] [27.5:11688.7001953125] [-1:1] [255.30000305175781:293.79998779296875] [0:345.70001220703125] [0:1180948.875] [0:689.79998779296875] [0:2451235] [0:100] [0:1] [0:1] [972.70001220703125:1044] [0:2.2300000190734863] [0:4] [957.70001220703125:1030.9000244140625] [963.70001220703125:1037.300048828125] [0:97.099998474121094] [0:1.3999999761581421] [19.600000381469727:100] [969.70001220703125:1043.800048828125] [17.966999053955078:359.99899291992188] [-34.127998352050781:50.036998748779297] [0:1.3999999761581421] [262:303.29998779296875] [0:100] [321.70001220703125:69699] [0.10000000149011612:11.399999618530273] [-7.0999999046325684:11.399999618530273] [-7.5:9] [-0.10000000149011612:0.10000000149011612] [0:775.4000244140625] [-3.1415927410125732:3.1415927410125732] [0:226967.640625] [4.6500000953674316:950.8800048828125] [0:16310.8896484375] [-1:1] [-1:1] [-1:1] [-1:1] [0:337.53228759765625] [0:289.80059814453125] [0:100] [0:775.4000244140625] [0:775.4000244140625] [0:226967.640625] [0:226967.640625] [0:100] [0:100] [27.5:11688.7001953125] [27.5:11688.7001953125] [1.1000000238418579:17.350000381469727] [1.1392500400543213:1.3662500381469727] [27.924999237060547:12067.0751953125] [0:2990595.5] [0:835.54998779296875] [27.5:11673.625] [-1:1] [255.05000305175781:293.625] [0:332.27499389648438] [0:1144410.125] [0:683.4000244140625] [0:2441810.5] [0:100] [0:1] [0:1] [972.70001220703125:1043.949951171875] [0:0.62250000238418579] [0:3] [957.70001220703125:1030.875] [963.70001220703125:1037.25] [0:96.775001525878906] [0:1.1000000238418579] [19.575000762939453:100] [969.70001220703125:1043.7249755859375] [12.734749794006348:348.37100219726562] [-34.275249481201172:49.939498901367188] [0:1.375] [261.97500610351562:303.25] [0:100] [304.29998779296875:69395.5234375] [0.02500000037252903:11.199999809265137] [-7.1499996185302734:11.199999809265137] [-8.3999996185302734:8.5] [-0.10000000149011612:0.10000000149011612] [0:773.2750244140625] [-3.1415927410125732:3.1415927410125732] [0:226711.546875] [2.4474999904632568:936.14501953125] [0:15848.6259765625] [-1:1] [-1:1] [-1:1] [-1:1] [0:337.53228759765625] [0:289.80059814453125] [0:100] [0:773.2750244140625] [0:773.2750244140625] [0:226711.546875] [0:226711.546875] [0:100] [0:100] [27.5:11673.625] [27.5:11673.625] [0:1.1236103773117065] [0:0.0085244718939065933] [0:4936.25] [0:154564.328125] [0:43.170894622802734] [0:5074.150390625] [0:1.1547005176544189] [0:1.6782888174057007] [0:45.108051300048828] [0:125675.8203125] [0:119.60343933105469] [0:292840.40625] [0:35.7884521484375] [0:0.57735025882720947] [0:0.57735025882720947] [0:1.4201096296310425] [0:1.1150000095367432] [0:2.3094010353088379] [0:1.3687024116516113] [0:1.3687024116516113] [0:54.218170166015625] [0:0.25819888710975647] [0:10.379629135131836] [0:1.4200938940048218] [3.5475044250488281:203.86808776855469] [0.05860249325633049:2.1713240146636963] [0:0.42720019817352295] [0:2.0655989646911621] [0:40.2384033203125] [0:18192.177734375] [0:2.1173884868621826] [0:2.2226111888885498] [0:3.8096368312835693] [0:0.057735029608011246] [0:104.36995697021484] [0:3.627598762512207] [0:29970.12109375] [0:153.29768371582031] [0:2193.03515625] [0:1.1200969219207764] [0:1.1481451988220215] [0:55.111221313476562] [0:104.36995697021484] [0:104.36995697021484] [0:29970.12109375] [0:29970.12109375] [0:35.7884521484375] [0:47.120651245117188] [0:5074.150390625] [0:5074.150390625]
tree_sizes=8258 8598 8619 8547 8672 8682 8559 8673 8670 8661 8641 8698 8763 8832 8784 8688 8768 8838 8819 8914 8802 8800 8824 8876 8865 8822 8866 8864 8809 8852 8863 8875 8898 8909 8959 8873 8923 8902 8942 9052 9045 9108 8984 9141 8939 8994 9054 9034 8889 9000 8949 9118 9168 9104 9014 9043 9096 9145 9070 9055 9158 9287 9280 9137 9202 9258 9143 9145 9307 9353 9321 9077 9392 9056 9307 9274 9141 9326 9365 9317 9241 9320 9372

Tree=0
num_leaves=95
num_cat=0
split_feature=41 39 39 15 149 39 39 116 15 51 51 43 191 0 105 49 159 0 55 43 192 88 3 163 171 75 0 12 209 135 0 29 48 111 165 39 161 51 32 83 66 50 105 53 141 9 159 97 137 93 86 36 1 55 0 191 0 32 192 69 105 9 77 111 43 83 85 124 141 60 211 111 161 83 176 56 48 6 49 120 0 63 150 179 189 60 191 43 3 51 214 59 63 51
split_gain=1300.24 173.413 154.8 24.8372 17.2422 13.9625 13.179 5.64739 5.32449 5.15563 4.99463 4.3345 3.51936 2.75574 2.486 2.24939 2.18223 1.92666 3.26801 1.7777 1.64607 1.58742 1.58713 1.57551 2.16454 1.536 1.42762 1.82123 1.42208 1.42147 1.37385 1.33187 1.28649 1.25998 1.21485 1.1347 1.13427 1.12804 1.12553 1.12236 1.13775 1.10459 1.10244 1.09579 1.08122 1.07894 1.07617 1.0562 0.940882 0.933644 0.82646 0.914751 0.813423 0.804531 0.798096 0.789865 0.815989 0.768908 0.724562 0.795027 0.717611 0.710985 0.69686 0.6961 0.680758 0.678145 0.670354 0.964442 0.853998 0.6576 0.633988 0.630745 0.625402 0.619334 0.582248 0.844944 0.581295 0.573184 0.568733 0.566329 0.565229 0.718602 0.563433 0.625829 0.550289 0.549366 0.548678 0.542633 0.535287 0.529788 0.522677 0.519118 0.516995 0.57659
threshold=64012.791015625007 421.95001220703131 71.15000152587892 416.05000305175787 96283.593750000015 146.70000457763675 21.550000190734867 1841931.0625000002 508.55000305175787 289.94999694824224 413.45001220703131 2062.4904785156255 5.4826743602752694 1.0000000180025095e-35 206.94999694824222 193.53542327880862 320.11250305175787 1.0000000180025095e-35 30.44999980926514 820.97088623046886 1.735678017139435 43989.449218750007 3.5000000000000004 60.562500000000007 40.360898971557624 0.014999999664723875 1.0000000180025095e-35 264.34999084472662 25.429951667785648 84.962497711181655 1.0000000180025095e-35 172.94199371337893 115.65468978881837 1235.5000000000002 1836.1499633789065 560.25000000000011 66439.800781250015 205.55000305175784 273.75000000000006 186.24749755859378 281.94999694824224 77.907497406005874 662.85000610351574 57705.462890625007 99.687500000000014 556.35000610351574 218.93750000000003 91.114593505859389 178.66013336181643 551.14996337890636 288.15000915527349 2.3500000238418584 1.0000000180025095e-35 90.950000762939467 1.0000000180025095e-35 4.4343233108520517 1.0000000180025095e-35 274.94999694824224 1.9748022556304934 157.84999847412112 166.34999847412112 801.10000610351574 984.85000610351574 4472.9001464843759 5552.2558593750009 113.429500579834 0.25000000745058065 156487.15625000003 99.637496948242202 1.2105000019073489 6724.2836914062509 1566.549987792969 92666.421875000015 186.24749755859378 28983.431640625004 68.750000000000014 81.280208587646499 1.2254999876022341 211.16514587402347 279.71250915527349 1.0000000180025095e-35 284.34999084472662 302.26998901367193 0.7745981514453889 0.74355196952819835 1.2685000300407412 5.7273213863372812 3127.4931640625005 3.5000000000000004 174.94999694824222 1.5107948184013369 9.0500001907348651 720.75000000000011 362.84999084472662
decision_type=2 2 2 2 2 2 2 2 2 2 2 2 2 2 2 2 2 2 2 2 2 2 2 2 2 2 2 2 2 2 2 2 2 2 2 2 2 2 2 2 2 2 2 2 2 2 2 2 2 2 2 2 2 2 2 2 2 2 2 2 2 2 2 2 2 2 2 2 2 2 2 2 2 2 2 2 2 2 2 2 2 2 2 2 2 2 2 2 2 2 2 2 2 2
left_child=2 4 6 10 12 11 47 16 28 37 31 36 13 23 91 21 38 18 20 -8 -11 90 52 24 43 26 50 -28 30 66 69 74 -19 57 53 88 -4 -6 -7 40 -23 86 -10 -2 64 -35 -36 -1 63 -29 51 -17 76 -14 58 -38 -57 -34 59 -18 -40 -50 -25 -30 -13 -62 67 -16 -68 -5 85 -51 -33 -39 -3 -76 -15 -55 -43 -64 81 -67 84 -84 92 -69 -20 -46 -32 -24 -12 -9 93 -74
right_child=1 3 5 8 9 7 19 14 42 17 15 44 34 22 29 25 54 32 41 -21 -22 39 89 62 -26 -27 27 49 48 -31 35 72 33 45 46 -37 55 73 60 -41 -42 78 -44 -45 87 -47 -48 -49 61 71 -52 -53 -54 77 -56 56 -58 -59 -60 -61 65 -63 79 -65 -66 80 68 70 -70 -71 -72 -73 82 -75 75 -77 -78 -79 -80 -81 -82 -83 83 -85 -86 -87 -88 -89 -90 -91 -92 -93 -94 -95
leaf_value=0.14051843814006357 0.1739935222357159 0.17540563426506769 0.15121694867159158 0.21116178166988203 0.17022860795841677 0.15220966212718809 0.14604409625639586 0.16718423093733314 0.21473329038954414 0.20489960894988302 0.19348861394280048 0.16228188054672968 0.18015277773812044 0.15529844495813838 0.17185688399206323 0.21297610369673292 0.16363180837594099 0.1734699430284054 0.18578271825157894 0.15123370878258746 0.18952548155698482 0.19939646468717834 0.16424016543949793 0.15876334574096962 0.16991466132938243 0.18652657073749965 0.170340780328262 0.19736642278709438 0.17861667745791571 0.16557858148141369 0.18110572201817851 0.17423983674563936 0.16570702341881607 0.18363272757416824 0.16921722740106246 0.21126665097032085 0.1529053579052351 0.16664803208391815 0.15703251671367158 0.2086937407639356 0.1762173611915217 0.17783902888376993 0.22308798104378808 0.18850893193892596 0.15473320716948083 0.19271767869022016 0.18916838512470308 0.14265805827304592 0.20326596951104514 0.19655575782235371 0.20259986591929469 0.19546798628597536 0.15049622949245928 0.16638649328437827 0.16284131979213909 0.16772903738688735 0.15554816062852414 0.18066174045143649 0.16722945543861928 0.18767763118799477 0.15720397313618084 0.22392004940775348 0.17463390603537454 0.2069573200133176 0.18399959847447589 0.1791918579681267 0.17418231262010647 0.17612632330838501 0.20190592367318583 0.22066387409375637 0.19798182616499377 0.20787070008233166 0.18916772805550261 0.17886592295629283 0.17901738205533177 0.2111736089604597 0.16623875579909367 0.17510869902698067 0.19504339543775603 0.16781249608560178 0.16030900311226937 0.16385424316233038 0.16181792571495243 0.18831491964123773 0.19773995458183583 0.20029119939744514 0.19470610361662818 0.15918658126654522 0.2022817068277992 0.16974350766399479 0.18106287253364212 0.16038664616945783 0.17866264103562696 0.19807881990727572
leaf_weight=16544 74 77 2582 139 233 220 3165 258 251 145 52 382 217 69 172 244 20 143 294 834 134 72 226 50 185 58 20 324 26 122 12.999999999999998 19 38 419 34 261 288 44 668 75 30 226 426 175 535 190 132 2681 225 64 217 34 67 109 241 97 127 361 134 44 351 18 239 12.999999999999998 14.999999999999998 33 20 65 25 153 25 214 200 727 22 12.999999999999998 164 244 21 248 613 411 10.999999999999998 47 206 10.999999999999998 90 560 146 774 97 199 30 114
leaf_count=16544 74 77 2582 139 233 220 3165 258 251 145 52 382 217 69 172 244 20 143 294 834 134 72 226 50 185 58 20 324 26 122 13 19 38 419 34 261 288 44 668 75 30 226 426 175 535 190 132 2681 225 64 217 34 67 109 241 97 127 361 134 44 351 18 239 13 15 33 20 65 25 153 25 214 200 727 22 13 164 244 21 248 613 411 11 47 206 11 90 560 146 774 97 199 30 114
internal_value=0.15606 0.187502 0.146077 0.203924 0.176924 0.157873 0.141903 0.162504 0.213151 0.182202 0.197041 0.154204 0.171544 0.169597 0.16939 0.200354 0.160246 0.185065 0.188503 0.147126 0.197516 0.193005 0.166586 0.173627 0.178108 0.202393 0.203217 0.200028 0.208492 0.174755 0.210872 0.190311 0.182346 0.183605 0.177554 0.20721 0.15207 0.176326 0.159011 0.199407 0.192579 0.184519 0.21999 0.184195 0.158632 0.186467 0.185082 0.140817 0.202482 0.201014 0.207225 0.210835 0.160207 0.175361 0.166706 0.156369 0.160823 0.179237 0.17141 0.180163 0.159732 0.204796 0.170006 0.188064 0.163102 0.161012 0.178276 0.176412 0.189584 0.216141 0.184168 0.205266 0.192106 0.178169 0.180267 0.190961 0.162999 0.172415 0.179302 0.17116 0.162277 0.164994 0.192664 0.18329 0.193652 0.179624 0.187874 0.157011 0.20055 0.1685 0.185399 0.164224 0.191205 0.192403
internal_weight=0 9983 31442 3911 6072 8218 23224 3632 1671 3065 2240 4586 3007 2271 897 1501 2735 2061 910 3999 279 326 1300 971 434 1175 1117 622 994 440 712 739 1151 1008 736 420 3094 1004 2296 177 102 631 677 249 1492 609 166 19225 282 602 495 278 300 570 439 512 224 399 198 64 2076 243 537 39 397 1408 318 273 45 292 101 278 627 771 112 35 233 353 247 487 1057 444 608 58 550 76 384 1095 159 1000 149 457 344 314
internal_count=41425 9983 31442 3911 6072 8218 23224 3632 1671 3065 2240 4586 3007 2271 897 1501 2735 2061 910 3999 279 326 1300 971 434 1175 1117 622 994 440 712 739 1151 1008 736 420 3094 1004 2296 177 102 631 677 249 1492 609 166 19225 282 602 495 278 300 570 439 512 224 399 198 64 2076 243 537 39 397 1408 318 273 45 292 101 278 627 771 112 35 233 353 247 487 1057 444 608 58 550 76 384 1095 159 1000 149 457 344 314
is_linear=0
shrinkage=1


Tree=1
num_leaves=95
num_cat=0
split_feature=41 39 39 15 147 39 39 138 51 123 161 161 117 8 0 159 105 49 109 192 43 213 209 75 0 59 88 135 0 55 203 29 51 137 140 20 161 129 83 66 211 5 140 6 138 36 150 83 111 0 39 61 177 159 0 171 149 49 192 115 94 15 49 192 0 205 70 50 147 117 56 116 107 171 116 53 66 111 120 109 50 159 29 174 161 68 147 205 105 60 148 183 0 191
split_gain=1053.19 140.465 125.43 20.1359 14.051 11.8169 10.2444 5.94277 4.47623 3.83925 3.38897 3.32474 2.42253 2.13041 2.75528 2.04459 2.02589 2.01761 1.96724 1.86371 1.54845 1.43431 1.3539 1.35362 1.46961 1.62608 1.28581 1.28239 1.23756 1.80524 1.19231 1.13678 1.06362 1.04088 1.02696 0.96074 0.918479 0.915472 0.909108 0.921578 0.892323 1.20381 1.05772 0.88971 0.886139 0.873485 0.846878 0.851851 0.844376 0.827642 0.889431 0.822113 0.764888 0.763513 0.749685 0.786443 0.73861 0.731062 1.45511 0.764686 0.704285 0.692883 0.690933 0.710265 0.690716 0.697686 0.682526 0.680115 0.663117 0.634256 0.740563 0.63319 0.624839 0.611951 0.60278 0.591989 0.591549 0.587411 0.581553 0.568142 0.558095 0.554349 0.554102 0.635463 0.550947 0.550226 0.544027 0.536275 0.533039 0.526009 0.510673 0.509035 0.58165 1.15226
threshold=64012.791015625007 421.95001220703131 69.649997711181655 427.55000305175787 355.27500915527349 128.54999542236331 18.400000572204593 27.426625251770023 413.45001220703131 556.18750000000011 62772.763671875007 104140.70703125001 330.81251525878912 1664044.7500000002 1.0000000180025095e-35 320.11250305175787 206.94999694824222 193.53542327880862 64.549999237060561 2.0078624486923222 883.85702514648449 0.1825724393129349 25.429951667785648 0.014999999664723875 1.0000000180025095e-35 2.5499999523162846 43989.449218750007 71.212497711181655 1.0000000180025095e-35 30.44999980926514 9573.7622070312518 172.94199371337893 239.34999847412112 178.66013336181643 273.71250915527349 986.04998779296886 29670.864257812504 0.0037499999161809687 186.24749755859378 281.94999694824224 13839.787109375002 7.4500000476837167 279.53749084472662 1.2095000147819521 39.979248046875007 2.6499999761581425 419.74998474121099 186.24749755859378 2628.400024414063 1.0000000180025095e-35 560.25000000000011 2624.0000000000005 10.814862728118898 263.67500305175787 1.0000000180025095e-35 39.599443435668952 119299.48828125001 99.191623687744155 1.4024142622947695 1296.4000244140627 2.4335087537765507 453.69999694824224 174.10260772705081 1.2139474749565127 1.0000000180025095e-35 443.66902160644537 686809.18750000012 54.857500076293952 10.437500000000002 788.18750000000011 75.750000000000014 1817179.6250000002 168509.63281250003 2.2955597639083867 1400921.0625000002 93186.449218750015 272.55000305175787 1566.549987792969 281.08750915527349 95.750000000000014 84.582500457763686 239.68750000000003 135.75199890136722 0.29860651493072515 109397.10156250001 927314.93750000012 260.41249084472662 401.30146789550787 706.14999389648449 1.2105000019073489 2.0449434518814091 0.0049999994225800046 1.0000000180025095e-35 4.4090979099273691
decision_type=2 2 2 2 2 2 2 2 2 2 2 2 2 2 2 2 2 2 2 2 2 2 2 2 2 2 2 2 2 2 2 2 2 2 2 2 2 2 2 2 2 2 2 2 2 2 2 2 2 2 2 2 2 2 2 2 2 2 2 2 2 2 2 2 2 2 2 2 2 2 2 2 2 2 2 2 2 2 2 2 2 2 2 2 2 2 2 2 2 2 2 2 2 2
left_child=2 4 6 8 10 12 68 15 31 22 74 32 81 14 18 34 78 26 19 -12 -8 60 49 24 43 67 -10 51 29 30 -13 -3 -6 61 -7 -16 -36 64 39 -28 41 42 86 -19 -27 -45 47 56 57 -5 -51 73 -14 -43 55 87 -30 -29 59 -59 76 -24 90 -64 65 -34 82 -26 -1 70 -55 -66 -35 -18 -2 -37 -15 -46 -9 89 -33 -4 -44 -84 -78 -82 -23 -17 -11 -20 -31 92 93 -38
right_child=1 3 5 9 11 7 20 16 17 88 13 28 52 21 35 54 27 23 79 -21 -22 40 33 -25 25 44 38 48 46 62 -32 80 37 72 36 75 91 -39 -40 -41 -42 53 66 45 77 -47 -48 -49 -50 50 -52 -53 -54 69 -56 -57 -58 58 -60 -61 -62 -63 63 -65 71 -67 -68 -69 -70 -71 -72 -73 -74 -75 -76 -77 84 -79 -80 -81 85 -83 83 -85 -86 -87 -88 -89 -90 -91 -92 -93 -94 -95
leaf_value=-0.013995595603920852 0.0052332090824766765 0.021778402925599696 -0.0052048716762884868 0.054788359928472787 0.015615392922576668 -0.0044379760210591429 -0.0091787879762100996 0.0095353508802252622 0.026405363752437919 0.056152672050561452 0.030611485645763183 0.046817419946193699 -0.00027212313035862042 0.023275344643522711 -0.0099025554631067356 0.028058076494683823 0.04549978166818619 0.042533450427502673 0.0044593502839024258 0.016012379779181456 -0.0040766559290697068 0.038947191834449772 0.043624760707219434 0.027366997096687558 -0.00010803078517450816 0.037599233402419489 0.039002746674749594 0.0052170937095963018 0.021598756316734122 0.019687326040405493 0.031087302628363813 0.034562570224944168 0.029707622403461167 0.041377844488270948 -0.0021851073312926616 0.008343140429964058 0.00012212409656918184 0.0071875107431735256 0.04737029608090719 0.01814155379969937 0.039463981928733682 0.010905882491580476 0.013745037389590459 0.052527003439824027 0.037126306512616052 0.034726752100452306 0.0058513982306149879 0.032422982020254593 0.032216626562570273 0.040380072516355933 0.050590749218144229 0.013085563753958088 0.0066715061899002316 0.025385934075651068 0.005350143395038108 0.0093869889673331517 0.029354188205109218 0.032109449101103978 0.00802894804945453 0.016215241421974197 0.038305308893322947 0.012603206591059766 0.041296823227814604 0.027960073206391513 0.015084368489099807 0.020887430283386691 0.017826024171275399 0.03403741389513016 -0.012246459984152684 0.032249255636189543 0.014674539188499834 0.022911839222872696 0.052552957656896784 0.023749639086940506 0.010982097304285381 0.013591238015768246 0.0073326052054067106 0.04768036431292208 0.0039234397001344018 0.0040767454158049075 0.029838360644344777 -0.0003524856573286733 0.035105649671106604 0.019470506586836682 0.027975614475352423 0.01147745820797152 0.017851691178483436 0.0026022561686113478 0.062897059346238779 0.01722660471274081 0.034800915627015962 -0.0026014991371355804 0.0019381339279180216 0.0080263243634908586
leaf_weight=16421 283 114 2049 314 312 261 3491 346 149 229 190 100 1192 34 23 48 14.999999999999998 273 39 162 717 12.999999999999998 12.000000000000002 60 14.000000000000002 400 72 163 396 130 93 446 230 164 409 458 275 38 75 30 26 140 17 249 71 31 22 152 19 112 358 74 183 96 217 115 178 44 209 97 9.9999999999999982 18 51 184 147 147 48 9.9999999999999982 2497 36 197 348 72 94 513 405 169 205 396 60 175 266 161 31 13.999999999999998 18 205 9.9999999999999982 240 187 27 151 1123 560
leaf_count=16421 283 114 2049 314 312 261 3491 346 149 229 190 100 1192 34 23 48 15 273 39 162 717 13 12 60 14 400 72 163 396 130 93 446 230 164 409 458 275 38 75 30 26 140 17 249 71 31 22 152 19 112 358 74 183 96 217 115 178 44 209 97 10 18 51 184 147 147 48 10 2497 36 197 348 72 94 513 405 169 205 396 60 175 266 161 31 14 18 205 10 240 187 27 151 1123 560
internal_value=0 0.0282975 -0.00898459 0.0430775 0.0187776 0.00154807 -0.0127721 0.00491478 0.0373595 0.0520816 0.0146775 0.0244215 -0.00267264 0.0163564 0.0138766 0.00248447 0.0102007 0.0402917 0.0188873 0.0238926 -0.00830944 0.0195137 0.0487217 0.0420399 0.0427425 0.0396986 0.0332504 0.0139994 0.0278753 0.0313207 0.0392376 0.0309774 0.0206539 0.0425569 0.00153293 0.0102685 0.00215183 0.0223814 0.0390125 0.0328671 0.0211883 0.0206849 0.0242333 0.0465956 0.0406067 0.0505563 0.0251807 0.0257665 0.0115155 0.0508133 0.0481576 0.0212202 0.000652011 0.0170911 0.00926486 0.0141752 0.0240038 0.0107488 0.013325 0.0211751 0.0123581 0.0250118 0.0274229 0.0308544 0.0230435 0.0262684 0.0285794 0.0141192 -0.0137647 0.0197231 0.0181841 0.0205873 0.0447872 0.0267428 0.00893821 0.010806 0.0111624 0.0449654 0.00654031 0.0127269 0.0326185 -0.00464732 0.0310491 0.0325812 0.00891185 0.0281259 0.0191097 0.0236691 0.059604 0.0150234 0.0222865 0.0029929 0.00342434 0.00542314
internal_weight=0 9983 31442 3911 6072 8316 23126 4626 2392 1519 3517 2555 3690 2721 1524 3169 1457 1639 638 352 4208 1197 1050 1313 1253 700 326 715 1333 585 193 753 1222 266 2779 886 2518 910 177 102 970 944 475 553 676 280 748 726 532 784 470 183 1375 469 390 173 574 513 350 141 227 30 392 235 872 377 257 24 18918 329 293 495 236 109 796 863 217 276 742 286 639 2315 209 192 183 193 218 58 469 226 157 2109 1958 835
internal_count=41425 9983 31442 3911 6072 8316 23126 4626 2392 1519 3517 2555 3690 2721 1524 3169 1457 1639 638 352 4208 1197 1050 1313 1253 700 326 715 1333 585 193 753 1222 266 2779 886 2518 910 177 102 970 944 475 553 676 280 748 726 532 784 470 183 1375 469 390 173 574 513 350 141 227 30 392 235 872 377 257 24 18918 329 293 495 236 109 796 863 217 276 742 286 639 2315 209 192 183 193 218 58 469 226 157 2109 1958 835
is_linear=0
shrinkage=0.1


Tree=2
num_leaves=95
num_cat=0
split_feature=41 39 39 41 15 39 41 105 9 107 51 8 191 0 15 109 49 0 86 192 50 105 0 55 48 51 43 60 96 3 41 111 117 159 130 49 68 129 149 112 194 5 81 44 48 192 192 171 3 120 44 50 201 5 125 0 50 170 116 60 120 55 48 178 147 209 116 48 176 3 2 170 9 206 97 53 148 214 216 109 2 75 5 68 20 20 75 161 63 93 94 86 2 27
split_gain=853.09 116.095 99.4913 16.3901 12.6053 9.75307 8.1426 3.7255 3.68432 3.03616 2.97738 2.65287 2.25118 2.27811 1.85056 1.8267 1.75158 1.82978 1.54843 1.4357 1.33148 1.32565 1.23248 1.84489 1.30389 1.22219 1.12776 1.11121 1.29506 1.09319 1.07225 1.06894 1.11382 1.01077 0.919565 0.912542 0.897926 0.848886 0.822802 0.794606 0.762285 1.00457 0.755623 0.743595 0.742147 0.814075 0.730852 0.721181 0.712539 0.709312 0.69923 0.686201 0.683267 0.669701 0.669121 0.662668 0.848155 0.858596 0.811063 0.641306 0.636719 0.606246 0.596052 0.5938 0.58632 0.577719 0.574077 0.807895 0.834619 0.57031 0.570221 0.555755 0.547859 0.543644 0.671335 0.535441 0.534677 0.566104 0.529826 0.511785 0.508432 0.539263 0.499886 0.499687 0.497368 0.494872 0.491529 0.48992 0.487013 0.48429 0.483773 0.477423 0.465575 0.450336
threshold=63204.750000000007 445.30000305175787 75.700000762939467 94148.402343750015 460.00000000000006 23.649999618530277 48408.515625000007 398.19999694824224 372.44999694824224 72273.898437500015 406.65000915527349 1696980.0625000002 5.4826743602752694 1.0000000180025095e-35 540.95001220703136 64.549999237060561 186.30299377441409 1.0000000180025095e-35 274.84999084472662 2.0177428722381596 52.635000228881843 230.09999847412112 1.0000000180025095e-35 30.44999980926514 213.80780792236331 126.64999771118165 760.59445190429699 1.2114999890327456 249.03499603271487 3.5000000000000004 29789.378906250004 1000.6000061035157 585.71249389648449 341.83750915527349 0.37500000000000006 211.16514587402347 587476.21875000012 0.014999999199062588 3892.1850585937505 883.25000000000011 0.095733944326639189 5.0499999523162851 68.250000000000014 -0.36952479183673853 247.15261077880862 1.7720544338226321 0.67431601881980907 1.9891468286514284 3.5000000000000004 280.26249694824224 -0.65454119443893422 82.977500915527358 44.674140930175788 6.8500001430511483 86.462497711181655 1.0000000180025095e-35 65.322498321533217 131811.13281250003 1817179.6250000002 1.2364999651908877 281.48750305175787 97.250000000000014 105.37447738647462 116827.83593750001 299.21249389648443 11.131406307220461 1895327.5000000002 113.44895935058595 27009.278320312504 7.5000000000000009 24.989583015441898 103595.32812500001 625.10000610351574 0.004975636489689351 7932.9948730468759 151502.17187500003 1.7916911840438845 6.6760141849517831 144.66863250732425 82.250000000000014 23.987639427185062 1.0000000180025095e-35 7.4500000476837167 956987.25000000012 1003.8500061035157 1000.1499938964845 0.054999999701976783 107198.09765625001 785.25000000000011 567.25000000000011 2.748027086257935 275.34999084472662 25.993749618530277 73.750000000000014
decision_type=2 2 2 2 2 2 2 2 2 2 2 2 2 2 2 2 2 2 2 2 2 2 2 2 2 2 2 2 2 2 2 2 2 2 2 2 2 2 2 2 2 2 2 2 2 2 2 2 2 2 2 2 2 2 2 2 2 2 2 2 2 2 2 2 2 2 2 2 2 2 2 2 2 2 2 2 2 2 2 2 2 2 2 2 2 2 2 2 2 2 2 2 2 2
left_child=2 3 5 9 10 38 8 34 30 48 36 33 13 15 35 19 42 27 20 50 -19 59 23 24 -9 -10 -7 53 -29 70 -4 91 -33 80 55 -6 47 39 -1 62 41 -23 43 79 86 84 -38 -3 -2 71 -11 54 76 -18 -25 56 57 -5 -57 -13 73 -34 -14 83 -31 -61 -27 -68 72 -32 -15 90 -69 -48 -75 -37 77 -41 -54 -12 81 -8 -58 -64 -46 -52 -20 -49 -53 -30 -50 -24 -17 -93
right_child=1 4 6 7 14 26 11 22 25 12 16 21 37 29 -16 92 17 18 44 -21 -22 40 31 51 -26 66 -28 28 89 64 69 32 61 -35 -36 75 46 -39 -40 52 -42 -43 -44 -45 45 -47 60 87 49 -51 85 88 78 -55 -56 58 82 -59 -60 65 -62 -63 63 -65 -66 -67 67 68 -70 -71 -72 -73 -74 74 -76 -77 -78 -79 -80 -81 -82 -83 -84 -85 -86 -87 -88 -89 -90 -91 -92 93 -94 -95
leaf_value=-0.012573382808941384 0.0024041366223510759 0.05116543173789978 -0.0043800890796786623 0.028449780058379722 0.015603563897311688 -0.0079385973410994754 0.0047611213094710218 0.044256901052493747 0.00060995675889153548 0.031813807078585853 0.032718034217222816 0.0057144310470614362 0.0095828110916001442 0.0069604788072457589 0.053836988101402916 0.013388392006758943 0.018298967046757753 -0.00041314069226029379 0.035330699055555685 0.015146285434584759 0.031797413046782214 0.030324153673081174 0.0053474435240227301 0.027045637755818405 0.029103717781716488 0.0033531023194848749 -0.0041725671250401912 0.04849978255920067 0.037494953087669737 0.0081152236810948086 -0.0019613739047022898 0.023285542817116815 0.033690807632522878 0.010735649188099015 0.0053741293137944818 0.04091307619582138 0.014532724259697717 0.0041971586572745927 -0.010655255172935606 0.017488323784146189 0.022052280802821463 0.0057490197208244359 0.016652459104585907 0.043666024423307845 0.028601065998276078 0.03521955725806418 0.012549412733113226 0.0092283967696130276 0.016478379710056092 0.006893617854442472 0.0019167393213137985 0.023585507252306643 0.041566275586100189 0.039229512973091192 0.043452960556304016 0.013370416312679358 0.022289434765763064 0.01434596233213177 0.020359372862902306 0.025299858195441113 0.018108810944779015 0.012820348503688973 0.021394907315965005 -0.0015537892038432451 0.013514827036909462 0.009953327115522926 0.0052966827299985057 0.010358508918434381 0.0086766723580658442 0.0014813860091748138 -0.0046369091308654546 0.0099490440283829112 0.030806074399305019 0.025419527838627498 0.04554960506187903 0.047573555366517944 0.028232848825567265 0.03477719092652911 0.019004176656405133 0.014866035574903855 -0.0019277852627424389 -0.002397181733875819 0.013550355965368605 0.0012654588486139592 0.047774482205294184 0.023312879610943416 0.020738635249047854 0.031893392096644324 0.00912082317482793 0.016306227951177529 0.039409596621990207 0.023211168523994276 -0.00014445429012455323 0.01293753920144809
leaf_weight=16875 167 19 1462 254 9.9999999999999982 2984 1240 121 842 127 42 277 83 185 450 435 15.999999999999998 21 605 194 33 21 26 313 107 432 1084 328 47 290 1569 434 193 224 45 157 64 34 2578 193 153 80 46 36 14.999999999999998 134 10.999999999999998 9.9999999999999982 115 428 11.999999999999998 79 34 343 27 255 144 52 476 35 44 14.999999999999998 240 12.999999999999998 656 82 285 20 100 694 55 218 38 30 37 522 94 21 14.999999999999998 26 153 115 120 12.999999999999998 138 109 24 206 33 13.999999999999998 9.9999999999999982 128 27 64
leaf_count=16875 167 19 1462 254 10 2984 1240 121 842 127 42 277 83 185 450 435 16 21 605 194 33 21 26 313 107 432 1084 328 47 290 1569 434 193 224 45 157 64 34 2578 193 153 80 46 36 15 134 11 10 115 428 12 79 34 343 27 255 144 52 476 35 44 15 240 13 656 82 285 20 100 694 55 218 38 30 37 522 94 21 15 26 153 115 120 13 138 109 24 206 33 14 10 128 27 64
internal_value=0 0.0253025 -0.00813896 0.0176003 0.040253 -0.011388 0.00163096 0.0232713 -0.00050273 0.0132568 0.0359754 0.00650977 0.014891 0.0132128 0.0488494 0.0169943 0.0376876 0.0385924 0.0357266 0.0215901 0.0192711 0.011968 0.0266302 0.0298117 0.0371455 0.00332973 -0.00693506 0.0423088 0.0460115 0.0103304 -0.00226926 0.0241147 0.0261691 0.00446764 0.0194282 0.0455918 0.0283784 0.0196309 -0.0123192 0.0203742 0.0176013 0.0108587 0.0273244 0.0320447 0.0366966 0.0409105 0.0231873 0.0324871 0.00832618 0.00960891 0.0266309 0.0261123 0.0236912 0.0382967 0.0283486 0.0199143 0.0224701 0.0260531 0.0179214 0.00833646 0.0277275 0.0321857 0.0169811 0.0192896 0.0118596 0.0145442 0.00594693 0.00847635 0.0142118 -0.000905574 0.00430274 0.0129971 0.0237552 0.0331534 0.0365361 0.0460335 0.0219463 0.0191849 0.0346595 0.0258923 0.00353658 0.00415359 0.0183171 0.0203606 0.0458947 0.0211909 0.0347739 0.0308441 0.0193236 0.032632 0.0183129 0.0180645 0.0125975 0.0197866
internal_weight=0 10082 31343 6654 3428 23521 7822 2886 5442 3768 2289 2380 2830 2090 1139 904 1868 1718 970 442 54 648 1540 680 228 1717 4068 748 389 1186 3725 860 642 1732 1346 689 421 740 19453 706 254 101 150 104 916 287 186 235 938 771 248 452 357 359 340 1301 570 306 731 394 122 208 349 266 946 117 875 443 158 2263 240 343 58 78 67 679 308 214 49 68 1508 1355 264 253 153 121 629 216 112 61 125 218 462 192
internal_count=41425 10082 31343 6654 3428 23521 7822 2886 5442 3768 2289 2380 2830 2090 1139 904 1868 1718 970 442 54 648 1540 680 228 1717 4068 748 389 1186 3725 860 642 1732 1346 689 421 740 19453 706 254 101 150 104 916 287 186 235 938 771 248 452 357 359 340 1301 570 306 731 394 122 208 349 266 946 117 875 443 158 2263 240 343 58 78 67 679 308 214 49 68 1508 1355 264 253 153 121 629 216 112 61 125 218 462 192
is_linear=0
shrinkage=0.1


Tree=3
num_leaves=95
num_cat=0
split_feature=41 39 39 41 15 97 41 63 105 107 8 51 75 147 20 0 116 105 49 111 138 49 159 53 55 171 211 105 213 2 192 135 0 62 163 99 86 99 52 130 179 0 83 171 20 59 149 3 5 48 129 191 68 74 45 49 139 68 44 83 0 1 163 140 33 215 0 63 104 0 29 13 161 40 58 165 62 33 172 85 90 50 110 5 170 164 56 68 48 212 0 205 9 0
split_gain=691.171 90.7963 84.2732 12.295 10.2103 7.91335 7.28034 3.05881 3.01765 2.47184 2.36078 2.26404 1.7888 1.53294 1.46977 1.22296 1.98057 1.18288 1.16437 1.27251 1.14529 1.13303 1.1175 1.03575 1.02931 1.12273 1.01418 1.00966 0.889565 0.857087 0.855369 0.834201 0.831036 1.33878 0.787019 0.838829 0.776669 0.775868 0.764551 0.761831 0.756503 0.751911 0.711929 0.692316 0.754185 0.688065 0.681368 0.672417 0.971966 0.653408 0.647902 0.923964 0.798006 0.633376 0.600804 0.596161 0.584739 0.583044 0.581865 0.563048 0.929646 0.551762 0.551348 0.550503 0.549942 0.542562 0.541439 0.537414 0.521146 0.504813 0.497572 0.490835 0.489424 0.484931 0.48435 0.470358 0.467234 0.465571 0.463848 0.494966 0.527157 0.460546 0.441897 0.563574 0.542158 0.488687 0.440844 0.700476 0.436842 0.430746 0.428919 0.608033 0.53939 0.428639
threshold=64733.697265625007 445.30000305175787 75.700000762939467 94148.402343750015 460.00000000000006 334.93696594238287 48408.515625000007 363.34999084472662 398.19999694824224 143829.58593750003 1696980.0625000002 207.79999542236331 0.054999999701976783 687.21252441406261 998.35000610351574 1.0000000180025095e-35 2107798.1250000005 248.40000152587893 209.53801727294925 820.85000610351574 15.369999885559084 169.46773529052737 341.83750915527349 34509.013671875007 55.549999237060554 40.360898971557624 12823.112792968752 286.34999084472662 0.33664926886558538 24.998749732971195 1.1938291192054751 80.762500762939467 1.0000000180025095e-35 2306836.3750000005 43.550001144409187 0.69337520003318798 274.84999084472662 -0.31622770428657526 108.95000076293947 0.62500000000000011 4.0925729274749765 1.5000000000000002 133.61600494384768 23.835368156433109 1011.6499938964845 7.7500000000000009 89932.160156250015 7.5000000000000009 10.650000095367433 177.76874542236331 0.011249999515712263 5.6691758632659921 728590.50000000012 1032.350036621094 0.036015542224049575 195.40854644775393 0.23750000447034839 691150.62500000012 0.97448542714118969 104.5379981994629 1.0000000180025095e-35 1.0000000180025095e-35 75.637500762939467 273.71250915527349 99.950000762939467 53.040525436401374 1.0000000180025095e-35 827.95001220703136 62.43499946594239 1.0000000180025095e-35 153.161003112793 198.75000000000003 158057.63281250003 -0.81524670124053944 2065.150024414063 1336.674987792969 1629168.6250000002 90.049999237060561 42.86103820800782 0.25000000745058065 1.2500000000000002 49.517499923706062 95.250000000000014 7.5499999523162851 130002.46484375001 96.012500762939467 57.549999237060554 750464.50000000012 268.19322204589849 7033.2497558593759 1.0000000180025095e-35 537.23818969726574 506.15000915527349 1.0000000180025095e-35
decision_type=2 2 2 2 2 2 2 2 2 2 2 2 2 2 2 2 2 2 2 2 2 2 2 2 2 2 2 2 2 2 2 2 2 2 2 2 2 2 2 2 2 2 2 2 2 2 2 2 2 2 2 2 2 2 2 2 2 2 2 2 2 2 2 2 2 2 2 2 2 2 2 2 2 2 2 2 2 2 2 2 2 2 2 2 2 2 2 2 2 2 2 2 2 2
left_child=2 3 5 11 9 -1 7 27 39 32 22 50 18 26 29 24 46 45 19 40 -7 37 63 -9 25 73 72 -4 -18 -13 55 41 33 89 66 -36 81 70 77 54 -11 -32 -26 44 57 64 -17 -45 -49 -35 51 69 -53 -44 82 71 -40 67 86 -29 -61 -43 -39 -8 -12 -37 -21 -20 -56 -2 -10 -23 -6 -16 -51 -30 -71 -25 79 80 -19 -34 84 85 90 -84 87 88 93 -3 91 -5 -92 -46
right_child=1 4 6 8 13 20 10 23 21 12 17 14 -14 -15 15 16 28 78 43 34 -22 30 -24 38 42 -27 -28 59 75 -31 31 -33 36 49 35 65 -38 62 56 -41 -42 61 53 47 58 -47 -48 48 -50 74 -52 52 -54 -55 68 -57 -58 -59 -60 60 -62 -63 -64 -65 -66 -67 -68 -69 -70 76 -72 -73 -74 -75 -76 -77 -78 -79 -80 -81 -82 -83 83 -85 -86 -87 -88 -89 -90 -91 92 -93 -94 -95
leaf_value=-0.01116164650525641 0.010721657251386428 0.042123344910078658 -0.0033779458793673496 0.026494144255285276 0.036695284178874792 -0.0076203316532579878 -0.0028661523229549738 8.3127644909830392e-05 0.013633754653052039 0.0043308312556257951 0.017282563775344834 0.0083239052647929961 0.017970808917564935 0.049910958267890729 0.028546692884758414 0.0076366862516983047 0.010173134853508563 0.020679208957345079 0.038149819199489211 0.046928735977073893 -0.0042427155494994227 0.032060380609411944 0.010262431833598385 0.0077242264379826821 0.0090045171335535086 0.012802770037858471 0.013991184503986285 -0.0013140781155968962 0.018231616353605415 -0.0096960584845339117 0.02646556638974289 0.01145298365914567 -0.00086821516263572605 0.015507737351808607 0.032573475844769197 0.008338178886549065 0.026269605887915805 0.020223372565927888 0.0052734861085254846 0.00085706467033122439 0.032975992241076064 0.021385353808903967 0.016021765175575572 0.035147915691712717 0.045206727547490083 0.0052088754096522964 0.013071390613884792 0.035839732668616557 0.0049631371505950636 0.034268492663797646 -0.0006296296858539184 0.032215826813902323 0.012313953110468434 0.040292619778351357 0.019882787397259277 0.038585934746013566 0.013041767094819808 0.023728652287621138 0.023061176937292607 0.012686370337308434 -0.00022564236551126534 0.0046569122287275439 0.01049783499785752 0.0037180692146583025 0.006343571232577375 0.029002559402336675 0.033163303109787164 0.016244706263144813 0.011562850375116991 0.0023622365198396026 0.028446584237882724 0.020622126000460178 0.043250823429406247 0.019837901537747324 0.023757705785683356 0.026706761010434656 0.0084868323545523646 0.00077637022369959397 0.022353259061703518 0.032384220138192178 0.0062852058821968593 0.021046351599083704 0.010264189802378846 0.007193485304191144 0.014302736081156906 0.02847648846834679 0.048267303847453813 0.029750083232263348 0.050747575402259826 0.02284641983703925 0.014952112042230249 0.016875059597014512 0.022459726931755339 0.037160000195487951
leaf_weight=18855 393 107 2523 230 137 3204 139 1131 29 27 114 118 61 314 149 536 94 38 168 53 1462 95 256 117 167 111 12.999999999999998 336 174 34 684 49 17 41 182 27 405 124 431 27 13.999999999999998 190 477 314 115 303 405 22 19 97 75 29 66 10.999999999999998 111 71 125 43 17 95 135 22 110 1469 77 24 62 11.999999999999998 234 212 104 62 675 112 80 105 302 549 93 11.999999999999998 77 22 26 66 143 34 88 53 50 12.999999999999998 187 92 196 156
leaf_count=18855 393 107 2523 230 137 3204 139 1131 29 27 114 118 61 314 149 536 94 38 168 53 1462 95 256 117 167 111 13 336 174 34 684 49 17 41 182 27 405 124 431 27 14 190 477 314 115 303 405 22 19 97 75 29 66 11 111 71 125 43 17 95 135 22 110 1469 77 24 62 12 234 212 104 62 675 112 80 105 302 549 93 12 77 22 26 66 143 34 88 53 50 13 187 92 196 156
internal_value=0 0.0230745 -0.00723086 0.0160905 0.0362277 -0.0102492 0.00162127 -0.000452457 0.0209441 0.0323779 0.00599877 0.0121668 0.0347451 0.0439644 0.013822 0.0144407 0.0124201 0.0108882 0.0354527 0.0307751 -0.00656202 0.0239672 0.00412588 0.00226395 0.0170261 0.0212269 0.0417011 -0.00252164 0.0185866 0.00429312 0.0254844 0.024158 0.027816 0.0315523 0.0327383 0.0293973 0.0249717 0.0191179 0.00428237 0.0174853 0.0141121 0.0248528 0.0146402 0.0371742 0.0389941 0.00817198 0.00997575 0.0335753 0.0215311 0.0268829 0.00833536 0.0090064 0.0183893 0.0165689 0.0178257 0.0309821 0.00701995 0.0341903 0.0412305 0.00129543 0.00510758 0.0196494 0.0156515 0.00314891 0.0128726 0.0180626 0.0395074 0.0366895 0.0142397 0.00802363 0.0252167 0.0275434 0.0421448 0.0248096 0.0295179 0.0214212 0.00596073 0.00199694 0.0169874 0.0130581 0.0110415 0.0114938 0.0190959 0.0135702 0.019917 0.0205845 0.0418991 0.0404007 0.0421592 0.040035 0.0210558 0.0237458 0.0187941 0.0405747
internal_weight=0 9884 31541 6456 3428 23521 8020 5442 2886 2289 2578 3570 1507 1139 2493 2341 1314 714 1446 389 4666 1540 1864 2353 1027 372 825 3089 373 152 1173 945 782 338 348 233 444 367 1222 1346 41 896 655 1057 702 494 941 355 41 218 1077 1002 95 488 1319 228 556 223 479 566 230 212 234 1608 191 51 115 180 345 907 133 157 812 261 177 279 514 666 220 127 115 39 974 126 848 60 462 374 321 120 705 322 383 271
internal_count=41425 9884 31541 6456 3428 23521 8020 5442 2886 2289 2578 3570 1507 1139 2493 2341 1314 714 1446 389 4666 1540 1864 2353 1027 372 825 3089 373 152 1173 945 782 338 348 233 444 367 1222 1346 41 896 655 1057 702 494 941 355 41 218 1077 1002 95 488 1319 228 556 223 479 566 230 212 234 1608 191 51 115 180 345 907 133 157 812 261 177 279 514 666 220 127 115 39 974 126 848 60 462 374 321 120 705 322 383 271
is_linear=0
shrinkage=0.1


Tree=4
num_leaves=95
num_cat=0
split_feature=41 39 39 15 39 149 63 121 15 159 51 117 8 150 0 161 49 192 129 0 205 51 105 0 192 110 49 171 3 3 5 213 106 0 192 201 140 141 137 105 97 196 75 50 147 3 64 0 86 3 208 120 36 205 1 159 2 7 33 61 125 129 202 161 204 135 5 90 171 138 0 83 51 118 184 34 86 12 52 31 137 51 29 0 84 63 99 125 91 214 148 143 183 20
split_gain=559.849 73.6316 68.6483 12.5709 9.26583 5.90765 3.49767 3.05107 2.79975 2.50421 1.9942 1.78117 1.68037 1.46224 1.35746 1.30273 1.26145 1.12453 1.10565 1.24223 1.19289 0.989963 0.987549 0.973822 0.963313 1.20887 0.854051 0.904193 0.852439 0.792945 0.7858 0.758074 0.711655 0.709539 0.901286 0.70771 0.69022 0.680685 0.6582 0.650096 0.648888 0.641371 0.625461 0.601762 0.596359 0.584226 0.566044 0.553432 0.886301 0.553527 0.547475 0.54697 0.570928 0.54294 0.536639 0.534706 0.529708 0.525242 0.598774 0.65632 0.585288 0.520413 0.514151 0.513188 0.509696 0.487809 0.487785 0.479853 0.487029 0.464826 0.462388 0.851128 0.456417 0.451761 0.449459 0.445854 0.448701 0.442125 0.440678 0.434022 0.431462 0.429556 0.421287 0.515735 0.778083 0.417368 0.41525 0.413402 0.412838 0.412314 0.408284 0.501918 0.404987 0.394442
threshold=64733.697265625007 409.69999694824224 54.95000076293946 406.00000000000006 128.54999542236331 96283.593750000015 498.69999694824224 20.38749980926514 499.50000000000006 407.92500305175787 233.15000152587893 323.81250000000006 1664044.7500000002 225.15750122070315 1.0000000180025095e-35 89001.277343750015 96.160110473632827 1.4088560938835146 0.0037499999161809687 1.0000000180025095e-35 378.10231018066412 222.90000152587893 199.94999694824222 1.0000000180025095e-35 2.0177428722381596 94.250000000000014 186.30299377441409 12.166723728179933 3.5000000000000004 3.5000000000000004 7.7500000000000009 2.6738713979721074 605.85000610351574 1.0000000180025095e-35 1.9662020206451418 44.674140930175788 273.71250915527349 96.299999237060561 163.95524597167972 662.85000610351574 1999.6049804687502 1905.8206787109377 0.12499999627470972 58.127500534057624 605.79998779296886 3.5000000000000004 1566.6499633789065 1.0000000180025095e-35 288.25000000000006 3.5000000000000004 3.1784894466400151 279.78749084472662 4.5499999523162851 396.38786315917974 1.0000000180025095e-35 200.50000000000003 24.998055458068851 770.19998168945324 76.350002288818374 1637.1499633789065 76.487499237060561 0.0062499998603016147 0.038834033533930785 35403.224609375007 15.130715847015383 55.562498092651374 7.5499999523162851 1.1500000357627871 23.835368156433109 15.369999885559084 1.0000000180025095e-35 105.91149902343751 185.34999847412112 767.53750610351574 0.53867512941360485 12610.149902343752 284.75000000000006 274.05000305175787 454.75001525878912 1.0000000180025095e-35 180.89512634277347 381.80000305175787 88.707996368408217 1.0000000180025095e-35 18.41350078582764 823.25000000000011 -0.27779881656169886 97.512496948242202 -0.94999998807907093 9.3855843544006365 1.510561525821686 6.0125000476837167 0.040362901985645301 1004.9500122070314
decision_type=2 2 2 2 2 2 2 2 2 2 2 2 2 2 2 2 2 2 2 2 2 2 2 2 2 2 2 2 2 2 2 2 2 2 2 2 2 2 2 2 2 2 2 2 2 2 2 2 2 2 2 2 2 2 2 2 2 2 2 2 2 2 2 2 2 2 2 2 2 2 2 2 2 2 2 2 2 2 2 2 2 2 2 2 2 2 2 2 2 2 2 2 2 2
left_child=2 5 7 9 11 12 15 -1 23 42 89 55 14 26 24 36 30 22 19 20 40 66 -18 32 25 43 38 44 56 -25 86 35 67 34 53 51 -6 -13 73 -10 -12 -40 80 72 92 54 -19 48 -29 -49 -22 79 75 -17 -16 -4 -21 -15 60 -60 74 62 65 -38 -33 -24 -14 68 -5 -9 71 -57 -2 -11 -59 87 -77 -48 -61 -23 -3 -26 -65 84 -84 -46 -8 -53 -52 -7 -81 -92 -28 -88
right_child=1 3 4 8 6 10 16 69 39 13 18 37 21 57 45 33 17 46 -20 28 50 31 61 29 81 -27 27 47 -30 -31 -32 64 -34 -35 -36 -37 63 -39 41 -41 -42 -43 -44 -45 85 -47 77 49 -50 -51 88 52 -54 -55 -56 70 -58 58 59 78 -62 -63 -64 82 -66 -67 -68 -69 -70 -71 -72 -73 -74 -75 -76 76 -78 -79 -80 90 -82 -83 83 -85 -86 -87 93 -89 -90 -91 91 -93 -94 -95
leaf_value=-0.010111220245081574 0.013015334344198718 0.014230045995602092 -0.0046282234940313652 0.044013161567715828 -0.0035299125030913122 0.011704846962579677 0.0018464450707489793 -0.007559263871062611 0.038212179118569743 -0.0015484759076075123 0.031594022910328624 0.0067761435781072887 0.012499807729731477 0.0089883045858836601 0.0044254358394035962 0.02558186367297402 0.0056376777678690477 0.0050789300276493365 0.0073214312358080257 0.011105799046932024 0.015501990491456945 0.011818752640414737 0.033717424998229203 0.013034342757790633 0.00574485181569171 0.0015284075123828747 0.037246541443989797 0.035941213352895643 0.017126471563078199 0.031947141793413319 0.00095228664671007243 0.017121304383366735 0.03169009246455174 0.0034706493374866212 0.0068268595955278556 0.030487949684770272 -0.00043001137794050349 -0.0005228642816497485 0.033072410000918005 0.044179714176112717 0.022472699409949733 0.012130960819518401 -0.0012625721068336415 0.012196097902685395 0.013190285188611595 0.0073901693615437544 0.029446614347398283 0.0097659918332570483 0.026600016442915569 0.02716481892503185 0.040518519580364232 0.0098471304818910244 -0.0051800141180003137 0.001127961426126686 -0.0058397243194507828 -0.0025707592808762703 -0.0077649754198158491 0.025891473368833295 0.034665485997410386 0.0080807983503161408 0.045199133753776551 0.0049835796490491878 0.022717761813707424 -0.00078127969739440564 0.027474759944203883 0.011562906614407554 0.0053797133632956526 0.026694414190327129 0.03435304176429628 -0.0048225096485335454 -0.0036651434068130152 0.0090945119476236874 0.023256285806320654 0.019919812118427624 0.0059603642982741199 0.026105328297919853 0.010636462578866229 0.010683798779767831 0.023834649158211856 0.011779412916168953 0.022008880196790776 0.01878565052258117 0.016109626730453346 0.0017072909663330338 0.0043195631823588583 0.037441253391179173 0.0062622093528625555 -0.010200768140041167 0.020772559356777898 0.002537540395652676 0.027919171523058513 0.0037489385157823563 0.019173351023346188 0.017311605318515961
leaf_weight=18225 62 83 2432 197 281 396 55 3022 311 10.999999999999998 94 139 196 28 223 52 99 373 96 119 356 158 10.999999999999998 23 258 62 268 212 1131 613 322 204 146 257 135 22 793 1581 78 442 458 18 12.999999999999998 171 20.000000000000004 733 13.999999999999998 19 195 486 14.999999999999998 24 27 10.999999999999998 66 167 17 198 17 56 14.999999999999998 31 142 302 62 103 189 24 71 781 369 100 146 90 11.999999999999998 22 127 122 26 39 506 28 62 854 576 10.999999999999998 60 18 36 56 61 9.9999999999999982 12.999999999999998 70
leaf_count=18225 62 83 2432 197 281 396 55 3022 311 11 94 139 196 28 223 52 99 373 96 119 356 158 11 23 258 62 268 212 1131 613 322 204 146 257 135 22 793 1581 78 442 458 18 13 171 20 733 14 19 195 486 15 24 27 11 66 167 17 198 17 56 15 31 142 302 62 103 189 24 71 781 369 100 146 90 12 22 127 122 26 39 506 28 62 854 576 11 60 18 36 56 61 10 13 70
internal_value=0 0.0207671 -0.00650778 0.0308037 0.000591364 0.0133447 0.00373303 -0.00957361 0.0370399 0.0260065 0.0166461 -0.00250896 0.0101954 0.0278986 0.00823858 0.00196578 0.00792173 0.0101794 0.0178291 0.0182822 0.0209975 0.0131484 0.0142498 0.0337621 0.0115417 0.0144732 0.0293279 0.0303114 0.016227 0.0312632 0.00393636 0.0152096 0.0373906 0.00693681 0.0114358 0.012945 0.00117714 6.69974e-05 0.023217 0.041715 0.024026 0.0291459 0.0204338 0.0165908 0.0349583 0.00588889 0.00709257 0.0287217 0.0314657 0.0265102 0.0168902 0.0121509 0.00843122 0.0213121 0.00208114 -0.00395311 0.00874695 0.0221285 0.0232641 0.0167832 0.0261157 0.0172205 0.0187023 0.00168842 0.0195345 0.0137006 0.00900449 0.0402408 0.041454 -0.00699723 -0.00137155 0.00179826 0.0202037 0.0175817 0.0247526 0.0103553 0.0129205 0.0126153 0.0130759 0.0151766 0.0209127 0.00702157 0.00262483 0.00331427 0.00546531 0.0217955 0.00913027 0.00125517 0.0265802 0.0105691 0.0199996 0.0245149 0.0364104 0.0122119
internal_weight=0 9884 31541 4202 9513 5682 4725 22028 1827 2375 2774 4788 2908 1773 1749 3323 1402 895 2322 2226 959 1159 386 1074 727 441 1421 1224 1267 636 507 774 438 455 198 508 2868 1720 197 753 552 96 602 379 312 1022 509 912 407 505 407 486 218 63 289 3068 136 352 324 99 225 287 256 2587 266 114 385 292 268 3803 636 267 208 101 210 191 149 136 82 268 589 286 1794 1492 638 31 185 42 51 452 110 71 281 130
internal_count=41425 9884 31541 4202 9513 5682 4725 22028 1827 2375 2774 4788 2908 1773 1749 3323 1402 895 2322 2226 959 1159 386 1074 727 441 1421 1224 1267 636 507 774 438 455 198 508 2868 1720 197 753 552 96 602 379 312 1022 509 912 407 505 407 486 218 63 289 3068 136 352 324 99 225 287 256 2587 266 114 385 292 268 3803 636 267 208 101 210 191 149 136 82 268 589 286 1794 1492 638 31 185 42 51 452 110 71 281 130
is_linear=0
shrinkage=0.1


Tree=5
num_leaves=95
num_cat=0
split_feature=147 39 39 15 41 39 138 147 51 53 107 191 117 129 0 150 129 48 3 191 192 56 159 49 0 27 93 0 120 75 139 191 183 3 2 122 0 56 117 130 191 51 20 2 163 95 192 144 40 191 2 39 61 145 5 205 42 130 86 51 178 199 111 58 34 143 47 169 43 49 49 10 159 47 1 0 81 177 37 162 54 104 110 62 195 1 9 122 167 192 50 105 170 176
split_gain=453.487 69.1027 46.4006 10.1857 6.93922 5.48114 2.66078 2.50976 2.35349 2.13753 2.05765 2.03808 1.44831 1.21817 1.20042 1.00915 0.921984 0.916204 0.887768 0.887305 0.874151 1.23984 0.837309 0.829268 0.756414 0.763145 0.734371 0.929175 0.845082 0.799135 0.728327 0.692602 0.690188 0.678986 0.674403 0.670026 0.851697 0.929736 0.887193 0.662994 0.661274 0.65902 0.650222 0.649536 0.639338 0.613185 0.611259 0.578538 0.998252 0.671582 0.576462 0.55806 0.534935 0.526881 0.521194 0.508599 0.503091 0.492956 0.491571 0.488872 0.484369 0.657656 0.484099 0.493361 0.525924 0.475723 0.471986 0.523935 0.600366 0.452521 0.447036 0.446629 0.445961 0.445946 0.439962 0.435743 0.434335 0.431798 0.431026 0.41802 0.413289 0.407413 0.406752 0.403095 0.396228 0.394868 0.392247 0.390962 0.387113 0.381889 0.372087 0.371446 0.634421 0.450328
threshold=239.68750000000003 409.69999694824224 54.95000076293946 416.05000305175787 82033.292968750015 128.54999542236331 27.426625251770023 29.425000190734867 413.45001220703131 112296.25781250001 187300.89843750003 5.5025353431701669 297.18750000000006 0.0037499999161809687 1.0000000180025095e-35 225.15750122070315 0.0087499998044222611 101.64635086059572 3.5000000000000004 4.6948914527893075 2.0126478672027592 50.049999237060554 407.92500305175787 96.160110473632827 1.5000000000000002 75.750000000000014 551.14996337890636 1.0000000180025095e-35 282.98750305175787 1.0000000180025095e-35 0.062500001862645163 6.0007486343383798 0.04123105667531491 3.5000000000000004 23.989583015441898 835740.25000000012 1.0000000180025095e-35 10.250000000000002 525.02499389648449 0.37500000000000006 5.522935390472413 185.34999847412112 1032.9500122070315 25.993749618530277 75.637500762939467 33675.419921875007 1.7034310102462771 0.35000000894069677 1.565588176250458 5.6961119174957284 24.993749618530277 653.00000000000011 845.95001220703136 -1.2874999642372129 7.7500000000000009 158.73950958251956 277.19999694824224 0.37500000000000006 275.84999084472662 77.450000762939467 54543.376953125007 0.12909948825836184 847.64999389648449 953.39999389648449 17447.899414062504 5.6624999046325692 -0.98296290636062611 563.99676513671886 10873.996582031252 136.98710632324222 211.16514587402347 2318.5000000000005 560.81250000000011 -0.98296290636062611 1.0000000180025095e-35 1.0000000180025095e-35 73.950000762939467 1.8773865699768069 -1.8499999642372129 157998.19531250003 90112.289062500015 63.547498703002937 90.850002288818374 2705859.0000000005 8.6590995788574237 1.0000000180025095e-35 633.25000000000011 725552.21875000012 0.12909945100545886 1.4294942021369936 52.635000228881843 317.45001220703131 60723.931640625007 37836.638671875007
decision_type=2 2 2 2 2 2 2 2 2 2 2 2 2 2 2 2 2 2 2 2 2 2 2 2 2 2 2 2 2 2 2 2 2 2 2 2 2 2 2 2 2 2 2 2 2 2 2 2 2 2 2 2 2 2 2 2 2 2 2 2 2 2 2 2 2 2 2 2 2 2 2 2 2 2 2 2 2 2 2 2 2 2 2 2 2 2 2 2 2 2 2 2 2 2
left_child=2 4 7 8 11 12 34 -1 32 13 47 14 -4 17 16 26 20 43 85 -19 21 41 42 54 25 44 27 28 55 82 56 -12 66 90 59 36 37 -21 -38 40 -32 -2 52 81 46 -14 75 49 -49 -5 86 -51 -13 69 -8 -10 -25 91 -40 -7 -46 -62 72 64 -64 -55 -3 68 79 76 -50 -53 -17 -42 80 -11 -39 -37 -60 88 -26 -6 -28 -35 -47 -16 -23 -77 -68 -67 -29 93 -93 -54
right_child=1 3 5 10 9 6 23 -9 15 24 31 22 45 -15 18 62 -18 19 -20 35 -22 50 -24 30 74 -27 29 33 -30 -31 39 -33 -34 83 -36 77 38 53 58 -41 73 -43 -44 -45 60 84 -48 48 70 51 -52 71 57 65 -56 -57 -58 -59 78 -61 61 -63 63 -65 -66 89 67 -69 -70 -71 -72 -73 -74 -75 -76 87 -78 -79 -80 -81 -82 -83 -84 -85 -86 -87 -88 -89 -90 -91 -92 92 -94 -95
leaf_value=-0.0090795431113709461 0.011580572427175511 0.025942123332647844 -0.0036959924412341412 0.02763615098828498 0.014769719968680093 -0.0017136415045807631 0.0074043803328480836 -0.0061570180379760262 0.039869310617712997 0.031189929343696333 0.033377256553822732 -8.9244094775303424e-05 -0.0020672619951534825 0.003283211807025481 0.0017934654379065185 0.017298339220316528 -0.0036022432223597372 0.0092055688731276474 0.005815447548466795 0.028105176950609961 0.0062975659191869676 0.011075759020490631 0.025608269458947081 0.0068308000341905269 0.012771055174105969 0.013461214491258786 0.030247747166834066 -0.0023323556844843554 0.02279286337774937 0.015357599067775644 0.0088285703892395598 0.039950002758578233 0.00081652130343412099 0.022010717187232479 -0.0043114109250333007 -0.0082801820797612901 0.010181529599304257 0.040466053677456724 0.0037680366945486254 -0.0013340000636526384 0.0065051233143146557 0.022878396334346591 0.035910628329623828 -0.0065481563497866912 0.0082050901970693053 0.0012222987474451942 0.019806890876729977 -0.00088460061054390204 0.0072194040566682816 0.034723802783560978 -0.0013472561549860984 0.0027356574358418577 0.012743894279322305 0.013563468787381709 0.0011134211848113763 0.029649500691448338 -0.0037208146572515564 0.0022246051437428429 0.022257893495575096 0.0020931502362811975 0.013386645751628788 0.03296988865843526 0.01848865281790495 0.019270782784501159 0.035431520577590421 0.035893056127760135 0.019879486043580145 0.011349780698663665 0.0074608634895412251 0.018858351101411555 0.028958329020334142 0.032623080313205724 -0.0049495370965451004 0.01904078464318688 -0.00087464815936982637 0.019198860842152499 0.01772698722779751 0.011126863870798956 0.015377899468378593 0.023992717909301079 0.024929314936426555 0.0064563003328183422 0.039955653611104938 0.030385530420133602 0.015434377221390606 -0.0065469421898377697 -0.0066975138293435951 0.035897610599503797 0.010249182522703121 0.012242856166664172 0.018365228293757693 0.024228606507448215 0.011192721598781645 0.0017169477623822386
leaf_weight=18536 87 119 2844 241 93 406 217 3492 70 117 239 38 900 129 216 91 55 329 1068 86 426 277 48 193 183 151 428 15.999999999999998 135 34 257 487 19 344 222 11.999999999999998 401 21 28 40 35 127 10.999999999999998 28 56 1024 251 12.999999999999998 9.9999999999999982 486 50 10.000000000000002 267 330 335 160 59 45 130 1995 47 27 28 109 53 18.000000000000004 373 77 36 166 175 9.9999999999999982 9.9999999999999982 150 20 80 13.999999999999998 257 304 246 33 161 48 69 20 77 12.999999999999998 17 47 10.999999999999998 19 70 80 43
leaf_count=18536 87 119 2844 241 93 406 217 3492 70 117 239 38 900 129 216 91 55 329 1068 86 426 277 48 193 183 151 428 16 135 34 257 487 19 344 222 12 401 21 28 40 35 127 11 28 56 1024 251 13 10 486 50 10 267 330 335 160 59 45 130 1995 47 27 28 109 53 18 373 77 36 166 175 10 10 150 20 80 14 257 304 246 33 161 48 69 20 77 13 17 47 11 19 70 80 43
internal_value=0 0.0177299 -0.00617443 0.0277233 0.0112675 1.02666e-05 0.00278867 -0.00861625 0.0237229 0.0142919 0.0337827 0.00773657 -0.00225807 0.0127486 0.00642965 0.0260214 0.00899639 0.0132597 0.00447772 0.0139762 0.00970345 0.0123224 0.0129382 0.00651473 0.0182492 0.0198102 0.0271941 0.0253281 0.0290734 0.0301688 0.00871689 0.0377862 0.0196773 0.0222766 0.000961862 0.0148589 0.0156785 0.0184244 0.0136231 0.0109946 0.0121103 0.0182854 0.0118404 0.00790674 0.0214215 -0.000154431 0.0231547 0.030707 0.025901 0.0319808 0.00856928 0.0340501 0.0113528 0.0169378 0.0035865 0.0327599 0.00436038 0.0122138 0.0166102 0.00144944 0.0152219 0.0205319 0.0206898 0.0236635 0.0295747 0.0146426 0.0200764 0.0191804 0.0200393 0.0210371 0.0277833 0.0176794 0.0150956 0.0166692 0.0133147 0.0270813 0.0313704 0.0102611 0.0174387 0.0207192 0.0146286 0.00950019 0.0312267 0.0234099 0.00149456 -0.000398382 0.010279 0.0221254 0.0188018 0.0269223 0.00890348 0.013191 0.0172761 0.0112144
internal_weight=0 10700 30725 4202 6498 8697 3909 22028 2531 3500 1671 2998 4788 2518 2396 1614 1035 2389 1361 2107 980 554 602 1286 982 746 1323 813 365 510 734 726 917 448 2623 1778 1509 646 863 482 442 214 554 282 595 1944 465 945 198 747 340 506 543 560 552 230 252 505 462 2401 130 74 291 190 81 359 898 779 702 201 185 20 101 185 236 214 35 269 434 666 216 254 476 413 1044 293 290 97 420 29 35 460 150 310
internal_count=41425 10700 30725 4202 6498 8697 3909 22028 2531 3500 1671 2998 4788 2518 2396 1614 1035 2389 1361 2107 980 554 602 1286 982 746 1323 813 365 510 734 726 917 448 2623 1778 1509 646 863 482 442 214 554 282 595 1944 465 945 198 747 340 506 543 560 552 230 252 505 462 2401 130 74 291 190 81 359 898 779 702 201 185 20 101 185 236 214 35 269 434 666 216 254 476 413 1044 293 290 97 420 29 35 460 150 310
is_linear=0
shrinkage=0.1


Tree=6
num_leaves=95
num_cat=0
split_feature=41 39 39 93 53 39 41 106 51 9 51 9 48 137 159 75 42 7 1 0 55 48 0 75 134 111 63 63 194 0 55 191 51 17 107 0 6 63 191 0 140 51 49 205 49 51 169 139 31 3 77 50 32 94 172 7 123 210 215 8 193 59 213 164 5 48 129 55 98 108 213 88 96 94 214 114 148 74 192 98 192 165 95 115 57 48 176 196 8 0 32 163 27 49
split_gain=367.682 48.4955 45.0624 7.56052 5.02682 4.33186 3.99786 1.84711 1.76614 1.73924 1.55319 1.35438 1.13887 1.41538 0.997024 0.980347 0.983371 0.945992 0.938246 0.92149 1.26256 1.28367 0.901298 0.869972 0.849755 0.845429 0.831518 0.79671 0.747561 0.679627 0.762153 1.20182 0.655945 0.637938 0.606141 0.595969 0.886787 0.788011 0.592475 0.639705 0.588176 0.580801 0.578838 0.564 0.560056 0.706786 0.554629 0.516457 0.509898 0.505153 0.503608 0.5023 0.495675 0.480176 0.537777 0.47651 0.467452 0.465469 0.463802 0.46259 0.461288 0.457469 0.453902 0.45131 0.677643 0.536659 0.450315 0.441338 0.554542 0.439414 0.536048 0.429053 0.539672 0.455933 0.449429 0.43183 0.428567 0.417769 0.411123 0.410253 0.472312 0.407773 0.472794 0.398285 0.399674 0.386024 0.615533 0.517454 0.438588 0.385281 0.375045 0.372306 0.371519 0.371328
threshold=64733.697265625007 454.75001525878912 75.700000762939467 398.19999694824224 151502.17187500003 28.250000000000004 47707.355468750007 551.45001220703136 289.94999694824224 372.44999694824224 207.79999542236331 527.75000000000011 103.06979370117189 143.0507507324219 362.85000610351568 0.014999999664723875 159.0350036621094 770.19998168945324 1.0000000180025095e-35 1.0000000180025095e-35 31.849999427795414 224.34635162353518 1.0000000180025095e-35 0.014999999664723875 0.037500000558793552 1135.6499633789065 429.15000915527349 614.95001220703136 0.08164840936660768 1.0000000180025095e-35 57.95000076293946 4.4412181377410898 126.64999771118165 22.250000000000004 75591.804687500015 1.0000000180025095e-35 1.2114999890327456 530.04998779296886 4.4343233108520517 1.0000000180025095e-35 274.01249694824224 639.14999389648449 160.46992492675784 29.634036064147953 209.53801727294925 573.54998779296886 35.412006378173835 0.087500002235174193 0.25000000745058065 3.5000000000000004 992.54998779296886 49.517499923706062 274.94999694824224 1.7367475628852846 58.352943420410163 711.69998168945324 346.77499389648443 24.712478637695316 229.73252868652347 1179286.0000000002 0.050000002607703216 4.4500000476837167 3.5245562791824345 97.462497711181655 4.9500000476837167 136.31510162353518 0.084999997168779387 57.049999237060554 0.12403472885489465 98896.097656250015 0.26059789955616003 38042.750000000007 192.6499938964844 1.9522927999496462 0.73880228400230419 1.2296249866485598 -2.0485351085662837 997.95001220703136 0.7370738983154298 0.96807190775871288 1.2625091075897219 760.39999389648449 125617.61328125001 1799.1999511718752 555.85000610351574 110.87448120117189 21608.793945312504 4813.0109863281259 2051700.3750000002 1.5000000000000002 283.05000305175787 90.662502288818374 72.950000762939467 169.46773529052737
decision_type=2 2 2 2 2 2 2 2 2 2 2 2 2 2 2 2 2 2 2 2 2 2 2 2 2 2 2 2 2 2 2 2 2 2 2 2 2 2 2 2 2 2 2 2 2 2 2 2 2 2 2 2 2 2 2 2 2 2 2 2 2 2 2 2 2 2 2 2 2 2 2 2 2 2 2 2 2 2 2 2 2 2 2 2 2 2 2 2 2 2 2 2 2 2
left_child=2 3 5 10 15 43 9 44 66 34 60 29 18 14 -14 16 35 -18 22 20 21 -10 26 41 28 52 -12 -27 48 30 31 -8 -11 -19 40 36 -3 51 -36 -40 -4 67 -22 -1 45 46 -6 63 -13 -31 -20 -37 -21 54 -35 -34 -55 -46 -30 -7 77 -29 92 76 -65 -66 -5 -9 -69 70 -67 73 74 -49 -73 -74 91 -2 -62 80 81 82 -44 84 -75 -57 88 -88 -87 -16 -83 -15 -54 -63
right_child=1 4 6 8 7 59 11 23 19 32 12 24 13 47 89 -17 17 33 50 25 42 -23 -24 -25 -26 27 -28 61 58 49 -32 -33 55 53 38 37 -38 -39 39 -41 -42 -43 79 -45 57 -47 -48 71 -50 -51 -52 -53 62 56 -56 85 -58 -59 -60 -61 78 93 -64 64 65 69 -68 68 -70 -71 -72 72 75 83 -76 -77 -78 -79 -80 -81 -82 90 -84 -85 -86 86 87 -89 -90 -91 -92 -93 -94 -95
leaf_value=-0.0083166912952427636 -0.0028926758817791687 0.02346962453985045 -0.00645960744144395 0.011685377206981609 0.030216832827452734 -0.0048085125737897874 0.0029272943361775107 0.032086527405563732 0.029166061669414822 0.00030384947913632629 0.020246246925291971 0.0042562137473118019 0.0040710936818539253 0.021349000565975947 0.012067543887456466 0.009456231567416002 -0.0012824409040728246 0.026764950857868477 -0.0095317395285283227 0.0016730307115034927 0.010758568847274047 0.016548025236616647 0.0045174550808412886 0.011061589187011124 0.002459698030572945 0.014961544898521093 0.0072811225874710693 0.036468617137717575 0.013905503634633274 -0.0020486833553236528 0.0027968582128997462 0.013990147905553106 -0.00070602689880082847 0.0075017219451385458 -0.0016483154918634408 -0.0035010348203488523 0.032604547027100736 0.023584395682950759 0.0088231269809855347 0.00023694005549437935 -0.0017822470953070485 0.035767019080768625 0.019713550911877639 -0.0069482852890549651 0.03321213126182556 0.00060613923432195887 0.013373508057488569 0.018061916946732839 0.024228694103658202 0.0027810223664729212 0.0051605951581096153 0.020123348716232514 0.013174910524495596 0.026645563869380658 0.019414466751768486 0.0035800387893490299 0.01384130072156867 0.025878223564387078 0.03591704534366727 -0.0017601025660356952 0.027176447585225107 0.013326635654887248 0.018534221734929211 0.018924989970400929 -0.0047028252319928181 -0.0035142795997671786 -0.0048153353855013847 0.031018737693758389 0.012065708794845986 0.00031678441840584482 0.023457819162285887 0.022917539095788295 0.032551221914113838 0.013204576366621515 0.0069656982650294118 0.017879529321300134 0.012316902750806651 0.0057882906694763751 0.0083885574826236941 0.012813598911212396 0.017325288681869552 0.029040249978424984 0.046645100228488445 0.016462241347241953 -0.0040774758286715954 0.0070422142744064331 0.0040818624483025898 0.019456590075045826 0.025759347981863447 0.0063472738714730435 0.017046989506343379 0.0018829235849394041 0.0046536711032191909 0.022361039910036507
leaf_weight=16178 59 238 300 610 46 3047 192 558 215 835 92 147 337 92 511 55 22 103 51 45 124 129 287 18 153 541 107 19 224 284 540 201 157 72 424 18 192 548 151 204 2589 498 11.000000000000002 3701 109 17 34 112 13.999999999999998 912 43 18 161 81 80 430 44 420 9.9999999999999982 595 18 58 99 38 47 9.9999999999999982 17 38 26 31 28 33 47 23 38 35 636 918 33 103 247 44 15.999999999999998 38 32 21 176 25 31 153 64 10.999999999999998 75 211
leaf_count=16178 59 238 300 610 46 3047 192 558 215 835 92 147 337 92 511 55 22 103 51 45 124 129 287 18 153 541 107 19 224 284 540 201 157 72 424 18 192 548 151 204 2589 498 11 3701 109 17 34 112 14 912 43 18 161 81 80 430 44 420 10 595 18 58 99 38 47 10 17 38 26 31 28 33 47 23 38 35 636 918 33 103 247 44 16 38 32 21 176 25 31 153 64 11 75 211
internal_value=0 0.0168297 -0.00527392 0.0119438 0.0268718 -0.00748105 0.00119915 0.0304715 0.0159108 -0.000381217 0.00907746 0.00435339 0.010286 0.0113037 0.00850111 0.0225551 0.0230639 0.0188785 0.00633454 0.017266 0.0195914 0.0244343 0.00810338 0.0328715 0.00878687 0.0154331 0.013275 0.0172234 0.0112376 0.00321223 0.00523512 0.0085854 0.00228868 0.0200457 -0.00160043 0.0247232 0.0275485 0.0226429 0.00087515 0.00388909 -0.00226795 0.033222 0.0168558 -0.00806193 0.0261086 0.0191235 0.0230584 0.0135463 0.00599295 0.00163417 -0.00281078 0.00831116 0.0115273 0.0175473 0.0137716 0.00426169 0.0221385 0.0273894 0.0148462 -0.00431049 0.00574804 0.0214723 0.012851 0.0122598 0.00733515 0.00353848 0.011238 0.0311844 0.0233191 0.00915212 0.0163599 0.0167553 0.0207625 0.0137645 0.0143799 0.0262889 0.013286 0.00526406 0.0150196 0.0184146 0.0199249 0.0246811 0.035673 0.00858915 0.00314956 0.00540361 0.00850296 0.00599414 0.0182005 0.0107495 0.0219331 0.0192701 0.0104669 0.0204131
internal_weight=0 9884 31541 6649 3235 23521 8020 1764 2789 5343 3860 2677 2832 2252 1001 1471 1416 402 580 2162 953 344 486 1138 548 1209 199 829 395 2129 933 393 1675 380 3668 1014 430 584 779 355 2889 1120 609 19879 626 97 80 1251 161 1196 94 36 380 277 152 840 125 529 234 3642 1028 288 335 893 154 116 627 622 64 69 38 358 153 205 71 82 739 977 51 485 382 135 27 93 55 683 253 201 52 664 108 103 236 269
internal_count=41425 9884 31541 6649 3235 23521 8020 1764 2789 5343 3860 2677 2832 2252 1001 1471 1416 402 580 2162 953 344 486 1138 548 1209 199 829 395 2129 933 393 1675 380 3668 1014 430 584 779 355 2889 1120 609 19879 626 97 80 1251 161 1196 94 36 380 277 152 840 125 529 234 3642 1028 288 335 893 154 116 627 622 64 69 38 358 153 205 71 82 739 977 51 485 382 135 27 93 55 683 253 201 52 664 108 103 236 269
is_linear=0
shrinkage=0.1


Tree=7
num_leaves=95
num_cat=0
split_feature=41 39 39 69 39 93 8 107 97 129 117 0 51 209 117 107 192 125 44 159 85 147 109 28 130 27 171 0 205 77 49 24 3 0 55 192 213 140 48 208 55 2 86 140 166 49 209 211 66 86 37 0 44 36 176 86 59 148 36 67 56 48 55 115 75 56 40 159 83 77 75 138 160 0 68 110 215 161 10 153 60 0 83 13 27 211 198 44 3 135 169 113 0 86
split_gain=297.822 39.3058 36.5456 5.31457 4.99597 4.46614 1.9871 1.68248 1.68014 1.37314 1.30132 1.56975 1.26764 1.17404 1.00937 0.99966 0.972096 1.1402 0.960293 0.946091 0.858851 0.793933 0.776664 0.776348 0.766053 0.738535 0.65137 0.638289 0.934547 0.61423 0.606726 0.575989 0.569062 0.549061 0.924642 0.724326 0.522512 0.51804 0.531808 0.492076 0.489912 0.489884 0.480029 0.479848 0.468005 0.724971 0.530764 0.46721 0.465243 0.619078 0.652366 0.447392 0.441963 0.425628 0.421884 0.419076 0.444313 0.41869 0.409618 0.648931 0.404167 0.39981 0.393006 0.38716 0.383447 0.380811 0.37733 0.37454 0.374503 0.374454 0.374046 0.369594 0.357989 0.356773 0.615373 0.565043 0.353048 0.351511 0.349134 0.423914 0.343683 0.341761 0.644514 0.33866 0.333384 0.331447 0.379759 0.377535 0.509531 0.329666 0.329551 0.32811 0.713196 0.462342
threshold=64733.697265625007 431.54998779296881 54.95000076293946 505.19999694824224 128.54999542236331 398.19999694824224 1676476.0625000002 143829.58593750003 159.02229309082034 0.014999999199062588 543.91250610351574 1.0000000180025095e-35 256.84999084472662 48.579143524169929 330.81251525878912 58548.587890625007 2.0177428722381596 54.51250076293946 0.98780789971351635 320.11250305175787 1.0000000180025095e-35 687.21252441406261 81.450000762939467 1010.4500122070314 0.87500000000000011 84.350002288818374 23.835368156433109 1.0000000180025095e-35 189.32643127441409 973.14999389648449 214.12891387939456 1020.6499938964845 7.5000000000000009 1.0000000180025095e-35 30.44999980926514 1.735678017139435 0.64549723267555248 276.31248474121099 81.280208587646499 2.832956194877625 73.549999237060561 25.993749618530277 276.55000305175787 274.91249084472662 1297.1875610351565 157.21553802490237 19.218338012695316 6917.4699707031259 280.34999084472662 283.65000915527349 -1.2499999999999998 1.5000000000000002 0.31376793980598455 -1.0500000119209287 2361.227905273438 272.84999084472662 9.1500000953674334 2.6294074058532719 1.9499999880790713 162.15000152587893 76.549999237060561 60.126564025878913 54.049999237060554 1537.2500000000002 0.085000000894069686 74.049999237060561 2.3611447811126713 197.92499542236331 216.35250091552737 997.45001220703136 0.014999999664723875 15.369999885559084 416.21250915527349 1.0000000180025095e-35 750464.50000000012 88.450000762939467 20.404828071594242 98303.402343750015 1522.0000000000002 -0.26653961837291712 1.2095000147819521 1.0000000180025095e-35 105.91149902343751 165.44999694824222 74.950000762939467 1051.9587402343752 0.22173560410737994 0.92758122086524974 4.5000000000000009 72.600002288818374 174.22798919677737 7.0874998569488534 1.0000000180025095e-35 275.84999084472662
decision_type=2 2 2 2 2 2 2 2 2 2 2 2 2 2 2 2 2 2 2 2 2 2 2 2 2 2 2 2 2 2 2 2 2 2 2 2 2 2 2 2 2 2 2 2 2 2 2 2 2 2 2 2 2 2 2 2 2 2 2 2 2 2 2 2 2 2 2 2 2 2 2 2 2 2 2 2 2 2 2 2 2 2 2 2 2 2 2 2 2 2 2 2 2 2
left_child=2 5 8 7 14 9 19 27 -1 10 11 16 57 18 67 64 17 55 23 32 22 30 52 -9 33 47 58 28 40 -13 -5 44 61 34 35 -14 -16 38 -31 65 -3 -19 -29 -35 45 69 -46 66 49 85 -51 -21 -12 -50 -28 -2 68 -7 73 -60 -41 -6 -61 -49 -8 -36 -17 -4 76 89 -32 -10 -30 74 -25 80 -57 -74 79 -79 -76 82 -69 -54 -44 -22 87 -87 -89 -24 -27 92 -63 -94
right_child=1 3 4 21 6 12 15 13 71 -11 20 29 24 -15 36 25 -18 41 -20 51 48 -23 31 26 -26 90 54 42 72 37 70 -33 -34 43 39 -37 -38 -39 -40 60 -42 -43 84 -45 46 -47 -48 63 53 50 -52 -53 83 -55 -56 56 -58 -59 59 62 -62 91 -64 -65 -66 -67 -68 81 -70 -71 -72 -73 77 -75 75 -77 -78 78 -80 -81 -82 -83 -84 -85 -86 86 -88 88 -90 -91 -92 -93 93 -95
leaf_value=-0.0074255295408553416 0.002216015400757131 0.029919077405198054 -0.0034835921252227247 0.011292522125270057 -0.0038660591196740257 0.0078913990350891142 0.0042664314312778713 0.02021411350994444 -0.0056754408229239195 -0.00069971860150812185 0.024094250685600348 -0.0084085470151904068 0.02654624612337643 0.001268599321250804 -0.00086813659069624792 0.0080418709315309891 0.0060472775465483485 0.0098697243087508633 0.0018730225041508675 0.0074029847048121961 0.028586937859654427 0.033197447498435083 0.0091745231113296351 0.032200498365965051 -0.0077036446038012702 0.00037277213292711186 0.00085748193319886931 0.0068487183665274648 0.0060015194471925506 -0.0082087851711548868 0.028017157646455928 0.026617742203442114 0.0029614401374047175 0.0056375227626157959 0.015868863027515133 0.016445614347326842 0.0032430178592310803 0.00629478777001145 0.0035237507932264402 0.016677795811362254 0.0086400453622142489 -0.0013366395524806447 0.016745437916465655 0.01404282368938781 0.017444399352669001 0.012763362804847495 0.0050596924601720543 0.024014147323429248 0.019606624183070381 0.030393802867654491 0.014062352745887883 0.0002146298454853853 0.02403708982926149 0.00835162514712595 0.02175084053976914 0.026855878821677632 0.0075287459358477447 0.023101677725973883 0.0017778683308279143 0.033118391782045363 0.032158434168937121 0.0045922200977813361 0.017010871339307138 0.012458232385037906 -0.0045994399284574926 0.010223626327663011 0.02044687572590731 -0.0018166078561658982 0.013135253112097095 -0.0029315148752215689 0.0094499613920396019 -0.0032869381175501047 8.3031877875328067e-05 0.025169916694384939 0.019985080015446459 0.034624520867046989 0.01802565522862171 0.02708964631276017 0.015919480358432929 0.014242956430314589 -0.00027903741733594374 -0.0027462254166706404 0.0081430265418303577 0.0052067895358454235 0.0010950440673955851 0.0079580828828339865 0.021856905520246252 0.026821163644393287 0.012074522548964441 -0.001100604934617877 0.01140798236657348 -0.0012502100462266493 -0.0040231530991269842 0.0013454394443138205
leaf_weight=17535 19 110 2444 23 241 381 613 510 3708 167 43 33 143 25 1276 267 365 293 21 360 13.999999999999998 316 76 244 14.999999999999998 109 9.9999999999999982 60 25 48 796 13.999999999999998 908 73 269 141 408 1139 198 48 11.999999999999998 45 490 976 65 71 74 44 40 51 47 114 12.999999999999998 210 288 72 39 19 15.999999999999998 28 26 453 33 85 53 215 27 176 79 113 10.999999999999998 785 9.9999999999999982 339 35 22 122 84 148 37 10.999999999999998 381 103 36 13.999999999999998 143 41 30 107 53 36 700 243 472
leaf_count=17535 19 110 2444 23 241 381 613 510 3708 167 43 33 143 25 1276 267 365 293 21 360 14 316 76 244 15 109 10 60 25 48 796 14 908 73 269 141 408 1139 198 48 12 45 490 976 65 71 74 44 40 51 47 114 13 210 288 72 39 19 16 28 26 453 33 85 53 215 27 176 79 113 11 785 10 339 35 22 122 84 148 37 11 381 103 36 14 143 41 30 107 53 36 700 243 472
internal_value=0 0.0151467 -0.00474653 0.0232677 0.000433224 0.0102499 0.00274012 0.020744 -0.00698345 0.00816971 0.0085708 0.00723534 0.0137319 0.0227673 -0.00184332 0.00618938 0.0101984 0.0124631 0.0231125 0.00152087 0.0112094 0.0289317 0.00829893 0.0234029 0.014806 0.00927137 0.0249879 0.0175109 0.0204325 0.00507473 0.0273076 0.00664125 0.000868352 0.0149845 0.0168865 0.0215315 0.000127915 0.00539599 0.00123448 0.0145223 0.0278261 0.00837775 0.0153041 0.0134579 0.00602251 0.00387818 0.0108511 0.0113825 0.0135872 0.0155704 0.0225614 0.00567414 0.0166954 0.0101524 0.0210497 0.0166349 0.017513 0.00861389 0.0266 0.0197029 0.0221169 -3.27977e-05 0.0244045 0.0163998 0.00356089 0.0133612 0.00918111 -0.00291276 0.0189393 0.00127137 0.0277641 -0.00525813 0.0174654 0.0274158 0.029856 0.0214434 0.0213029 0.0184926 0.019177 0.0231613 0.0151393 -0.000798944 0.00186025 0.0102026 0.0163107 0.0135253 0.0128684 0.0115522 0.0153037 0.00495296 0.00311255 0.00046175 0.00148775 -0.000479131
internal_weight=0 9884 31541 3718 9513 6166 4725 2572 22028 3860 3693 2452 2306 1582 4788 1234 1034 669 1557 3491 1241 1146 558 1536 1906 568 1026 990 426 1418 830 466 3017 1891 842 284 1684 1385 246 558 122 338 564 1049 452 313 139 423 683 433 98 474 92 250 298 331 312 400 728 77 74 2109 61 129 666 484 294 3104 273 242 807 4493 304 651 312 68 194 279 269 121 46 660 279 49 504 335 321 280 137 129 145 1868 1168 715
internal_count=41425 9884 31541 3718 9513 6166 4725 2572 22028 3860 3693 2452 2306 1582 4788 1234 1034 669 1557 3491 1241 1146 558 1536 1906 568 1026 990 426 1418 830 466 3017 1891 842 284 1684 1385 246 558 122 338 564 1049 452 313 139 423 683 433 98 474 92 250 298 331 312 400 728 77 74 2109 61 129 666 484 294 3104 273 242 807 4493 304 651 312 68 194 279 269 121 46 660 279 49 504 335 321 280 137 129 145 1868 1168 715
is_linear=0
shrinkage=0.1


Tree=8
num_leaves=95
num_cat=0
split_feature=147 39 13 53 41 41 8 159 39 106 53 191 49 129 0 27 140 90 0 114 137 0 55 191 109 161 75 195 111 3 3 3 68 49 50 49 49 5 53 7 142 177 139 139 210 54 62 27 164 182 110 63 94 5 93 182 214 7 51 150 121 145 86 45 75 152 205 163 88 189 108 176 58 112 40 86 139 163 59 39 88 105 159 62 145 27 36 32 191 135 14 167 8 66
split_gain=241.482 36.9067 24.6907 5.56183 3.81379 2.99457 1.8457 1.48813 1.48173 1.44816 1.25271 1.24948 0.860118 0.754111 0.802816 0.71822 0.707705 0.695408 0.697008 0.93187 0.660475 0.652421 0.909745 0.639177 0.851655 0.625531 0.615525 0.613779 0.735161 0.58519 0.581286 0.58094 0.56488 0.550783 0.535986 0.523613 0.50609 0.526886 0.503076 0.47586 0.474804 0.472961 0.471357 0.469269 0.467221 0.462445 0.445317 0.444009 0.425278 0.414157 0.410377 0.408387 0.404038 0.395731 0.388361 0.38431 0.426989 0.379566 0.365666 0.359487 0.465411 0.353135 0.35095 0.34103 0.340634 0.334097 0.333544 0.330697 0.330173 0.324506 0.381525 0.320847 0.320829 0.720601 0.34213 0.31648 0.315301 0.326809 0.312727 0.314874 0.310241 0.309834 0.308862 0.314298 0.30488 0.414916 0.315345 0.304306 0.310776 0.301154 0.350118 0.374257 0.300723 0.364493
threshold=239.68750000000003 409.69999694824224 41.850000381469734 157708.99218750003 82033.292968750015 29789.378906250004 1687690.0000000002 407.92500305175787 14.150000095367433 551.45001220703136 83576.359375000015 5.5025353431701669 186.30299377441409 0.0087499998044222611 1.0000000180025095e-35 74.149997711181655 283.88749694824224 2.7500000000000004 1.0000000180025095e-35 1.2111249566078188 163.95524597167972 1.0000000180025095e-35 31.250000000000004 4.241178274154664 89.750000000000014 51832.142578125007 0.014999999664723875 0.2217364236712456 1717.5000000000002 3.5000000000000004 7.5000000000000009 3.5000000000000004 796630.75000000012 146.83036804199222 49.517499923706062 158.59881591796878 209.53801727294925 8.2500000000000018 48415.611328125007 3057.549926757813 41825.900390625007 70.940898895263686 0.11250000074505807 0.087500002235174193 29.781034469604496 37227.298828125007 1168140.5625000002 66.649997711181655 67.662502288818374 0.30476135015487676 58.250000000000007 703.75000000000011 1.883267939090729 6.4500000476837167 232.79999542236331 0.057738551869988448 0.55602735280990612 2838.049926757813 103.15000152587892 74.961254119873061 121.53750228881837 -0.29999999701976771 288.15000915527349 0.2442368566989899 0.12499999627470972 0.88703769445419323 232.93779754638675 90.387496948242202 8140.0500488281259 1.3817280530929568 103390.75000000001 27200.977539062504 1558.2500000000002 976.89999389648449 -2.2120039463043208 276.94999694824224 0.16250000149011615 66.762500762939467 9.3499999046325701 229.70000457763675 16432.149414062504 177.84999847412112 314.88749694824224 2800720.1250000005 0.20000001043081286 79.350002288818374 -1.4499999880790708 274.34999084472662 4.752143621444703 72.037502288818374 464745.39062500006 0.095742788165807738 1188161.5625000002 282.94999694824224
decision_type=2 2 2 2 2 2 2 2 2 2 2 2 2 2 2 2 2 2 2 2 2 2 2 2 2 2 2 2 2 2 2 2 2 2 2 2 2 2 2 2 2 2 2 2 2 2 2 2 2 2 2 2 2 2 2 2 2 2 2 2 2 2 2 2 2 2 2 2 2 2 2 2 2 2 2 2 2 2 2 2 2 2 2 2 2 2 2 2 2 2 2 2 2 2
left_child=2 4 8 7 11 42 30 64 -1 36 38 13 20 14 23 21 25 18 19 53 47 22 62 -2 46 -8 59 -13 44 34 54 75 -30 -18 -20 43 37 -5 -6 -38 65 49 -4 -23 78 -27 -25 52 -49 61 -39 80 -9 -14 -7 -53 -57 -19 -32 60 -11 68 -12 69 -3 -22 -21 -24 -40 70 -17 -45 73 -41 -75 -16 77 -60 82 -80 -37 -10 83 -29 85 86 -71 -48 -89 90 -70 -92 -63 -94
right_child=1 3 5 9 10 6 16 12 81 26 15 27 17 -15 31 63 33 57 29 66 40 35 67 24 -26 45 -28 28 32 -31 58 -33 -34 -35 -36 51 39 50 41 72 -42 -43 -44 71 -46 -47 87 48 -50 -51 -52 55 -54 -55 -56 56 -58 -59 76 -61 -62 92 -64 -65 -66 -67 -68 -69 89 84 -72 -73 -74 74 -76 -77 -78 -79 79 -81 -82 -83 -84 -85 -86 -87 -88 88 -90 -91 91 -93 93 -95
leaf_value=-0.0066373855326018003 0.00029435540578560905 0.013439567656149495 -0.0032056686337268701 -0.0062771594581695709 -0.00046791195797805604 -0.0011815431290102154 0.0046992562606177233 0.010191463805993249 -0.0048692206577669664 0.02699040345519594 0.023832259145702292 0.0059707602267169424 -0.00051188116893172272 -0.0033999973534224182 -0.003253928039865542 0.0040962187130248566 0.0012288311929374426 0.0098048042100272147 -0.004292965261265636 0.029182488362304866 0.0067824559246685403 0.0070216638472122093 0.01444138549292311 0.014816255375320143 0.0032514676941751476 0.0040592987126169293 0.0083380767746883289 0.012844574017799461 0.02733662781491876 0.019109390078786575 -0.00014450927099920614 0.0044548407819592307 0.0097934708047150397 0.0081252290578622838 0.01830045846956117 7.113642059266568e-05 0.026312958837176367 0.0059969668509438634 0.0257021715434698 0.022736651322338732 0.024225295548433369 0.024642389764388404 -0.00077100869390901597 0.020739898713741531 0.0020603795662143473 0.013929487724288432 -0.0013503023110137419 0.01706828221057852 -0.0025474107993345356 6.1038397011700378e-05 0.02831028764382662 0.011779821645706595 0.024104085426639627 0.019695403407754934 0.0014202051328845227 0.038695528308550518 0.019213590491563085 0.018228713657413406 0.0055051034407216978 0.028556166797043356 0.017105372566798265 -0.0067118269761147755 0.014650929601242145 -0.0011499994407807078 -0.0029247273046236772 0.020955386796388135 0.022581283810112866 0.0084889847179022964 0.0085464182280276611 0.017735421342775226 0.013124182155694476 0.0063258842990288264 0.021019383661225965 -0.013119852441278369 0.010447213521859211 0.003655251789835879 0.011197965549770744 0.0012834134329670005 0.015080103408055087 -0.0014819162592677208 0.012508577741985313 -0.0024443135837550565 0.019945073376681346 -0.0050842182710766799 0.029500463455915449 0.01926830282157406 0.0048491759443820663 0.0067557457870166026 0.012197659238075134 0.0049883375880543238 0.015252126882316223 0.0071556847120145669 0.0084503155348222055 0.0010265634550056088
leaf_weight=18391 120 591 2068 12.999999999999998 65 1824 364 92 3144 159 136 257 9.9999999999999982 113 177 161 560 100 21 200 39 344 387 152 256 65 17 88 50 811 415 1020 29 146 21 21 156 15.999999999999998 12.999999999999998 32 79 18 1292 47 59 176 29 14.999999999999998 42 58 17 44 27 314 837 14.999999999999998 45 115 309 772 68 17 60 35 12.999999999999998 29 124 123 410 25 66 23 284 11.000000000000002 13.999999999999998 106 50 451 19 29 446 633 60 10.999999999999998 9.9999999999999982 47 79 230 193 119 213 78 311 84
leaf_count=18391 120 591 2068 13 65 1824 364 92 3144 159 136 257 10 113 177 161 560 100 21 200 39 344 387 152 256 65 17 88 50 811 415 1020 29 146 21 21 156 16 13 32 79 18 1292 47 59 176 29 15 42 58 17 44 27 314 837 15 45 115 309 772 68 17 60 35 13 29 124 123 410 25 66 23 284 11 14 106 50 451 19 29 446 633 60 11 10 47 79 230 193 119 213 78 311 84
internal_value=0 0.0129379 -0.00450564 0.0202413 0.00821514 5.70687e-05 0.00156125 0.0174471 -0.00626688 0.0249783 0.0104573 0.00559752 0.0187386 0.00457422 0.00496891 0.0119892 0.0048058 0.0196296 0.0203915 0.0228639 0.0140046 0.0129111 0.0152312 0.0071312 0.00808518 0.00731566 0.0272064 0.00967033 0.0124262 0.0185133 0.00046665 0.00334263 0.0208967 0.002655 0.00700375 0.0112481 0.0208093 0.0107744 0.00812084 0.0217381 0.0189525 0.00854345 -0.00226948 0.00854039 0.00991056 0.0112674 0.0101339 0.00987192 0.00261461 0.00832106 0.0174917 0.0132113 0.0133481 0.0190717 -0.00036318 0.0188784 0.0240841 0.0143106 0.00226924 0.0275275 0.0240292 0.00870586 0.0210216 0.00830384 0.0130874 0.0128268 0.0266561 0.0130058 0.0098903 0.00915663 0.00672109 0.0160039 0.0196452 0.0127985 7.77045e-05 -0.000666037 0.00350592 0.00299986 0.0121481 0.00507388 0.0119493 -0.00446282 0.0142837 0.0108525 0.0125906 0.0114707 0.00794683 0.00855932 0.0092387 0.00963962 0.0104292 0.0130819 0.00631111 0.00687159
internal_weight=0 10700 30725 4202 6498 8557 5197 2643 22168 1559 3500 2998 2039 2396 2283 2114 1311 1716 1501 648 323 1691 706 980 860 605 1016 602 345 853 3886 1303 79 706 42 985 543 46 1386 497 147 1321 3360 414 266 241 604 176 57 1303 33 571 119 324 2661 104 60 215 1225 999 227 1245 196 423 604 68 324 510 833 388 227 70 341 57 25 283 810 760 207 48 467 3777 159 99 161 151 104 452 423 820 701 291 412 395
internal_count=41425 10700 30725 4202 6498 8557 5197 2643 22168 1559 3500 2998 2039 2396 2283 2114 1311 1716 1501 648 323 1691 706 980 860 605 1016 602 345 853 3886 1303 79 706 42 985 543 46 1386 497 147 1321 3360 414 266 241 604 176 57 1303 33 571 119 324 2661 104 60 215 1225 999 227 1245 196 423 604 68 324 510 833 388 227 70 341 57 25 283 810 760 207 48 467 3777 159 99 161 151 104 452 423 820 701 291 412 395
is_linear=0
shrinkage=0.1


Tree=9
num_leaves=95
num_cat=0
split_feature=39 39 39 39 41 53 8 105 128 51 62 130 49 0 117 5 53 75 62 44 2 129 57 48 143 7 130 0 29 55 176 86 171 27 108 50 9 20 48 12 130 0 48 88 120 150 6 35 0 191 163 129 29 205 182 213 55 0 15 85 0 62 205 86 31 20 148 68 196 149 191 6 89 33 208 149 84 209 159 179 55 36 51 97 49 14 35 66 90 32 68 14 99 74
split_gain=195.856 26.543 23.9889 3.53937 3.15869 2.79107 2.34542 1.28067 1.15689 1.14535 1.10413 1.01997 0.919617 0.846646 1.12955 0.916198 0.749289 0.683019 0.676557 0.649605 0.643486 0.618437 0.602906 0.561849 0.538092 0.723363 0.531916 0.529396 0.73187 0.676112 0.518232 0.558837 0.567379 0.497704 0.67353 0.484227 0.693875 0.620388 0.478734 0.476435 0.475114 0.502043 0.565678 0.453224 0.44749 0.483533 0.43609 0.535121 0.428695 0.537393 0.652012 0.416316 0.414566 0.428914 0.411899 0.404379 0.398723 0.390511 0.383238 0.382461 0.377512 0.563077 0.471107 0.401708 0.374779 0.37321 0.394652 0.428541 0.372097 0.358229 0.354933 0.371605 0.350575 0.472865 0.349442 0.336244 0.332014 0.330449 0.345624 0.374005 0.373023 0.336655 0.330426 0.312615 0.537304 0.310676 0.310414 0.308078 0.304182 0.304054 0.32158 0.531745 0.298785 0.308612
threshold=241.15000152587893 89.15000152587892 454.75001525878912 369.75000000000006 8156.0500488281259 151502.17187500003 1687690.0000000002 248.40000152587893 998.51251220703136 249.20000457763675 2697377.6250000005 0.37500000000000006 214.12891387939456 1.0000000180025095e-35 525.02499389648449 7.4500000476837167 96629.085937500015 0.014999999664723875 1182738.6250000002 0.94868329167366039 24.998749732971195 0.0062499998603016147 1844.049987792969 188.48854827880862 3.2374999523162846 770.19998168945324 0.62500000000000011 1.0000000180025095e-35 92.022998809814467 58.95000076293946 38327.458984375007 274.25000000000006 24.427099227905277 73.750000000000014 129206.60156250001 70.017498016357436 524.25000000000011 1031.350036621094 144.966667175293 270.25000000000006 0.62500000000000011 1.0000000180025095e-35 224.34635162353518 45212.148437500007 280.26249694824224 168.15125274658206 1.2074999809265139 3.6499999761581425 1.0000000180025095e-35 4.2790141105651864 60.562500000000007 0.0062499998603016147 171.00550079345706 698.20034790039074 0.2581870704889298 3.628015518188477 50.049999237060554 1.0000000180025095e-35 61.45000076293946 0.35000000894069677 1.0000000180025095e-35 2574434.1250000005 192.84195709228518 275.25000000000006 0.25000000745058065 1009.6499938964845 2.5322964191436772 691150.62500000012 123.10621643066408 145865.26562500003 4.3965048789978036 1.2135000228881838 3.7500000000000004 25.349999427795414 1.3101328015327456 1932.5587158203127 43.440500259399421 8.8141446113586444 298.97500610351568 0.60759150981903087 98.649997711181655 2.3500000238418584 381.80000305175787 7932.9948730468759 162.19598388671878 439629.70312500006 1.7500000000000002 274.05000305175787 1.2500000000000002 292.25000000000006 742965.75000000012 652140.00000000012 -0.85294154286384571 1009.3500061035157
decision_type=2 2 2 2 2 2 2 2 2 2 2 2 2 2 2 2 2 2 2 2 2 2 2 2 2 2 2 2 2 2 2 2 2 2 2 2 2 2 2 2 2 2 2 2 2 2 2 2 2 2 2 2 2 2 2 2 2 2 2 2 2 2 2 2 2 2 2 2 2 2 2 2 2 2 2 2 2 2 2 2 2 2 2 2 2 2 2 2 2 2 2 2 2 2
left_child=1 4 3 8 75 17 9 26 20 18 12 13 23 15 39 30 52 19 48 24 46 54 55 -7 -4 -26 44 28 -11 -30 31 32 -10 60 43 36 70 -37 -27 -15 41 42 -14 -35 58 -46 -2 57 49 -3 -51 56 -5 -54 -20 92 -9 -48 -8 -6 61 62 -18 -62 77 66 67 -12 -21 -25 -17 -72 73 -40 -63 -1 -43 -58 81 80 -80 85 -41 -65 -85 -79 -70 -50 -32 90 91 -74 -16 -94
right_child=2 6 5 16 59 10 7 51 11 27 65 -13 40 14 22 35 33 -19 21 68 -22 -23 -24 69 25 38 -28 -29 29 -31 88 -33 -34 34 -36 37 -38 -39 72 82 -42 76 -44 -45 45 -47 47 -49 87 50 -52 -53 53 -55 -56 -57 64 -59 -60 -61 63 74 -64 83 -66 -67 -68 -69 86 -71 71 -73 89 -75 -76 -77 -78 78 79 -81 -82 -83 -84 84 -86 -87 -88 -89 -90 -91 -92 -93 93 -95
leaf_value=-0.0060906371586923018 -0.0018909150302513608 -0.0033372458721140381 0.018767931476533481 0.0009511859430598893 -0.0032612915075345035 0.018749442949609937 0.0052698846374230161 0.030127290445379915 -0.0013689450642212909 0.00034207985146985026 0.024779965334389475 -0.0003509750714855028 0.030577038525147007 0.00068411259196426088 0.017597780734300614 0.0035374350444234296 0.023931890436053108 0.0054734556635164409 0.0017594920280613023 0.02254019238821724 -0.00925191816315055 -0.0041214215467146554 0.014681897370908886 0.017500598008433978 -0.004157252586446703 -0.0043093916067543127 -0.0029452886931395569 0.0014480113029124817 0.012760902350336986 0.0033651192391537031 0.012215240549803788 0.014464000164970348 0.017041425761551814 0.0028947684765054087 0.028892920678481461 0.0042422573619353967 0.021945129519389456 0.029483295232057574 0.019061420260764222 0.0050326146564932265 0.0028962183473465433 0.018593659316257831 0.021790591126720698 0.013133411770925307 0.0063948800982381307 0.00077367216126794202 0.022953279731938475 5.7955444367094475e-05 -0.004960409606098155 0.00599911498983474 -0.00096331351681483955 -0.00068872184964601652 0.011638058577412031 0.0041513520232143086 -0.0023476508177987278 0.013303536983155537 0.018709108463372103 0.0071315287515365828 0.015476608732715251 -0.00020368974608532921 0.0038281013062873553 0.0064891376444073008 0.016272749605568803 0.012253218218370771 0.021712288875132799 0.026159566020301644 0.0029896125585461659 0.0087035880819894378 -0.0093449375253509392 -0.00062056926253717393 0.0076668641960242062 0.014573821437661536 0.019574206523436437 0.0035090999585246094 0.01746783565387738 -0.0050676744035488865 0.026441205830359069 0.021097375893527094 0.025074542552465575 0.0080300999025591114 0.0063740358600625768 -0.0002116765749330322 0.0090713259263243678 0.0057269834235987886 0.019829464913345876 0.0061951509332048554 0.0086913522845861735 -0.0015796756527383347 0.00293741514027109 0.012512842502716618 0.026630965227261185 0.0017382566198265476 0.010114855253581287 0.0045497286001212707
leaf_weight=15884 90 304 912 49 4055 53 458 9.9999999999999982 47 158 97 147 104 205 25 109 122 55 2118 17 50 232 195 14.999999999999998 20 11.999999999999998 131 627 177 135 61 589 26 97 15.999999999999998 371 42 9.9999999999999982 34 943 13.999999999999998 464 248 78 208 579 26 55 447 228 328 37 511 90 276 127 32 39 40 455 43 71 235 390 25 636 11.999999999999998 20 10.999999999999998 40 222 120 139 46 49 4028 61 17 32 96 15.999999999999998 72 258 33 149 79 72 679 84 84 50 19 148 305
leaf_count=15884 90 304 912 49 4055 53 458 10 47 158 97 147 104 205 25 109 122 55 2118 17 50 232 195 15 20 12 131 627 177 135 61 589 26 97 16 371 42 10 34 943 14 464 248 78 208 579 26 55 447 228 328 37 511 90 276 127 32 39 40 455 43 71 235 390 25 636 12 20 11 40 222 120 139 46 49 4028 61 17 32 96 16 72 258 33 149 79 72 679 84 84 50 19 148 305
internal_value=0 -0.00374115 0.0126377 0.00900854 -0.00534246 0.0196235 0.00144478 0.00455803 0.00740896 0.000445754 0.0223058 0.00782566 0.0201165 0.00813489 0.00684657 0.00982558 0.0125619 0.016407 -0.000245037 0.0168317 0.000943555 0.000808257 0.00984641 0.0114019 0.0174221 0.014384 0.00312495 0.00334997 0.00588728 0.00869542 0.0122551 0.0134411 0.00518817 0.0139633 0.00925385 0.00758225 0.00965148 0.00490475 0.0153496 0.00513969 0.0211728 0.0214646 0.0243866 0.00745828 0.00374378 0.00225933 0.00337105 0.00731752 -0.00163776 4.33821e-05 0.00189178 0.00943601 0.00979581 0.0105169 0.00128599 0.00828787 0.0104244 0.0134602 0.0060897 -0.00295282 0.014787 0.0168982 0.0188902 0.0131495 0.00989049 0.0251648 0.0202605 0.0220319 0.00906166 0.00432157 0.00850661 0.0100904 0.0159838 0.0101188 0.0109721 -0.0058837 0.0195055 0.00903134 0.00803875 0.0116337 0.018841 0.00495733 0.00590021 0.0138502 0.0172724 0.00883409 0.006301 -0.00292176 0.0068405 0.0175906 0.0196413 0.0174294 0.00695525 0.00636792
internal_weight=0 31963 9462 6227 24422 3235 7541 1832 4294 5709 1764 4034 999 3887 2206 1681 1933 1471 4612 1416 260 2626 800 108 1316 404 1416 1097 470 312 807 662 73 1283 191 874 493 381 384 1406 891 877 352 175 1285 787 210 120 1986 860 556 416 650 601 2394 605 379 65 498 4510 1092 477 357 615 369 765 129 117 100 55 451 342 372 80 120 19912 525 344 312 144 48 168 1201 572 182 96 83 1126 145 292 208 158 478 453
internal_count=41425 31963 9462 6227 24422 3235 7541 1832 4294 5709 1764 4034 999 3887 2206 1681 1933 1471 4612 1416 260 2626 800 108 1316 404 1416 1097 470 312 807 662 73 1283 191 874 493 381 384 1406 891 877 352 175 1285 787 210 120 1986 860 556 416 650 601 2394 605 379 65 498 4510 1092 477 357 615 369 765 129 117 100 55 451 342 372 80 120 19912 525 344 312 144 48 168 1201 572 182 96 83 1126 145 292 208 158 478 453
is_linear=0
shrinkage=0.1


Tree=10
num_leaves=95
num_cat=0
split_feature=39 147 39 147 41 53 8 105 107 171 147 105 0 191 55 86 53 186 55 75 209 42 61 144 2 12 0 55 23 49 205 170 12 45 77 49 61 0 140 111 120 62 84 29 171 108 98 33 207 88 201 44 191 50 37 205 94 110 48 49 49 70 6 58 64 113 88 48 23 90 209 84 44 178 113 0 143 81 64 116 94 81 57 20 105 91 109 9 62 33 89 42 98 32
split_gain=158.644 21.6175 19.431 2.88202 2.28342 2.26077 2.2028 1.0125 0.957184 0.924221 0.812063 0.715561 0.708883 1.07776 1.55453 0.874762 0.684805 0.586296 0.564389 0.553246 0.537388 0.529436 0.562544 0.486818 0.474797 0.600367 0.613999 0.606509 0.545072 0.47356 0.469159 0.458864 0.466714 0.450412 0.444862 0.561144 0.492388 0.465843 0.43384 0.42916 0.417626 0.41169 0.399937 0.393449 0.389097 0.387611 0.384079 0.373579 0.369826 0.393337 0.436978 0.368937 0.419885 0.361771 0.356546 0.352018 0.460962 0.349593 0.34797 0.468626 0.342605 0.341275 0.335217 0.364533 0.32298 0.319624 0.319285 0.31235 0.410283 0.344626 0.315346 0.303824 0.341412 0.303543 0.302151 0.301896 0.299905 0.429494 0.295182 0.294913 0.293184 0.292806 0.292546 0.360805 0.300881 0.289312 0.28676 0.285214 0.463487 0.311965 0.364937 0.527703 0.284334 0.406598
threshold=241.15000152587893 106.43750000000001 454.75001525878912 392.01249694824224 8156.0500488281259 151502.17187500003 1687690.0000000002 128.45000457763675 69344.375000000015 22.156293869018558 302.53750610351568 556.25000000000011 1.0000000180025095e-35 4.4090979099273691 57.549999237060554 275.84999084472662 96629.085937500015 0.1913043409585953 48.250000000000007 0.014999999664723875 32.971519470214851 159.0350036621094 1027.7500000000002 2.1625000238418584 25.993749618530277 282.34999084472662 1.0000000180025095e-35 29.849999427795414 989.95001220703136 214.12891387939456 673.70941162109386 127339.80859375001 269.34999084472662 -0.88008877635002125 1003.0499877929689 156.75485992431643 4246.4499511718759 1.5000000000000002 275.91249084472662 418.05000305175787 279.90000915527349 1229662.0625000002 20.625500679016117 171.00550079345706 39.379568099975593 126735.17578125001 -0.44721354544162745 99.950000762939467 0.0027075388934463267 25226.300781250004 39.497331619262702 0.94868329167366039 5.5465455055236825 82.272502899169936 -1.3499999642372129 779.16937255859386 -0.56593930721282948 78.450000762939467 186.42395019531253 197.71401977539065 273.39743041992193 819593.93750000012 1.1775000095367434 4998.3498535156259 2008.6499633789065 8.7000002861022967 32852.548828125007 135.39583587646487 1006.3500061035157 3.9500000476837163 19.706913948059086 34.099498748779304 -0.74181920289993275 73177.031250000015 7.5625000000000009 1.0000000180025095e-35 1.9374999403953554 68.950000762939467 320.44999694824224 2844524.7500000005 2.3619413375854497 82.350002288818374 935.60000610351574 1014.7500000000001 546.80001831054699 1.9499999880790713 85.649997711181655 536.25000000000011 2123345.2500000005 79.549999237060561 3.7500000000000004 281.79000854492193 0.3196858167648316 282.84999084472662
decision_type=2 2 2 2 2 2 2 2 2 2 2 2 2 2 2 2 2 2 2 2 2 2 2 2 2 2 2 2 2 2 2 2 2 2 2 2 2 2 2 2 2 2 2 2 2 2 2 2 2 2 2 2 2 2 2 2 2 2 2 2 2 2 2 2 2 2 2 2 2 2 2 2 2 2 2 2 2 2 2 2 2 2 2 2 2 2 2 2 2 2 2 2 2 2
left_child=1 4 3 10 -1 19 7 -3 47 18 17 20 13 -9 44 -14 30 31 60 21 24 51 -23 34 25 26 27 -12 -26 46 43 32 -2 -34 36 -36 48 58 -28 -10 -35 -6 -17 -5 -15 82 -11 74 -18 -50 -51 52 -4 -53 -20 87 -57 -32 75 -60 -7 -61 63 -24 80 73 -63 68 69 70 -29 -40 -73 -56 78 -37 77 -76 -8 -22 -59 -80 84 -84 -25 -30 -42 -41 -89 -90 -91 -92 93 -69
right_child=2 6 5 16 41 9 8 12 39 29 11 -13 15 14 -16 42 23 -19 54 -21 79 22 62 45 28 -27 38 67 85 -31 57 -33 33 40 35 37 -38 -39 71 55 86 -43 -44 -45 -46 -47 -48 -49 49 50 -52 53 -54 -55 65 56 -58 64 59 61 -62 66 -64 -65 -66 -67 -68 92 -70 -71 -72 72 -74 -75 76 -77 -78 -79 81 -81 -82 -83 83 -85 -86 -87 -88 88 89 90 91 -93 -94 -95
leaf_value=-0.0052953317380405596 -0.0013327059902025966 -0.0019208244643512747 0.013783300387631378 0.0001428151437721681 -0.0034070743981738775 0.021953628309399523 -0.0064779054621855424 -0.0010873874029415365 0.0018476570056442316 0.020025585424154998 0.017668051001598576 0.02628667809069157 -0.0036523989797143902 0.011166141420273029 0.0015914556793295781 -0.00083638534497561311 -0.0014858629953648365 -0.0011728520658491795 0.022253954679120419 0.0049261100149967452 0.0046559524265763061 -3.5856850445270538e-05 0.00010788664906559622 0.0052223098096820016 -0.0093550381541717808 0.0052786135112476212 0.0026133344555437621 0.017374987880197857 0.0093866796232759953 0.018012754298521602 0.0088805479607121512 0.0028296511474105515 0.016594387974639954 0.0095649117655955476 0.0011090673291339326 0.025379399327414759 0.0084663055093162111 0.010849625702323992 0.0070199739649044572 0.0052937271083456751 0.008496256356906649 -0.0012845956444241286 0.0020422124107898781 0.010388538315094922 0.0053504172153075909 0.014702854569186458 0.003053282208857127 0.001158117231495646 -0.0033343303355981009 0.014263929487682287 0.025876720769232826 0.01540876384824514 0.01813581085619019 -0.0092320139435204587 0.013171929191224853 0.013886316945879823 -0.00018093383581744454 0.011626935640180653 0.0036222937179665113 0.029968789102215516 0.026705271188093696 0.027519728811014266 0.014348175473065742 0.021827648654580117 -0.010071860927356673 0.020572334041049623 0.014432535069315772 0.019329336581544745 0.0075478485002499693 0.023746649371016594 0.0061755088214739797 0.0014306933929522834 0.012188910881560731 -0.0022038076727767474 -0.004557848479801222 0.016058180157887635 0.001361539925227734 0.010905458244052148 0.0064736836888799098 0.016965937488712373 -0.0058580987484139558 0.015698567733577477 0.0221192744601032 0.0067795383237788213 -0.012759193759411576 -0.0071187402195601662 8.9790455132498657e-05 0.027116669917648491 0.027369617049892742 0.006929225707650543 0.027234724783166138 0.0094758302740625706 0.0058868229965107939 0.0056485333102976997
leaf_weight=19912 58 1536 335 40 2897 672 14.999999999999998 593 84 20 135 20 533 269 906 799 13.999999999999998 167 86 55 723 35 34 134 32 465 142 65 58 623 55 442 56 265 26 89 284 124 471 55 65 1335 1219 595 201 80 40 617 10.999999999999998 220 38 13.000000000000002 655 10.999999999999998 65 36 66 22 29 19 196 21 323 9.9999999999999982 28 46 166 45 91 42 41 33 278 15.999999999999998 23 57 321 82 214 20 17 41 23 46 9.9999999999999982 12.999999999999998 108 22 11.999999999999998 104 27 44 202 42
